digraph Tree {
node [shape=box, style="filled, rounded", color="black", fontname="helvetica"] ;
edge [fontname="helvetica"] ;
0 [label="alcohol <= 10.62\ngini = 0.68\nsamples = 3918\nvalue = [18, 137, 1164, 1759, 693, 142, 5]\nclass = l", fillcolor="#d4f9f9"] ;
1 [label="volatile acidity <= 0.24\ngini = 0.62\nsamples = 2287\nvalue = [11, 100, 974, 994, 180, 27, 1]\nclass = l", fillcolor="#fcffff"] ;
0 -> 1 [labeldistance=2.5, labelangle=45, headlabel="True"] ;
2 [label="alcohol <= 8.85\ngini = 0.61\nsamples = 839\nvalue = [4, 17, 203, 465, 127, 23, 0]\nclass = l", fillcolor="#adf4f3"] ;
1 -> 2 ;
3 [label="fixed acidity <= 7.25\ngini = 0.73\nsamples = 75\nvalue = [1, 0, 25, 22, 17, 10, 0]\nclass = a", fillcolor="#f4fef5"] ;
2 -> 3 ;
4 [label="density <= 1.0\ngini = 0.56\nsamples = 44\nvalue = [1, 0, 21, 20, 1, 1, 0]\nclass = a", fillcolor="#f7fef8"] ;
3 -> 4 ;
5 [label="residual sugar <= 16.75\ngini = 0.52\nsamples = 28\nvalue = [1, 0, 7, 18, 1, 1, 0]\nclass = l", fillcolor="#97f1f0"] ;
4 -> 5 ;
6 [label="fixed acidity <= 6.6\ngini = 0.65\nsamples = 17\nvalue = [1, 0, 7, 7, 1, 1, 0]\nclass = a", fillcolor="#ffffff"] ;
5 -> 6 ;
7 [label="pH <= 3.01\ngini = 0.58\nsamples = 12\nvalue = [1, 0, 7, 3, 1, 0, 0]\nclass = a", fillcolor="#a7f3b0"] ;
6 -> 7 ;
8 [label="gini = 0.0\nsamples = 2\nvalue = [0, 0, 0, 2, 0, 0, 0]\nclass = l", fillcolor="#39e5e2"] ;
7 -> 8 ;
9 [label="pH <= 3.41\ngini = 0.48\nsamples = 10\nvalue = [1, 0, 7, 1, 1, 0, 0]\nclass = a", fillcolor="#7bee88"] ;
7 -> 9 ;
10 [label="free sulfur dioxide <= 22.0\ngini = 0.22\nsamples = 8\nvalue = [0, 0, 7, 0, 1, 0, 0]\nclass = a", fillcolor="#55e966"] ;
9 -> 10 ;
11 [label="gini = 0.0\nsamples = 1\nvalue = [0, 0, 0, 0, 1, 0, 0]\nclass = i", fillcolor="#3956e5"] ;
10 -> 11 ;
12 [label="gini = 0.0\nsamples = 7\nvalue = [0, 0, 7, 0, 0, 0, 0]\nclass = a", fillcolor="#39e54d"] ;
10 -> 12 ;
13 [label="total sulfur dioxide <= 154.5\ngini = 0.5\nsamples = 2\nvalue = [1, 0, 0, 1, 0, 0, 0]\nclass = q", fillcolor="#ffffff"] ;
9 -> 13 ;
14 [label="gini = 0.0\nsamples = 1\nvalue = [0, 0, 0, 1, 0, 0, 0]\nclass = l", fillcolor="#39e5e2"] ;
13 -> 14 ;
15 [label="gini = 0.0\nsamples = 1\nvalue = [1, 0, 0, 0, 0, 0, 0]\nclass = q", fillcolor="#e58139"] ;
13 -> 15 ;
16 [label="citric acid <= 0.28\ngini = 0.32\nsamples = 5\nvalue = [0, 0, 0, 4, 0, 1, 0]\nclass = l", fillcolor="#6aece9"] ;
6 -> 16 ;
17 [label="gini = 0.0\nsamples = 1\nvalue = [0, 0, 0, 0, 0, 1, 0]\nclass = t", fillcolor="#b139e5"] ;
16 -> 17 ;
18 [label="gini = 0.0\nsamples = 4\nvalue = [0, 0, 0, 4, 0, 0, 0]\nclass = l", fillcolor="#39e5e2"] ;
16 -> 18 ;
19 [label="gini = 0.0\nsamples = 11\nvalue = [0, 0, 0, 11, 0, 0, 0]\nclass = l", fillcolor="#39e5e2"] ;
5 -> 19 ;
20 [label="volatile acidity <= 0.2\ngini = 0.22\nsamples = 16\nvalue = [0, 0, 14, 2, 0, 0, 0]\nclass = a", fillcolor="#55e966"] ;
4 -> 20 ;
21 [label="gini = 0.0\nsamples = 2\nvalue = [0, 0, 0, 2, 0, 0, 0]\nclass = l", fillcolor="#39e5e2"] ;
20 -> 21 ;
22 [label="gini = 0.0\nsamples = 14\nvalue = [0, 0, 14, 0, 0, 0, 0]\nclass = a", fillcolor="#39e54d"] ;
20 -> 22 ;
23 [label="free sulfur dioxide <= 36.0\ngini = 0.63\nsamples = 31\nvalue = [0, 0, 4, 2, 16, 9, 0]\nclass = i", fillcolor="#c0c9f7"] ;
3 -> 23 ;
24 [label="gini = 0.0\nsamples = 14\nvalue = [0, 0, 0, 0, 14, 0, 0]\nclass = i", fillcolor="#3956e5"] ;
23 -> 24 ;
25 [label="volatile acidity <= 0.2\ngini = 0.64\nsamples = 17\nvalue = [0, 0, 4, 2, 2, 9, 0]\nclass = t", fillcolor="#e1b3f5"] ;
23 -> 25 ;
26 [label="gini = 0.0\nsamples = 9\nvalue = [0, 0, 0, 0, 0, 9, 0]\nclass = t", fillcolor="#b139e5"] ;
25 -> 26 ;
27 [label="total sulfur dioxide <= 148.0\ngini = 0.62\nsamples = 8\nvalue = [0, 0, 4, 2, 2, 0, 0]\nclass = a", fillcolor="#bdf6c4"] ;
25 -> 27 ;
28 [label="gini = 0.0\nsamples = 4\nvalue = [0, 0, 4, 0, 0, 0, 0]\nclass = a", fillcolor="#39e54d"] ;
27 -> 28 ;
29 [label="total sulfur dioxide <= 173.5\ngini = 0.5\nsamples = 4\nvalue = [0, 0, 0, 2, 2, 0, 0]\nclass = l", fillcolor="#ffffff"] ;
27 -> 29 ;
30 [label="gini = 0.0\nsamples = 2\nvalue = [0, 0, 0, 0, 2, 0, 0]\nclass = i", fillcolor="#3956e5"] ;
29 -> 30 ;
31 [label="gini = 0.0\nsamples = 2\nvalue = [0, 0, 0, 2, 0, 0, 0]\nclass = l", fillcolor="#39e5e2"] ;
29 -> 31 ;
32 [label="free sulfur dioxide <= 26.5\ngini = 0.59\nsamples = 764\nvalue = [3, 17, 178, 443, 110, 13, 0]\nclass = l", fillcolor="#a5f3f2"] ;
2 -> 32 ;
33 [label="residual sugar <= 9.45\ngini = 0.61\nsamples = 227\nvalue = [2, 11, 79, 115, 17, 3, 0]\nclass = l", fillcolor="#cff9f8"] ;
32 -> 33 ;
34 [label="alcohol <= 10.15\ngini = 0.61\nsamples = 193\nvalue = [1, 10, 77, 92, 10, 3, 0]\nclass = l", fillcolor="#e5fcfb"] ;
33 -> 34 ;
35 [label="residual sugar <= 2.45\ngini = 0.56\nsamples = 113\nvalue = [1, 4, 60, 45, 3, 0, 0]\nclass = a", fillcolor="#d3f9d8"] ;
34 -> 35 ;
36 [label="volatile acidity <= 0.21\ngini = 0.53\nsamples = 63\nvalue = [1, 4, 40, 16, 2, 0, 0]\nclass = a", fillcolor="#9af2a4"] ;
35 -> 36 ;
37 [label="density <= 0.99\ngini = 0.47\nsamples = 54\nvalue = [1, 3, 38, 10, 2, 0, 0]\nclass = a", fillcolor="#81ee8e"] ;
36 -> 37 ;
38 [label="alcohol <= 9.95\ngini = 0.63\nsamples = 19\nvalue = [0, 1, 9, 7, 2, 0, 0]\nclass = a", fillcolor="#defbe1"] ;
37 -> 38 ;
39 [label="chlorides <= 0.04\ngini = 0.38\nsamples = 12\nvalue = [0, 0, 9, 3, 0, 0, 0]\nclass = a", fillcolor="#7bee88"] ;
38 -> 39 ;
40 [label="gini = 0.0\nsamples = 6\nvalue = [0, 0, 6, 0, 0, 0, 0]\nclass = a", fillcolor="#39e54d"] ;
39 -> 40 ;
41 [label="chlorides <= 0.04\ngini = 0.5\nsamples = 6\nvalue = [0, 0, 3, 3, 0, 0, 0]\nclass = a", fillcolor="#ffffff"] ;
39 -> 41 ;
42 [label="gini = 0.0\nsamples = 2\nvalue = [0, 0, 0, 2, 0, 0, 0]\nclass = l", fillcolor="#39e5e2"] ;
41 -> 42 ;
43 [label="free sulfur dioxide <= 9.5\ngini = 0.38\nsamples = 4\nvalue = [0, 0, 3, 1, 0, 0, 0]\nclass = a", fillcolor="#7bee88"] ;
41 -> 43 ;
44 [label="gini = 0.0\nsamples = 1\nvalue = [0, 0, 0, 1, 0, 0, 0]\nclass = l", fillcolor="#39e5e2"] ;
43 -> 44 ;
45 [label="gini = 0.0\nsamples = 3\nvalue = [0, 0, 3, 0, 0, 0, 0]\nclass = a", fillcolor="#39e54d"] ;
43 -> 45 ;
46 [label="pH <= 3.18\ngini = 0.57\nsamples = 7\nvalue = [0, 1, 0, 4, 2, 0, 0]\nclass = l", fillcolor="#b0f5f3"] ;
38 -> 46 ;
47 [label="fixed acidity <= 6.45\ngini = 0.44\nsamples = 3\nvalue = [0, 1, 0, 0, 2, 0, 0]\nclass = i", fillcolor="#9caaf2"] ;
46 -> 47 ;
48 [label="gini = 0.0\nsamples = 1\nvalue = [0, 1, 0, 0, 0, 0, 0]\nclass = u", fillcolor="#b7e539"] ;
47 -> 48 ;
49 [label="gini = 0.0\nsamples = 2\nvalue = [0, 0, 0, 0, 2, 0, 0]\nclass = i", fillcolor="#3956e5"] ;
47 -> 49 ;
50 [label="gini = 0.0\nsamples = 4\nvalue = [0, 0, 0, 4, 0, 0, 0]\nclass = l", fillcolor="#39e5e2"] ;
46 -> 50 ;
51 [label="fixed acidity <= 10.05\ngini = 0.3\nsamples = 35\nvalue = [1, 2, 29, 3, 0, 0, 0]\nclass = a", fillcolor="#5eea6e"] ;
37 -> 51 ;
52 [label="citric acid <= 0.21\ngini = 0.26\nsamples = 34\nvalue = [0, 2, 29, 3, 0, 0, 0]\nclass = a", fillcolor="#59e96a"] ;
51 -> 52 ;
53 [label="gini = 0.0\nsamples = 1\nvalue = [0, 0, 0, 1, 0, 0, 0]\nclass = l", fillcolor="#39e5e2"] ;
52 -> 53 ;
54 [label="total sulfur dioxide <= 181.5\ngini = 0.22\nsamples = 33\nvalue = [0, 2, 29, 2, 0, 0, 0]\nclass = a", fillcolor="#53e864"] ;
52 -> 54 ;
55 [label="residual sugar <= 1.85\ngini = 0.17\nsamples = 32\nvalue = [0, 2, 29, 1, 0, 0, 0]\nclass = a", fillcolor="#4de85f"] ;
54 -> 55 ;
56 [label="chlorides <= 0.03\ngini = 0.07\nsamples = 26\nvalue = [0, 0, 25, 1, 0, 0, 0]\nclass = a", fillcolor="#41e654"] ;
55 -> 56 ;
57 [label="total sulfur dioxide <= 94.5\ngini = 0.28\nsamples = 6\nvalue = [0, 0, 5, 1, 0, 0, 0]\nclass = a", fillcolor="#61ea71"] ;
56 -> 57 ;
58 [label="gini = 0.0\nsamples = 5\nvalue = [0, 0, 5, 0, 0, 0, 0]\nclass = a", fillcolor="#39e54d"] ;
57 -> 58 ;
59 [label="gini = 0.0\nsamples = 1\nvalue = [0, 0, 0, 1, 0, 0, 0]\nclass = l", fillcolor="#39e5e2"] ;
57 -> 59 ;
60 [label="gini = 0.0\nsamples = 20\nvalue = [0, 0, 20, 0, 0, 0, 0]\nclass = a", fillcolor="#39e54d"] ;
56 -> 60 ;
61 [label="residual sugar <= 2.05\ngini = 0.44\nsamples = 6\nvalue = [0, 2, 4, 0, 0, 0, 0]\nclass = a", fillcolor="#9cf2a6"] ;
55 -> 61 ;
62 [label="gini = 0.0\nsamples = 2\nvalue = [0, 2, 0, 0, 0, 0, 0]\nclass = u", fillcolor="#b7e539"] ;
61 -> 62 ;
63 [label="gini = 0.0\nsamples = 4\nvalue = [0, 0, 4, 0, 0, 0, 0]\nclass = a", fillcolor="#39e54d"] ;
61 -> 63 ;
64 [label="gini = 0.0\nsamples = 1\nvalue = [0, 0, 0, 1, 0, 0, 0]\nclass = l", fillcolor="#39e5e2"] ;
54 -> 64 ;
65 [label="gini = 0.0\nsamples = 1\nvalue = [1, 0, 0, 0, 0, 0, 0]\nclass = q", fillcolor="#e58139"] ;
51 -> 65 ;
66 [label="fixed acidity <= 8.9\ngini = 0.49\nsamples = 9\nvalue = [0, 1, 2, 6, 0, 0, 0]\nclass = l", fillcolor="#8ef0ee"] ;
36 -> 66 ;
67 [label="citric acid <= 0.21\ngini = 0.38\nsamples = 8\nvalue = [0, 0, 2, 6, 0, 0, 0]\nclass = l", fillcolor="#7beeec"] ;
66 -> 67 ;
68 [label="gini = 0.0\nsamples = 1\nvalue = [0, 0, 1, 0, 0, 0, 0]\nclass = a", fillcolor="#39e54d"] ;
67 -> 68 ;
69 [label="total sulfur dioxide <= 88.5\ngini = 0.24\nsamples = 7\nvalue = [0, 0, 1, 6, 0, 0, 0]\nclass = l", fillcolor="#5ae9e7"] ;
67 -> 69 ;
70 [label="chlorides <= 0.05\ngini = 0.5\nsamples = 2\nvalue = [0, 0, 1, 1, 0, 0, 0]\nclass = a", fillcolor="#ffffff"] ;
69 -> 70 ;
71 [label="gini = 0.0\nsamples = 1\nvalue = [0, 0, 1, 0, 0, 0, 0]\nclass = a", fillcolor="#39e54d"] ;
70 -> 71 ;
72 [label="gini = 0.0\nsamples = 1\nvalue = [0, 0, 0, 1, 0, 0, 0]\nclass = l", fillcolor="#39e5e2"] ;
70 -> 72 ;
73 [label="gini = 0.0\nsamples = 5\nvalue = [0, 0, 0, 5, 0, 0, 0]\nclass = l", fillcolor="#39e5e2"] ;
69 -> 73 ;
74 [label="gini = 0.0\nsamples = 1\nvalue = [0, 1, 0, 0, 0, 0, 0]\nclass = u", fillcolor="#b7e539"] ;
66 -> 74 ;
75 [label="chlorides <= 0.06\ngini = 0.5\nsamples = 50\nvalue = [0, 0, 20, 29, 1, 0, 0]\nclass = l", fillcolor="#c4f7f6"] ;
35 -> 75 ;
76 [label="chlorides <= 0.04\ngini = 0.47\nsamples = 45\nvalue = [0, 0, 15, 29, 1, 0, 0]\nclass = l", fillcolor="#a3f3f1"] ;
75 -> 76 ;
77 [label="total sulfur dioxide <= 101.5\ngini = 0.38\nsamples = 8\nvalue = [0, 0, 6, 2, 0, 0, 0]\nclass = a", fillcolor="#7bee88"] ;
76 -> 77 ;
78 [label="free sulfur dioxide <= 19.5\ngini = 0.44\nsamples = 3\nvalue = [0, 0, 1, 2, 0, 0, 0]\nclass = l", fillcolor="#9cf2f0"] ;
77 -> 78 ;
79 [label="gini = 0.0\nsamples = 1\nvalue = [0, 0, 1, 0, 0, 0, 0]\nclass = a", fillcolor="#39e54d"] ;
78 -> 79 ;
80 [label="gini = 0.0\nsamples = 2\nvalue = [0, 0, 0, 2, 0, 0, 0]\nclass = l", fillcolor="#39e5e2"] ;
78 -> 80 ;
81 [label="gini = 0.0\nsamples = 5\nvalue = [0, 0, 5, 0, 0, 0, 0]\nclass = a", fillcolor="#39e54d"] ;
77 -> 81 ;
82 [label="residual sugar <= 7.95\ngini = 0.41\nsamples = 37\nvalue = [0, 0, 9, 27, 1, 0, 0]\nclass = l", fillcolor="#80eeec"] ;
76 -> 82 ;
83 [label="pH <= 3.31\ngini = 0.31\nsamples = 32\nvalue = [0, 0, 5, 26, 1, 0, 0]\nclass = l", fillcolor="#65ebe8"] ;
82 -> 83 ;
84 [label="residual sugar <= 2.75\ngini = 0.14\nsamples = 26\nvalue = [0, 0, 2, 24, 0, 0, 0]\nclass = l", fillcolor="#49e7e4"] ;
83 -> 84 ;
85 [label="gini = 0.0\nsamples = 1\nvalue = [0, 0, 1, 0, 0, 0, 0]\nclass = a", fillcolor="#39e54d"] ;
84 -> 85 ;
86 [label="citric acid <= 0.36\ngini = 0.08\nsamples = 25\nvalue = [0, 0, 1, 24, 0, 0, 0]\nclass = l", fillcolor="#41e6e3"] ;
84 -> 86 ;
87 [label="gini = 0.0\nsamples = 22\nvalue = [0, 0, 0, 22, 0, 0, 0]\nclass = l", fillcolor="#39e5e2"] ;
86 -> 87 ;
88 [label="alcohol <= 9.6\ngini = 0.44\nsamples = 3\nvalue = [0, 0, 1, 2, 0, 0, 0]\nclass = l", fillcolor="#9cf2f0"] ;
86 -> 88 ;
89 [label="gini = 0.0\nsamples = 1\nvalue = [0, 0, 1, 0, 0, 0, 0]\nclass = a", fillcolor="#39e54d"] ;
88 -> 89 ;
90 [label="gini = 0.0\nsamples = 2\nvalue = [0, 0, 0, 2, 0, 0, 0]\nclass = l", fillcolor="#39e5e2"] ;
88 -> 90 ;
91 [label="total sulfur dioxide <= 114.5\ngini = 0.61\nsamples = 6\nvalue = [0, 0, 3, 2, 1, 0, 0]\nclass = a", fillcolor="#cef8d2"] ;
83 -> 91 ;
92 [label="residual sugar <= 3.7\ngini = 0.38\nsamples = 4\nvalue = [0, 0, 3, 0, 1, 0, 0]\nclass = a", fillcolor="#7bee88"] ;
91 -> 92 ;
93 [label="gini = 0.0\nsamples = 1\nvalue = [0, 0, 0, 0, 1, 0, 0]\nclass = i", fillcolor="#3956e5"] ;
92 -> 93 ;
94 [label="gini = 0.0\nsamples = 3\nvalue = [0, 0, 3, 0, 0, 0, 0]\nclass = a", fillcolor="#39e54d"] ;
92 -> 94 ;
95 [label="gini = 0.0\nsamples = 2\nvalue = [0, 0, 0, 2, 0, 0, 0]\nclass = l", fillcolor="#39e5e2"] ;
91 -> 95 ;
96 [label="sulphates <= 0.49\ngini = 0.32\nsamples = 5\nvalue = [0, 0, 4, 1, 0, 0, 0]\nclass = a", fillcolor="#6aec79"] ;
82 -> 96 ;
97 [label="gini = 0.0\nsamples = 1\nvalue = [0, 0, 0, 1, 0, 0, 0]\nclass = l", fillcolor="#39e5e2"] ;
96 -> 97 ;
98 [label="gini = 0.0\nsamples = 4\nvalue = [0, 0, 4, 0, 0, 0, 0]\nclass = a", fillcolor="#39e54d"] ;
96 -> 98 ;
99 [label="gini = 0.0\nsamples = 5\nvalue = [0, 0, 5, 0, 0, 0, 0]\nclass = a", fillcolor="#39e54d"] ;
75 -> 99 ;
100 [label="chlorides <= 0.04\ngini = 0.6\nsamples = 80\nvalue = [0, 6, 17, 47, 7, 3, 0]\nclass = l", fillcolor="#a1f3f1"] ;
34 -> 100 ;
101 [label="density <= 0.99\ngini = 0.69\nsamples = 55\nvalue = [0, 6, 15, 25, 6, 3, 0]\nclass = l", fillcolor="#cef8f8"] ;
100 -> 101 ;
102 [label="gini = 0.0\nsamples = 3\nvalue = [0, 0, 3, 0, 0, 0, 0]\nclass = a", fillcolor="#39e54d"] ;
101 -> 102 ;
103 [label="total sulfur dioxide <= 127.5\ngini = 0.69\nsamples = 52\nvalue = [0, 6, 12, 25, 6, 3, 0]\nclass = l", fillcolor="#bff7f6"] ;
101 -> 103 ;
104 [label="residual sugar <= 2.45\ngini = 0.67\nsamples = 45\nvalue = [0, 6, 7, 23, 6, 3, 0]\nclass = l", fillcolor="#acf4f3"] ;
103 -> 104 ;
105 [label="fixed acidity <= 8.55\ngini = 0.51\nsamples = 28\nvalue = [0, 3, 3, 19, 3, 0, 0]\nclass = l", fillcolor="#80eeec"] ;
104 -> 105 ;
106 [label="free sulfur dioxide <= 15.5\ngini = 0.36\nsamples = 24\nvalue = [0, 2, 1, 19, 2, 0, 0]\nclass = l", fillcolor="#66ebe9"] ;
105 -> 106 ;
107 [label="sulphates <= 0.39\ngini = 0.72\nsamples = 6\nvalue = [0, 2, 1, 2, 1, 0, 0]\nclass = u", fillcolor="#ffffff"] ;
106 -> 107 ;
108 [label="gini = 0.0\nsamples = 2\nvalue = [0, 2, 0, 0, 0, 0, 0]\nclass = u", fillcolor="#b7e539"] ;
107 -> 108 ;
109 [label="chlorides <= 0.04\ngini = 0.62\nsamples = 4\nvalue = [0, 0, 1, 2, 1, 0, 0]\nclass = l", fillcolor="#bdf6f5"] ;
107 -> 109 ;
110 [label="fixed acidity <= 6.95\ngini = 0.5\nsamples = 2\nvalue = [0, 0, 1, 0, 1, 0, 0]\nclass = a", fillcolor="#ffffff"] ;
109 -> 110 ;
111 [label="gini = 0.0\nsamples = 1\nvalue = [0, 0, 0, 0, 1, 0, 0]\nclass = i", fillcolor="#3956e5"] ;
110 -> 111 ;
112 [label="gini = 0.0\nsamples = 1\nvalue = [0, 0, 1, 0, 0, 0, 0]\nclass = a", fillcolor="#39e54d"] ;
110 -> 112 ;
113 [label="gini = 0.0\nsamples = 2\nvalue = [0, 0, 0, 2, 0, 0, 0]\nclass = l", fillcolor="#39e5e2"] ;
109 -> 113 ;
114 [label="residual sugar <= 1.0\ngini = 0.1\nsamples = 18\nvalue = [0, 0, 0, 17, 1, 0, 0]\nclass = l", fillcolor="#45e7e4"] ;
106 -> 114 ;
115 [label="gini = 0.0\nsamples = 1\nvalue = [0, 0, 0, 0, 1, 0, 0]\nclass = i", fillcolor="#3956e5"] ;
114 -> 115 ;
116 [label="gini = 0.0\nsamples = 17\nvalue = [0, 0, 0, 17, 0, 0, 0]\nclass = l", fillcolor="#39e5e2"] ;
114 -> 116 ;
117 [label="alcohol <= 10.3\ngini = 0.62\nsamples = 4\nvalue = [0, 1, 2, 0, 1, 0, 0]\nclass = a", fillcolor="#bdf6c4"] ;
105 -> 117 ;
118 [label="sulphates <= 0.42\ngini = 0.5\nsamples = 2\nvalue = [0, 1, 0, 0, 1, 0, 0]\nclass = u", fillcolor="#ffffff"] ;
117 -> 118 ;
119 [label="gini = 0.0\nsamples = 1\nvalue = [0, 0, 0, 0, 1, 0, 0]\nclass = i", fillcolor="#3956e5"] ;
118 -> 119 ;
120 [label="gini = 0.0\nsamples = 1\nvalue = [0, 1, 0, 0, 0, 0, 0]\nclass = u", fillcolor="#b7e539"] ;
118 -> 120 ;
121 [label="gini = 0.0\nsamples = 2\nvalue = [0, 0, 2, 0, 0, 0, 0]\nclass = a", fillcolor="#39e54d"] ;
117 -> 121 ;
122 [label="chlorides <= 0.04\ngini = 0.8\nsamples = 17\nvalue = [0, 3, 4, 4, 3, 3, 0]\nclass = a", fillcolor="#ffffff"] ;
104 -> 122 ;
123 [label="total sulfur dioxide <= 109.0\ngini = 0.69\nsamples = 8\nvalue = [0, 3, 0, 1, 1, 3, 0]\nclass = u", fillcolor="#ffffff"] ;
122 -> 123 ;
124 [label="gini = 0.0\nsamples = 3\nvalue = [0, 0, 0, 0, 0, 3, 0]\nclass = t", fillcolor="#b139e5"] ;
123 -> 124 ;
125 [label="sulphates <= 0.49\ngini = 0.56\nsamples = 5\nvalue = [0, 3, 0, 1, 1, 0, 0]\nclass = u", fillcolor="#dbf29c"] ;
123 -> 125 ;
126 [label="total sulfur dioxide <= 122.5\ngini = 0.5\nsamples = 2\nvalue = [0, 0, 0, 1, 1, 0, 0]\nclass = l", fillcolor="#ffffff"] ;
125 -> 126 ;
127 [label="gini = 0.0\nsamples = 1\nvalue = [0, 0, 0, 1, 0, 0, 0]\nclass = l", fillcolor="#39e5e2"] ;
126 -> 127 ;
128 [label="gini = 0.0\nsamples = 1\nvalue = [0, 0, 0, 0, 1, 0, 0]\nclass = i", fillcolor="#3956e5"] ;
126 -> 128 ;
129 [label="gini = 0.0\nsamples = 3\nvalue = [0, 3, 0, 0, 0, 0, 0]\nclass = u", fillcolor="#b7e539"] ;
125 -> 129 ;
130 [label="total sulfur dioxide <= 109.5\ngini = 0.64\nsamples = 9\nvalue = [0, 0, 4, 3, 2, 0, 0]\nclass = a", fillcolor="#defbe1"] ;
122 -> 130 ;
131 [label="free sulfur dioxide <= 17.0\ngini = 0.61\nsamples = 6\nvalue = [0, 0, 1, 3, 2, 0, 0]\nclass = l", fillcolor="#cef8f8"] ;
130 -> 131 ;
132 [label="gini = 0.0\nsamples = 3\nvalue = [0, 0, 0, 3, 0, 0, 0]\nclass = l", fillcolor="#39e5e2"] ;
131 -> 132 ;
133 [label="citric acid <= 0.41\ngini = 0.44\nsamples = 3\nvalue = [0, 0, 1, 0, 2, 0, 0]\nclass = i", fillcolor="#9caaf2"] ;
131 -> 133 ;
134 [label="gini = 0.0\nsamples = 2\nvalue = [0, 0, 0, 0, 2, 0, 0]\nclass = i", fillcolor="#3956e5"] ;
133 -> 134 ;
135 [label="gini = 0.0\nsamples = 1\nvalue = [0, 0, 1, 0, 0, 0, 0]\nclass = a", fillcolor="#39e54d"] ;
133 -> 135 ;
136 [label="gini = 0.0\nsamples = 3\nvalue = [0, 0, 3, 0, 0, 0, 0]\nclass = a", fillcolor="#39e54d"] ;
130 -> 136 ;
137 [label="citric acid <= 0.36\ngini = 0.41\nsamples = 7\nvalue = [0, 0, 5, 2, 0, 0, 0]\nclass = a", fillcolor="#88ef94"] ;
103 -> 137 ;
138 [label="gini = 0.0\nsamples = 4\nvalue = [0, 0, 4, 0, 0, 0, 0]\nclass = a", fillcolor="#39e54d"] ;
137 -> 138 ;
139 [label="chlorides <= 0.04\ngini = 0.44\nsamples = 3\nvalue = [0, 0, 1, 2, 0, 0, 0]\nclass = l", fillcolor="#9cf2f0"] ;
137 -> 139 ;
140 [label="gini = 0.0\nsamples = 2\nvalue = [0, 0, 0, 2, 0, 0, 0]\nclass = l", fillcolor="#39e5e2"] ;
139 -> 140 ;
141 [label="gini = 0.0\nsamples = 1\nvalue = [0, 0, 1, 0, 0, 0, 0]\nclass = a", fillcolor="#39e54d"] ;
139 -> 141 ;
142 [label="citric acid <= 0.24\ngini = 0.22\nsamples = 25\nvalue = [0, 0, 2, 22, 1, 0, 0]\nclass = l", fillcolor="#53e8e6"] ;
100 -> 142 ;
143 [label="fixed acidity <= 6.85\ngini = 0.5\nsamples = 2\nvalue = [0, 0, 0, 1, 1, 0, 0]\nclass = l", fillcolor="#ffffff"] ;
142 -> 143 ;
144 [label="gini = 0.0\nsamples = 1\nvalue = [0, 0, 0, 1, 0, 0, 0]\nclass = l", fillcolor="#39e5e2"] ;
143 -> 144 ;
145 [label="gini = 0.0\nsamples = 1\nvalue = [0, 0, 0, 0, 1, 0, 0]\nclass = i", fillcolor="#3956e5"] ;
143 -> 145 ;
146 [label="free sulfur dioxide <= 23.5\ngini = 0.16\nsamples = 23\nvalue = [0, 0, 2, 21, 0, 0, 0]\nclass = l", fillcolor="#4ce7e5"] ;
142 -> 146 ;
147 [label="gini = 0.0\nsamples = 16\nvalue = [0, 0, 0, 16, 0, 0, 0]\nclass = l", fillcolor="#39e5e2"] ;
146 -> 147 ;
148 [label="sulphates <= 0.53\ngini = 0.41\nsamples = 7\nvalue = [0, 0, 2, 5, 0, 0, 0]\nclass = l", fillcolor="#88efee"] ;
146 -> 148 ;
149 [label="volatile acidity <= 0.2\ngini = 0.44\nsamples = 3\nvalue = [0, 0, 2, 1, 0, 0, 0]\nclass = a", fillcolor="#9cf2a6"] ;
148 -> 149 ;
150 [label="gini = 0.0\nsamples = 2\nvalue = [0, 0, 2, 0, 0, 0, 0]\nclass = a", fillcolor="#39e54d"] ;
149 -> 150 ;
151 [label="gini = 0.0\nsamples = 1\nvalue = [0, 0, 0, 1, 0, 0, 0]\nclass = l", fillcolor="#39e5e2"] ;
149 -> 151 ;
152 [label="gini = 0.0\nsamples = 4\nvalue = [0, 0, 0, 4, 0, 0, 0]\nclass = l", fillcolor="#39e5e2"] ;
148 -> 152 ;
153 [label="chlorides <= 0.06\ngini = 0.49\nsamples = 34\nvalue = [1, 1, 2, 23, 7, 0, 0]\nclass = l", fillcolor="#8af0ee"] ;
33 -> 153 ;
154 [label="density <= 0.99\ngini = 0.32\nsamples = 28\nvalue = [1, 1, 2, 23, 1, 0, 0]\nclass = l", fillcolor="#5feae8"] ;
153 -> 154 ;
155 [label="gini = 0.0\nsamples = 1\nvalue = [0, 0, 0, 0, 1, 0, 0]\nclass = i", fillcolor="#3956e5"] ;
154 -> 155 ;
156 [label="density <= 1.0\ngini = 0.27\nsamples = 27\nvalue = [1, 1, 2, 23, 0, 0, 0]\nclass = l", fillcolor="#59e9e7"] ;
154 -> 156 ;
157 [label="sulphates <= 0.36\ngini = 0.21\nsamples = 26\nvalue = [0, 1, 2, 23, 0, 0, 0]\nclass = l", fillcolor="#52e8e6"] ;
156 -> 157 ;
158 [label="gini = 0.0\nsamples = 1\nvalue = [0, 0, 1, 0, 0, 0, 0]\nclass = a", fillcolor="#39e54d"] ;
157 -> 158 ;
159 [label="pH <= 3.43\ngini = 0.15\nsamples = 25\nvalue = [0, 1, 1, 23, 0, 0, 0]\nclass = l", fillcolor="#49e7e4"] ;
157 -> 159 ;
160 [label="residual sugar <= 9.65\ngini = 0.08\nsamples = 24\nvalue = [0, 1, 0, 23, 0, 0, 0]\nclass = l", fillcolor="#42e6e3"] ;
159 -> 160 ;
161 [label="volatile acidity <= 0.21\ngini = 0.5\nsamples = 2\nvalue = [0, 1, 0, 1, 0, 0, 0]\nclass = u", fillcolor="#ffffff"] ;
160 -> 161 ;
162 [label="gini = 0.0\nsamples = 1\nvalue = [0, 0, 0, 1, 0, 0, 0]\nclass = l", fillcolor="#39e5e2"] ;
161 -> 162 ;
163 [label="gini = 0.0\nsamples = 1\nvalue = [0, 1, 0, 0, 0, 0, 0]\nclass = u", fillcolor="#b7e539"] ;
161 -> 163 ;
164 [label="gini = 0.0\nsamples = 22\nvalue = [0, 0, 0, 22, 0, 0, 0]\nclass = l", fillcolor="#39e5e2"] ;
160 -> 164 ;
165 [label="gini = 0.0\nsamples = 1\nvalue = [0, 0, 1, 0, 0, 0, 0]\nclass = a", fillcolor="#39e54d"] ;
159 -> 165 ;
166 [label="gini = 0.0\nsamples = 1\nvalue = [1, 0, 0, 0, 0, 0, 0]\nclass = q", fillcolor="#e58139"] ;
156 -> 166 ;
167 [label="gini = 0.0\nsamples = 6\nvalue = [0, 0, 0, 0, 6, 0, 0]\nclass = i", fillcolor="#3956e5"] ;
153 -> 167 ;
168 [label="sulphates <= 0.9\ngini = 0.56\nsamples = 537\nvalue = [1, 6, 99, 328, 93, 10, 0]\nclass = l", fillcolor="#97f1f0"] ;
32 -> 168 ;
169 [label="citric acid <= 0.55\ngini = 0.56\nsamples = 533\nvalue = [1, 6, 99, 328, 89, 10, 0]\nclass = l", fillcolor="#97f1f0"] ;
168 -> 169 ;
170 [label="fixed acidity <= 5.85\ngini = 0.55\nsamples = 503\nvalue = [1, 6, 85, 316, 85, 10, 0]\nclass = l", fillcolor="#92f1ef"] ;
169 -> 170 ;
171 [label="sulphates <= 0.35\ngini = 0.2\nsamples = 37\nvalue = [0, 0, 3, 33, 0, 1, 0]\nclass = l", fillcolor="#50e8e5"] ;
170 -> 171 ;
172 [label="gini = 0.0\nsamples = 1\nvalue = [0, 0, 0, 0, 0, 1, 0]\nclass = t", fillcolor="#b139e5"] ;
171 -> 172 ;
173 [label="pH <= 3.71\ngini = 0.15\nsamples = 36\nvalue = [0, 0, 3, 33, 0, 0, 0]\nclass = l", fillcolor="#4be7e5"] ;
171 -> 173 ;
174 [label="total sulfur dioxide <= 147.0\ngini = 0.11\nsamples = 35\nvalue = [0, 0, 2, 33, 0, 0, 0]\nclass = l", fillcolor="#45e7e4"] ;
173 -> 174 ;
175 [label="gini = 0.0\nsamples = 30\nvalue = [0, 0, 0, 30, 0, 0, 0]\nclass = l", fillcolor="#39e5e2"] ;
174 -> 175 ;
176 [label="fixed acidity <= 5.4\ngini = 0.48\nsamples = 5\nvalue = [0, 0, 2, 3, 0, 0, 0]\nclass = l", fillcolor="#bdf6f5"] ;
174 -> 176 ;
177 [label="gini = 0.0\nsamples = 2\nvalue = [0, 0, 2, 0, 0, 0, 0]\nclass = a", fillcolor="#39e54d"] ;
176 -> 177 ;
178 [label="gini = 0.0\nsamples = 3\nvalue = [0, 0, 0, 3, 0, 0, 0]\nclass = l", fillcolor="#39e5e2"] ;
176 -> 178 ;
179 [label="gini = 0.0\nsamples = 1\nvalue = [0, 0, 1, 0, 0, 0, 0]\nclass = a", fillcolor="#39e54d"] ;
173 -> 179 ;
180 [label="residual sugar <= 14.65\ngini = 0.57\nsamples = 466\nvalue = [1, 6, 82, 283, 85, 9, 0]\nclass = l", fillcolor="#98f1f0"] ;
170 -> 180 ;
181 [label="total sulfur dioxide <= 142.5\ngini = 0.55\nsamples = 420\nvalue = [1, 6, 71, 265, 68, 9, 0]\nclass = l", fillcolor="#91f1ef"] ;
180 -> 181 ;
182 [label="sulphates <= 0.56\ngini = 0.61\nsamples = 165\nvalue = [0, 2, 30, 89, 42, 2, 0]\nclass = l", fillcolor="#b3f5f4"] ;
181 -> 182 ;
183 [label="residual sugar <= 11.3\ngini = 0.58\nsamples = 132\nvalue = [0, 2, 29, 78, 21, 2, 0]\nclass = l", fillcolor="#a1f3f1"] ;
182 -> 183 ;
184 [label="density <= 1.0\ngini = 0.61\nsamples = 118\nvalue = [0, 2, 29, 64, 21, 2, 0]\nclass = l", fillcolor="#b1f5f4"] ;
183 -> 184 ;
185 [label="residual sugar <= 1.35\ngini = 0.58\nsamples = 97\nvalue = [0, 2, 18, 57, 20, 0, 0]\nclass = l", fillcolor="#a0f3f1"] ;
184 -> 185 ;
186 [label="sulphates <= 0.38\ngini = 0.63\nsamples = 13\nvalue = [0, 2, 7, 3, 1, 0, 0]\nclass = a", fillcolor="#b0f5b8"] ;
185 -> 186 ;
187 [label="fixed acidity <= 7.95\ngini = 0.69\nsamples = 7\nvalue = [0, 2, 1, 3, 1, 0, 0]\nclass = l", fillcolor="#d7faf9"] ;
186 -> 187 ;
188 [label="pH <= 3.3\ngini = 0.38\nsamples = 4\nvalue = [0, 0, 0, 3, 1, 0, 0]\nclass = l", fillcolor="#7beeec"] ;
187 -> 188 ;
189 [label="gini = 0.0\nsamples = 3\nvalue = [0, 0, 0, 3, 0, 0, 0]\nclass = l", fillcolor="#39e5e2"] ;
188 -> 189 ;
190 [label="gini = 0.0\nsamples = 1\nvalue = [0, 0, 0, 0, 1, 0, 0]\nclass = i", fillcolor="#3956e5"] ;
188 -> 190 ;
191 [label="sulphates <= 0.33\ngini = 0.44\nsamples = 3\nvalue = [0, 2, 1, 0, 0, 0, 0]\nclass = u", fillcolor="#dbf29c"] ;
187 -> 191 ;
192 [label="gini = 0.0\nsamples = 1\nvalue = [0, 0, 1, 0, 0, 0, 0]\nclass = a", fillcolor="#39e54d"] ;
191 -> 192 ;
193 [label="gini = 0.0\nsamples = 2\nvalue = [0, 2, 0, 0, 0, 0, 0]\nclass = u", fillcolor="#b7e539"] ;
191 -> 193 ;
194 [label="gini = 0.0\nsamples = 6\nvalue = [0, 0, 6, 0, 0, 0, 0]\nclass = a", fillcolor="#39e54d"] ;
186 -> 194 ;
195 [label="citric acid <= 0.21\ngini = 0.52\nsamples = 84\nvalue = [0, 0, 11, 54, 19, 0, 0]\nclass = l", fillcolor="#94f1ef"] ;
185 -> 195 ;
196 [label="alcohol <= 9.95\ngini = 0.57\nsamples = 7\nvalue = [0, 0, 4, 1, 2, 0, 0]\nclass = a", fillcolor="#b0f5b8"] ;
195 -> 196 ;
197 [label="gini = 0.0\nsamples = 4\nvalue = [0, 0, 4, 0, 0, 0, 0]\nclass = a", fillcolor="#39e54d"] ;
196 -> 197 ;
198 [label="density <= 0.99\ngini = 0.44\nsamples = 3\nvalue = [0, 0, 0, 1, 2, 0, 0]\nclass = i", fillcolor="#9caaf2"] ;
196 -> 198 ;
199 [label="gini = 0.0\nsamples = 2\nvalue = [0, 0, 0, 0, 2, 0, 0]\nclass = i", fillcolor="#3956e5"] ;
198 -> 199 ;
200 [label="gini = 0.0\nsamples = 1\nvalue = [0, 0, 0, 1, 0, 0, 0]\nclass = l", fillcolor="#39e5e2"] ;
198 -> 200 ;
201 [label="fixed acidity <= 7.35\ngini = 0.47\nsamples = 77\nvalue = [0, 0, 7, 53, 17, 0, 0]\nclass = l", fillcolor="#88efee"] ;
195 -> 201 ;
202 [label="pH <= 3.32\ngini = 0.35\nsamples = 58\nvalue = [0, 0, 4, 46, 8, 0, 0]\nclass = l", fillcolor="#69ebe9"] ;
201 -> 202 ;
203 [label="alcohol <= 10.55\ngini = 0.23\nsamples = 40\nvalue = [0, 0, 3, 35, 2, 0, 0]\nclass = l", fillcolor="#54e9e6"] ;
202 -> 203 ;
204 [label="residual sugar <= 10.65\ngini = 0.15\nsamples = 37\nvalue = [0, 0, 1, 34, 2, 0, 0]\nclass = l", fillcolor="#4ae7e4"] ;
203 -> 204 ;
205 [label="fixed acidity <= 7.15\ngini = 0.11\nsamples = 36\nvalue = [0, 0, 1, 34, 1, 0, 0]\nclass = l", fillcolor="#44e6e4"] ;
204 -> 205 ;
206 [label="pH <= 3.24\ngini = 0.06\nsamples = 34\nvalue = [0, 0, 0, 33, 1, 0, 0]\nclass = l", fillcolor="#3fe6e3"] ;
205 -> 206 ;
207 [label="gini = 0.0\nsamples = 29\nvalue = [0, 0, 0, 29, 0, 0, 0]\nclass = l", fillcolor="#39e5e2"] ;
206 -> 207 ;
208 [label="residual sugar <= 1.55\ngini = 0.32\nsamples = 5\nvalue = [0, 0, 0, 4, 1, 0, 0]\nclass = l", fillcolor="#6aece9"] ;
206 -> 208 ;
209 [label="total sulfur dioxide <= 135.5\ngini = 0.5\nsamples = 2\nvalue = [0, 0, 0, 1, 1, 0, 0]\nclass = l", fillcolor="#ffffff"] ;
208 -> 209 ;
210 [label="gini = 0.0\nsamples = 1\nvalue = [0, 0, 0, 0, 1, 0, 0]\nclass = i", fillcolor="#3956e5"] ;
209 -> 210 ;
211 [label="gini = 0.0\nsamples = 1\nvalue = [0, 0, 0, 1, 0, 0, 0]\nclass = l", fillcolor="#39e5e2"] ;
209 -> 211 ;
212 [label="gini = 0.0\nsamples = 3\nvalue = [0, 0, 0, 3, 0, 0, 0]\nclass = l", fillcolor="#39e5e2"] ;
208 -> 212 ;
213 [label="free sulfur dioxide <= 30.0\ngini = 0.5\nsamples = 2\nvalue = [0, 0, 1, 1, 0, 0, 0]\nclass = a", fillcolor="#ffffff"] ;
205 -> 213 ;
214 [label="gini = 0.0\nsamples = 1\nvalue = [0, 0, 0, 1, 0, 0, 0]\nclass = l", fillcolor="#39e5e2"] ;
213 -> 214 ;
215 [label="gini = 0.0\nsamples = 1\nvalue = [0, 0, 1, 0, 0, 0, 0]\nclass = a", fillcolor="#39e54d"] ;
213 -> 215 ;
216 [label="gini = 0.0\nsamples = 1\nvalue = [0, 0, 0, 0, 1, 0, 0]\nclass = i", fillcolor="#3956e5"] ;
204 -> 216 ;
217 [label="density <= 0.99\ngini = 0.44\nsamples = 3\nvalue = [0, 0, 2, 1, 0, 0, 0]\nclass = a", fillcolor="#9cf2a6"] ;
203 -> 217 ;
218 [label="gini = 0.0\nsamples = 2\nvalue = [0, 0, 2, 0, 0, 0, 0]\nclass = a", fillcolor="#39e54d"] ;
217 -> 218 ;
219 [label="gini = 0.0\nsamples = 1\nvalue = [0, 0, 0, 1, 0, 0, 0]\nclass = l", fillcolor="#39e5e2"] ;
217 -> 219 ;
220 [label="fixed acidity <= 6.75\ngini = 0.51\nsamples = 18\nvalue = [0, 0, 1, 11, 6, 0, 0]\nclass = l", fillcolor="#acf4f3"] ;
202 -> 220 ;
221 [label="alcohol <= 9.95\ngini = 0.38\nsamples = 13\nvalue = [0, 0, 1, 10, 2, 0, 0]\nclass = l", fillcolor="#6fecea"] ;
220 -> 221 ;
222 [label="gini = 0.0\nsamples = 8\nvalue = [0, 0, 0, 8, 0, 0, 0]\nclass = l", fillcolor="#39e5e2"] ;
221 -> 222 ;
223 [label="density <= 0.99\ngini = 0.64\nsamples = 5\nvalue = [0, 0, 1, 2, 2, 0, 0]\nclass = l", fillcolor="#ffffff"] ;
221 -> 223 ;
224 [label="gini = 0.0\nsamples = 2\nvalue = [0, 0, 0, 0, 2, 0, 0]\nclass = i", fillcolor="#3956e5"] ;
223 -> 224 ;
225 [label="sulphates <= 0.4\ngini = 0.44\nsamples = 3\nvalue = [0, 0, 1, 2, 0, 0, 0]\nclass = l", fillcolor="#9cf2f0"] ;
223 -> 225 ;
226 [label="gini = 0.0\nsamples = 1\nvalue = [0, 0, 1, 0, 0, 0, 0]\nclass = a", fillcolor="#39e54d"] ;
225 -> 226 ;
227 [label="gini = 0.0\nsamples = 2\nvalue = [0, 0, 0, 2, 0, 0, 0]\nclass = l", fillcolor="#39e5e2"] ;
225 -> 227 ;
228 [label="free sulfur dioxide <= 37.0\ngini = 0.32\nsamples = 5\nvalue = [0, 0, 0, 1, 4, 0, 0]\nclass = i", fillcolor="#6a80ec"] ;
220 -> 228 ;
229 [label="gini = 0.0\nsamples = 4\nvalue = [0, 0, 0, 0, 4, 0, 0]\nclass = i", fillcolor="#3956e5"] ;
228 -> 229 ;
230 [label="gini = 0.0\nsamples = 1\nvalue = [0, 0, 0, 1, 0, 0, 0]\nclass = l", fillcolor="#39e5e2"] ;
228 -> 230 ;
231 [label="chlorides <= 0.04\ngini = 0.61\nsamples = 19\nvalue = [0, 0, 3, 7, 9, 0, 0]\nclass = i", fillcolor="#dee3fb"] ;
201 -> 231 ;
232 [label="gini = 0.0\nsamples = 5\nvalue = [0, 0, 0, 0, 5, 0, 0]\nclass = i", fillcolor="#3956e5"] ;
231 -> 232 ;
233 [label="citric acid <= 0.28\ngini = 0.62\nsamples = 14\nvalue = [0, 0, 3, 7, 4, 0, 0]\nclass = l", fillcolor="#c4f7f6"] ;
231 -> 233 ;
234 [label="gini = 0.0\nsamples = 3\nvalue = [0, 0, 0, 0, 3, 0, 0]\nclass = i", fillcolor="#3956e5"] ;
233 -> 234 ;
235 [label="volatile acidity <= 0.2\ngini = 0.51\nsamples = 11\nvalue = [0, 0, 3, 7, 1, 0, 0]\nclass = l", fillcolor="#9cf2f0"] ;
233 -> 235 ;
236 [label="sulphates <= 0.36\ngini = 0.22\nsamples = 8\nvalue = [0, 0, 1, 7, 0, 0, 0]\nclass = l", fillcolor="#55e9e6"] ;
235 -> 236 ;
237 [label="gini = 0.0\nsamples = 1\nvalue = [0, 0, 1, 0, 0, 0, 0]\nclass = a", fillcolor="#39e54d"] ;
236 -> 237 ;
238 [label="gini = 0.0\nsamples = 7\nvalue = [0, 0, 0, 7, 0, 0, 0]\nclass = l", fillcolor="#39e5e2"] ;
236 -> 238 ;
239 [label="sulphates <= 0.47\ngini = 0.44\nsamples = 3\nvalue = [0, 0, 2, 0, 1, 0, 0]\nclass = a", fillcolor="#9cf2a6"] ;
235 -> 239 ;
240 [label="gini = 0.0\nsamples = 2\nvalue = [0, 0, 2, 0, 0, 0, 0]\nclass = a", fillcolor="#39e54d"] ;
239 -> 240 ;
241 [label="gini = 0.0\nsamples = 1\nvalue = [0, 0, 0, 0, 1, 0, 0]\nclass = i", fillcolor="#3956e5"] ;
239 -> 241 ;
242 [label="total sulfur dioxide <= 118.0\ngini = 0.6\nsamples = 21\nvalue = [0, 0, 11, 7, 1, 2, 0]\nclass = a", fillcolor="#c6f8cc"] ;
184 -> 242 ;
243 [label="sulphates <= 0.41\ngini = 0.57\nsamples = 7\nvalue = [0, 0, 0, 4, 1, 2, 0]\nclass = l", fillcolor="#b0f5f3"] ;
242 -> 243 ;
244 [label="residual sugar <= 9.55\ngini = 0.44\nsamples = 3\nvalue = [0, 0, 0, 0, 1, 2, 0]\nclass = t", fillcolor="#d89cf2"] ;
243 -> 244 ;
245 [label="gini = 0.0\nsamples = 1\nvalue = [0, 0, 0, 0, 1, 0, 0]\nclass = i", fillcolor="#3956e5"] ;
244 -> 245 ;
246 [label="gini = 0.0\nsamples = 2\nvalue = [0, 0, 0, 0, 0, 2, 0]\nclass = t", fillcolor="#b139e5"] ;
244 -> 246 ;
247 [label="gini = 0.0\nsamples = 4\nvalue = [0, 0, 0, 4, 0, 0, 0]\nclass = l", fillcolor="#39e5e2"] ;
243 -> 247 ;
248 [label="citric acid <= 0.3\ngini = 0.34\nsamples = 14\nvalue = [0, 0, 11, 3, 0, 0, 0]\nclass = a", fillcolor="#6fec7e"] ;
242 -> 248 ;
249 [label="density <= 1.0\ngini = 0.44\nsamples = 3\nvalue = [0, 0, 1, 2, 0, 0, 0]\nclass = l", fillcolor="#9cf2f0"] ;
248 -> 249 ;
250 [label="gini = 0.0\nsamples = 1\nvalue = [0, 0, 1, 0, 0, 0, 0]\nclass = a", fillcolor="#39e54d"] ;
249 -> 250 ;
251 [label="gini = 0.0\nsamples = 2\nvalue = [0, 0, 0, 2, 0, 0, 0]\nclass = l", fillcolor="#39e5e2"] ;
249 -> 251 ;
252 [label="citric acid <= 0.45\ngini = 0.17\nsamples = 11\nvalue = [0, 0, 10, 1, 0, 0, 0]\nclass = a", fillcolor="#4de85f"] ;
248 -> 252 ;
253 [label="gini = 0.0\nsamples = 10\nvalue = [0, 0, 10, 0, 0, 0, 0]\nclass = a", fillcolor="#39e54d"] ;
252 -> 253 ;
254 [label="gini = 0.0\nsamples = 1\nvalue = [0, 0, 0, 1, 0, 0, 0]\nclass = l", fillcolor="#39e5e2"] ;
252 -> 254 ;
255 [label="gini = 0.0\nsamples = 14\nvalue = [0, 0, 0, 14, 0, 0, 0]\nclass = l", fillcolor="#39e5e2"] ;
183 -> 255 ;
256 [label="residual sugar <= 5.8\ngini = 0.48\nsamples = 33\nvalue = [0, 0, 1, 11, 21, 0, 0]\nclass = i", fillcolor="#a5b2f3"] ;
182 -> 256 ;
257 [label="fixed acidity <= 7.35\ngini = 0.54\nsamples = 23\nvalue = [0, 0, 1, 11, 11, 0, 0]\nclass = l", fillcolor="#ffffff"] ;
256 -> 257 ;
258 [label="residual sugar <= 1.35\ngini = 0.46\nsamples = 17\nvalue = [0, 0, 0, 11, 6, 0, 0]\nclass = l", fillcolor="#a5f3f2"] ;
257 -> 258 ;
259 [label="gini = 0.0\nsamples = 6\nvalue = [0, 0, 0, 6, 0, 0, 0]\nclass = l", fillcolor="#39e5e2"] ;
258 -> 259 ;
260 [label="fixed acidity <= 7.0\ngini = 0.5\nsamples = 11\nvalue = [0, 0, 0, 5, 6, 0, 0]\nclass = i", fillcolor="#dee3fb"] ;
258 -> 260 ;
261 [label="density <= 0.99\ngini = 0.41\nsamples = 7\nvalue = [0, 0, 0, 5, 2, 0, 0]\nclass = l", fillcolor="#88efee"] ;
260 -> 261 ;
262 [label="gini = 0.0\nsamples = 2\nvalue = [0, 0, 0, 0, 2, 0, 0]\nclass = i", fillcolor="#3956e5"] ;
261 -> 262 ;
263 [label="gini = 0.0\nsamples = 5\nvalue = [0, 0, 0, 5, 0, 0, 0]\nclass = l", fillcolor="#39e5e2"] ;
261 -> 263 ;
264 [label="gini = 0.0\nsamples = 4\nvalue = [0, 0, 0, 0, 4, 0, 0]\nclass = i", fillcolor="#3956e5"] ;
260 -> 264 ;
265 [label="free sulfur dioxide <= 27.5\ngini = 0.28\nsamples = 6\nvalue = [0, 0, 1, 0, 5, 0, 0]\nclass = i", fillcolor="#6178ea"] ;
257 -> 265 ;
266 [label="gini = 0.0\nsamples = 1\nvalue = [0, 0, 1, 0, 0, 0, 0]\nclass = a", fillcolor="#39e54d"] ;
265 -> 266 ;
267 [label="gini = 0.0\nsamples = 5\nvalue = [0, 0, 0, 0, 5, 0, 0]\nclass = i", fillcolor="#3956e5"] ;
265 -> 267 ;
268 [label="gini = 0.0\nsamples = 10\nvalue = [0, 0, 0, 0, 10, 0, 0]\nclass = i", fillcolor="#3956e5"] ;
256 -> 268 ;
269 [label="fixed acidity <= 6.05\ngini = 0.49\nsamples = 255\nvalue = [1, 4, 41, 176, 26, 7, 0]\nclass = l", fillcolor="#82efed"] ;
181 -> 269 ;
270 [label="citric acid <= 0.24\ngini = 0.65\nsamples = 12\nvalue = [0, 2, 6, 3, 1, 0, 0]\nclass = a", fillcolor="#bdf6c4"] ;
269 -> 270 ;
271 [label="gini = 0.0\nsamples = 4\nvalue = [0, 0, 4, 0, 0, 0, 0]\nclass = a", fillcolor="#39e54d"] ;
270 -> 271 ;
272 [label="alcohol <= 10.55\ngini = 0.72\nsamples = 8\nvalue = [0, 2, 2, 3, 1, 0, 0]\nclass = l", fillcolor="#defbfa"] ;
270 -> 272 ;
273 [label="citric acid <= 0.27\ngini = 0.48\nsamples = 5\nvalue = [0, 2, 0, 3, 0, 0, 0]\nclass = l", fillcolor="#bdf6f5"] ;
272 -> 273 ;
274 [label="gini = 0.0\nsamples = 2\nvalue = [0, 0, 0, 2, 0, 0, 0]\nclass = l", fillcolor="#39e5e2"] ;
273 -> 274 ;
275 [label="alcohol <= 10.25\ngini = 0.44\nsamples = 3\nvalue = [0, 2, 0, 1, 0, 0, 0]\nclass = u", fillcolor="#dbf29c"] ;
273 -> 275 ;
276 [label="gini = 0.0\nsamples = 2\nvalue = [0, 2, 0, 0, 0, 0, 0]\nclass = u", fillcolor="#b7e539"] ;
275 -> 276 ;
277 [label="gini = 0.0\nsamples = 1\nvalue = [0, 0, 0, 1, 0, 0, 0]\nclass = l", fillcolor="#39e5e2"] ;
275 -> 277 ;
278 [label="sulphates <= 0.45\ngini = 0.44\nsamples = 3\nvalue = [0, 0, 2, 0, 1, 0, 0]\nclass = a", fillcolor="#9cf2a6"] ;
272 -> 278 ;
279 [label="gini = 0.0\nsamples = 1\nvalue = [0, 0, 0, 0, 1, 0, 0]\nclass = i", fillcolor="#3956e5"] ;
278 -> 279 ;
280 [label="gini = 0.0\nsamples = 2\nvalue = [0, 0, 2, 0, 0, 0, 0]\nclass = a", fillcolor="#39e54d"] ;
278 -> 280 ;
281 [label="total sulfur dioxide <= 211.5\ngini = 0.46\nsamples = 243\nvalue = [1, 2, 35, 173, 25, 7, 0]\nclass = l", fillcolor="#7ceeec"] ;
269 -> 281 ;
282 [label="density <= 1.0\ngini = 0.41\nsamples = 208\nvalue = [1, 2, 31, 156, 16, 2, 0]\nclass = l", fillcolor="#73edeb"] ;
281 -> 282 ;
283 [label="density <= 1.0\ngini = 0.52\nsamples = 104\nvalue = [1, 1, 21, 68, 11, 2, 0]\nclass = l", fillcolor="#8ff0ef"] ;
282 -> 283 ;
284 [label="total sulfur dioxide <= 200.5\ngini = 0.44\nsamples = 81\nvalue = [1, 1, 13, 59, 5, 2, 0]\nclass = l", fillcolor="#79edeb"] ;
283 -> 284 ;
285 [label="free sulfur dioxide <= 34.5\ngini = 0.41\nsamples = 79\nvalue = [0, 1, 12, 59, 5, 2, 0]\nclass = l", fillcolor="#74edeb"] ;
284 -> 285 ;
286 [label="total sulfur dioxide <= 158.0\ngini = 0.72\nsamples = 10\nvalue = [0, 0, 2, 4, 2, 2, 0]\nclass = l", fillcolor="#cef8f8"] ;
285 -> 286 ;
287 [label="chlorides <= 0.06\ngini = 0.32\nsamples = 5\nvalue = [0, 0, 1, 4, 0, 0, 0]\nclass = l", fillcolor="#6aece9"] ;
286 -> 287 ;
288 [label="gini = 0.0\nsamples = 4\nvalue = [0, 0, 0, 4, 0, 0, 0]\nclass = l", fillcolor="#39e5e2"] ;
287 -> 288 ;
289 [label="gini = 0.0\nsamples = 1\nvalue = [0, 0, 1, 0, 0, 0, 0]\nclass = a", fillcolor="#39e54d"] ;
287 -> 289 ;
290 [label="pH <= 3.24\ngini = 0.64\nsamples = 5\nvalue = [0, 0, 1, 0, 2, 2, 0]\nclass = i", fillcolor="#ffffff"] ;
286 -> 290 ;
291 [label="fixed acidity <= 7.8\ngini = 0.44\nsamples = 3\nvalue = [0, 0, 1, 0, 0, 2, 0]\nclass = t", fillcolor="#d89cf2"] ;
290 -> 291 ;
292 [label="gini = 0.0\nsamples = 2\nvalue = [0, 0, 0, 0, 0, 2, 0]\nclass = t", fillcolor="#b139e5"] ;
291 -> 292 ;
293 [label="gini = 0.0\nsamples = 1\nvalue = [0, 0, 1, 0, 0, 0, 0]\nclass = a", fillcolor="#39e54d"] ;
291 -> 293 ;
294 [label="gini = 0.0\nsamples = 2\nvalue = [0, 0, 0, 0, 2, 0, 0]\nclass = i", fillcolor="#3956e5"] ;
290 -> 294 ;
295 [label="chlorides <= 0.19\ngini = 0.34\nsamples = 69\nvalue = [0, 1, 10, 55, 3, 0, 0]\nclass = l", fillcolor="#68ebe9"] ;
285 -> 295 ;
296 [label="pH <= 3.2\ngini = 0.33\nsamples = 68\nvalue = [0, 1, 9, 55, 3, 0, 0]\nclass = l", fillcolor="#65ebe8"] ;
295 -> 296 ;
297 [label="pH <= 3.14\ngini = 0.42\nsamples = 37\nvalue = [0, 1, 8, 27, 1, 0, 0]\nclass = l", fillcolor="#7deeec"] ;
296 -> 297 ;
298 [label="alcohol <= 9.35\ngini = 0.25\nsamples = 27\nvalue = [0, 0, 4, 23, 0, 0, 0]\nclass = l", fillcolor="#5beae7"] ;
297 -> 298 ;
299 [label="pH <= 2.94\ngini = 0.44\nsamples = 3\nvalue = [0, 0, 2, 1, 0, 0, 0]\nclass = a", fillcolor="#9cf2a6"] ;
298 -> 299 ;
300 [label="gini = 0.0\nsamples = 1\nvalue = [0, 0, 0, 1, 0, 0, 0]\nclass = l", fillcolor="#39e5e2"] ;
299 -> 300 ;
301 [label="gini = 0.0\nsamples = 2\nvalue = [0, 0, 2, 0, 0, 0, 0]\nclass = a", fillcolor="#39e54d"] ;
299 -> 301 ;
302 [label="fixed acidity <= 6.4\ngini = 0.15\nsamples = 24\nvalue = [0, 0, 2, 22, 0, 0, 0]\nclass = l", fillcolor="#4be7e5"] ;
298 -> 302 ;
303 [label="gini = 0.0\nsamples = 1\nvalue = [0, 0, 1, 0, 0, 0, 0]\nclass = a", fillcolor="#39e54d"] ;
302 -> 303 ;
304 [label="free sulfur dioxide <= 37.5\ngini = 0.08\nsamples = 23\nvalue = [0, 0, 1, 22, 0, 0, 0]\nclass = l", fillcolor="#42e6e3"] ;
302 -> 304 ;
305 [label="free sulfur dioxide <= 36.5\ngini = 0.38\nsamples = 4\nvalue = [0, 0, 1, 3, 0, 0, 0]\nclass = l", fillcolor="#7beeec"] ;
304 -> 305 ;
306 [label="gini = 0.0\nsamples = 3\nvalue = [0, 0, 0, 3, 0, 0, 0]\nclass = l", fillcolor="#39e5e2"] ;
305 -> 306 ;
307 [label="gini = 0.0\nsamples = 1\nvalue = [0, 0, 1, 0, 0, 0, 0]\nclass = a", fillcolor="#39e54d"] ;
305 -> 307 ;
308 [label="gini = 0.0\nsamples = 19\nvalue = [0, 0, 0, 19, 0, 0, 0]\nclass = l", fillcolor="#39e5e2"] ;
304 -> 308 ;
309 [label="density <= 0.99\ngini = 0.66\nsamples = 10\nvalue = [0, 1, 4, 4, 1, 0, 0]\nclass = a", fillcolor="#ffffff"] ;
297 -> 309 ;
310 [label="gini = 0.0\nsamples = 3\nvalue = [0, 0, 3, 0, 0, 0, 0]\nclass = a", fillcolor="#39e54d"] ;
309 -> 310 ;
311 [label="volatile acidity <= 0.22\ngini = 0.61\nsamples = 7\nvalue = [0, 1, 1, 4, 1, 0, 0]\nclass = l", fillcolor="#9cf2f0"] ;
309 -> 311 ;
312 [label="chlorides <= 0.05\ngini = 0.32\nsamples = 5\nvalue = [0, 0, 0, 4, 1, 0, 0]\nclass = l", fillcolor="#6aece9"] ;
311 -> 312 ;
313 [label="gini = 0.0\nsamples = 4\nvalue = [0, 0, 0, 4, 0, 0, 0]\nclass = l", fillcolor="#39e5e2"] ;
312 -> 313 ;
314 [label="gini = 0.0\nsamples = 1\nvalue = [0, 0, 0, 0, 1, 0, 0]\nclass = i", fillcolor="#3956e5"] ;
312 -> 314 ;
315 [label="citric acid <= 0.22\ngini = 0.5\nsamples = 2\nvalue = [0, 1, 1, 0, 0, 0, 0]\nclass = u", fillcolor="#ffffff"] ;
311 -> 315 ;
316 [label="gini = 0.0\nsamples = 1\nvalue = [0, 0, 1, 0, 0, 0, 0]\nclass = a", fillcolor="#39e54d"] ;
315 -> 316 ;
317 [label="gini = 0.0\nsamples = 1\nvalue = [0, 1, 0, 0, 0, 0, 0]\nclass = u", fillcolor="#b7e539"] ;
315 -> 317 ;
318 [label="residual sugar <= 1.25\ngini = 0.18\nsamples = 31\nvalue = [0, 0, 1, 28, 2, 0, 0]\nclass = l", fillcolor="#4de8e5"] ;
296 -> 318 ;
319 [label="gini = 0.0\nsamples = 1\nvalue = [0, 0, 0, 0, 1, 0, 0]\nclass = i", fillcolor="#3956e5"] ;
318 -> 319 ;
320 [label="chlorides <= 0.04\ngini = 0.13\nsamples = 30\nvalue = [0, 0, 1, 28, 1, 0, 0]\nclass = l", fillcolor="#47e7e4"] ;
318 -> 320 ;
321 [label="density <= 0.99\ngini = 0.5\nsamples = 2\nvalue = [0, 0, 0, 1, 1, 0, 0]\nclass = l", fillcolor="#ffffff"] ;
320 -> 321 ;
322 [label="gini = 0.0\nsamples = 1\nvalue = [0, 0, 0, 1, 0, 0, 0]\nclass = l", fillcolor="#39e5e2"] ;
321 -> 322 ;
323 [label="gini = 0.0\nsamples = 1\nvalue = [0, 0, 0, 0, 1, 0, 0]\nclass = i", fillcolor="#3956e5"] ;
321 -> 323 ;
324 [label="alcohol <= 10.45\ngini = 0.07\nsamples = 28\nvalue = [0, 0, 1, 27, 0, 0, 0]\nclass = l", fillcolor="#40e6e3"] ;
320 -> 324 ;
325 [label="gini = 0.0\nsamples = 23\nvalue = [0, 0, 0, 23, 0, 0, 0]\nclass = l", fillcolor="#39e5e2"] ;
324 -> 325 ;
326 [label="density <= 0.99\ngini = 0.32\nsamples = 5\nvalue = [0, 0, 1, 4, 0, 0, 0]\nclass = l", fillcolor="#6aece9"] ;
324 -> 326 ;
327 [label="gini = 0.0\nsamples = 1\nvalue = [0, 0, 1, 0, 0, 0, 0]\nclass = a", fillcolor="#39e54d"] ;
326 -> 327 ;
328 [label="gini = 0.0\nsamples = 4\nvalue = [0, 0, 0, 4, 0, 0, 0]\nclass = l", fillcolor="#39e5e2"] ;
326 -> 328 ;
329 [label="gini = 0.0\nsamples = 1\nvalue = [0, 0, 1, 0, 0, 0, 0]\nclass = a", fillcolor="#39e54d"] ;
295 -> 329 ;
330 [label="sulphates <= 0.56\ngini = 0.5\nsamples = 2\nvalue = [1, 0, 1, 0, 0, 0, 0]\nclass = q", fillcolor="#ffffff"] ;
284 -> 330 ;
331 [label="gini = 0.0\nsamples = 1\nvalue = [1, 0, 0, 0, 0, 0, 0]\nclass = q", fillcolor="#e58139"] ;
330 -> 331 ;
332 [label="gini = 0.0\nsamples = 1\nvalue = [0, 0, 1, 0, 0, 0, 0]\nclass = a", fillcolor="#39e54d"] ;
330 -> 332 ;
333 [label="total sulfur dioxide <= 154.5\ngini = 0.66\nsamples = 23\nvalue = [0, 0, 8, 9, 6, 0, 0]\nclass = l", fillcolor="#f2fdfd"] ;
283 -> 333 ;
334 [label="fixed acidity <= 7.2\ngini = 0.44\nsamples = 6\nvalue = [0, 0, 2, 0, 4, 0, 0]\nclass = i", fillcolor="#9caaf2"] ;
333 -> 334 ;
335 [label="gini = 0.0\nsamples = 4\nvalue = [0, 0, 0, 0, 4, 0, 0]\nclass = i", fillcolor="#3956e5"] ;
334 -> 335 ;
336 [label="gini = 0.0\nsamples = 2\nvalue = [0, 0, 2, 0, 0, 0, 0]\nclass = a", fillcolor="#39e54d"] ;
334 -> 336 ;
337 [label="alcohol <= 9.65\ngini = 0.58\nsamples = 17\nvalue = [0, 0, 6, 9, 2, 0, 0]\nclass = l", fillcolor="#c9f8f7"] ;
333 -> 337 ;
338 [label="fixed acidity <= 7.85\ngini = 0.28\nsamples = 6\nvalue = [0, 0, 5, 1, 0, 0, 0]\nclass = a", fillcolor="#61ea71"] ;
337 -> 338 ;
339 [label="gini = 0.0\nsamples = 5\nvalue = [0, 0, 5, 0, 0, 0, 0]\nclass = a", fillcolor="#39e54d"] ;
338 -> 339 ;
340 [label="gini = 0.0\nsamples = 1\nvalue = [0, 0, 0, 1, 0, 0, 0]\nclass = l", fillcolor="#39e5e2"] ;
338 -> 340 ;
341 [label="fixed acidity <= 7.95\ngini = 0.43\nsamples = 11\nvalue = [0, 0, 1, 8, 2, 0, 0]\nclass = l", fillcolor="#7beeec"] ;
337 -> 341 ;
342 [label="pH <= 3.32\ngini = 0.2\nsamples = 9\nvalue = [0, 0, 0, 8, 1, 0, 0]\nclass = l", fillcolor="#52e8e6"] ;
341 -> 342 ;
343 [label="gini = 0.0\nsamples = 7\nvalue = [0, 0, 0, 7, 0, 0, 0]\nclass = l", fillcolor="#39e5e2"] ;
342 -> 343 ;
344 [label="alcohol <= 10.4\ngini = 0.5\nsamples = 2\nvalue = [0, 0, 0, 1, 1, 0, 0]\nclass = l", fillcolor="#ffffff"] ;
342 -> 344 ;
345 [label="gini = 0.0\nsamples = 1\nvalue = [0, 0, 0, 1, 0, 0, 0]\nclass = l", fillcolor="#39e5e2"] ;
344 -> 345 ;
346 [label="gini = 0.0\nsamples = 1\nvalue = [0, 0, 0, 0, 1, 0, 0]\nclass = i", fillcolor="#3956e5"] ;
344 -> 346 ;
347 [label="chlorides <= 0.05\ngini = 0.5\nsamples = 2\nvalue = [0, 0, 1, 0, 1, 0, 0]\nclass = a", fillcolor="#ffffff"] ;
341 -> 347 ;
348 [label="gini = 0.0\nsamples = 1\nvalue = [0, 0, 1, 0, 0, 0, 0]\nclass = a", fillcolor="#39e54d"] ;
347 -> 348 ;
349 [label="gini = 0.0\nsamples = 1\nvalue = [0, 0, 0, 0, 1, 0, 0]\nclass = i", fillcolor="#3956e5"] ;
347 -> 349 ;
350 [label="residual sugar <= 5.55\ngini = 0.27\nsamples = 104\nvalue = [0, 1, 10, 88, 5, 0, 0]\nclass = l", fillcolor="#5be9e7"] ;
282 -> 350 ;
351 [label="gini = 0.0\nsamples = 1\nvalue = [0, 1, 0, 0, 0, 0, 0]\nclass = u", fillcolor="#b7e539"] ;
350 -> 351 ;
352 [label="citric acid <= 0.27\ngini = 0.26\nsamples = 103\nvalue = [0, 0, 10, 88, 5, 0, 0]\nclass = l", fillcolor="#59e9e7"] ;
350 -> 352 ;
353 [label="alcohol <= 9.1\ngini = 0.44\nsamples = 12\nvalue = [0, 0, 4, 8, 0, 0, 0]\nclass = l", fillcolor="#9cf2f0"] ;
352 -> 353 ;
354 [label="gini = 0.0\nsamples = 2\nvalue = [0, 0, 2, 0, 0, 0, 0]\nclass = a", fillcolor="#39e54d"] ;
353 -> 354 ;
355 [label="free sulfur dioxide <= 56.5\ngini = 0.32\nsamples = 10\nvalue = [0, 0, 2, 8, 0, 0, 0]\nclass = l", fillcolor="#6aece9"] ;
353 -> 355 ;
356 [label="gini = 0.0\nsamples = 7\nvalue = [0, 0, 0, 7, 0, 0, 0]\nclass = l", fillcolor="#39e5e2"] ;
355 -> 356 ;
357 [label="chlorides <= 0.04\ngini = 0.44\nsamples = 3\nvalue = [0, 0, 2, 1, 0, 0, 0]\nclass = a", fillcolor="#9cf2a6"] ;
355 -> 357 ;
358 [label="gini = 0.0\nsamples = 1\nvalue = [0, 0, 0, 1, 0, 0, 0]\nclass = l", fillcolor="#39e5e2"] ;
357 -> 358 ;
359 [label="gini = 0.0\nsamples = 2\nvalue = [0, 0, 2, 0, 0, 0, 0]\nclass = a", fillcolor="#39e54d"] ;
357 -> 359 ;
360 [label="free sulfur dioxide <= 28.0\ngini = 0.22\nsamples = 91\nvalue = [0, 0, 6, 80, 5, 0, 0]\nclass = l", fillcolor="#53e8e6"] ;
352 -> 360 ;
361 [label="gini = 0.0\nsamples = 1\nvalue = [0, 0, 0, 0, 1, 0, 0]\nclass = i", fillcolor="#3956e5"] ;
360 -> 361 ;
362 [label="volatile acidity <= 0.23\ngini = 0.2\nsamples = 90\nvalue = [0, 0, 6, 80, 4, 0, 0]\nclass = l", fillcolor="#51e8e5"] ;
360 -> 362 ;
363 [label="chlorides <= 0.07\ngini = 0.11\nsamples = 68\nvalue = [0, 0, 2, 64, 2, 0, 0]\nclass = l", fillcolor="#45e7e4"] ;
362 -> 363 ;
364 [label="fixed acidity <= 6.85\ngini = 0.09\nsamples = 66\nvalue = [0, 0, 1, 63, 2, 0, 0]\nclass = l", fillcolor="#42e6e3"] ;
363 -> 364 ;
365 [label="sulphates <= 0.41\ngini = 0.29\nsamples = 18\nvalue = [0, 0, 1, 15, 2, 0, 0]\nclass = l", fillcolor="#5eeae7"] ;
364 -> 365 ;
366 [label="gini = 0.0\nsamples = 1\nvalue = [0, 0, 1, 0, 0, 0, 0]\nclass = a", fillcolor="#39e54d"] ;
365 -> 366 ;
367 [label="total sulfur dioxide <= 150.5\ngini = 0.21\nsamples = 17\nvalue = [0, 0, 0, 15, 2, 0, 0]\nclass = l", fillcolor="#53e8e6"] ;
365 -> 367 ;
368 [label="gini = 0.0\nsamples = 1\nvalue = [0, 0, 0, 0, 1, 0, 0]\nclass = i", fillcolor="#3956e5"] ;
367 -> 368 ;
369 [label="alcohol <= 10.25\ngini = 0.12\nsamples = 16\nvalue = [0, 0, 0, 15, 1, 0, 0]\nclass = l", fillcolor="#46e7e4"] ;
367 -> 369 ;
370 [label="gini = 0.0\nsamples = 13\nvalue = [0, 0, 0, 13, 0, 0, 0]\nclass = l", fillcolor="#39e5e2"] ;
369 -> 370 ;
371 [label="citric acid <= 0.44\ngini = 0.44\nsamples = 3\nvalue = [0, 0, 0, 2, 1, 0, 0]\nclass = l", fillcolor="#9cf2f0"] ;
369 -> 371 ;
372 [label="gini = 0.0\nsamples = 2\nvalue = [0, 0, 0, 2, 0, 0, 0]\nclass = l", fillcolor="#39e5e2"] ;
371 -> 372 ;
373 [label="gini = 0.0\nsamples = 1\nvalue = [0, 0, 0, 0, 1, 0, 0]\nclass = i", fillcolor="#3956e5"] ;
371 -> 373 ;
374 [label="gini = 0.0\nsamples = 48\nvalue = [0, 0, 0, 48, 0, 0, 0]\nclass = l", fillcolor="#39e5e2"] ;
364 -> 374 ;
375 [label="density <= 1.0\ngini = 0.5\nsamples = 2\nvalue = [0, 0, 1, 1, 0, 0, 0]\nclass = a", fillcolor="#ffffff"] ;
363 -> 375 ;
376 [label="gini = 0.0\nsamples = 1\nvalue = [0, 0, 0, 1, 0, 0, 0]\nclass = l", fillcolor="#39e5e2"] ;
375 -> 376 ;
377 [label="gini = 0.0\nsamples = 1\nvalue = [0, 0, 1, 0, 0, 0, 0]\nclass = a", fillcolor="#39e54d"] ;
375 -> 377 ;
378 [label="density <= 1.0\ngini = 0.43\nsamples = 22\nvalue = [0, 0, 4, 16, 2, 0, 0]\nclass = l", fillcolor="#7beeec"] ;
362 -> 378 ;
379 [label="gini = 0.0\nsamples = 10\nvalue = [0, 0, 0, 10, 0, 0, 0]\nclass = l", fillcolor="#39e5e2"] ;
378 -> 379 ;
380 [label="residual sugar <= 13.55\ngini = 0.61\nsamples = 12\nvalue = [0, 0, 4, 6, 2, 0, 0]\nclass = l", fillcolor="#cef8f8"] ;
378 -> 380 ;
381 [label="alcohol <= 9.6\ngini = 0.5\nsamples = 6\nvalue = [0, 0, 4, 1, 1, 0, 0]\nclass = a", fillcolor="#88ef94"] ;
380 -> 381 ;
382 [label="gini = 0.0\nsamples = 1\nvalue = [0, 0, 0, 0, 1, 0, 0]\nclass = i", fillcolor="#3956e5"] ;
381 -> 382 ;
383 [label="chlorides <= 0.05\ngini = 0.32\nsamples = 5\nvalue = [0, 0, 4, 1, 0, 0, 0]\nclass = a", fillcolor="#6aec79"] ;
381 -> 383 ;
384 [label="gini = 0.0\nsamples = 4\nvalue = [0, 0, 4, 0, 0, 0, 0]\nclass = a", fillcolor="#39e54d"] ;
383 -> 384 ;
385 [label="gini = 0.0\nsamples = 1\nvalue = [0, 0, 0, 1, 0, 0, 0]\nclass = l", fillcolor="#39e5e2"] ;
383 -> 385 ;
386 [label="citric acid <= 0.38\ngini = 0.28\nsamples = 6\nvalue = [0, 0, 0, 5, 1, 0, 0]\nclass = l", fillcolor="#61eae8"] ;
380 -> 386 ;
387 [label="gini = 0.0\nsamples = 5\nvalue = [0, 0, 0, 5, 0, 0, 0]\nclass = l", fillcolor="#39e5e2"] ;
386 -> 387 ;
388 [label="gini = 0.0\nsamples = 1\nvalue = [0, 0, 0, 0, 1, 0, 0]\nclass = i", fillcolor="#3956e5"] ;
386 -> 388 ;
389 [label="fixed acidity <= 7.35\ngini = 0.66\nsamples = 35\nvalue = [0, 0, 4, 17, 9, 5, 0]\nclass = l", fillcolor="#c2f7f6"] ;
281 -> 389 ;
390 [label="chlorides <= 0.05\ngini = 0.33\nsamples = 19\nvalue = [0, 0, 4, 15, 0, 0, 0]\nclass = l", fillcolor="#6eecea"] ;
389 -> 390 ;
391 [label="gini = 0.0\nsamples = 11\nvalue = [0, 0, 0, 11, 0, 0, 0]\nclass = l", fillcolor="#39e5e2"] ;
390 -> 391 ;
392 [label="fixed acidity <= 7.25\ngini = 0.5\nsamples = 8\nvalue = [0, 0, 4, 4, 0, 0, 0]\nclass = a", fillcolor="#ffffff"] ;
390 -> 392 ;
393 [label="gini = 0.0\nsamples = 4\nvalue = [0, 0, 4, 0, 0, 0, 0]\nclass = a", fillcolor="#39e54d"] ;
392 -> 393 ;
394 [label="gini = 0.0\nsamples = 4\nvalue = [0, 0, 0, 4, 0, 0, 0]\nclass = l", fillcolor="#39e5e2"] ;
392 -> 394 ;
395 [label="alcohol <= 9.0\ngini = 0.57\nsamples = 16\nvalue = [0, 0, 0, 2, 9, 5, 0]\nclass = i", fillcolor="#b7c2f6"] ;
389 -> 395 ;
396 [label="gini = 0.0\nsamples = 5\nvalue = [0, 0, 0, 0, 0, 5, 0]\nclass = t", fillcolor="#b139e5"] ;
395 -> 396 ;
397 [label="pH <= 3.08\ngini = 0.3\nsamples = 11\nvalue = [0, 0, 0, 2, 9, 0, 0]\nclass = i", fillcolor="#657ceb"] ;
395 -> 397 ;
398 [label="gini = 0.0\nsamples = 1\nvalue = [0, 0, 0, 1, 0, 0, 0]\nclass = l", fillcolor="#39e5e2"] ;
397 -> 398 ;
399 [label="free sulfur dioxide <= 42.5\ngini = 0.18\nsamples = 10\nvalue = [0, 0, 0, 1, 9, 0, 0]\nclass = i", fillcolor="#4f69e8"] ;
397 -> 399 ;
400 [label="gini = 0.0\nsamples = 1\nvalue = [0, 0, 0, 1, 0, 0, 0]\nclass = l", fillcolor="#39e5e2"] ;
399 -> 400 ;
401 [label="gini = 0.0\nsamples = 9\nvalue = [0, 0, 0, 0, 9, 0, 0]\nclass = i", fillcolor="#3956e5"] ;
399 -> 401 ;
402 [label="pH <= 2.98\ngini = 0.65\nsamples = 46\nvalue = [0, 0, 11, 18, 17, 0, 0]\nclass = l", fillcolor="#f8fefe"] ;
180 -> 402 ;
403 [label="total sulfur dioxide <= 136.5\ngini = 0.17\nsamples = 11\nvalue = [0, 0, 1, 0, 10, 0, 0]\nclass = i", fillcolor="#4d67e8"] ;
402 -> 403 ;
404 [label="gini = 0.0\nsamples = 1\nvalue = [0, 0, 1, 0, 0, 0, 0]\nclass = a", fillcolor="#39e54d"] ;
403 -> 404 ;
405 [label="gini = 0.0\nsamples = 10\nvalue = [0, 0, 0, 0, 10, 0, 0]\nclass = i", fillcolor="#3956e5"] ;
403 -> 405 ;
406 [label="fixed acidity <= 7.45\ngini = 0.61\nsamples = 35\nvalue = [0, 0, 10, 18, 7, 0, 0]\nclass = l", fillcolor="#c0f7f6"] ;
402 -> 406 ;
407 [label="pH <= 3.34\ngini = 0.56\nsamples = 30\nvalue = [0, 0, 6, 18, 6, 0, 0]\nclass = l", fillcolor="#9cf2f0"] ;
406 -> 407 ;
408 [label="sulphates <= 0.72\ngini = 0.46\nsamples = 22\nvalue = [0, 0, 6, 15, 1, 0, 0]\nclass = l", fillcolor="#90f0ef"] ;
407 -> 408 ;
409 [label="sulphates <= 0.41\ngini = 0.35\nsamples = 19\nvalue = [0, 0, 3, 15, 1, 0, 0]\nclass = l", fillcolor="#6aece9"] ;
408 -> 409 ;
410 [label="volatile acidity <= 0.2\ngini = 0.61\nsamples = 6\nvalue = [0, 0, 3, 2, 1, 0, 0]\nclass = a", fillcolor="#cef8d2"] ;
409 -> 410 ;
411 [label="free sulfur dioxide <= 54.5\ngini = 0.44\nsamples = 3\nvalue = [0, 0, 0, 2, 1, 0, 0]\nclass = l", fillcolor="#9cf2f0"] ;
410 -> 411 ;
412 [label="gini = 0.0\nsamples = 2\nvalue = [0, 0, 0, 2, 0, 0, 0]\nclass = l", fillcolor="#39e5e2"] ;
411 -> 412 ;
413 [label="gini = 0.0\nsamples = 1\nvalue = [0, 0, 0, 0, 1, 0, 0]\nclass = i", fillcolor="#3956e5"] ;
411 -> 413 ;
414 [label="gini = 0.0\nsamples = 3\nvalue = [0, 0, 3, 0, 0, 0, 0]\nclass = a", fillcolor="#39e54d"] ;
410 -> 414 ;
415 [label="gini = 0.0\nsamples = 13\nvalue = [0, 0, 0, 13, 0, 0, 0]\nclass = l", fillcolor="#39e5e2"] ;
409 -> 415 ;
416 [label="gini = 0.0\nsamples = 3\nvalue = [0, 0, 3, 0, 0, 0, 0]\nclass = a", fillcolor="#39e54d"] ;
408 -> 416 ;
417 [label="residual sugar <= 15.1\ngini = 0.47\nsamples = 8\nvalue = [0, 0, 0, 3, 5, 0, 0]\nclass = i", fillcolor="#b0bbf5"] ;
407 -> 417 ;
418 [label="gini = 0.0\nsamples = 4\nvalue = [0, 0, 0, 0, 4, 0, 0]\nclass = i", fillcolor="#3956e5"] ;
417 -> 418 ;
419 [label="fixed acidity <= 7.2\ngini = 0.38\nsamples = 4\nvalue = [0, 0, 0, 3, 1, 0, 0]\nclass = l", fillcolor="#7beeec"] ;
417 -> 419 ;
420 [label="gini = 0.0\nsamples = 3\nvalue = [0, 0, 0, 3, 0, 0, 0]\nclass = l", fillcolor="#39e5e2"] ;
419 -> 420 ;
421 [label="gini = 0.0\nsamples = 1\nvalue = [0, 0, 0, 0, 1, 0, 0]\nclass = i", fillcolor="#3956e5"] ;
419 -> 421 ;
422 [label="chlorides <= 0.05\ngini = 0.32\nsamples = 5\nvalue = [0, 0, 4, 0, 1, 0, 0]\nclass = a", fillcolor="#6aec79"] ;
406 -> 422 ;
423 [label="gini = 0.0\nsamples = 1\nvalue = [0, 0, 0, 0, 1, 0, 0]\nclass = i", fillcolor="#3956e5"] ;
422 -> 423 ;
424 [label="gini = 0.0\nsamples = 4\nvalue = [0, 0, 4, 0, 0, 0, 0]\nclass = a", fillcolor="#39e54d"] ;
422 -> 424 ;
425 [label="sulphates <= 0.58\ngini = 0.6\nsamples = 30\nvalue = [0, 0, 14, 12, 4, 0, 0]\nclass = a", fillcolor="#e9fceb"] ;
169 -> 425 ;
426 [label="alcohol <= 9.25\ngini = 0.58\nsamples = 19\nvalue = [0, 0, 11, 4, 4, 0, 0]\nclass = a", fillcolor="#a3f3ac"] ;
425 -> 426 ;
427 [label="density <= 0.99\ngini = 0.28\nsamples = 12\nvalue = [0, 0, 10, 2, 0, 0, 0]\nclass = a", fillcolor="#61ea71"] ;
426 -> 427 ;
428 [label="gini = 0.0\nsamples = 1\nvalue = [0, 0, 0, 1, 0, 0, 0]\nclass = l", fillcolor="#39e5e2"] ;
427 -> 428 ;
429 [label="pH <= 3.11\ngini = 0.17\nsamples = 11\nvalue = [0, 0, 10, 1, 0, 0, 0]\nclass = a", fillcolor="#4de85f"] ;
427 -> 429 ;
430 [label="gini = 0.0\nsamples = 10\nvalue = [0, 0, 10, 0, 0, 0, 0]\nclass = a", fillcolor="#39e54d"] ;
429 -> 430 ;
431 [label="gini = 0.0\nsamples = 1\nvalue = [0, 0, 0, 1, 0, 0, 0]\nclass = l", fillcolor="#39e5e2"] ;
429 -> 431 ;
432 [label="citric acid <= 0.59\ngini = 0.57\nsamples = 7\nvalue = [0, 0, 1, 2, 4, 0, 0]\nclass = i", fillcolor="#b0bbf5"] ;
426 -> 432 ;
433 [label="free sulfur dioxide <= 67.5\ngini = 0.44\nsamples = 3\nvalue = [0, 0, 1, 2, 0, 0, 0]\nclass = l", fillcolor="#9cf2f0"] ;
432 -> 433 ;
434 [label="gini = 0.0\nsamples = 2\nvalue = [0, 0, 0, 2, 0, 0, 0]\nclass = l", fillcolor="#39e5e2"] ;
433 -> 434 ;
435 [label="gini = 0.0\nsamples = 1\nvalue = [0, 0, 1, 0, 0, 0, 0]\nclass = a", fillcolor="#39e54d"] ;
433 -> 435 ;
436 [label="gini = 0.0\nsamples = 4\nvalue = [0, 0, 0, 0, 4, 0, 0]\nclass = i", fillcolor="#3956e5"] ;
432 -> 436 ;
437 [label="fixed acidity <= 6.6\ngini = 0.4\nsamples = 11\nvalue = [0, 0, 3, 8, 0, 0, 0]\nclass = l", fillcolor="#83efed"] ;
425 -> 437 ;
438 [label="gini = 0.0\nsamples = 3\nvalue = [0, 0, 3, 0, 0, 0, 0]\nclass = a", fillcolor="#39e54d"] ;
437 -> 438 ;
439 [label="gini = 0.0\nsamples = 8\nvalue = [0, 0, 0, 8, 0, 0, 0]\nclass = l", fillcolor="#39e5e2"] ;
437 -> 439 ;
440 [label="gini = 0.0\nsamples = 4\nvalue = [0, 0, 0, 0, 4, 0, 0]\nclass = i", fillcolor="#3956e5"] ;
168 -> 440 ;
441 [label="alcohol <= 9.78\ngini = 0.58\nsamples = 1448\nvalue = [7, 83, 771, 529, 53, 4, 1]\nclass = a", fillcolor="#cbf8d0"] ;
1 -> 441 ;
442 [label="volatile acidity <= 0.3\ngini = 0.53\nsamples = 923\nvalue = [3, 50, 565, 283, 21, 1, 0]\nclass = a", fillcolor="#a8f4b1"] ;
441 -> 442 ;
443 [label="free sulfur dioxide <= 21.5\ngini = 0.56\nsamples = 445\nvalue = [0, 17, 235, 175, 17, 1, 0]\nclass = a", fillcolor="#d3f9d7"] ;
442 -> 443 ;
444 [label="pH <= 3.22\ngini = 0.37\nsamples = 31\nvalue = [0, 5, 24, 2, 0, 0, 0]\nclass = a", fillcolor="#6eec7d"] ;
443 -> 444 ;
445 [label="alcohol <= 9.55\ngini = 0.16\nsamples = 23\nvalue = [0, 1, 21, 1, 0, 0, 0]\nclass = a", fillcolor="#4be75d"] ;
444 -> 445 ;
446 [label="total sulfur dioxide <= 85.5\ngini = 0.09\nsamples = 21\nvalue = [0, 1, 20, 0, 0, 0, 0]\nclass = a", fillcolor="#43e656"] ;
445 -> 446 ;
447 [label="citric acid <= 0.29\ngini = 0.44\nsamples = 3\nvalue = [0, 1, 2, 0, 0, 0, 0]\nclass = a", fillcolor="#9cf2a6"] ;
446 -> 447 ;
448 [label="gini = 0.0\nsamples = 1\nvalue = [0, 1, 0, 0, 0, 0, 0]\nclass = u", fillcolor="#b7e539"] ;
447 -> 448 ;
449 [label="gini = 0.0\nsamples = 2\nvalue = [0, 0, 2, 0, 0, 0, 0]\nclass = a", fillcolor="#39e54d"] ;
447 -> 449 ;
450 [label="gini = 0.0\nsamples = 18\nvalue = [0, 0, 18, 0, 0, 0, 0]\nclass = a", fillcolor="#39e54d"] ;
446 -> 450 ;
451 [label="sulphates <= 0.47\ngini = 0.5\nsamples = 2\nvalue = [0, 0, 1, 1, 0, 0, 0]\nclass = a", fillcolor="#ffffff"] ;
445 -> 451 ;
452 [label="gini = 0.0\nsamples = 1\nvalue = [0, 0, 1, 0, 0, 0, 0]\nclass = a", fillcolor="#39e54d"] ;
451 -> 452 ;
453 [label="gini = 0.0\nsamples = 1\nvalue = [0, 0, 0, 1, 0, 0, 0]\nclass = l", fillcolor="#39e5e2"] ;
451 -> 453 ;
454 [label="total sulfur dioxide <= 105.0\ngini = 0.59\nsamples = 8\nvalue = [0, 4, 3, 1, 0, 0, 0]\nclass = u", fillcolor="#f1fad7"] ;
444 -> 454 ;
455 [label="gini = 0.0\nsamples = 3\nvalue = [0, 0, 3, 0, 0, 0, 0]\nclass = a", fillcolor="#39e54d"] ;
454 -> 455 ;
456 [label="citric acid <= 0.27\ngini = 0.32\nsamples = 5\nvalue = [0, 4, 0, 1, 0, 0, 0]\nclass = u", fillcolor="#c9ec6a"] ;
454 -> 456 ;
457 [label="gini = 0.0\nsamples = 4\nvalue = [0, 4, 0, 0, 0, 0, 0]\nclass = u", fillcolor="#b7e539"] ;
456 -> 457 ;
458 [label="gini = 0.0\nsamples = 1\nvalue = [0, 0, 0, 1, 0, 0, 0]\nclass = l", fillcolor="#39e5e2"] ;
456 -> 458 ;
459 [label="alcohol <= 8.85\ngini = 0.56\nsamples = 414\nvalue = [0, 12, 211, 173, 17, 1, 0]\nclass = a", fillcolor="#e0fbe3"] ;
443 -> 459 ;
460 [label="total sulfur dioxide <= 162.0\ngini = 0.37\nsamples = 40\nvalue = [0, 2, 31, 7, 0, 0, 0]\nclass = a", fillcolor="#6fec7e"] ;
459 -> 460 ;
461 [label="density <= 0.99\ngini = 0.09\nsamples = 20\nvalue = [0, 0, 19, 1, 0, 0, 0]\nclass = a", fillcolor="#43e656"] ;
460 -> 461 ;
462 [label="pH <= 3.11\ngini = 0.5\nsamples = 2\nvalue = [0, 0, 1, 1, 0, 0, 0]\nclass = a", fillcolor="#ffffff"] ;
461 -> 462 ;
463 [label="gini = 0.0\nsamples = 1\nvalue = [0, 0, 1, 0, 0, 0, 0]\nclass = a", fillcolor="#39e54d"] ;
462 -> 463 ;
464 [label="gini = 0.0\nsamples = 1\nvalue = [0, 0, 0, 1, 0, 0, 0]\nclass = l", fillcolor="#39e5e2"] ;
462 -> 464 ;
465 [label="gini = 0.0\nsamples = 18\nvalue = [0, 0, 18, 0, 0, 0, 0]\nclass = a", fillcolor="#39e54d"] ;
461 -> 465 ;
466 [label="chlorides <= 0.05\ngini = 0.54\nsamples = 20\nvalue = [0, 2, 12, 6, 0, 0, 0]\nclass = a", fillcolor="#aaf4b3"] ;
460 -> 466 ;
467 [label="density <= 1.0\ngini = 0.57\nsamples = 9\nvalue = [0, 1, 3, 5, 0, 0, 0]\nclass = l", fillcolor="#bdf6f5"] ;
466 -> 467 ;
468 [label="sulphates <= 0.43\ngini = 0.56\nsamples = 5\nvalue = [0, 1, 3, 1, 0, 0, 0]\nclass = a", fillcolor="#9cf2a6"] ;
467 -> 468 ;
469 [label="pH <= 3.12\ngini = 0.38\nsamples = 4\nvalue = [0, 0, 3, 1, 0, 0, 0]\nclass = a", fillcolor="#7bee88"] ;
468 -> 469 ;
470 [label="gini = 0.0\nsamples = 3\nvalue = [0, 0, 3, 0, 0, 0, 0]\nclass = a", fillcolor="#39e54d"] ;
469 -> 470 ;
471 [label="gini = 0.0\nsamples = 1\nvalue = [0, 0, 0, 1, 0, 0, 0]\nclass = l", fillcolor="#39e5e2"] ;
469 -> 471 ;
472 [label="gini = 0.0\nsamples = 1\nvalue = [0, 1, 0, 0, 0, 0, 0]\nclass = u", fillcolor="#b7e539"] ;
468 -> 472 ;
473 [label="gini = 0.0\nsamples = 4\nvalue = [0, 0, 0, 4, 0, 0, 0]\nclass = l", fillcolor="#39e5e2"] ;
467 -> 473 ;
474 [label="chlorides <= 0.07\ngini = 0.31\nsamples = 11\nvalue = [0, 1, 9, 1, 0, 0, 0]\nclass = a", fillcolor="#61ea71"] ;
466 -> 474 ;
475 [label="gini = 0.0\nsamples = 9\nvalue = [0, 0, 9, 0, 0, 0, 0]\nclass = a", fillcolor="#39e54d"] ;
474 -> 475 ;
476 [label="volatile acidity <= 0.29\ngini = 0.5\nsamples = 2\nvalue = [0, 1, 0, 1, 0, 0, 0]\nclass = u", fillcolor="#ffffff"] ;
474 -> 476 ;
477 [label="gini = 0.0\nsamples = 1\nvalue = [0, 0, 0, 1, 0, 0, 0]\nclass = l", fillcolor="#39e5e2"] ;
476 -> 477 ;
478 [label="gini = 0.0\nsamples = 1\nvalue = [0, 1, 0, 0, 0, 0, 0]\nclass = u", fillcolor="#b7e539"] ;
476 -> 478 ;
479 [label="free sulfur dioxide <= 30.25\ngini = 0.57\nsamples = 374\nvalue = [0, 10, 180, 166, 17, 1, 0]\nclass = a", fillcolor="#f2fdf3"] ;
459 -> 479 ;
480 [label="sulphates <= 0.53\ngini = 0.4\nsamples = 40\nvalue = [0, 0, 11, 29, 0, 0, 0]\nclass = l", fillcolor="#84efed"] ;
479 -> 480 ;
481 [label="residual sugar <= 17.72\ngini = 0.29\nsamples = 34\nvalue = [0, 0, 6, 28, 0, 0, 0]\nclass = l", fillcolor="#63ebe8"] ;
480 -> 481 ;
482 [label="residual sugar <= 3.05\ngini = 0.22\nsamples = 32\nvalue = [0, 0, 4, 28, 0, 0, 0]\nclass = l", fillcolor="#55e9e6"] ;
481 -> 482 ;
483 [label="total sulfur dioxide <= 139.5\ngini = 0.48\nsamples = 5\nvalue = [0, 0, 3, 2, 0, 0, 0]\nclass = a", fillcolor="#bdf6c4"] ;
482 -> 483 ;
484 [label="gini = 0.0\nsamples = 3\nvalue = [0, 0, 3, 0, 0, 0, 0]\nclass = a", fillcolor="#39e54d"] ;
483 -> 484 ;
485 [label="gini = 0.0\nsamples = 2\nvalue = [0, 0, 0, 2, 0, 0, 0]\nclass = l", fillcolor="#39e5e2"] ;
483 -> 485 ;
486 [label="free sulfur dioxide <= 22.5\ngini = 0.07\nsamples = 27\nvalue = [0, 0, 1, 26, 0, 0, 0]\nclass = l", fillcolor="#41e6e3"] ;
482 -> 486 ;
487 [label="density <= 1.0\ngini = 0.44\nsamples = 3\nvalue = [0, 0, 1, 2, 0, 0, 0]\nclass = l", fillcolor="#9cf2f0"] ;
486 -> 487 ;
488 [label="gini = 0.0\nsamples = 1\nvalue = [0, 0, 1, 0, 0, 0, 0]\nclass = a", fillcolor="#39e54d"] ;
487 -> 488 ;
489 [label="gini = 0.0\nsamples = 2\nvalue = [0, 0, 0, 2, 0, 0, 0]\nclass = l", fillcolor="#39e5e2"] ;
487 -> 489 ;
490 [label="gini = 0.0\nsamples = 24\nvalue = [0, 0, 0, 24, 0, 0, 0]\nclass = l", fillcolor="#39e5e2"] ;
486 -> 490 ;
491 [label="gini = 0.0\nsamples = 2\nvalue = [0, 0, 2, 0, 0, 0, 0]\nclass = a", fillcolor="#39e54d"] ;
481 -> 491 ;
492 [label="pH <= 3.34\ngini = 0.28\nsamples = 6\nvalue = [0, 0, 5, 1, 0, 0, 0]\nclass = a", fillcolor="#61ea71"] ;
480 -> 492 ;
493 [label="gini = 0.0\nsamples = 5\nvalue = [0, 0, 5, 0, 0, 0, 0]\nclass = a", fillcolor="#39e54d"] ;
492 -> 493 ;
494 [label="gini = 0.0\nsamples = 1\nvalue = [0, 0, 0, 1, 0, 0, 0]\nclass = l", fillcolor="#39e5e2"] ;
492 -> 494 ;
495 [label="citric acid <= 0.21\ngini = 0.57\nsamples = 334\nvalue = [0, 10, 169, 137, 17, 1, 0]\nclass = a", fillcolor="#dffbe2"] ;
479 -> 495 ;
496 [label="chlorides <= 0.04\ngini = 0.22\nsamples = 24\nvalue = [0, 0, 21, 3, 0, 0, 0]\nclass = a", fillcolor="#55e966"] ;
495 -> 496 ;
497 [label="gini = 0.0\nsamples = 2\nvalue = [0, 0, 0, 2, 0, 0, 0]\nclass = l", fillcolor="#39e5e2"] ;
496 -> 497 ;
498 [label="density <= 1.0\ngini = 0.09\nsamples = 22\nvalue = [0, 0, 21, 1, 0, 0, 0]\nclass = a", fillcolor="#42e655"] ;
496 -> 498 ;
499 [label="gini = 0.0\nsamples = 20\nvalue = [0, 0, 20, 0, 0, 0, 0]\nclass = a", fillcolor="#39e54d"] ;
498 -> 499 ;
500 [label="citric acid <= 0.15\ngini = 0.5\nsamples = 2\nvalue = [0, 0, 1, 1, 0, 0, 0]\nclass = a", fillcolor="#ffffff"] ;
498 -> 500 ;
501 [label="gini = 0.0\nsamples = 1\nvalue = [0, 0, 1, 0, 0, 0, 0]\nclass = a", fillcolor="#39e54d"] ;
500 -> 501 ;
502 [label="gini = 0.0\nsamples = 1\nvalue = [0, 0, 0, 1, 0, 0, 0]\nclass = l", fillcolor="#39e5e2"] ;
500 -> 502 ;
503 [label="fixed acidity <= 6.95\ngini = 0.58\nsamples = 310\nvalue = [0, 10, 148, 134, 17, 1, 0]\nclass = a", fillcolor="#effdf1"] ;
495 -> 503 ;
504 [label="alcohol <= 9.45\ngini = 0.54\nsamples = 206\nvalue = [0, 7, 113, 83, 2, 1, 0]\nclass = a", fillcolor="#cff9d4"] ;
503 -> 504 ;
505 [label="total sulfur dioxide <= 133.0\ngini = 0.49\nsamples = 130\nvalue = [0, 6, 83, 41, 0, 0, 0]\nclass = a", fillcolor="#a2f3ab"] ;
504 -> 505 ;
506 [label="pH <= 3.34\ngini = 0.3\nsamples = 11\nvalue = [0, 0, 2, 9, 0, 0, 0]\nclass = l", fillcolor="#65ebe8"] ;
505 -> 506 ;
507 [label="free sulfur dioxide <= 36.0\ngini = 0.18\nsamples = 10\nvalue = [0, 0, 1, 9, 0, 0, 0]\nclass = l", fillcolor="#4fe8e5"] ;
506 -> 507 ;
508 [label="gini = 0.0\nsamples = 1\nvalue = [0, 0, 1, 0, 0, 0, 0]\nclass = a", fillcolor="#39e54d"] ;
507 -> 508 ;
509 [label="gini = 0.0\nsamples = 9\nvalue = [0, 0, 0, 9, 0, 0, 0]\nclass = l", fillcolor="#39e5e2"] ;
507 -> 509 ;
510 [label="gini = 0.0\nsamples = 1\nvalue = [0, 0, 1, 0, 0, 0, 0]\nclass = a", fillcolor="#39e54d"] ;
506 -> 510 ;
511 [label="residual sugar <= 6.65\ngini = 0.46\nsamples = 119\nvalue = [0, 6, 81, 32, 0, 0, 0]\nclass = a", fillcolor="#8ff09b"] ;
505 -> 511 ;
512 [label="chlorides <= 0.05\ngini = 0.53\nsamples = 21\nvalue = [0, 1, 8, 12, 0, 0, 0]\nclass = l", fillcolor="#c2f7f6"] ;
511 -> 512 ;
513 [label="gini = 0.0\nsamples = 5\nvalue = [0, 0, 0, 5, 0, 0, 0]\nclass = l", fillcolor="#39e5e2"] ;
512 -> 513 ;
514 [label="citric acid <= 0.33\ngini = 0.55\nsamples = 16\nvalue = [0, 1, 8, 7, 0, 0, 0]\nclass = a", fillcolor="#e9fceb"] ;
512 -> 514 ;
515 [label="fixed acidity <= 6.35\ngini = 0.35\nsamples = 9\nvalue = [0, 0, 7, 2, 0, 0, 0]\nclass = a", fillcolor="#72ec80"] ;
514 -> 515 ;
516 [label="chlorides <= 0.13\ngini = 0.44\nsamples = 3\nvalue = [0, 0, 1, 2, 0, 0, 0]\nclass = l", fillcolor="#9cf2f0"] ;
515 -> 516 ;
517 [label="gini = 0.0\nsamples = 1\nvalue = [0, 0, 1, 0, 0, 0, 0]\nclass = a", fillcolor="#39e54d"] ;
516 -> 517 ;
518 [label="gini = 0.0\nsamples = 2\nvalue = [0, 0, 0, 2, 0, 0, 0]\nclass = l", fillcolor="#39e5e2"] ;
516 -> 518 ;
519 [label="gini = 0.0\nsamples = 6\nvalue = [0, 0, 6, 0, 0, 0, 0]\nclass = a", fillcolor="#39e54d"] ;
515 -> 519 ;
520 [label="pH <= 3.43\ngini = 0.45\nsamples = 7\nvalue = [0, 1, 1, 5, 0, 0, 0]\nclass = l", fillcolor="#7beeec"] ;
514 -> 520 ;
521 [label="chlorides <= 0.2\ngini = 0.28\nsamples = 6\nvalue = [0, 0, 1, 5, 0, 0, 0]\nclass = l", fillcolor="#61eae8"] ;
520 -> 521 ;
522 [label="gini = 0.0\nsamples = 5\nvalue = [0, 0, 0, 5, 0, 0, 0]\nclass = l", fillcolor="#39e5e2"] ;
521 -> 522 ;
523 [label="gini = 0.0\nsamples = 1\nvalue = [0, 0, 1, 0, 0, 0, 0]\nclass = a", fillcolor="#39e54d"] ;
521 -> 523 ;
524 [label="gini = 0.0\nsamples = 1\nvalue = [0, 1, 0, 0, 0, 0, 0]\nclass = u", fillcolor="#b7e539"] ;
520 -> 524 ;
525 [label="total sulfur dioxide <= 199.0\ngini = 0.4\nsamples = 98\nvalue = [0, 5, 73, 20, 0, 0, 0]\nclass = a", fillcolor="#78ed86"] ;
511 -> 525 ;
526 [label="residual sugar <= 8.35\ngini = 0.26\nsamples = 60\nvalue = [0, 2, 51, 7, 0, 0, 0]\nclass = a", fillcolor="#5be96b"] ;
525 -> 526 ;
527 [label="gini = 0.0\nsamples = 23\nvalue = [0, 0, 23, 0, 0, 0, 0]\nclass = a", fillcolor="#39e54d"] ;
526 -> 527 ;
528 [label="density <= 1.0\ngini = 0.39\nsamples = 37\nvalue = [0, 2, 28, 7, 0, 0, 0]\nclass = a", fillcolor="#74ed82"] ;
526 -> 528 ;
529 [label="alcohol <= 8.95\ngini = 0.53\nsamples = 21\nvalue = [0, 2, 13, 6, 0, 0, 0]\nclass = a", fillcolor="#a3f3ac"] ;
528 -> 529 ;
530 [label="gini = 0.0\nsamples = 2\nvalue = [0, 0, 0, 2, 0, 0, 0]\nclass = l", fillcolor="#39e5e2"] ;
529 -> 530 ;
531 [label="total sulfur dioxide <= 155.0\ngini = 0.48\nsamples = 19\nvalue = [0, 2, 13, 4, 0, 0, 0]\nclass = a", fillcolor="#88ef94"] ;
529 -> 531 ;
532 [label="gini = 0.0\nsamples = 7\nvalue = [0, 0, 7, 0, 0, 0, 0]\nclass = a", fillcolor="#39e54d"] ;
531 -> 532 ;
533 [label="chlorides <= 0.05\ngini = 0.61\nsamples = 12\nvalue = [0, 2, 6, 4, 0, 0, 0]\nclass = a", fillcolor="#cef8d2"] ;
531 -> 533 ;
534 [label="pH <= 3.01\ngini = 0.32\nsamples = 5\nvalue = [0, 0, 1, 4, 0, 0, 0]\nclass = l", fillcolor="#6aece9"] ;
533 -> 534 ;
535 [label="gini = 0.0\nsamples = 1\nvalue = [0, 0, 1, 0, 0, 0, 0]\nclass = a", fillcolor="#39e54d"] ;
534 -> 535 ;
536 [label="gini = 0.0\nsamples = 4\nvalue = [0, 0, 0, 4, 0, 0, 0]\nclass = l", fillcolor="#39e5e2"] ;
534 -> 536 ;
537 [label="citric acid <= 0.39\ngini = 0.41\nsamples = 7\nvalue = [0, 2, 5, 0, 0, 0, 0]\nclass = a", fillcolor="#88ef94"] ;
533 -> 537 ;
538 [label="free sulfur dioxide <= 63.5\ngini = 0.44\nsamples = 3\nvalue = [0, 2, 1, 0, 0, 0, 0]\nclass = u", fillcolor="#dbf29c"] ;
537 -> 538 ;
539 [label="gini = 0.0\nsamples = 2\nvalue = [0, 2, 0, 0, 0, 0, 0]\nclass = u", fillcolor="#b7e539"] ;
538 -> 539 ;
540 [label="gini = 0.0\nsamples = 1\nvalue = [0, 0, 1, 0, 0, 0, 0]\nclass = a", fillcolor="#39e54d"] ;
538 -> 540 ;
541 [label="gini = 0.0\nsamples = 4\nvalue = [0, 0, 4, 0, 0, 0, 0]\nclass = a", fillcolor="#39e54d"] ;
537 -> 541 ;
542 [label="citric acid <= 0.24\ngini = 0.12\nsamples = 16\nvalue = [0, 0, 15, 1, 0, 0, 0]\nclass = a", fillcolor="#46e759"] ;
528 -> 542 ;
543 [label="pH <= 3.25\ngini = 0.5\nsamples = 2\nvalue = [0, 0, 1, 1, 0, 0, 0]\nclass = a", fillcolor="#ffffff"] ;
542 -> 543 ;
544 [label="gini = 0.0\nsamples = 1\nvalue = [0, 0, 0, 1, 0, 0, 0]\nclass = l", fillcolor="#39e5e2"] ;
543 -> 544 ;
545 [label="gini = 0.0\nsamples = 1\nvalue = [0, 0, 1, 0, 0, 0, 0]\nclass = a", fillcolor="#39e54d"] ;
543 -> 545 ;
546 [label="gini = 0.0\nsamples = 14\nvalue = [0, 0, 14, 0, 0, 0, 0]\nclass = a", fillcolor="#39e54d"] ;
542 -> 546 ;
547 [label="free sulfur dioxide <= 53.5\ngini = 0.54\nsamples = 38\nvalue = [0, 3, 22, 13, 0, 0, 0]\nclass = a", fillcolor="#b8f6bf"] ;
525 -> 547 ;
548 [label="alcohol <= 9.3\ngini = 0.5\nsamples = 12\nvalue = [0, 2, 2, 8, 0, 0, 0]\nclass = l", fillcolor="#88efee"] ;
547 -> 548 ;
549 [label="residual sugar <= 8.3\ngini = 0.2\nsamples = 9\nvalue = [0, 0, 1, 8, 0, 0, 0]\nclass = l", fillcolor="#52e8e6"] ;
548 -> 549 ;
550 [label="gini = 0.0\nsamples = 7\nvalue = [0, 0, 0, 7, 0, 0, 0]\nclass = l", fillcolor="#39e5e2"] ;
549 -> 550 ;
551 [label="free sulfur dioxide <= 47.5\ngini = 0.5\nsamples = 2\nvalue = [0, 0, 1, 1, 0, 0, 0]\nclass = a", fillcolor="#ffffff"] ;
549 -> 551 ;
552 [label="gini = 0.0\nsamples = 1\nvalue = [0, 0, 1, 0, 0, 0, 0]\nclass = a", fillcolor="#39e54d"] ;
551 -> 552 ;
553 [label="gini = 0.0\nsamples = 1\nvalue = [0, 0, 0, 1, 0, 0, 0]\nclass = l", fillcolor="#39e5e2"] ;
551 -> 553 ;
554 [label="density <= 1.0\ngini = 0.44\nsamples = 3\nvalue = [0, 2, 1, 0, 0, 0, 0]\nclass = u", fillcolor="#dbf29c"] ;
548 -> 554 ;
555 [label="gini = 0.0\nsamples = 2\nvalue = [0, 2, 0, 0, 0, 0, 0]\nclass = u", fillcolor="#b7e539"] ;
554 -> 555 ;
556 [label="gini = 0.0\nsamples = 1\nvalue = [0, 0, 1, 0, 0, 0, 0]\nclass = a", fillcolor="#39e54d"] ;
554 -> 556 ;
557 [label="alcohol <= 9.35\ngini = 0.37\nsamples = 26\nvalue = [0, 1, 20, 5, 0, 0, 0]\nclass = a", fillcolor="#72ec80"] ;
547 -> 557 ;
558 [label="sulphates <= 0.53\ngini = 0.19\nsamples = 19\nvalue = [0, 1, 17, 1, 0, 0, 0]\nclass = a", fillcolor="#4fe861"] ;
557 -> 558 ;
559 [label="gini = 0.0\nsamples = 15\nvalue = [0, 0, 15, 0, 0, 0, 0]\nclass = a", fillcolor="#39e54d"] ;
558 -> 559 ;
560 [label="sulphates <= 0.56\ngini = 0.62\nsamples = 4\nvalue = [0, 1, 2, 1, 0, 0, 0]\nclass = a", fillcolor="#bdf6c4"] ;
558 -> 560 ;
561 [label="fixed acidity <= 6.55\ngini = 0.5\nsamples = 2\nvalue = [0, 1, 0, 1, 0, 0, 0]\nclass = u", fillcolor="#ffffff"] ;
560 -> 561 ;
562 [label="gini = 0.0\nsamples = 1\nvalue = [0, 1, 0, 0, 0, 0, 0]\nclass = u", fillcolor="#b7e539"] ;
561 -> 562 ;
563 [label="gini = 0.0\nsamples = 1\nvalue = [0, 0, 0, 1, 0, 0, 0]\nclass = l", fillcolor="#39e5e2"] ;
561 -> 563 ;
564 [label="gini = 0.0\nsamples = 2\nvalue = [0, 0, 2, 0, 0, 0, 0]\nclass = a", fillcolor="#39e54d"] ;
560 -> 564 ;
565 [label="citric acid <= 0.41\ngini = 0.49\nsamples = 7\nvalue = [0, 0, 3, 4, 0, 0, 0]\nclass = l", fillcolor="#cef8f8"] ;
557 -> 565 ;
566 [label="gini = 0.0\nsamples = 3\nvalue = [0, 0, 3, 0, 0, 0, 0]\nclass = a", fillcolor="#39e54d"] ;
565 -> 566 ;
567 [label="gini = 0.0\nsamples = 4\nvalue = [0, 0, 0, 4, 0, 0, 0]\nclass = l", fillcolor="#39e5e2"] ;
565 -> 567 ;
568 [label="free sulfur dioxide <= 54.5\ngini = 0.54\nsamples = 76\nvalue = [0, 1, 30, 42, 2, 1, 0]\nclass = l", fillcolor="#cbf8f7"] ;
504 -> 568 ;
569 [label="sulphates <= 0.5\ngini = 0.55\nsamples = 49\nvalue = [0, 0, 26, 20, 2, 1, 0]\nclass = a", fillcolor="#d6fada"] ;
568 -> 569 ;
570 [label="total sulfur dioxide <= 143.5\ngini = 0.44\nsamples = 30\nvalue = [0, 0, 21, 8, 1, 0, 0]\nclass = a", fillcolor="#8af096"] ;
569 -> 570 ;
571 [label="alcohol <= 9.55\ngini = 0.44\nsamples = 6\nvalue = [0, 0, 2, 4, 0, 0, 0]\nclass = l", fillcolor="#9cf2f0"] ;
570 -> 571 ;
572 [label="citric acid <= 0.25\ngini = 0.44\nsamples = 3\nvalue = [0, 0, 2, 1, 0, 0, 0]\nclass = a", fillcolor="#9cf2a6"] ;
571 -> 572 ;
573 [label="gini = 0.0\nsamples = 2\nvalue = [0, 0, 2, 0, 0, 0, 0]\nclass = a", fillcolor="#39e54d"] ;
572 -> 573 ;
574 [label="gini = 0.0\nsamples = 1\nvalue = [0, 0, 0, 1, 0, 0, 0]\nclass = l", fillcolor="#39e5e2"] ;
572 -> 574 ;
575 [label="gini = 0.0\nsamples = 3\nvalue = [0, 0, 0, 3, 0, 0, 0]\nclass = l", fillcolor="#39e5e2"] ;
571 -> 575 ;
576 [label="pH <= 3.06\ngini = 0.34\nsamples = 24\nvalue = [0, 0, 19, 4, 1, 0, 0]\nclass = a", fillcolor="#6aec7a"] ;
570 -> 576 ;
577 [label="gini = 0.0\nsamples = 1\nvalue = [0, 0, 0, 0, 1, 0, 0]\nclass = i", fillcolor="#3956e5"] ;
576 -> 577 ;
578 [label="density <= 1.0\ngini = 0.29\nsamples = 23\nvalue = [0, 0, 19, 4, 0, 0, 0]\nclass = a", fillcolor="#63ea72"] ;
576 -> 578 ;
579 [label="sulphates <= 0.47\ngini = 0.24\nsamples = 22\nvalue = [0, 0, 19, 3, 0, 0, 0]\nclass = a", fillcolor="#58e969"] ;
578 -> 579 ;
580 [label="gini = 0.0\nsamples = 10\nvalue = [0, 0, 10, 0, 0, 0, 0]\nclass = a", fillcolor="#39e54d"] ;
579 -> 580 ;
581 [label="sulphates <= 0.47\ngini = 0.38\nsamples = 12\nvalue = [0, 0, 9, 3, 0, 0, 0]\nclass = a", fillcolor="#7bee88"] ;
579 -> 581 ;
582 [label="gini = 0.0\nsamples = 2\nvalue = [0, 0, 0, 2, 0, 0, 0]\nclass = l", fillcolor="#39e5e2"] ;
581 -> 582 ;
583 [label="fixed acidity <= 6.75\ngini = 0.18\nsamples = 10\nvalue = [0, 0, 9, 1, 0, 0, 0]\nclass = a", fillcolor="#4fe861"] ;
581 -> 583 ;
584 [label="gini = 0.0\nsamples = 9\nvalue = [0, 0, 9, 0, 0, 0, 0]\nclass = a", fillcolor="#39e54d"] ;
583 -> 584 ;
585 [label="gini = 0.0\nsamples = 1\nvalue = [0, 0, 0, 1, 0, 0, 0]\nclass = l", fillcolor="#39e5e2"] ;
583 -> 585 ;
586 [label="gini = 0.0\nsamples = 1\nvalue = [0, 0, 0, 1, 0, 0, 0]\nclass = l", fillcolor="#39e5e2"] ;
578 -> 586 ;
587 [label="total sulfur dioxide <= 193.5\ngini = 0.53\nsamples = 19\nvalue = [0, 0, 5, 12, 1, 1, 0]\nclass = l", fillcolor="#9cf2f0"] ;
569 -> 587 ;
588 [label="chlorides <= 0.04\ngini = 0.29\nsamples = 12\nvalue = [0, 0, 1, 10, 0, 1, 0]\nclass = l", fillcolor="#5deae7"] ;
587 -> 588 ;
589 [label="gini = 0.0\nsamples = 1\nvalue = [0, 0, 1, 0, 0, 0, 0]\nclass = a", fillcolor="#39e54d"] ;
588 -> 589 ;
590 [label="residual sugar <= 1.25\ngini = 0.17\nsamples = 11\nvalue = [0, 0, 0, 10, 0, 1, 0]\nclass = l", fillcolor="#4de8e5"] ;
588 -> 590 ;
591 [label="gini = 0.0\nsamples = 1\nvalue = [0, 0, 0, 0, 0, 1, 0]\nclass = t", fillcolor="#b139e5"] ;
590 -> 591 ;
592 [label="gini = 0.0\nsamples = 10\nvalue = [0, 0, 0, 10, 0, 0, 0]\nclass = l", fillcolor="#39e5e2"] ;
590 -> 592 ;
593 [label="pH <= 3.34\ngini = 0.57\nsamples = 7\nvalue = [0, 0, 4, 2, 1, 0, 0]\nclass = a", fillcolor="#b0f5b8"] ;
587 -> 593 ;
594 [label="fixed acidity <= 6.2\ngini = 0.32\nsamples = 5\nvalue = [0, 0, 4, 1, 0, 0, 0]\nclass = a", fillcolor="#6aec79"] ;
593 -> 594 ;
595 [label="gini = 0.0\nsamples = 1\nvalue = [0, 0, 0, 1, 0, 0, 0]\nclass = l", fillcolor="#39e5e2"] ;
594 -> 595 ;
596 [label="gini = 0.0\nsamples = 4\nvalue = [0, 0, 4, 0, 0, 0, 0]\nclass = a", fillcolor="#39e54d"] ;
594 -> 596 ;
597 [label="alcohol <= 9.6\ngini = 0.5\nsamples = 2\nvalue = [0, 0, 0, 1, 1, 0, 0]\nclass = l", fillcolor="#ffffff"] ;
593 -> 597 ;
598 [label="gini = 0.0\nsamples = 1\nvalue = [0, 0, 0, 1, 0, 0, 0]\nclass = l", fillcolor="#39e5e2"] ;
597 -> 598 ;
599 [label="gini = 0.0\nsamples = 1\nvalue = [0, 0, 0, 0, 1, 0, 0]\nclass = i", fillcolor="#3956e5"] ;
597 -> 599 ;
600 [label="sulphates <= 0.4\ngini = 0.31\nsamples = 27\nvalue = [0, 1, 4, 22, 0, 0, 0]\nclass = l", fillcolor="#64ebe8"] ;
568 -> 600 ;
601 [label="gini = 0.0\nsamples = 2\nvalue = [0, 0, 2, 0, 0, 0, 0]\nclass = a", fillcolor="#39e54d"] ;
600 -> 601 ;
602 [label="free sulfur dioxide <= 108.25\ngini = 0.22\nsamples = 25\nvalue = [0, 1, 2, 22, 0, 0, 0]\nclass = l", fillcolor="#53e8e6"] ;
600 -> 602 ;
603 [label="volatile acidity <= 0.25\ngini = 0.15\nsamples = 24\nvalue = [0, 0, 2, 22, 0, 0, 0]\nclass = l", fillcolor="#4be7e5"] ;
602 -> 603 ;
604 [label="free sulfur dioxide <= 63.75\ngini = 0.44\nsamples = 6\nvalue = [0, 0, 2, 4, 0, 0, 0]\nclass = l", fillcolor="#9cf2f0"] ;
603 -> 604 ;
605 [label="gini = 0.0\nsamples = 2\nvalue = [0, 0, 2, 0, 0, 0, 0]\nclass = a", fillcolor="#39e54d"] ;
604 -> 605 ;
606 [label="gini = 0.0\nsamples = 4\nvalue = [0, 0, 0, 4, 0, 0, 0]\nclass = l", fillcolor="#39e5e2"] ;
604 -> 606 ;
607 [label="gini = 0.0\nsamples = 18\nvalue = [0, 0, 0, 18, 0, 0, 0]\nclass = l", fillcolor="#39e5e2"] ;
603 -> 607 ;
608 [label="gini = 0.0\nsamples = 1\nvalue = [0, 1, 0, 0, 0, 0, 0]\nclass = u", fillcolor="#b7e539"] ;
602 -> 608 ;
609 [label="density <= 1.0\ngini = 0.62\nsamples = 104\nvalue = [0, 3, 35, 51, 15, 0, 0]\nclass = l", fillcolor="#d1f9f8"] ;
503 -> 609 ;
610 [label="chlorides <= 0.04\ngini = 0.5\nsamples = 67\nvalue = [0, 2, 19, 43, 3, 0, 0]\nclass = l", fillcolor="#9cf2f0"] ;
609 -> 610 ;
611 [label="volatile acidity <= 0.27\ngini = 0.5\nsamples = 4\nvalue = [0, 0, 2, 0, 2, 0, 0]\nclass = a", fillcolor="#ffffff"] ;
610 -> 611 ;
612 [label="gini = 0.0\nsamples = 2\nvalue = [0, 0, 2, 0, 0, 0, 0]\nclass = a", fillcolor="#39e54d"] ;
611 -> 612 ;
613 [label="gini = 0.0\nsamples = 2\nvalue = [0, 0, 0, 0, 2, 0, 0]\nclass = i", fillcolor="#3956e5"] ;
611 -> 613 ;
614 [label="chlorides <= 0.05\ngini = 0.46\nsamples = 63\nvalue = [0, 2, 17, 43, 1, 0, 0]\nclass = l", fillcolor="#8ff0ef"] ;
610 -> 614 ;
615 [label="alcohol <= 9.05\ngini = 0.17\nsamples = 22\nvalue = [0, 0, 2, 20, 0, 0, 0]\nclass = l", fillcolor="#4de8e5"] ;
614 -> 615 ;
616 [label="pH <= 3.06\ngini = 0.41\nsamples = 7\nvalue = [0, 0, 2, 5, 0, 0, 0]\nclass = l", fillcolor="#88efee"] ;
615 -> 616 ;
617 [label="gini = 0.0\nsamples = 5\nvalue = [0, 0, 0, 5, 0, 0, 0]\nclass = l", fillcolor="#39e5e2"] ;
616 -> 617 ;
618 [label="gini = 0.0\nsamples = 2\nvalue = [0, 0, 2, 0, 0, 0, 0]\nclass = a", fillcolor="#39e54d"] ;
616 -> 618 ;
619 [label="gini = 0.0\nsamples = 15\nvalue = [0, 0, 0, 15, 0, 0, 0]\nclass = l", fillcolor="#39e5e2"] ;
615 -> 619 ;
620 [label="total sulfur dioxide <= 199.5\ngini = 0.55\nsamples = 41\nvalue = [0, 2, 15, 23, 1, 0, 0]\nclass = l", fillcolor="#c2f7f6"] ;
614 -> 620 ;
621 [label="fixed acidity <= 8.85\ngini = 0.52\nsamples = 35\nvalue = [0, 2, 10, 22, 1, 0, 0]\nclass = l", fillcolor="#a0f3f1"] ;
620 -> 621 ;
622 [label="sulphates <= 0.47\ngini = 0.49\nsamples = 33\nvalue = [0, 2, 8, 22, 1, 0, 0]\nclass = l", fillcolor="#90f0ef"] ;
621 -> 622 ;
623 [label="volatile acidity <= 0.24\ngini = 0.53\nsamples = 21\nvalue = [0, 1, 8, 12, 0, 0, 0]\nclass = l", fillcolor="#c2f7f6"] ;
622 -> 623 ;
624 [label="gini = 0.0\nsamples = 4\nvalue = [0, 0, 0, 4, 0, 0, 0]\nclass = l", fillcolor="#39e5e2"] ;
623 -> 624 ;
625 [label="volatile acidity <= 0.25\ngini = 0.55\nsamples = 17\nvalue = [0, 1, 8, 8, 0, 0, 0]\nclass = a", fillcolor="#ffffff"] ;
623 -> 625 ;
626 [label="gini = 0.0\nsamples = 4\nvalue = [0, 0, 4, 0, 0, 0, 0]\nclass = a", fillcolor="#39e54d"] ;
625 -> 626 ;
627 [label="alcohol <= 9.05\ngini = 0.52\nsamples = 13\nvalue = [0, 1, 4, 8, 0, 0, 0]\nclass = l", fillcolor="#a7f3f2"] ;
625 -> 627 ;
628 [label="pH <= 3.12\ngini = 0.5\nsamples = 6\nvalue = [0, 1, 4, 1, 0, 0, 0]\nclass = a", fillcolor="#88ef94"] ;
627 -> 628 ;
629 [label="gini = 0.0\nsamples = 4\nvalue = [0, 0, 4, 0, 0, 0, 0]\nclass = a", fillcolor="#39e54d"] ;
628 -> 629 ;
630 [label="pH <= 3.15\ngini = 0.5\nsamples = 2\nvalue = [0, 1, 0, 1, 0, 0, 0]\nclass = u", fillcolor="#ffffff"] ;
628 -> 630 ;
631 [label="gini = 0.0\nsamples = 1\nvalue = [0, 0, 0, 1, 0, 0, 0]\nclass = l", fillcolor="#39e5e2"] ;
630 -> 631 ;
632 [label="gini = 0.0\nsamples = 1\nvalue = [0, 1, 0, 0, 0, 0, 0]\nclass = u", fillcolor="#b7e539"] ;
630 -> 632 ;
633 [label="gini = 0.0\nsamples = 7\nvalue = [0, 0, 0, 7, 0, 0, 0]\nclass = l", fillcolor="#39e5e2"] ;
627 -> 633 ;
634 [label="residual sugar <= 13.4\ngini = 0.29\nsamples = 12\nvalue = [0, 1, 0, 10, 1, 0, 0]\nclass = l", fillcolor="#5deae7"] ;
622 -> 634 ;
635 [label="gini = 0.0\nsamples = 10\nvalue = [0, 0, 0, 10, 0, 0, 0]\nclass = l", fillcolor="#39e5e2"] ;
634 -> 635 ;
636 [label="alcohol <= 9.4\ngini = 0.5\nsamples = 2\nvalue = [0, 1, 0, 0, 1, 0, 0]\nclass = u", fillcolor="#ffffff"] ;
634 -> 636 ;
637 [label="gini = 0.0\nsamples = 1\nvalue = [0, 1, 0, 0, 0, 0, 0]\nclass = u", fillcolor="#b7e539"] ;
636 -> 637 ;
638 [label="gini = 0.0\nsamples = 1\nvalue = [0, 0, 0, 0, 1, 0, 0]\nclass = i", fillcolor="#3956e5"] ;
636 -> 638 ;
639 [label="gini = 0.0\nsamples = 2\nvalue = [0, 0, 2, 0, 0, 0, 0]\nclass = a", fillcolor="#39e54d"] ;
621 -> 639 ;
640 [label="fixed acidity <= 7.7\ngini = 0.28\nsamples = 6\nvalue = [0, 0, 5, 1, 0, 0, 0]\nclass = a", fillcolor="#61ea71"] ;
620 -> 640 ;
641 [label="gini = 0.0\nsamples = 5\nvalue = [0, 0, 5, 0, 0, 0, 0]\nclass = a", fillcolor="#39e54d"] ;
640 -> 641 ;
642 [label="gini = 0.0\nsamples = 1\nvalue = [0, 0, 0, 1, 0, 0, 0]\nclass = l", fillcolor="#39e5e2"] ;
640 -> 642 ;
643 [label="density <= 1.0\ngini = 0.66\nsamples = 37\nvalue = [0, 1, 16, 8, 12, 0, 0]\nclass = a", fillcolor="#dffbe3"] ;
609 -> 643 ;
644 [label="gini = 0.0\nsamples = 10\nvalue = [0, 0, 0, 0, 10, 0, 0]\nclass = i", fillcolor="#3956e5"] ;
643 -> 644 ;
645 [label="residual sugar <= 15.35\ngini = 0.55\nsamples = 27\nvalue = [0, 1, 16, 8, 2, 0, 0]\nclass = a", fillcolor="#acf4b4"] ;
643 -> 645 ;
646 [label="gini = 0.0\nsamples = 12\nvalue = [0, 0, 12, 0, 0, 0, 0]\nclass = a", fillcolor="#39e54d"] ;
645 -> 646 ;
647 [label="sulphates <= 0.45\ngini = 0.62\nsamples = 15\nvalue = [0, 1, 4, 8, 2, 0, 0]\nclass = l", fillcolor="#b7f6f4"] ;
645 -> 647 ;
648 [label="citric acid <= 0.37\ngini = 0.5\nsamples = 4\nvalue = [0, 0, 2, 0, 2, 0, 0]\nclass = a", fillcolor="#ffffff"] ;
647 -> 648 ;
649 [label="gini = 0.0\nsamples = 2\nvalue = [0, 0, 0, 0, 2, 0, 0]\nclass = i", fillcolor="#3956e5"] ;
648 -> 649 ;
650 [label="gini = 0.0\nsamples = 2\nvalue = [0, 0, 2, 0, 0, 0, 0]\nclass = a", fillcolor="#39e54d"] ;
648 -> 650 ;
651 [label="free sulfur dioxide <= 38.0\ngini = 0.43\nsamples = 11\nvalue = [0, 1, 2, 8, 0, 0, 0]\nclass = l", fillcolor="#7beeec"] ;
647 -> 651 ;
652 [label="fixed acidity <= 7.55\ngini = 0.5\nsamples = 2\nvalue = [0, 1, 1, 0, 0, 0, 0]\nclass = u", fillcolor="#ffffff"] ;
651 -> 652 ;
653 [label="gini = 0.0\nsamples = 1\nvalue = [0, 0, 1, 0, 0, 0, 0]\nclass = a", fillcolor="#39e54d"] ;
652 -> 653 ;
654 [label="gini = 0.0\nsamples = 1\nvalue = [0, 1, 0, 0, 0, 0, 0]\nclass = u", fillcolor="#b7e539"] ;
652 -> 654 ;
655 [label="alcohol <= 9.55\ngini = 0.2\nsamples = 9\nvalue = [0, 0, 1, 8, 0, 0, 0]\nclass = l", fillcolor="#52e8e6"] ;
651 -> 655 ;
656 [label="gini = 0.0\nsamples = 8\nvalue = [0, 0, 0, 8, 0, 0, 0]\nclass = l", fillcolor="#39e5e2"] ;
655 -> 656 ;
657 [label="gini = 0.0\nsamples = 1\nvalue = [0, 0, 1, 0, 0, 0, 0]\nclass = a", fillcolor="#39e54d"] ;
655 -> 657 ;
658 [label="density <= 1.0\ngini = 0.47\nsamples = 478\nvalue = [3, 33, 330, 108, 4, 0, 0]\nclass = a", fillcolor="#88ef94"] ;
442 -> 658 ;
659 [label="fixed acidity <= 6.65\ngini = 0.46\nsamples = 473\nvalue = [3, 33, 330, 103, 4, 0, 0]\nclass = a", fillcolor="#86ef92"] ;
658 -> 659 ;
660 [label="free sulfur dioxide <= 13.5\ngini = 0.53\nsamples = 191\nvalue = [0, 15, 117, 56, 3, 0, 0]\nclass = a", fillcolor="#a6f3af"] ;
659 -> 660 ;
661 [label="alcohol <= 9.15\ngini = 0.55\nsamples = 17\nvalue = [0, 7, 9, 0, 1, 0, 0]\nclass = a", fillcolor="#d7fadb"] ;
660 -> 661 ;
662 [label="pH <= 3.35\ngini = 0.45\nsamples = 7\nvalue = [0, 5, 1, 0, 1, 0, 0]\nclass = u", fillcolor="#cfee7b"] ;
661 -> 662 ;
663 [label="alcohol <= 8.6\ngini = 0.28\nsamples = 6\nvalue = [0, 5, 1, 0, 0, 0, 0]\nclass = u", fillcolor="#c5ea61"] ;
662 -> 663 ;
664 [label="residual sugar <= 3.6\ngini = 0.5\nsamples = 2\nvalue = [0, 1, 1, 0, 0, 0, 0]\nclass = u", fillcolor="#ffffff"] ;
663 -> 664 ;
665 [label="gini = 0.0\nsamples = 1\nvalue = [0, 0, 1, 0, 0, 0, 0]\nclass = a", fillcolor="#39e54d"] ;
664 -> 665 ;
666 [label="gini = 0.0\nsamples = 1\nvalue = [0, 1, 0, 0, 0, 0, 0]\nclass = u", fillcolor="#b7e539"] ;
664 -> 666 ;
667 [label="gini = 0.0\nsamples = 4\nvalue = [0, 4, 0, 0, 0, 0, 0]\nclass = u", fillcolor="#b7e539"] ;
663 -> 667 ;
668 [label="gini = 0.0\nsamples = 1\nvalue = [0, 0, 0, 0, 1, 0, 0]\nclass = i", fillcolor="#3956e5"] ;
662 -> 668 ;
669 [label="volatile acidity <= 0.48\ngini = 0.32\nsamples = 10\nvalue = [0, 2, 8, 0, 0, 0, 0]\nclass = a", fillcolor="#6aec79"] ;
661 -> 669 ;
670 [label="citric acid <= 0.69\ngini = 0.2\nsamples = 9\nvalue = [0, 1, 8, 0, 0, 0, 0]\nclass = a", fillcolor="#52e863"] ;
669 -> 670 ;
671 [label="gini = 0.0\nsamples = 8\nvalue = [0, 0, 8, 0, 0, 0, 0]\nclass = a", fillcolor="#39e54d"] ;
670 -> 671 ;
672 [label="gini = 0.0\nsamples = 1\nvalue = [0, 1, 0, 0, 0, 0, 0]\nclass = u", fillcolor="#b7e539"] ;
670 -> 672 ;
673 [label="gini = 0.0\nsamples = 1\nvalue = [0, 1, 0, 0, 0, 0, 0]\nclass = u", fillcolor="#b7e539"] ;
669 -> 673 ;
674 [label="residual sugar <= 10.4\ngini = 0.51\nsamples = 174\nvalue = [0, 8, 108, 56, 2, 0, 0]\nclass = a", fillcolor="#a8f4b1"] ;
660 -> 674 ;
675 [label="sulphates <= 0.38\ngini = 0.46\nsamples = 121\nvalue = [0, 5, 83, 32, 1, 0, 0]\nclass = a", fillcolor="#8ef099"] ;
674 -> 675 ;
676 [label="sulphates <= 0.34\ngini = 0.44\nsamples = 6\nvalue = [0, 2, 0, 4, 0, 0, 0]\nclass = l", fillcolor="#9cf2f0"] ;
675 -> 676 ;
677 [label="gini = 0.0\nsamples = 2\nvalue = [0, 2, 0, 0, 0, 0, 0]\nclass = u", fillcolor="#b7e539"] ;
676 -> 677 ;
678 [label="gini = 0.0\nsamples = 4\nvalue = [0, 0, 0, 4, 0, 0, 0]\nclass = l", fillcolor="#39e5e2"] ;
676 -> 678 ;
679 [label="sulphates <= 0.66\ngini = 0.42\nsamples = 115\nvalue = [0, 3, 83, 28, 1, 0, 0]\nclass = a", fillcolor="#82ef8e"] ;
675 -> 679 ;
680 [label="alcohol <= 9.52\ngini = 0.38\nsamples = 109\nvalue = [0, 1, 82, 25, 1, 0, 0]\nclass = a", fillcolor="#79ed86"] ;
679 -> 680 ;
681 [label="chlorides <= 0.05\ngini = 0.31\nsamples = 75\nvalue = [0, 1, 61, 12, 1, 0, 0]\nclass = a", fillcolor="#65eb75"] ;
680 -> 681 ;
682 [label="citric acid <= 0.01\ngini = 0.09\nsamples = 41\nvalue = [0, 1, 39, 1, 0, 0, 0]\nclass = a", fillcolor="#43e656"] ;
681 -> 682 ;
683 [label="gini = 0.0\nsamples = 1\nvalue = [0, 1, 0, 0, 0, 0, 0]\nclass = u", fillcolor="#b7e539"] ;
682 -> 683 ;
684 [label="pH <= 3.36\ngini = 0.05\nsamples = 40\nvalue = [0, 0, 39, 1, 0, 0, 0]\nclass = a", fillcolor="#3ee652"] ;
682 -> 684 ;
685 [label="gini = 0.0\nsamples = 35\nvalue = [0, 0, 35, 0, 0, 0, 0]\nclass = a", fillcolor="#39e54d"] ;
684 -> 685 ;
686 [label="citric acid <= 0.28\ngini = 0.32\nsamples = 5\nvalue = [0, 0, 4, 1, 0, 0, 0]\nclass = a", fillcolor="#6aec79"] ;
684 -> 686 ;
687 [label="gini = 0.0\nsamples = 1\nvalue = [0, 0, 0, 1, 0, 0, 0]\nclass = l", fillcolor="#39e5e2"] ;
686 -> 687 ;
688 [label="gini = 0.0\nsamples = 4\nvalue = [0, 0, 4, 0, 0, 0, 0]\nclass = a", fillcolor="#39e54d"] ;
686 -> 688 ;
689 [label="free sulfur dioxide <= 21.0\ngini = 0.48\nsamples = 34\nvalue = [0, 0, 22, 11, 1, 0, 0]\nclass = a", fillcolor="#a0f3aa"] ;
681 -> 689 ;
690 [label="chlorides <= 0.09\ngini = 0.41\nsamples = 7\nvalue = [0, 0, 2, 5, 0, 0, 0]\nclass = l", fillcolor="#88efee"] ;
689 -> 690 ;
691 [label="gini = 0.0\nsamples = 5\nvalue = [0, 0, 0, 5, 0, 0, 0]\nclass = l", fillcolor="#39e5e2"] ;
690 -> 691 ;
692 [label="gini = 0.0\nsamples = 2\nvalue = [0, 0, 2, 0, 0, 0, 0]\nclass = a", fillcolor="#39e54d"] ;
690 -> 692 ;
693 [label="pH <= 3.11\ngini = 0.4\nsamples = 27\nvalue = [0, 0, 20, 6, 1, 0, 0]\nclass = a", fillcolor="#7bee88"] ;
689 -> 693 ;
694 [label="gini = 0.0\nsamples = 2\nvalue = [0, 0, 0, 2, 0, 0, 0]\nclass = l", fillcolor="#39e5e2"] ;
693 -> 694 ;
695 [label="density <= 1.0\ngini = 0.33\nsamples = 25\nvalue = [0, 0, 20, 4, 1, 0, 0]\nclass = a", fillcolor="#68eb77"] ;
693 -> 695 ;
696 [label="fixed acidity <= 6.05\ngini = 0.29\nsamples = 24\nvalue = [0, 0, 20, 3, 1, 0, 0]\nclass = a", fillcolor="#5fea6f"] ;
695 -> 696 ;
697 [label="total sulfur dioxide <= 127.0\ngini = 0.61\nsamples = 6\nvalue = [0, 0, 3, 2, 1, 0, 0]\nclass = a", fillcolor="#cef8d2"] ;
696 -> 697 ;
698 [label="gini = 0.0\nsamples = 1\nvalue = [0, 0, 0, 0, 1, 0, 0]\nclass = i", fillcolor="#3956e5"] ;
697 -> 698 ;
699 [label="sulphates <= 0.51\ngini = 0.48\nsamples = 5\nvalue = [0, 0, 3, 2, 0, 0, 0]\nclass = a", fillcolor="#bdf6c4"] ;
697 -> 699 ;
700 [label="sulphates <= 0.5\ngini = 0.44\nsamples = 3\nvalue = [0, 0, 1, 2, 0, 0, 0]\nclass = l", fillcolor="#9cf2f0"] ;
699 -> 700 ;
701 [label="gini = 0.0\nsamples = 1\nvalue = [0, 0, 1, 0, 0, 0, 0]\nclass = a", fillcolor="#39e54d"] ;
700 -> 701 ;
702 [label="gini = 0.0\nsamples = 2\nvalue = [0, 0, 0, 2, 0, 0, 0]\nclass = l", fillcolor="#39e5e2"] ;
700 -> 702 ;
703 [label="gini = 0.0\nsamples = 2\nvalue = [0, 0, 2, 0, 0, 0, 0]\nclass = a", fillcolor="#39e54d"] ;
699 -> 703 ;
704 [label="alcohol <= 9.45\ngini = 0.1\nsamples = 18\nvalue = [0, 0, 17, 1, 0, 0, 0]\nclass = a", fillcolor="#45e757"] ;
696 -> 704 ;
705 [label="gini = 0.0\nsamples = 16\nvalue = [0, 0, 16, 0, 0, 0, 0]\nclass = a", fillcolor="#39e54d"] ;
704 -> 705 ;
706 [label="chlorides <= 0.12\ngini = 0.5\nsamples = 2\nvalue = [0, 0, 1, 1, 0, 0, 0]\nclass = a", fillcolor="#ffffff"] ;
704 -> 706 ;
707 [label="gini = 0.0\nsamples = 1\nvalue = [0, 0, 1, 0, 0, 0, 0]\nclass = a", fillcolor="#39e54d"] ;
706 -> 707 ;
708 [label="gini = 0.0\nsamples = 1\nvalue = [0, 0, 0, 1, 0, 0, 0]\nclass = l", fillcolor="#39e5e2"] ;
706 -> 708 ;
709 [label="gini = 0.0\nsamples = 1\nvalue = [0, 0, 0, 1, 0, 0, 0]\nclass = l", fillcolor="#39e5e2"] ;
695 -> 709 ;
710 [label="total sulfur dioxide <= 201.0\ngini = 0.47\nsamples = 34\nvalue = [0, 0, 21, 13, 0, 0, 0]\nclass = a", fillcolor="#b4f5bb"] ;
680 -> 710 ;
711 [label="total sulfur dioxide <= 146.0\ngini = 0.41\nsamples = 28\nvalue = [0, 0, 20, 8, 0, 0, 0]\nclass = a", fillcolor="#88ef94"] ;
710 -> 711 ;
712 [label="gini = 0.0\nsamples = 3\nvalue = [0, 0, 0, 3, 0, 0, 0]\nclass = l", fillcolor="#39e5e2"] ;
711 -> 712 ;
713 [label="fixed acidity <= 6.55\ngini = 0.32\nsamples = 25\nvalue = [0, 0, 20, 5, 0, 0, 0]\nclass = a", fillcolor="#6aec79"] ;
711 -> 713 ;
714 [label="volatile acidity <= 0.41\ngini = 0.17\nsamples = 21\nvalue = [0, 0, 19, 2, 0, 0, 0]\nclass = a", fillcolor="#4ee860"] ;
713 -> 714 ;
715 [label="gini = 0.0\nsamples = 17\nvalue = [0, 0, 17, 0, 0, 0, 0]\nclass = a", fillcolor="#39e54d"] ;
714 -> 715 ;
716 [label="free sulfur dioxide <= 35.0\ngini = 0.5\nsamples = 4\nvalue = [0, 0, 2, 2, 0, 0, 0]\nclass = a", fillcolor="#ffffff"] ;
714 -> 716 ;
717 [label="gini = 0.0\nsamples = 2\nvalue = [0, 0, 2, 0, 0, 0, 0]\nclass = a", fillcolor="#39e54d"] ;
716 -> 717 ;
718 [label="gini = 0.0\nsamples = 2\nvalue = [0, 0, 0, 2, 0, 0, 0]\nclass = l", fillcolor="#39e5e2"] ;
716 -> 718 ;
719 [label="density <= 0.99\ngini = 0.38\nsamples = 4\nvalue = [0, 0, 1, 3, 0, 0, 0]\nclass = l", fillcolor="#7beeec"] ;
713 -> 719 ;
720 [label="gini = 0.0\nsamples = 1\nvalue = [0, 0, 1, 0, 0, 0, 0]\nclass = a", fillcolor="#39e54d"] ;
719 -> 720 ;
721 [label="gini = 0.0\nsamples = 3\nvalue = [0, 0, 0, 3, 0, 0, 0]\nclass = l", fillcolor="#39e5e2"] ;
719 -> 721 ;
722 [label="residual sugar <= 2.9\ngini = 0.28\nsamples = 6\nvalue = [0, 0, 1, 5, 0, 0, 0]\nclass = l", fillcolor="#61eae8"] ;
710 -> 722 ;
723 [label="gini = 0.0\nsamples = 1\nvalue = [0, 0, 1, 0, 0, 0, 0]\nclass = a", fillcolor="#39e54d"] ;
722 -> 723 ;
724 [label="gini = 0.0\nsamples = 5\nvalue = [0, 0, 0, 5, 0, 0, 0]\nclass = l", fillcolor="#39e5e2"] ;
722 -> 724 ;
725 [label="pH <= 3.35\ngini = 0.61\nsamples = 6\nvalue = [0, 2, 1, 3, 0, 0, 0]\nclass = l", fillcolor="#cef8f8"] ;
679 -> 725 ;
726 [label="gini = 0.0\nsamples = 3\nvalue = [0, 0, 0, 3, 0, 0, 0]\nclass = l", fillcolor="#39e5e2"] ;
725 -> 726 ;
727 [label="sulphates <= 0.72\ngini = 0.44\nsamples = 3\nvalue = [0, 2, 1, 0, 0, 0, 0]\nclass = u", fillcolor="#dbf29c"] ;
725 -> 727 ;
728 [label="gini = 0.0\nsamples = 2\nvalue = [0, 2, 0, 0, 0, 0, 0]\nclass = u", fillcolor="#b7e539"] ;
727 -> 728 ;
729 [label="gini = 0.0\nsamples = 1\nvalue = [0, 0, 1, 0, 0, 0, 0]\nclass = a", fillcolor="#39e54d"] ;
727 -> 729 ;
730 [label="citric acid <= 0.31\ngini = 0.57\nsamples = 53\nvalue = [0, 3, 25, 24, 1, 0, 0]\nclass = a", fillcolor="#f8fef9"] ;
674 -> 730 ;
731 [label="chlorides <= 0.06\ngini = 0.51\nsamples = 27\nvalue = [0, 2, 17, 8, 0, 0, 0]\nclass = a", fillcolor="#a1f3ab"] ;
730 -> 731 ;
732 [label="sulphates <= 0.62\ngini = 0.22\nsamples = 16\nvalue = [0, 0, 14, 2, 0, 0, 0]\nclass = a", fillcolor="#55e966"] ;
731 -> 732 ;
733 [label="free sulfur dioxide <= 61.0\ngini = 0.12\nsamples = 15\nvalue = [0, 0, 14, 1, 0, 0, 0]\nclass = a", fillcolor="#47e75a"] ;
732 -> 733 ;
734 [label="gini = 0.0\nsamples = 14\nvalue = [0, 0, 14, 0, 0, 0, 0]\nclass = a", fillcolor="#39e54d"] ;
733 -> 734 ;
735 [label="gini = 0.0\nsamples = 1\nvalue = [0, 0, 0, 1, 0, 0, 0]\nclass = l", fillcolor="#39e5e2"] ;
733 -> 735 ;
736 [label="gini = 0.0\nsamples = 1\nvalue = [0, 0, 0, 1, 0, 0, 0]\nclass = l", fillcolor="#39e5e2"] ;
732 -> 736 ;
737 [label="free sulfur dioxide <= 34.5\ngini = 0.6\nsamples = 11\nvalue = [0, 2, 3, 6, 0, 0, 0]\nclass = l", fillcolor="#b5f5f4"] ;
731 -> 737 ;
738 [label="gini = 0.0\nsamples = 4\nvalue = [0, 0, 0, 4, 0, 0, 0]\nclass = l", fillcolor="#39e5e2"] ;
737 -> 738 ;
739 [label="sulphates <= 0.48\ngini = 0.65\nsamples = 7\nvalue = [0, 2, 3, 2, 0, 0, 0]\nclass = a", fillcolor="#d7fadb"] ;
737 -> 739 ;
740 [label="citric acid <= 0.19\ngini = 0.5\nsamples = 4\nvalue = [0, 2, 0, 2, 0, 0, 0]\nclass = u", fillcolor="#ffffff"] ;
739 -> 740 ;
741 [label="gini = 0.0\nsamples = 2\nvalue = [0, 0, 0, 2, 0, 0, 0]\nclass = l", fillcolor="#39e5e2"] ;
740 -> 741 ;
742 [label="gini = 0.0\nsamples = 2\nvalue = [0, 2, 0, 0, 0, 0, 0]\nclass = u", fillcolor="#b7e539"] ;
740 -> 742 ;
743 [label="gini = 0.0\nsamples = 3\nvalue = [0, 0, 3, 0, 0, 0, 0]\nclass = a", fillcolor="#39e54d"] ;
739 -> 743 ;
744 [label="volatile acidity <= 0.33\ngini = 0.52\nsamples = 26\nvalue = [0, 1, 8, 16, 1, 0, 0]\nclass = l", fillcolor="#a7f3f2"] ;
730 -> 744 ;
745 [label="total sulfur dioxide <= 144.0\ngini = 0.32\nsamples = 5\nvalue = [0, 0, 4, 1, 0, 0, 0]\nclass = a", fillcolor="#6aec79"] ;
744 -> 745 ;
746 [label="gini = 0.0\nsamples = 1\nvalue = [0, 0, 0, 1, 0, 0, 0]\nclass = l", fillcolor="#39e5e2"] ;
745 -> 746 ;
747 [label="gini = 0.0\nsamples = 4\nvalue = [0, 0, 4, 0, 0, 0, 0]\nclass = a", fillcolor="#39e54d"] ;
745 -> 747 ;
748 [label="total sulfur dioxide <= 223.0\ngini = 0.45\nsamples = 21\nvalue = [0, 1, 4, 15, 1, 0, 0]\nclass = l", fillcolor="#7feeec"] ;
744 -> 748 ;
749 [label="total sulfur dioxide <= 139.5\ngini = 0.14\nsamples = 13\nvalue = [0, 0, 1, 12, 0, 0, 0]\nclass = l", fillcolor="#49e7e4"] ;
748 -> 749 ;
750 [label="gini = 0.0\nsamples = 1\nvalue = [0, 0, 1, 0, 0, 0, 0]\nclass = a", fillcolor="#39e54d"] ;
749 -> 750 ;
751 [label="gini = 0.0\nsamples = 12\nvalue = [0, 0, 0, 12, 0, 0, 0]\nclass = l", fillcolor="#39e5e2"] ;
749 -> 751 ;
752 [label="free sulfur dioxide <= 56.0\ngini = 0.69\nsamples = 8\nvalue = [0, 1, 3, 3, 1, 0, 0]\nclass = a", fillcolor="#ffffff"] ;
748 -> 752 ;
753 [label="free sulfur dioxide <= 51.5\ngini = 0.56\nsamples = 5\nvalue = [0, 1, 0, 3, 1, 0, 0]\nclass = l", fillcolor="#9cf2f0"] ;
752 -> 753 ;
754 [label="sulphates <= 0.56\ngini = 0.5\nsamples = 2\nvalue = [0, 1, 0, 0, 1, 0, 0]\nclass = u", fillcolor="#ffffff"] ;
753 -> 754 ;
755 [label="gini = 0.0\nsamples = 1\nvalue = [0, 0, 0, 0, 1, 0, 0]\nclass = i", fillcolor="#3956e5"] ;
754 -> 755 ;
756 [label="gini = 0.0\nsamples = 1\nvalue = [0, 1, 0, 0, 0, 0, 0]\nclass = u", fillcolor="#b7e539"] ;
754 -> 756 ;
757 [label="gini = 0.0\nsamples = 3\nvalue = [0, 0, 0, 3, 0, 0, 0]\nclass = l", fillcolor="#39e5e2"] ;
753 -> 757 ;
758 [label="gini = 0.0\nsamples = 3\nvalue = [0, 0, 3, 0, 0, 0, 0]\nclass = a", fillcolor="#39e54d"] ;
752 -> 758 ;
759 [label="pH <= 3.31\ngini = 0.4\nsamples = 282\nvalue = [3, 18, 213, 47, 1, 0, 0]\nclass = a", fillcolor="#73ed81"] ;
659 -> 759 ;
760 [label="sulphates <= 0.57\ngini = 0.37\nsamples = 271\nvalue = [3, 14, 210, 43, 1, 0, 0]\nclass = a", fillcolor="#6eec7d"] ;
759 -> 760 ;
761 [label="pH <= 3.25\ngini = 0.32\nsamples = 223\nvalue = [2, 12, 181, 28, 0, 0, 0]\nclass = a", fillcolor="#64eb73"] ;
760 -> 761 ;
762 [label="free sulfur dioxide <= 11.75\ngini = 0.3\nsamples = 214\nvalue = [2, 12, 177, 23, 0, 0, 0]\nclass = a", fillcolor="#5fea6f"] ;
761 -> 762 ;
763 [label="fixed acidity <= 7.8\ngini = 0.62\nsamples = 17\nvalue = [1, 5, 9, 2, 0, 0, 0]\nclass = a", fillcolor="#bdf6c4"] ;
762 -> 763 ;
764 [label="sulphates <= 0.37\ngini = 0.51\nsamples = 12\nvalue = [1, 1, 8, 2, 0, 0, 0]\nclass = a", fillcolor="#88ef94"] ;
763 -> 764 ;
765 [label="gini = 0.0\nsamples = 2\nvalue = [0, 0, 0, 2, 0, 0, 0]\nclass = l", fillcolor="#39e5e2"] ;
764 -> 765 ;
766 [label="fixed acidity <= 6.75\ngini = 0.34\nsamples = 10\nvalue = [1, 1, 8, 0, 0, 0, 0]\nclass = a", fillcolor="#65eb75"] ;
764 -> 766 ;
767 [label="gini = 0.0\nsamples = 1\nvalue = [0, 1, 0, 0, 0, 0, 0]\nclass = u", fillcolor="#b7e539"] ;
766 -> 767 ;
768 [label="fixed acidity <= 7.4\ngini = 0.2\nsamples = 9\nvalue = [1, 0, 8, 0, 0, 0, 0]\nclass = a", fillcolor="#52e863"] ;
766 -> 768 ;
769 [label="gini = 0.0\nsamples = 7\nvalue = [0, 0, 7, 0, 0, 0, 0]\nclass = a", fillcolor="#39e54d"] ;
768 -> 769 ;
770 [label="free sulfur dioxide <= 8.5\ngini = 0.5\nsamples = 2\nvalue = [1, 0, 1, 0, 0, 0, 0]\nclass = q", fillcolor="#ffffff"] ;
768 -> 770 ;
771 [label="gini = 0.0\nsamples = 1\nvalue = [1, 0, 0, 0, 0, 0, 0]\nclass = q", fillcolor="#e58139"] ;
770 -> 771 ;
772 [label="gini = 0.0\nsamples = 1\nvalue = [0, 0, 1, 0, 0, 0, 0]\nclass = a", fillcolor="#39e54d"] ;
770 -> 772 ;
773 [label="total sulfur dioxide <= 187.5\ngini = 0.32\nsamples = 5\nvalue = [0, 4, 1, 0, 0, 0, 0]\nclass = u", fillcolor="#c9ec6a"] ;
763 -> 773 ;
774 [label="gini = 0.0\nsamples = 4\nvalue = [0, 4, 0, 0, 0, 0, 0]\nclass = u", fillcolor="#b7e539"] ;
773 -> 774 ;
775 [label="gini = 0.0\nsamples = 1\nvalue = [0, 0, 1, 0, 0, 0, 0]\nclass = a", fillcolor="#39e54d"] ;
773 -> 775 ;
776 [label="alcohol <= 8.65\ngini = 0.26\nsamples = 197\nvalue = [1, 7, 168, 21, 0, 0, 0]\nclass = a", fillcolor="#5ae96a"] ;
762 -> 776 ;
777 [label="free sulfur dioxide <= 62.0\ngini = 0.57\nsamples = 9\nvalue = [1, 3, 5, 0, 0, 0, 0]\nclass = a", fillcolor="#bdf6c4"] ;
776 -> 777 ;
778 [label="pH <= 3.18\ngini = 0.28\nsamples = 6\nvalue = [1, 0, 5, 0, 0, 0, 0]\nclass = a", fillcolor="#61ea71"] ;
777 -> 778 ;
779 [label="gini = 0.0\nsamples = 5\nvalue = [0, 0, 5, 0, 0, 0, 0]\nclass = a", fillcolor="#39e54d"] ;
778 -> 779 ;
780 [label="gini = 0.0\nsamples = 1\nvalue = [1, 0, 0, 0, 0, 0, 0]\nclass = q", fillcolor="#e58139"] ;
778 -> 780 ;
