digraph Tree {
node [shape=box, style="filled, rounded", color="black", fontname="helvetica"] ;
edge [fontname="helvetica"] ;
0 [label="density <= -0.45\nsquared_error = 1.0\nsamples = 4898\nvalue = -0.0", fillcolor="#f4ccaf"] ;
1 [label="density <= -1.22\nsquared_error = 0.56\nsamples = 1788\nvalue = 0.95", fillcolor="#f0b489"] ;
0 -> 1 [labeldistance=2.5, labelangle=45, headlabel="True"] ;
2 [label="density <= -1.45\nsquared_error = 0.26\nsamples = 510\nvalue = 1.61", fillcolor="#eca46f"] ;
1 -> 2 ;
3 [label="density <= -1.85\nsquared_error = 0.19\nsamples = 262\nvalue = 1.82", fillcolor="#eb9e67"] ;
2 -> 3 ;
4 [label="density <= -2.06\nsquared_error = 0.08\nsamples = 25\nvalue = 2.39", fillcolor="#e89051"] ;
3 -> 4 ;
5 [label="free sulfur dioxide <= 0.54\nsquared_error = 0.06\nsamples = 11\nvalue = 2.61", fillcolor="#e78b48"] ;
4 -> 5 ;
6 [label="free sulfur dioxide <= -0.43\nsquared_error = 0.03\nsamples = 9\nvalue = 2.69", fillcolor="#e78945"] ;
5 -> 6 ;
7 [label="density <= -2.18\nsquared_error = 0.0\nsamples = 4\nvalue = 2.5", fillcolor="#e88d4d"] ;
6 -> 7 ;
8 [label="chlorides <= -0.97\nsquared_error = 0.0\nsamples = 3\nvalue = 2.51", fillcolor="#e88d4c"] ;
7 -> 8 ;
9 [label="squared_error = 0.0\nsamples = 1\nvalue = 2.51", fillcolor="#e88d4c"] ;
8 -> 9 ;
10 [label="squared_error = -0.0\nsamples = 2\nvalue = 2.51", fillcolor="#e88d4c"] ;
8 -> 10 ;
11 [label="squared_error = 0.0\nsamples = 1\nvalue = 2.47", fillcolor="#e88e4e"] ;
7 -> 11 ;
12 [label="free sulfur dioxide <= -0.19\nsquared_error = 0.01\nsamples = 5\nvalue = 2.85", fillcolor="#e6853f"] ;
6 -> 12 ;
13 [label="squared_error = 0.0\nsamples = 1\nvalue = 3.0", fillcolor="#e58139"] ;
12 -> 13 ;
14 [label="volatile acidity <= 0.07\nsquared_error = 0.0\nsamples = 4\nvalue = 2.81", fillcolor="#e68640"] ;
12 -> 14 ;
15 [label="squared_error = 0.0\nsamples = 1\nvalue = 2.75", fillcolor="#e68743"] ;
14 -> 15 ;
16 [label="squared_error = -0.0\nsamples = 3\nvalue = 2.83", fillcolor="#e6853f"] ;
14 -> 16 ;
17 [label="total sulfur dioxide <= -0.22\nsquared_error = 0.03\nsamples = 2\nvalue = 2.26", fillcolor="#e99356"] ;
5 -> 17 ;
18 [label="squared_error = 0.0\nsamples = 1\nvalue = 2.43", fillcolor="#e88f4f"] ;
17 -> 18 ;
19 [label="squared_error = 0.0\nsamples = 1\nvalue = 2.1", fillcolor="#ea975c"] ;
17 -> 19 ;
20 [label="residual sugar <= -0.96\nsquared_error = 0.04\nsamples = 14\nvalue = 2.22", fillcolor="#e99457"] ;
4 -> 20 ;
21 [label="volatile acidity <= 0.07\nsquared_error = 0.01\nsamples = 8\nvalue = 2.11", fillcolor="#ea975c"] ;
20 -> 21 ;
22 [label="chlorides <= -0.81\nsquared_error = 0.01\nsamples = 4\nvalue = 2.01", fillcolor="#ea9a60"] ;
21 -> 22 ;
23 [label="residual sugar <= -1.05\nsquared_error = 0.0\nsamples = 2\nvalue = 2.08", fillcolor="#ea985d"] ;
22 -> 23 ;
24 [label="squared_error = 0.0\nsamples = 1\nvalue = 2.1", fillcolor="#ea975c"] ;
23 -> 24 ;
25 [label="squared_error = 0.0\nsamples = 1\nvalue = 2.06", fillcolor="#ea985e"] ;
23 -> 25 ;
26 [label="squared_error = 0.0\nsamples = 2\nvalue = 1.94", fillcolor="#ea9b63"] ;
22 -> 26 ;
27 [label="volatile acidity <= 0.36\nsquared_error = 0.0\nsamples = 4\nvalue = 2.2", fillcolor="#e99558"] ;
21 -> 27 ;
28 [label="squared_error = 0.0\nsamples = 3\nvalue = 2.18", fillcolor="#e99559"] ;
27 -> 28 ;
29 [label="squared_error = 0.0\nsamples = 1\nvalue = 2.26", fillcolor="#e99356"] ;
27 -> 29 ;
30 [label="sulphates <= -0.66\nsquared_error = 0.03\nsamples = 6\nvalue = 2.37", fillcolor="#e89151"] ;
20 -> 30 ;
31 [label="chlorides <= -0.72\nsquared_error = 0.01\nsamples = 3\nvalue = 2.24", fillcolor="#e99457"] ;
30 -> 31 ;
32 [label="squared_error = 0.0\nsamples = 1\nvalue = 2.1", fillcolor="#ea975c"] ;
31 -> 32 ;
33 [label="residual sugar <= -0.93\nsquared_error = 0.0\nsamples = 2\nvalue = 2.3", fillcolor="#e99254"] ;
31 -> 33 ;
34 [label="squared_error = 0.0\nsamples = 1\nvalue = 2.26", fillcolor="#e99356"] ;
33 -> 34 ;
35 [label="squared_error = -0.0\nsamples = 1\nvalue = 2.35", fillcolor="#e89153"] ;
33 -> 35 ;
36 [label="sulphates <= -0.44\nsquared_error = 0.0\nsamples = 3\nvalue = 2.51", fillcolor="#e88d4c"] ;
30 -> 36 ;
37 [label="squared_error = 0.0\nsamples = 1\nvalue = 2.59", fillcolor="#e78b49"] ;
36 -> 37 ;
38 [label="fixed acidity <= -1.13\nsquared_error = 0.0\nsamples = 2\nvalue = 2.47", fillcolor="#e88e4e"] ;
36 -> 38 ;
39 [label="squared_error = 0.0\nsamples = 1\nvalue = 2.43", fillcolor="#e88f4f"] ;
38 -> 39 ;
40 [label="squared_error = 0.0\nsamples = 1\nvalue = 2.51", fillcolor="#e88d4c"] ;
38 -> 40 ;
41 [label="residual sugar <= -0.88\nsquared_error = 0.17\nsamples = 237\nvalue = 1.76", fillcolor="#eba06a"] ;
3 -> 41 ;
42 [label="density <= -1.58\nsquared_error = 0.12\nsamples = 117\nvalue = 1.54", fillcolor="#eda572"] ;
41 -> 42 ;
43 [label="citric acid <= -0.57\nsquared_error = 0.08\nsamples = 67\nvalue = 1.68", fillcolor="#eca26d"] ;
42 -> 43 ;
44 [label="chlorides <= -0.79\nsquared_error = 0.04\nsamples = 17\nvalue = 1.46", fillcolor="#eda775"] ;
43 -> 44 ;
45 [label="sulphates <= 0.83\nsquared_error = 0.03\nsamples = 6\nvalue = 1.67", fillcolor="#eca26d"] ;
44 -> 45 ;
46 [label="free sulfur dioxide <= -0.19\nsquared_error = 0.0\nsamples = 5\nvalue = 1.6", fillcolor="#eca470"] ;
45 -> 46 ;
47 [label="chlorides <= -1.09\nsquared_error = 0.0\nsamples = 4\nvalue = 1.61", fillcolor="#eca46f"] ;
46 -> 47 ;
48 [label="squared_error = 0.0\nsamples = 1\nvalue = 1.61", fillcolor="#eca46f"] ;
47 -> 48 ;
49 [label="squared_error = 0.0\nsamples = 3\nvalue = 1.61", fillcolor="#eca46f"] ;
47 -> 49 ;
50 [label="squared_error = -0.0\nsamples = 1\nvalue = 1.53", fillcolor="#eda672"] ;
46 -> 50 ;
51 [label="squared_error = 0.0\nsamples = 1\nvalue = 2.02", fillcolor="#ea995f"] ;
45 -> 51 ;
52 [label="total sulfur dioxide <= -0.53\nsquared_error = 0.01\nsamples = 11\nvalue = 1.35", fillcolor="#eeaa7a"] ;
44 -> 52 ;
53 [label="pH <= -0.62\nsquared_error = 0.01\nsamples = 7\nvalue = 1.4", fillcolor="#eda978"] ;
52 -> 53 ;
54 [label="citric acid <= -0.7\nsquared_error = 0.0\nsamples = 4\nvalue = 1.35", fillcolor="#edaa7a"] ;
53 -> 54 ;
55 [label="squared_error = -0.0\nsamples = 3\nvalue = 1.37", fillcolor="#edaa79"] ;
54 -> 55 ;
56 [label="squared_error = -0.0\nsamples = 1\nvalue = 1.29", fillcolor="#eeac7c"] ;
54 -> 56 ;
57 [label="density <= -1.63\nsquared_error = 0.01\nsamples = 3\nvalue = 1.48", fillcolor="#eda775"] ;
53 -> 57 ;
58 [label="squared_error = 0.0\nsamples = 1\nvalue = 1.37", fillcolor="#edaa79"] ;
57 -> 58 ;
59 [label="squared_error = 0.0\nsamples = 2\nvalue = 1.53", fillcolor="#eda672"] ;
57 -> 59 ;
60 [label="residual sugar <= -1.0\nsquared_error = 0.01\nsamples = 4\nvalue = 1.25", fillcolor="#eead7e"] ;
52 -> 60 ;
61 [label="squared_error = 0.0\nsamples = 1\nvalue = 1.13", fillcolor="#efb082"] ;
60 -> 61 ;
62 [label="quality <= -0.43\nsquared_error = 0.0\nsamples = 3\nvalue = 1.29", fillcolor="#eeac7c"] ;
60 -> 62 ;
63 [label="squared_error = 0.0\nsamples = 1\nvalue = 1.21", fillcolor="#eeae7f"] ;
62 -> 63 ;
64 [label="total sulfur dioxide <= -0.21\nsquared_error = 0.0\nsamples = 2\nvalue = 1.33", fillcolor="#eeab7a"] ;
62 -> 64 ;
65 [label="squared_error = 0.0\nsamples = 1\nvalue = 1.29", fillcolor="#eeac7c"] ;
64 -> 65 ;
66 [label="squared_error = 0.0\nsamples = 1\nvalue = 1.37", fillcolor="#edaa79"] ;
64 -> 66 ;
67 [label="volatile acidity <= -0.83\nsquared_error = 0.07\nsamples = 50\nvalue = 1.76", fillcolor="#eba06a"] ;
43 -> 67 ;
68 [label="fixed acidity <= -1.07\nsquared_error = 0.01\nsamples = 7\nvalue = 2.01", fillcolor="#ea9a60"] ;
67 -> 68 ;
69 [label="sulphates <= -0.52\nsquared_error = 0.01\nsamples = 2\nvalue = 1.86", fillcolor="#eb9d66"] ;
68 -> 69 ;
70 [label="squared_error = 0.0\nsamples = 1\nvalue = 1.94", fillcolor="#ea9b63"] ;
69 -> 70 ;
71 [label="squared_error = -0.0\nsamples = 1\nvalue = 1.78", fillcolor="#eb9f69"] ;
69 -> 71 ;
72 [label="citric acid <= 0.34\nsquared_error = 0.0\nsamples = 5\nvalue = 2.07", fillcolor="#ea985d"] ;
68 -> 72 ;
73 [label="fixed acidity <= -0.48\nsquared_error = 0.0\nsamples = 2\nvalue = 2.14", fillcolor="#e9965b"] ;
72 -> 73 ;
74 [label="squared_error = 0.0\nsamples = 1\nvalue = 2.1", fillcolor="#ea975c"] ;
73 -> 74 ;
75 [label="squared_error = 0.0\nsamples = 1\nvalue = 2.18", fillcolor="#e99559"] ;
73 -> 75 ;
76 [label="residual sugar <= -1.04\nsquared_error = 0.0\nsamples = 3\nvalue = 2.02", fillcolor="#ea995f"] ;
72 -> 76 ;
77 [label="squared_error = 0.0\nsamples = 2\nvalue = 2.02", fillcolor="#ea995f"] ;
76 -> 77 ;
78 [label="squared_error = 0.0\nsamples = 1\nvalue = 2.02", fillcolor="#ea995f"] ;
76 -> 78 ;
79 [label="quality <= -0.43\nsquared_error = 0.06\nsamples = 43\nvalue = 1.72", fillcolor="#eca16b"] ;
67 -> 79 ;
80 [label="total sulfur dioxide <= -1.71\nsquared_error = 0.03\nsamples = 3\nvalue = 2.1", fillcolor="#ea975c"] ;
79 -> 80 ;
81 [label="squared_error = 0.0\nsamples = 1\nvalue = 2.35", fillcolor="#e89153"] ;
80 -> 81 ;
82 [label="fixed acidity <= -0.42\nsquared_error = 0.0\nsamples = 2\nvalue = 1.98", fillcolor="#ea9a61"] ;
80 -> 82 ;
83 [label="squared_error = 0.0\nsamples = 1\nvalue = 2.02", fillcolor="#ea995f"] ;
82 -> 83 ;
84 [label="squared_error = -0.0\nsamples = 1\nvalue = 1.94", fillcolor="#ea9b63"] ;
82 -> 84 ;
85 [label="density <= -1.6\nsquared_error = 0.05\nsamples = 40\nvalue = 1.69", fillcolor="#eca26c"] ;
79 -> 85 ;
86 [label="fixed acidity <= -1.31\nsquared_error = 0.05\nsamples = 34\nvalue = 1.73", fillcolor="#eca16b"] ;
85 -> 86 ;
87 [label="pH <= 0.41\nsquared_error = 0.12\nsamples = 6\nvalue = 1.53", fillcolor="#eda672"] ;
86 -> 87 ;
88 [label="chlorides <= -0.63\nsquared_error = 0.03\nsamples = 2\nvalue = 1.13", fillcolor="#efb082"] ;
87 -> 88 ;
89 [label="squared_error = 0.0\nsamples = 1\nvalue = 0.96", fillcolor="#efb489"] ;
88 -> 89 ;
90 [label="squared_error = -0.0\nsamples = 1\nvalue = 1.29", fillcolor="#eeac7c"] ;
88 -> 90 ;
91 [label="sulphates <= -1.05\nsquared_error = 0.04\nsamples = 4\nvalue = 1.74", fillcolor="#eca06a"] ;
87 -> 91 ;
92 [label="squared_error = 0.0\nsamples = 2\nvalue = 1.53", fillcolor="#eda672"] ;
91 -> 92 ;
93 [label="quality <= 0.7\nsquared_error = 0.01\nsamples = 2\nvalue = 1.94", fillcolor="#ea9b63"] ;
91 -> 93 ;
94 [label="squared_error = 0.0\nsamples = 1\nvalue = 2.02", fillcolor="#ea995f"] ;
93 -> 94 ;
95 [label="squared_error = 0.0\nsamples = 1\nvalue = 1.86", fillcolor="#eb9d66"] ;
93 -> 95 ;
96 [label="chlorides <= -0.47\nsquared_error = 0.03\nsamples = 28\nvalue = 1.77", fillcolor="#eba069"] ;
86 -> 96 ;
97 [label="citric acid <= -0.49\nsquared_error = 0.03\nsamples = 21\nvalue = 1.82", fillcolor="#eb9e67"] ;
96 -> 97 ;
98 [label="residual sugar <= -0.94\nsquared_error = 0.03\nsamples = 2\nvalue = 1.53", fillcolor="#eda672"] ;
97 -> 98 ;
99 [label="squared_error = 0.0\nsamples = 1\nvalue = 1.37", fillcolor="#edaa79"] ;
98 -> 99 ;
100 [label="squared_error = -0.0\nsamples = 1\nvalue = 1.7", fillcolor="#eca26c"] ;
98 -> 100 ;
101 [label="pH <= -1.58\nsquared_error = 0.02\nsamples = 19\nvalue = 1.85", fillcolor="#eb9e66"] ;
97 -> 101 ;
102 [label="squared_error = 0.0\nsamples = 1\nvalue = 1.45", fillcolor="#eda876"] ;
101 -> 102 ;
103 [label="volatile acidity <= -0.53\nsquared_error = 0.01\nsamples = 18\nvalue = 1.87", fillcolor="#eb9d65"] ;
101 -> 103 ;
104 [label="citric acid <= -0.03\nsquared_error = 0.0\nsamples = 3\nvalue = 1.72", fillcolor="#eca16b"] ;
103 -> 104 ;
105 [label="squared_error = 0.0\nsamples = 2\nvalue = 1.7", fillcolor="#eca26c"] ;
104 -> 105 ;
106 [label="squared_error = -0.0\nsamples = 1\nvalue = 1.78", fillcolor="#eb9f69"] ;
104 -> 106 ;
107 [label="sulphates <= 2.67\nsquared_error = 0.01\nsamples = 15\nvalue = 1.9", fillcolor="#eb9c64"] ;
103 -> 107 ;
108 [label="citric acid <= -0.32\nsquared_error = 0.01\nsamples = 14\nvalue = 1.88", fillcolor="#eb9d65"] ;
107 -> 108 ;
109 [label="fixed acidity <= -0.6\nsquared_error = 0.0\nsamples = 3\nvalue = 1.99", fillcolor="#ea9a60"] ;
108 -> 109 ;
110 [label="squared_error = 0.0\nsamples = 1\nvalue = 1.94", fillcolor="#ea9b63"] ;
109 -> 110 ;
111 [label="squared_error = 0.0\nsamples = 2\nvalue = 2.02", fillcolor="#ea995f"] ;
109 -> 111 ;
112 [label="fixed acidity <= -0.3\nsquared_error = 0.0\nsamples = 11\nvalue = 1.85", fillcolor="#eb9e66"] ;
108 -> 112 ;
113 [label="fixed acidity <= -1.07\nsquared_error = 0.0\nsamples = 8\nvalue = 1.88", fillcolor="#eb9d65"] ;
112 -> 113 ;
114 [label="squared_error = 0.0\nsamples = 1\nvalue = 1.78", fillcolor="#eb9f69"] ;
113 -> 114 ;
115 [label="fixed acidity <= -0.72\nsquared_error = 0.0\nsamples = 7\nvalue = 1.89", fillcolor="#eb9d64"] ;
113 -> 115 ;
116 [label="pH <= 0.57\nsquared_error = 0.0\nsamples = 5\nvalue = 1.87", fillcolor="#eb9d65"] ;
115 -> 116 ;
117 [label="squared_error = 0.0\nsamples = 1\nvalue = 1.94", fillcolor="#ea9b63"] ;
116 -> 117 ;
118 [label="fixed acidity <= -0.89\nsquared_error = 0.0\nsamples = 4\nvalue = 1.86", fillcolor="#eb9d66"] ;
116 -> 118 ;
119 [label="squared_error = 0.0\nsamples = 2\nvalue = 1.86", fillcolor="#eb9d66"] ;
118 -> 119 ;
120 [label="squared_error = 0.0\nsamples = 2\nvalue = 1.86", fillcolor="#eb9d66"] ;
118 -> 120 ;
121 [label="density <= -1.71\nsquared_error = 0.0\nsamples = 2\nvalue = 1.94", fillcolor="#ea9b63"] ;
115 -> 121 ;
122 [label="squared_error = 0.0\nsamples = 1\nvalue = 1.94", fillcolor="#ea9b63"] ;
121 -> 122 ;
123 [label="squared_error = 0.0\nsamples = 1\nvalue = 1.94", fillcolor="#ea9b63"] ;
121 -> 123 ;
124 [label="squared_error = -0.0\nsamples = 3\nvalue = 1.78", fillcolor="#eb9f69"] ;
112 -> 124 ;
125 [label="squared_error = -0.0\nsamples = 1\nvalue = 2.13", fillcolor="#e9975b"] ;
107 -> 125 ;
126 [label="density <= -1.76\nsquared_error = 0.0\nsamples = 7\nvalue = 1.63", fillcolor="#eca36f"] ;
96 -> 126 ;
127 [label="squared_error = 0.0\nsamples = 2\nvalue = 1.7", fillcolor="#eca26c"] ;
126 -> 127 ;
128 [label="sulphates <= -1.4\nsquared_error = 0.0\nsamples = 5\nvalue = 1.6", fillcolor="#eca470"] ;
126 -> 128 ;
129 [label="squared_error = 0.0\nsamples = 1\nvalue = 1.53", fillcolor="#eda672"] ;
128 -> 129 ;
130 [label="squared_error = -0.0\nsamples = 4\nvalue = 1.61", fillcolor="#eca46f"] ;
128 -> 130 ;
131 [label="sulphates <= -0.35\nsquared_error = 0.01\nsamples = 6\nvalue = 1.49", fillcolor="#eda774"] ;
85 -> 131 ;
132 [label="fixed acidity <= 0.47\nsquared_error = 0.0\nsamples = 5\nvalue = 1.45", fillcolor="#eda876"] ;
131 -> 132 ;
133 [label="density <= -1.58\nsquared_error = 0.0\nsamples = 4\nvalue = 1.43", fillcolor="#eda876"] ;
132 -> 133 ;
134 [label="squared_error = -0.0\nsamples = 3\nvalue = 1.45", fillcolor="#eda876"] ;
133 -> 134 ;
135 [label="squared_error = -0.0\nsamples = 1\nvalue = 1.37", fillcolor="#edaa79"] ;
133 -> 135 ;
136 [label="squared_error = -0.0\nsamples = 1\nvalue = 1.53", fillcolor="#eda672"] ;
132 -> 136 ;
137 [label="squared_error = -0.0\nsamples = 1\nvalue = 1.7", fillcolor="#eca26c"] ;
131 -> 137 ;
138 [label="residual sugar <= -1.01\nsquared_error = 0.11\nsamples = 50\nvalue = 1.34", fillcolor="#eeaa7a"] ;
42 -> 138 ;
139 [label="fixed acidity <= -1.13\nsquared_error = 0.07\nsamples = 16\nvalue = 1.07", fillcolor="#efb185"] ;
138 -> 139 ;
140 [label="volatile acidity <= -0.78\nsquared_error = 0.07\nsamples = 4\nvalue = 0.8", fillcolor="#f0b88f"] ;
139 -> 140 ;
141 [label="squared_error = 0.0\nsamples = 1\nvalue = 1.21", fillcolor="#eeae7f"] ;
140 -> 141 ;
142 [label="fixed acidity <= -1.66\nsquared_error = 0.02\nsamples = 3\nvalue = 0.67", fillcolor="#f1bb95"] ;
140 -> 142 ;
143 [label="sulphates <= -0.7\nsquared_error = 0.0\nsamples = 2\nvalue = 0.76", fillcolor="#f1b991"] ;
142 -> 143 ;
144 [label="squared_error = 0.0\nsamples = 1\nvalue = 0.8", fillcolor="#f0b88f"] ;
143 -> 144 ;
145 [label="squared_error = 0.0\nsamples = 1\nvalue = 0.72", fillcolor="#f1ba92"] ;
143 -> 145 ;
146 [label="squared_error = -0.0\nsamples = 1\nvalue = 0.48", fillcolor="#f2c09c"] ;
142 -> 146 ;
147 [label="residual sugar <= -1.05\nsquared_error = 0.03\nsamples = 12\nvalue = 1.15", fillcolor="#efaf81"] ;
139 -> 147 ;
148 [label="volatile acidity <= -0.43\nsquared_error = 0.02\nsamples = 9\nvalue = 1.23", fillcolor="#eead7f"] ;
147 -> 148 ;
149 [label="citric acid <= -0.12\nsquared_error = 0.01\nsamples = 5\nvalue = 1.14", fillcolor="#efaf82"] ;
148 -> 149 ;
150 [label="fixed acidity <= 0.35\nsquared_error = 0.0\nsamples = 3\nvalue = 1.23", fillcolor="#eead7e"] ;
149 -> 150 ;
151 [label="squared_error = 0.0\nsamples = 2\nvalue = 1.21", fillcolor="#eeae7f"] ;
150 -> 151 ;
152 [label="squared_error = 0.0\nsamples = 1\nvalue = 1.29", fillcolor="#eeac7c"] ;
150 -> 152 ;
153 [label="volatile acidity <= -0.97\nsquared_error = 0.0\nsamples = 2\nvalue = 1.0", fillcolor="#efb387"] ;
149 -> 153 ;
154 [label="squared_error = 0.0\nsamples = 1\nvalue = 0.96", fillcolor="#efb489"] ;
153 -> 154 ;
155 [label="squared_error = -0.0\nsamples = 1\nvalue = 1.04", fillcolor="#efb286"] ;
153 -> 155 ;
156 [label="pH <= 0.81\nsquared_error = 0.0\nsamples = 4\nvalue = 1.33", fillcolor="#eeab7a"] ;
148 -> 156 ;
157 [label="squared_error = 0.0\nsamples = 3\nvalue = 1.29", fillcolor="#eeac7c"] ;
156 -> 157 ;
158 [label="squared_error = 0.0\nsamples = 1\nvalue = 1.45", fillcolor="#eda876"] ;
156 -> 158 ;
159 [label="volatile acidity <= -0.93\nsquared_error = 0.02\nsamples = 3\nvalue = 0.94", fillcolor="#f0b48a"] ;
147 -> 159 ;
160 [label="squared_error = 0.0\nsamples = 1\nvalue = 1.13", fillcolor="#efb082"] ;
159 -> 160 ;
161 [label="density <= -1.49\nsquared_error = 0.0\nsamples = 2\nvalue = 0.84", fillcolor="#f0b78e"] ;
159 -> 161 ;
162 [label="squared_error = 0.0\nsamples = 1\nvalue = 0.8", fillcolor="#f0b88f"] ;
161 -> 162 ;
163 [label="squared_error = 0.0\nsamples = 1\nvalue = 0.88", fillcolor="#f0b68c"] ;
161 -> 163 ;
164 [label="free sulfur dioxide <= 0.89\nsquared_error = 0.08\nsamples = 34\nvalue = 1.47", fillcolor="#eda775"] ;
138 -> 164 ;
165 [label="pH <= -0.75\nsquared_error = 0.06\nsamples = 30\nvalue = 1.52", fillcolor="#eda673"] ;
164 -> 165 ;
166 [label="density <= -1.47\nsquared_error = 0.01\nsamples = 4\nvalue = 1.13", fillcolor="#efb082"] ;
165 -> 166 ;
167 [label="squared_error = 0.0\nsamples = 2\nvalue = 1.21", fillcolor="#eeae7f"] ;
166 -> 167 ;
168 [label="squared_error = 0.0\nsamples = 2\nvalue = 1.04", fillcolor="#efb286"] ;
166 -> 168 ;
169 [label="citric acid <= 0.01\nsquared_error = 0.04\nsamples = 26\nvalue = 1.59", fillcolor="#eca470"] ;
165 -> 169 ;
170 [label="sulphates <= -1.01\nsquared_error = 0.02\nsamples = 16\nvalue = 1.49", fillcolor="#eda774"] ;
169 -> 170 ;
171 [label="citric acid <= -0.16\nsquared_error = 0.02\nsamples = 7\nvalue = 1.37", fillcolor="#edaa79"] ;
170 -> 171 ;
172 [label="pH <= 1.2\nsquared_error = 0.01\nsamples = 6\nvalue = 1.33", fillcolor="#eeab7a"] ;
171 -> 172 ;
173 [label="residual sugar <= -0.95\nsquared_error = 0.0\nsamples = 4\nvalue = 1.29", fillcolor="#eeac7c"] ;
172 -> 173 ;
174 [label="pH <= 0.34\nsquared_error = 0.0\nsamples = 3\nvalue = 1.32", fillcolor="#eeab7b"] ;
173 -> 174 ;
175 [label="squared_error = 0.0\nsamples = 1\nvalue = 1.37", fillcolor="#edaa79"] ;
174 -> 175 ;
176 [label="squared_error = 0.0\nsamples = 2\nvalue = 1.29", fillcolor="#eeac7c"] ;
174 -> 176 ;
177 [label="squared_error = -0.0\nsamples = 1\nvalue = 1.21", fillcolor="#eeae7f"] ;
173 -> 177 ;
178 [label="volatile acidity <= 1.11\nsquared_error = 0.0\nsamples = 2\nvalue = 1.41", fillcolor="#eda977"] ;
172 -> 178 ;
179 [label="squared_error = 0.0\nsamples = 1\nvalue = 1.37", fillcolor="#edaa79"] ;
178 -> 179 ;
180 [label="squared_error = 0.0\nsamples = 1\nvalue = 1.45", fillcolor="#eda876"] ;
178 -> 180 ;
181 [label="squared_error = 0.0\nsamples = 1\nvalue = 1.61", fillcolor="#eca46f"] ;
171 -> 181 ;
182 [label="free sulfur dioxide <= -1.4\nsquared_error = 0.01\nsamples = 9\nvalue = 1.58", fillcolor="#eca471"] ;
170 -> 182 ;
183 [label="squared_error = 0.0\nsamples = 1\nvalue = 1.78", fillcolor="#eb9f69"] ;
182 -> 183 ;
184 [label="chlorides <= -0.79\nsquared_error = 0.0\nsamples = 8\nvalue = 1.55", fillcolor="#eca572"] ;
182 -> 184 ;
185 [label="fixed acidity <= -0.78\nsquared_error = 0.0\nsamples = 4\nvalue = 1.59", fillcolor="#eca470"] ;
184 -> 185 ;
186 [label="squared_error = 0.0\nsamples = 3\nvalue = 1.61", fillcolor="#eca46f"] ;
185 -> 186 ;
187 [label="squared_error = -0.0\nsamples = 1\nvalue = 1.53", fillcolor="#eda672"] ;
185 -> 187 ;
188 [label="free sulfur dioxide <= -0.78\nsquared_error = 0.0\nsamples = 4\nvalue = 1.51", fillcolor="#eda673"] ;
184 -> 188 ;
189 [label="squared_error = 0.0\nsamples = 1\nvalue = 1.45", fillcolor="#eda876"] ;
188 -> 189 ;
190 [label="squared_error = -0.0\nsamples = 3\nvalue = 1.53", fillcolor="#eda672"] ;
188 -> 190 ;
191 [label="total sulfur dioxide <= -0.83\nsquared_error = 0.03\nsamples = 10\nvalue = 1.74", fillcolor="#eba06a"] ;
169 -> 191 ;
192 [label="squared_error = 0.0\nsamples = 2\nvalue = 2.02", fillcolor="#ea995f"] ;
191 -> 192 ;
193 [label="pH <= 0.24\nsquared_error = 0.01\nsamples = 8\nvalue = 1.67", fillcolor="#eca26d"] ;
191 -> 193 ;
194 [label="quality <= 0.7\nsquared_error = 0.0\nsamples = 4\nvalue = 1.57", fillcolor="#eca571"] ;
193 -> 194 ;
195 [label="squared_error = 0.0\nsamples = 2\nvalue = 1.61", fillcolor="#eca46f"] ;
194 -> 195 ;
196 [label="squared_error = -0.0\nsamples = 2\nvalue = 1.53", fillcolor="#eda672"] ;
194 -> 196 ;
197 [label="citric acid <= 0.17\nsquared_error = 0.0\nsamples = 4\nvalue = 1.78", fillcolor="#eb9f69"] ;
193 -> 197 ;
198 [label="free sulfur dioxide <= -0.08\nsquared_error = 0.0\nsamples = 3\nvalue = 1.75", fillcolor="#eba06a"] ;
197 -> 198 ;
199 [label="squared_error = 0.0\nsamples = 2\nvalue = 1.78", fillcolor="#eb9f69"] ;
198 -> 199 ;
200 [label="squared_error = -0.0\nsamples = 1\nvalue = 1.7", fillcolor="#eca26c"] ;
198 -> 200 ;
201 [label="squared_error = -0.0\nsamples = 1\nvalue = 1.86", fillcolor="#eb9d66"] ;
197 -> 201 ;
202 [label="pH <= -0.12\nsquared_error = 0.08\nsamples = 4\nvalue = 1.07", fillcolor="#efb185"] ;
164 -> 202 ;
203 [label="squared_error = 0.0\nsamples = 1\nvalue = 1.53", fillcolor="#eda672"] ;
202 -> 203 ;
204 [label="density <= -1.48\nsquared_error = 0.01\nsamples = 3\nvalue = 0.91", fillcolor="#f0b58b"] ;
202 -> 204 ;
205 [label="squared_error = 0.0\nsamples = 2\nvalue = 0.96", fillcolor="#efb489"] ;
204 -> 205 ;
206 [label="squared_error = 0.0\nsamples = 1\nvalue = 0.8", fillcolor="#f0b88f"] ;
204 -> 206 ;
207 [label="quality <= 0.7\nsquared_error = 0.12\nsamples = 120\nvalue = 1.98", fillcolor="#ea9a61"] ;
41 -> 207 ;
208 [label="citric acid <= -0.9\nsquared_error = 0.1\nsamples = 41\nvalue = 1.79", fillcolor="#eb9f68"] ;
207 -> 208 ;
209 [label="pH <= 0.61\nsquared_error = 0.03\nsamples = 2\nvalue = 2.51", fillcolor="#e88d4c"] ;
208 -> 209 ;
210 [label="squared_error = 0.0\nsamples = 1\nvalue = 2.35", fillcolor="#e89153"] ;
209 -> 210 ;
211 [label="squared_error = -0.0\nsamples = 1\nvalue = 2.67", fillcolor="#e78946"] ;
209 -> 211 ;
212 [label="residual sugar <= -0.8\nsquared_error = 0.08\nsamples = 39\nvalue = 1.75", fillcolor="#eba06a"] ;
208 -> 212 ;
213 [label="total sulfur dioxide <= -0.57\nsquared_error = 0.1\nsamples = 14\nvalue = 1.57", fillcolor="#eca571"] ;
212 -> 213 ;
214 [label="pH <= -0.82\nsquared_error = 0.03\nsamples = 7\nvalue = 1.35", fillcolor="#edaa7a"] ;
213 -> 214 ;
215 [label="pH <= -1.18\nsquared_error = 0.01\nsamples = 2\nvalue = 1.13", fillcolor="#efb082"] ;
214 -> 215 ;
216 [label="squared_error = 0.0\nsamples = 1\nvalue = 1.21", fillcolor="#eeae7f"] ;
215 -> 216 ;
217 [label="squared_error = -0.0\nsamples = 1\nvalue = 1.04", fillcolor="#efb286"] ;
215 -> 217 ;
218 [label="total sulfur dioxide <= -1.29\nsquared_error = 0.0\nsamples = 5\nvalue = 1.44", fillcolor="#eda876"] ;
214 -> 218 ;
219 [label="squared_error = 0.0\nsamples = 1\nvalue = 1.33", fillcolor="#eeab7a"] ;
218 -> 219 ;
220 [label="density <= -1.49\nsquared_error = 0.0\nsamples = 4\nvalue = 1.47", fillcolor="#eda775"] ;
218 -> 220 ;
221 [label="squared_error = -0.0\nsamples = 3\nvalue = 1.45", fillcolor="#eda876"] ;
220 -> 221 ;
222 [label="squared_error = 0.0\nsamples = 1\nvalue = 1.53", fillcolor="#eda672"] ;
220 -> 222 ;
223 [label="fixed acidity <= -0.24\nsquared_error = 0.08\nsamples = 7\nvalue = 1.79", fillcolor="#eb9f68"] ;
213 -> 223 ;
224 [label="volatile acidity <= 0.32\nsquared_error = 0.04\nsamples = 6\nvalue = 1.7", fillcolor="#eca26c"] ;
223 -> 224 ;
225 [label="free sulfur dioxide <= 0.01\nsquared_error = 0.01\nsamples = 3\nvalue = 1.53", fillcolor="#eda672"] ;
224 -> 225 ;
226 [label="free sulfur dioxide <= -0.4\nsquared_error = 0.0\nsamples = 2\nvalue = 1.61", fillcolor="#eca46f"] ;
225 -> 226 ;
227 [label="squared_error = 0.0\nsamples = 1\nvalue = 1.61", fillcolor="#eca46f"] ;
226 -> 227 ;
228 [label="squared_error = 0.0\nsamples = 1\nvalue = 1.61", fillcolor="#eca46f"] ;
226 -> 228 ;
229 [label="squared_error = -0.0\nsamples = 1\nvalue = 1.37", fillcolor="#edaa79"] ;
225 -> 229 ;
230 [label="pH <= 1.04\nsquared_error = 0.0\nsamples = 3\nvalue = 1.86", fillcolor="#eb9d66"] ;
224 -> 230 ;
231 [label="residual sugar <= -0.82\nsquared_error = 0.0\nsamples = 2\nvalue = 1.9", fillcolor="#eb9c64"] ;
230 -> 231 ;
232 [label="squared_error = 0.0\nsamples = 1\nvalue = 1.94", fillcolor="#ea9b63"] ;
231 -> 232 ;
233 [label="squared_error = 0.0\nsamples = 1\nvalue = 1.86", fillcolor="#eb9d66"] ;
231 -> 233 ;
234 [label="squared_error = 0.0\nsamples = 1\nvalue = 1.78", fillcolor="#eb9f69"] ;
230 -> 234 ;
235 [label="squared_error = -0.0\nsamples = 1\nvalue = 2.35", fillcolor="#e89153"] ;
223 -> 235 ;
236 [label="pH <= -1.02\nsquared_error = 0.03\nsamples = 25\nvalue = 1.85", fillcolor="#eb9e66"] ;
212 -> 236 ;
237 [label="sulphates <= -0.09\nsquared_error = 0.01\nsamples = 5\nvalue = 2.04", fillcolor="#ea995f"] ;
236 -> 237 ;
238 [label="pH <= -1.21\nsquared_error = 0.0\nsamples = 3\nvalue = 1.97", fillcolor="#ea9b61"] ;
237 -> 238 ;
239 [label="squared_error = 0.0\nsamples = 1\nvalue = 2.02", fillcolor="#ea995f"] ;
238 -> 239 ;
240 [label="squared_error = 0.0\nsamples = 2\nvalue = 1.94", fillcolor="#ea9b63"] ;
238 -> 240 ;
241 [label="fixed acidity <= -0.36\nsquared_error = 0.0\nsamples = 2\nvalue = 2.14", fillcolor="#e9965b"] ;
237 -> 241 ;
242 [label="squared_error = 0.0\nsamples = 1\nvalue = 2.1", fillcolor="#ea975c"] ;
241 -> 242 ;
243 [label="squared_error = 0.0\nsamples = 1\nvalue = 2.18", fillcolor="#e99559"] ;
241 -> 243 ;
244 [label="pH <= -0.52\nsquared_error = 0.03\nsamples = 20\nvalue = 1.81", fillcolor="#eb9f68"] ;
236 -> 244 ;
245 [label="sulphates <= 1.01\nsquared_error = 0.01\nsamples = 6\nvalue = 1.65", fillcolor="#eca36e"] ;
244 -> 245 ;
246 [label="citric acid <= -0.61\nsquared_error = 0.0\nsamples = 5\nvalue = 1.61", fillcolor="#eca46f"] ;
245 -> 246 ;
247 [label="squared_error = 0.0\nsamples = 1\nvalue = 1.53", fillcolor="#eda672"] ;
246 -> 247 ;
248 [label="chlorides <= -0.45\nsquared_error = 0.0\nsamples = 4\nvalue = 1.63", fillcolor="#eca36e"] ;
246 -> 248 ;
249 [label="squared_error = 0.0\nsamples = 3\nvalue = 1.61", fillcolor="#eca46f"] ;
248 -> 249 ;
250 [label="squared_error = 0.0\nsamples = 1\nvalue = 1.7", fillcolor="#eca26c"] ;
248 -> 250 ;
251 [label="squared_error = 0.0\nsamples = 1\nvalue = 1.86", fillcolor="#eb9d66"] ;
245 -> 251 ;
252 [label="volatile acidity <= 0.86\nsquared_error = 0.02\nsamples = 14\nvalue = 1.87", fillcolor="#eb9d65"] ;
244 -> 252 ;
253 [label="density <= -1.46\nsquared_error = 0.01\nsamples = 11\nvalue = 1.82", fillcolor="#eb9e67"] ;
252 -> 253 ;
254 [label="volatile acidity <= 0.07\nsquared_error = 0.0\nsamples = 10\nvalue = 1.79", fillcolor="#eb9f68"] ;
253 -> 254 ;
255 [label="residual sugar <= -0.59\nsquared_error = 0.0\nsamples = 5\nvalue = 1.82", fillcolor="#eb9e67"] ;
254 -> 255 ;
256 [label="squared_error = 0.0\nsamples = 1\nvalue = 1.86", fillcolor="#eb9d66"] ;
255 -> 256 ;
257 [label="pH <= 0.57\nsquared_error = 0.0\nsamples = 4\nvalue = 1.81", fillcolor="#eb9f68"] ;
255 -> 257 ;
258 [label="squared_error = 0.0\nsamples = 3\nvalue = 1.82", fillcolor="#eb9e67"] ;
257 -> 258 ;
259 [label="squared_error = 0.0\nsamples = 1\nvalue = 1.78", fillcolor="#eb9f69"] ;
257 -> 259 ;
260 [label="fixed acidity <= -0.84\nsquared_error = 0.0\nsamples = 5\nvalue = 1.76", fillcolor="#eba06a"] ;
254 -> 260 ;
261 [label="squared_error = 0.0\nsamples = 1\nvalue = 1.7", fillcolor="#eca26c"] ;
260 -> 261 ;
262 [label="density <= -1.5\nsquared_error = 0.0\nsamples = 4\nvalue = 1.78", fillcolor="#eb9f69"] ;
260 -> 262 ;
263 [label="squared_error = 0.0\nsamples = 2\nvalue = 1.78", fillcolor="#eb9f69"] ;
262 -> 263 ;
264 [label="squared_error = 0.0\nsamples = 2\nvalue = 1.78", fillcolor="#eb9f69"] ;
262 -> 264 ;
265 [label="squared_error = 0.0\nsamples = 1\nvalue = 2.1", fillcolor="#ea975c"] ;
253 -> 265 ;
266 [label="total sulfur dioxide <= -1.03\nsquared_error = 0.01\nsamples = 3\nvalue = 2.07", fillcolor="#ea985d"] ;
252 -> 266 ;
267 [label="squared_error = 0.0\nsamples = 1\nvalue = 2.18", fillcolor="#e99559"] ;
266 -> 267 ;
268 [label="squared_error = 0.0\nsamples = 2\nvalue = 2.02", fillcolor="#ea995f"] ;
266 -> 268 ;
269 [label="sulphates <= 2.5\nsquared_error = 0.1\nsamples = 79\nvalue = 2.08", fillcolor="#ea985d"] ;
207 -> 269 ;
270 [label="volatile acidity <= 0.86\nsquared_error = 0.08\nsamples = 76\nvalue = 2.05", fillcolor="#ea995e"] ;
269 -> 270 ;
271 [label="fixed acidity <= -0.06\nsquared_error = 0.07\nsamples = 57\nvalue = 1.97", fillcolor="#ea9b61"] ;
270 -> 271 ;
272 [label="chlorides <= -0.7\nsquared_error = 0.06\nsamples = 50\nvalue = 1.93", fillcolor="#ea9c63"] ;
271 -> 272 ;
273 [label="density <= -1.66\nsquared_error = 0.07\nsamples = 15\nvalue = 2.11", fillcolor="#ea975c"] ;
272 -> 273 ;
274 [label="citric acid <= -0.41\nsquared_error = 0.01\nsamples = 9\nvalue = 1.95", fillcolor="#ea9b62"] ;
273 -> 274 ;
275 [label="free sulfur dioxide <= -0.64\nsquared_error = 0.0\nsamples = 2\nvalue = 2.06", fillcolor="#ea985e"] ;
274 -> 275 ;
276 [label="squared_error = 0.0\nsamples = 1\nvalue = 2.1", fillcolor="#ea975c"] ;
275 -> 276 ;
277 [label="squared_error = 0.0\nsamples = 1\nvalue = 2.02", fillcolor="#ea995f"] ;
275 -> 277 ;
278 [label="free sulfur dioxide <= 0.01\nsquared_error = 0.0\nsamples = 7\nvalue = 1.92", fillcolor="#eb9c63"] ;
274 -> 278 ;
279 [label="squared_error = -0.0\nsamples = 3\nvalue = 1.86", fillcolor="#eb9d66"] ;
278 -> 279 ;
280 [label="sulphates <= -1.18\nsquared_error = 0.0\nsamples = 4\nvalue = 1.96", fillcolor="#ea9b62"] ;
278 -> 280 ;
281 [label="squared_error = 0.0\nsamples = 1\nvalue = 2.02", fillcolor="#ea995f"] ;
280 -> 281 ;
282 [label="citric acid <= -0.24\nsquared_error = 0.0\nsamples = 3\nvalue = 1.94", fillcolor="#ea9b63"] ;
280 -> 282 ;
283 [label="squared_error = 0.0\nsamples = 1\nvalue = 1.94", fillcolor="#ea9b63"] ;
282 -> 283 ;
284 [label="squared_error = 0.0\nsamples = 2\nvalue = 1.94", fillcolor="#ea9b63"] ;
282 -> 284 ;
285 [label="density <= -1.63\nsquared_error = 0.06\nsamples = 6\nvalue = 2.35", fillcolor="#e89153"] ;
273 -> 285 ;
286 [label="squared_error = -0.0\nsamples = 3\nvalue = 2.59", fillcolor="#e78b49"] ;
285 -> 286 ;
287 [label="citric acid <= -0.41\nsquared_error = 0.0\nsamples = 3\nvalue = 2.1", fillcolor="#ea975c"] ;
285 -> 287 ;
288 [label="squared_error = 0.0\nsamples = 1\nvalue = 2.02", fillcolor="#ea995f"] ;
287 -> 288 ;
289 [label="citric acid <= -0.16\nsquared_error = 0.0\nsamples = 2\nvalue = 2.14", fillcolor="#e9965b"] ;
287 -> 289 ;
290 [label="squared_error = 0.0\nsamples = 1\nvalue = 2.18", fillcolor="#e99559"] ;
289 -> 290 ;
291 [label="squared_error = 0.0\nsamples = 1\nvalue = 2.1", fillcolor="#ea975c"] ;
289 -> 291 ;
292 [label="pH <= -0.75\nsquared_error = 0.05\nsamples = 35\nvalue = 1.86", fillcolor="#eb9d66"] ;
272 -> 292 ;
293 [label="sulphates <= 0.7\nsquared_error = 0.04\nsamples = 4\nvalue = 1.49", fillcolor="#eda774"] ;
292 -> 293 ;
294 [label="volatile acidity <= 0.71\nsquared_error = 0.01\nsamples = 2\nvalue = 1.29", fillcolor="#eeac7c"] ;
293 -> 294 ;
295 [label="squared_error = 0.0\nsamples = 1\nvalue = 1.37", fillcolor="#edaa79"] ;
294 -> 295 ;
296 [label="squared_error = 0.0\nsamples = 1\nvalue = 1.21", fillcolor="#eeae7f"] ;
294 -> 296 ;
297 [label="sulphates <= 1.62\nsquared_error = 0.0\nsamples = 2\nvalue = 1.7", fillcolor="#eca26c"] ;
293 -> 297 ;
298 [label="squared_error = 0.0\nsamples = 1\nvalue = 1.7", fillcolor="#eca26c"] ;
297 -> 298 ;
299 [label="squared_error = 0.0\nsamples = 1\nvalue = 1.7", fillcolor="#eca26c"] ;
297 -> 299 ;
300 [label="volatile acidity <= 0.36\nsquared_error = 0.03\nsamples = 31\nvalue = 1.9", fillcolor="#eb9c64"] ;
292 -> 300 ;
301 [label="sulphates <= 0.26\nsquared_error = 0.02\nsamples = 22\nvalue = 1.84", fillcolor="#eb9e66"] ;
300 -> 301 ;
302 [label="residual sugar <= -0.42\nsquared_error = 0.01\nsamples = 20\nvalue = 1.82", fillcolor="#eb9e67"] ;
301 -> 302 ;
303 [label="pH <= 0.51\nsquared_error = 0.0\nsamples = 17\nvalue = 1.85", fillcolor="#eb9e66"] ;
302 -> 303 ;
304 [label="sulphates <= -1.31\nsquared_error = 0.0\nsamples = 10\nvalue = 1.89", fillcolor="#eb9d64"] ;
303 -> 304 ;
305 [label="squared_error = -0.0\nsamples = 3\nvalue = 1.94", fillcolor="#ea9b63"] ;
304 -> 305 ;
306 [label="residual sugar <= -0.82\nsquared_error = 0.0\nsamples = 7\nvalue = 1.87", fillcolor="#eb9d65"] ;
304 -> 306 ;
307 [label="squared_error = 0.0\nsamples = 1\nvalue = 1.94", fillcolor="#ea9b63"] ;
306 -> 307 ;
308 [label="squared_error = 0.0\nsamples = 6\nvalue = 1.86", fillcolor="#eb9d66"] ;
306 -> 308 ;
309 [label="density <= -1.49\nsquared_error = 0.0\nsamples = 7\nvalue = 1.79", fillcolor="#eb9f68"] ;
303 -> 309 ;
310 [label="squared_error = 0.0\nsamples = 6\nvalue = 1.78", fillcolor="#eb9f69"] ;
309 -> 310 ;
311 [label="squared_error = 0.0\nsamples = 1\nvalue = 1.86", fillcolor="#eb9d66"] ;
309 -> 311 ;
312 [label="volatile acidity <= -0.01\nsquared_error = 0.01\nsamples = 3\nvalue = 1.64", fillcolor="#eca36e"] ;
302 -> 312 ;
313 [label="squared_error = 0.0\nsamples = 2\nvalue = 1.7", fillcolor="#eca26c"] ;
312 -> 313 ;
314 [label="squared_error = 0.0\nsamples = 1\nvalue = 1.53", fillcolor="#eda672"] ;
312 -> 314 ;
315 [label="squared_error = -0.0\nsamples = 2\nvalue = 2.1", fillcolor="#ea975c"] ;
301 -> 315 ;
316 [label="citric acid <= -0.16\nsquared_error = 0.02\nsamples = 9\nvalue = 2.06", fillcolor="#ea985e"] ;
300 -> 316 ;
317 [label="total sulfur dioxide <= -1.07\nsquared_error = 0.01\nsamples = 7\nvalue = 2.0", fillcolor="#ea9a60"] ;
316 -> 317 ;
318 [label="squared_error = 0.0\nsamples = 2\nvalue = 1.86", fillcolor="#eb9d66"] ;
317 -> 318 ;
319 [label="quality <= 1.83\nsquared_error = 0.0\nsamples = 5\nvalue = 2.05", fillcolor="#ea995e"] ;
317 -> 319 ;
320 [label="total sulfur dioxide <= -0.28\nsquared_error = 0.0\nsamples = 3\nvalue = 2.07", fillcolor="#ea985d"] ;
319 -> 320 ;
321 [label="squared_error = 0.0\nsamples = 2\nvalue = 2.1", fillcolor="#ea975c"] ;
320 -> 321 ;
322 [label="squared_error = 0.0\nsamples = 1\nvalue = 2.02", fillcolor="#ea995f"] ;
320 -> 322 ;
323 [label="squared_error = 0.0\nsamples = 2\nvalue = 2.02", fillcolor="#ea995f"] ;
319 -> 323 ;
324 [label="squared_error = -0.0\nsamples = 2\nvalue = 2.26", fillcolor="#e99356"] ;
316 -> 324 ;
325 [label="total sulfur dioxide <= -1.22\nsquared_error = 0.03\nsamples = 7\nvalue = 2.25", fillcolor="#e99456"] ;
271 -> 325 ;
326 [label="squared_error = 0.0\nsamples = 1\nvalue = 1.94", fillcolor="#ea9b63"] ;
325 -> 326 ;
327 [label="free sulfur dioxide <= 0.31\nsquared_error = 0.01\nsamples = 6\nvalue = 2.3", fillcolor="#e99254"] ;
325 -> 327 ;
328 [label="density <= -1.52\nsquared_error = 0.0\nsamples = 3\nvalue = 2.4", fillcolor="#e89050"] ;
327 -> 328 ;
329 [label="squared_error = 0.0\nsamples = 2\nvalue = 2.43", fillcolor="#e88f4f"] ;
328 -> 329 ;
330 [label="squared_error = -0.0\nsamples = 1\nvalue = 2.35", fillcolor="#e89153"] ;
328 -> 330 ;
331 [label="sulphates <= 0.22\nsquared_error = 0.0\nsamples = 3\nvalue = 2.21", fillcolor="#e99558"] ;
327 -> 331 ;
332 [label="squared_error = 0.0\nsamples = 2\nvalue = 2.18", fillcolor="#e99559"] ;
331 -> 332 ;
333 [label="squared_error = 0.0\nsamples = 1\nvalue = 2.26", fillcolor="#e99356"] ;
331 -> 333 ;
334 [label="total sulfur dioxide <= -0.9\nsquared_error = 0.04\nsamples = 19\nvalue = 2.28", fillcolor="#e99355"] ;
270 -> 334 ;
335 [label="total sulfur dioxide <= -1.06\nsquared_error = 0.07\nsamples = 6\nvalue = 2.13", fillcolor="#e9975b"] ;
334 -> 335 ;
336 [label="citric acid <= -0.7\nsquared_error = 0.0\nsamples = 4\nvalue = 2.3", fillcolor="#e99254"] ;
335 -> 336 ;
337 [label="squared_error = 0.0\nsamples = 3\nvalue = 2.35", fillcolor="#e89153"] ;
336 -> 337 ;
338 [label="squared_error = -0.0\nsamples = 1\nvalue = 2.18", fillcolor="#e99559"] ;
336 -> 338 ;
339 [label="sulphates <= -0.7\nsquared_error = 0.01\nsamples = 2\nvalue = 1.78", fillcolor="#eb9f69"] ;
335 -> 339 ;
340 [label="squared_error = 0.0\nsamples = 1\nvalue = 1.86", fillcolor="#eb9d66"] ;
339 -> 340 ;
341 [label="squared_error = 0.0\nsamples = 1\nvalue = 1.7", fillcolor="#eca26c"] ;
339 -> 341 ;
342 [label="fixed acidity <= -1.19\nsquared_error = 0.01\nsamples = 13\nvalue = 2.35", fillcolor="#e89152"] ;
334 -> 342 ;
343 [label="free sulfur dioxide <= -0.22\nsquared_error = 0.01\nsamples = 7\nvalue = 2.26", fillcolor="#e99356"] ;
342 -> 343 ;
344 [label="squared_error = -0.0\nsamples = 4\nvalue = 2.35", fillcolor="#e89153"] ;
343 -> 344 ;
345 [label="free sulfur dioxide <= 0.36\nsquared_error = 0.0\nsamples = 3\nvalue = 2.16", fillcolor="#e9965a"] ;
343 -> 345 ;
346 [label="squared_error = 0.0\nsamples = 2\nvalue = 2.18", fillcolor="#e99559"] ;
345 -> 346 ;
347 [label="squared_error = -0.0\nsamples = 1\nvalue = 2.1", fillcolor="#ea975c"] ;
345 -> 347 ;
348 [label="density <= -1.74\nsquared_error = 0.0\nsamples = 6\nvalue = 2.45", fillcolor="#e88f4e"] ;
342 -> 348 ;
349 [label="squared_error = 0.0\nsamples = 2\nvalue = 2.51", fillcolor="#e88d4c"] ;
348 -> 349 ;
350 [label="squared_error = -0.0\nsamples = 4\nvalue = 2.43", fillcolor="#e88f4f"] ;
348 -> 350 ;
351 [label="total sulfur dioxide <= -0.4\nsquared_error = 0.0\nsamples = 3\nvalue = 2.78", fillcolor="#e68642"] ;
269 -> 351 ;
352 [label="squared_error = 0.0\nsamples = 1\nvalue = 2.83", fillcolor="#e6853f"] ;
351 -> 352 ;
353 [label="squared_error = -0.0\nsamples = 2\nvalue = 2.75", fillcolor="#e68743"] ;
351 -> 353 ;
354 [label="residual sugar <= -0.92\nsquared_error = 0.23\nsamples = 248\nvalue = 1.4", fillcolor="#eda978"] ;
2 -> 354 ;
355 [label="total sulfur dioxide <= -0.82\nsquared_error = 0.14\nsamples = 112\nvalue = 1.11", fillcolor="#efb083"] ;
354 -> 355 ;
356 [label="residual sugar <= -1.03\nsquared_error = 0.14\nsamples = 75\nvalue = 1.0", fillcolor="#efb387"] ;
355 -> 356 ;
357 [label="fixed acidity <= -0.84\nsquared_error = 0.1\nsamples = 30\nvalue = 0.79", fillcolor="#f0b890"] ;
356 -> 357 ;
358 [label="residual sugar <= -1.09\nsquared_error = 0.06\nsamples = 13\nvalue = 0.56", fillcolor="#f2be99"] ;
357 -> 358 ;
359 [label="residual sugar <= -1.11\nsquared_error = 0.01\nsamples = 4\nvalue = 0.25", fillcolor="#f3c6a5"] ;
358 -> 359 ;
360 [label="squared_error = 0.0\nsamples = 1\nvalue = 0.07", fillcolor="#f4caac"] ;
359 -> 360 ;
361 [label="quality <= -1.56\nsquared_error = 0.0\nsamples = 3\nvalue = 0.31", fillcolor="#f3c4a2"] ;
359 -> 361 ;
362 [label="volatile acidity <= 3.22\nsquared_error = 0.0\nsamples = 2\nvalue = 0.35", fillcolor="#f3c3a1"] ;
361 -> 362 ;
363 [label="squared_error = 0.0\nsamples = 1\nvalue = 0.31", fillcolor="#f3c4a2"] ;
362 -> 363 ;
364 [label="squared_error = 0.0\nsamples = 1\nvalue = 0.39", fillcolor="#f2c29f"] ;
362 -> 364 ;
365 [label="squared_error = 0.0\nsamples = 1\nvalue = 0.23", fillcolor="#f3c6a6"] ;
361 -> 365 ;
366 [label="volatile acidity <= -0.83\nsquared_error = 0.01\nsamples = 9\nvalue = 0.69", fillcolor="#f1bb93"] ;
358 -> 366 ;
367 [label="squared_error = 0.0\nsamples = 3\nvalue = 0.56", fillcolor="#f2be99"] ;
366 -> 367 ;
368 [label="pH <= 1.73\nsquared_error = 0.01\nsamples = 6\nvalue = 0.76", fillcolor="#f1b991"] ;
366 -> 368 ;
369 [label="squared_error = 0.0\nsamples = 5\nvalue = 0.72", fillcolor="#f1ba92"] ;
368 -> 369 ;
370 [label="squared_error = 0.0\nsamples = 1\nvalue = 0.96", fillcolor="#efb489"] ;
368 -> 370 ;
371 [label="density <= -1.36\nsquared_error = 0.06\nsamples = 17\nvalue = 0.97", fillcolor="#efb489"] ;
357 -> 371 ;
372 [label="volatile acidity <= -1.42\nsquared_error = 0.05\nsamples = 7\nvalue = 1.14", fillcolor="#efaf82"] ;
371 -> 372 ;
373 [label="quality <= 0.7\nsquared_error = 0.01\nsamples = 2\nvalue = 0.84", fillcolor="#f0b78e"] ;
372 -> 373 ;
374 [label="squared_error = 0.0\nsamples = 1\nvalue = 0.96", fillcolor="#efb489"] ;
373 -> 374 ;
375 [label="squared_error = 0.0\nsamples = 1\nvalue = 0.72", fillcolor="#f1ba92"] ;
373 -> 375 ;
376 [label="chlorides <= -0.74\nsquared_error = 0.01\nsamples = 5\nvalue = 1.26", fillcolor="#eeac7d"] ;
372 -> 376 ;
377 [label="squared_error = 0.0\nsamples = 1\nvalue = 1.04", fillcolor="#efb286"] ;
376 -> 377 ;
378 [label="fixed acidity <= 0.23\nsquared_error = 0.0\nsamples = 4\nvalue = 1.31", fillcolor="#eeab7b"] ;
376 -> 378 ;
379 [label="total sulfur dioxide <= -1.51\nsquared_error = 0.0\nsamples = 3\nvalue = 1.29", fillcolor="#eeac7c"] ;
378 -> 379 ;
380 [label="squared_error = 0.0\nsamples = 1\nvalue = 1.29", fillcolor="#eeac7c"] ;
379 -> 380 ;
381 [label="squared_error = 0.0\nsamples = 2\nvalue = 1.29", fillcolor="#eeac7c"] ;
379 -> 381 ;
382 [label="squared_error = -0.0\nsamples = 1\nvalue = 1.37", fillcolor="#edaa79"] ;
378 -> 382 ;
383 [label="volatile acidity <= -1.15\nsquared_error = 0.03\nsamples = 10\nvalue = 0.85", fillcolor="#f0b78d"] ;
371 -> 383 ;
384 [label="citric acid <= 0.17\nsquared_error = 0.01\nsamples = 2\nvalue = 1.13", fillcolor="#efb082"] ;
383 -> 384 ;
385 [label="squared_error = 0.0\nsamples = 1\nvalue = 1.04", fillcolor="#efb286"] ;
384 -> 385 ;
386 [label="squared_error = -0.0\nsamples = 1\nvalue = 1.21", fillcolor="#eeae7f"] ;
384 -> 386 ;
387 [label="sulphates <= -0.92\nsquared_error = 0.01\nsamples = 8\nvalue = 0.78", fillcolor="#f0b890"] ;
383 -> 387 ;
388 [label="sulphates <= -1.09\nsquared_error = 0.01\nsamples = 3\nvalue = 0.91", fillcolor="#f0b58b"] ;
387 -> 388 ;
389 [label="squared_error = 0.0\nsamples = 1\nvalue = 0.8", fillcolor="#f0b88f"] ;
388 -> 389 ;
390 [label="squared_error = 0.0\nsamples = 2\nvalue = 0.96", fillcolor="#efb489"] ;
388 -> 390 ;
391 [label="chlorides <= -0.54\nsquared_error = 0.0\nsamples = 5\nvalue = 0.7", fillcolor="#f1ba93"] ;
387 -> 391 ;
392 [label="squared_error = 0.0\nsamples = 2\nvalue = 0.64", fillcolor="#f1bc96"] ;
391 -> 392 ;
393 [label="residual sugar <= -1.07\nsquared_error = 0.0\nsamples = 3\nvalue = 0.75", fillcolor="#f1b991"] ;
391 -> 393 ;
394 [label="squared_error = 0.0\nsamples = 1\nvalue = 0.72", fillcolor="#f1ba92"] ;
393 -> 394 ;
395 [label="squared_error = -0.0\nsamples = 2\nvalue = 0.76", fillcolor="#f1b991"] ;
393 -> 395 ;
396 [label="fixed acidity <= 0.23\nsquared_error = 0.11\nsamples = 45\nvalue = 1.14", fillcolor="#efaf82"] ;
356 -> 396 ;
397 [label="pH <= -0.88\nsquared_error = 0.09\nsamples = 36\nvalue = 1.08", fillcolor="#efb184"] ;
396 -> 397 ;
398 [label="fixed acidity <= -0.12\nsquared_error = 0.01\nsamples = 3\nvalue = 0.61", fillcolor="#f1bd97"] ;
397 -> 398 ;
399 [label="squared_error = 0.0\nsamples = 2\nvalue = 0.56", fillcolor="#f2be99"] ;
398 -> 399 ;
400 [label="squared_error = -0.0\nsamples = 1\nvalue = 0.72", fillcolor="#f1ba92"] ;
398 -> 400 ;
401 [label="residual sugar <= -1.01\nsquared_error = 0.08\nsamples = 33\nvalue = 1.12", fillcolor="#efb083"] ;
397 -> 401 ;
402 [label="citric acid <= -0.28\nsquared_error = 0.03\nsamples = 9\nvalue = 0.87", fillcolor="#f0b68c"] ;
401 -> 402 ;
403 [label="chlorides <= -0.4\nsquared_error = 0.02\nsamples = 4\nvalue = 0.72", fillcolor="#f1ba92"] ;
402 -> 403 ;
404 [label="squared_error = 0.0\nsamples = 1\nvalue = 0.96", fillcolor="#efb489"] ;
403 -> 404 ;
405 [label="squared_error = 0.0\nsamples = 3\nvalue = 0.64", fillcolor="#f1bc96"] ;
403 -> 405 ;
406 [label="chlorides <= -0.79\nsquared_error = 0.01\nsamples = 5\nvalue = 0.99", fillcolor="#efb388"] ;
402 -> 406 ;
407 [label="chlorides <= -0.86\nsquared_error = 0.0\nsamples = 3\nvalue = 0.93", fillcolor="#f0b58a"] ;
406 -> 407 ;
408 [label="squared_error = 0.0\nsamples = 2\nvalue = 0.92", fillcolor="#f0b58b"] ;
407 -> 408 ;
409 [label="squared_error = 0.0\nsamples = 1\nvalue = 0.96", fillcolor="#efb489"] ;
407 -> 409 ;
410 [label="free sulfur dioxide <= -0.61\nsquared_error = 0.0\nsamples = 2\nvalue = 1.09", fillcolor="#efb184"] ;
406 -> 410 ;
411 [label="squared_error = 0.0\nsamples = 1\nvalue = 1.13", fillcolor="#efb082"] ;
410 -> 411 ;
412 [label="squared_error = 0.0\nsamples = 1\nvalue = 1.04", fillcolor="#efb286"] ;
410 -> 412 ;
413 [label="chlorides <= -0.1\nsquared_error = 0.06\nsamples = 24\nvalue = 1.21", fillcolor="#eeae7f"] ;
401 -> 413 ;
414 [label="free sulfur dioxide <= 0.28\nsquared_error = 0.05\nsamples = 20\nvalue = 1.27", fillcolor="#eeac7d"] ;
413 -> 414 ;
415 [label="total sulfur dioxide <= -1.56\nsquared_error = 0.03\nsamples = 19\nvalue = 1.3", fillcolor="#eeab7c"] ;
414 -> 415 ;
416 [label="free sulfur dioxide <= -1.14\nsquared_error = 0.02\nsamples = 5\nvalue = 1.08", fillcolor="#efb184"] ;
415 -> 416 ;
417 [label="quality <= 1.27\nsquared_error = 0.0\nsamples = 4\nvalue = 1.15", fillcolor="#efaf82"] ;
416 -> 417 ;
418 [label="squared_error = 0.0\nsamples = 1\nvalue = 1.21", fillcolor="#eeae7f"] ;
417 -> 418 ;
419 [label="squared_error = 0.0\nsamples = 3\nvalue = 1.13", fillcolor="#efb082"] ;
417 -> 419 ;
420 [label="squared_error = 0.0\nsamples = 1\nvalue = 0.8", fillcolor="#f0b88f"] ;
416 -> 420 ;
421 [label="free sulfur dioxide <= -0.31\nsquared_error = 0.02\nsamples = 14\nvalue = 1.38", fillcolor="#eda978"] ;
415 -> 421 ;
422 [label="density <= -1.29\nsquared_error = 0.01\nsamples = 10\nvalue = 1.45", fillcolor="#eda876"] ;
421 -> 422 ;
423 [label="volatile acidity <= -1.02\nsquared_error = 0.0\nsamples = 8\nvalue = 1.42", fillcolor="#eda877"] ;
422 -> 423 ;
424 [label="squared_error = -0.0\nsamples = 3\nvalue = 1.37", fillcolor="#edaa79"] ;
423 -> 424 ;
425 [label="density <= -1.43\nsquared_error = 0.0\nsamples = 5\nvalue = 1.45", fillcolor="#eda876"] ;
423 -> 425 ;
426 [label="squared_error = 0.0\nsamples = 1\nvalue = 1.45", fillcolor="#eda876"] ;
425 -> 426 ;
427 [label="squared_error = 0.0\nsamples = 4\nvalue = 1.45", fillcolor="#eda876"] ;
425 -> 427 ;
428 [label="fixed acidity <= -0.95\nsquared_error = 0.0\nsamples = 2\nvalue = 1.57", fillcolor="#eca571"] ;
422 -> 428 ;
429 [label="squared_error = 0.0\nsamples = 1\nvalue = 1.61", fillcolor="#eca46f"] ;
428 -> 429 ;
430 [label="squared_error = 0.0\nsamples = 1\nvalue = 1.53", fillcolor="#eda672"] ;
428 -> 430 ;
431 [label="density <= -1.36\nsquared_error = 0.0\nsamples = 4\nvalue = 1.21", fillcolor="#eeae7f"] ;
421 -> 431 ;
432 [label="squared_error = 0.0\nsamples = 1\nvalue = 1.21", fillcolor="#eeae7f"] ;
431 -> 432 ;
433 [label="squared_error = 0.0\nsamples = 3\nvalue = 1.21", fillcolor="#eeae7f"] ;
431 -> 433 ;
434 [label="squared_error = 0.0\nsamples = 1\nvalue = 0.72", fillcolor="#f1ba92"] ;
414 -> 434 ;
435 [label="sulphates <= 0.0\nsquared_error = 0.03\nsamples = 4\nvalue = 0.92", fillcolor="#f0b58a"] ;
413 -> 435 ;
436 [label="squared_error = 0.0\nsamples = 1\nvalue = 1.21", fillcolor="#eeae7f"] ;
435 -> 436 ;
437 [label="density <= -1.32\nsquared_error = 0.01\nsamples = 3\nvalue = 0.83", fillcolor="#f0b78e"] ;
435 -> 437 ;
438 [label="quality <= 0.14\nsquared_error = 0.0\nsamples = 2\nvalue = 0.76", fillcolor="#f1b991"] ;
437 -> 438 ;
439 [label="squared_error = 0.0\nsamples = 1\nvalue = 0.72", fillcolor="#f1ba92"] ;
438 -> 439 ;
440 [label="squared_error = 0.0\nsamples = 1\nvalue = 0.8", fillcolor="#f0b88f"] ;
438 -> 440 ;
441 [label="squared_error = 0.0\nsamples = 1\nvalue = 0.96", fillcolor="#efb489"] ;
437 -> 441 ;
442 [label="citric acid <= -0.08\nsquared_error = 0.1\nsamples = 9\nvalue = 1.41", fillcolor="#eda977"] ;
396 -> 442 ;
443 [label="pH <= -1.54\nsquared_error = 0.05\nsamples = 3\nvalue = 1.04", fillcolor="#efb286"] ;
442 -> 443 ;
444 [label="squared_error = 0.0\nsamples = 1\nvalue = 0.72", fillcolor="#f1ba92"] ;
443 -> 444 ;
445 [label="squared_error = 0.0\nsamples = 2\nvalue = 1.21", fillcolor="#eeae7f"] ;
443 -> 445 ;
446 [label="residual sugar <= -1.0\nsquared_error = 0.03\nsamples = 6\nvalue = 1.59", fillcolor="#eca470"] ;
442 -> 446 ;
447 [label="quality <= 0.7\nsquared_error = 0.01\nsamples = 4\nvalue = 1.49", fillcolor="#eda774"] ;
446 -> 447 ;
448 [label="density <= -1.28\nsquared_error = 0.0\nsamples = 3\nvalue = 1.56", fillcolor="#eca571"] ;
447 -> 448 ;
449 [label="squared_error = 0.0\nsamples = 2\nvalue = 1.53", fillcolor="#eda672"] ;
448 -> 449 ;
450 [label="squared_error = -0.0\nsamples = 1\nvalue = 1.61", fillcolor="#eca46f"] ;
448 -> 450 ;
451 [label="squared_error = -0.0\nsamples = 1\nvalue = 1.29", fillcolor="#eeac7c"] ;
447 -> 451 ;
452 [label="squared_error = 0.0\nsamples = 2\nvalue = 1.78", fillcolor="#eb9f69"] ;
446 -> 452 ;
453 [label="sulphates <= 0.7\nsquared_error = 0.06\nsamples = 37\nvalue = 1.33", fillcolor="#eeab7a"] ;
355 -> 453 ;
454 [label="pH <= 0.44\nsquared_error = 0.06\nsamples = 24\nvalue = 1.44", fillcolor="#eda876"] ;
453 -> 454 ;
455 [label="fixed acidity <= 0.35\nsquared_error = 0.06\nsamples = 15\nvalue = 1.35", fillcolor="#edaa7a"] ;
454 -> 455 ;
456 [label="volatile acidity <= -0.23\nsquared_error = 0.04\nsamples = 10\nvalue = 1.25", fillcolor="#eead7e"] ;
455 -> 456 ;
457 [label="residual sugar <= -1.02\nsquared_error = 0.01\nsamples = 4\nvalue = 1.09", fillcolor="#efb184"] ;
456 -> 457 ;
458 [label="citric acid <= 0.01\nsquared_error = 0.0\nsamples = 2\nvalue = 1.0", fillcolor="#efb387"] ;
457 -> 458 ;
459 [label="squared_error = 0.0\nsamples = 1\nvalue = 1.04", fillcolor="#efb286"] ;
458 -> 459 ;
460 [label="squared_error = -0.0\nsamples = 1\nvalue = 0.96", fillcolor="#efb489"] ;
458 -> 460 ;
461 [label="residual sugar <= -0.97\nsquared_error = 0.0\nsamples = 2\nvalue = 1.17", fillcolor="#eeaf81"] ;
457 -> 461 ;
462 [label="squared_error = 0.0\nsamples = 1\nvalue = 1.13", fillcolor="#efb082"] ;
461 -> 462 ;
463 [label="squared_error = -0.0\nsamples = 1\nvalue = 1.21", fillcolor="#eeae7f"] ;
461 -> 463 ;
464 [label="total sulfur dioxide <= -0.5\nsquared_error = 0.03\nsamples = 6\nvalue = 1.36", fillcolor="#edaa79"] ;
456 -> 464 ;
465 [label="density <= -1.32\nsquared_error = 0.04\nsamples = 2\nvalue = 1.49", fillcolor="#eda774"] ;
464 -> 465 ;
466 [label="squared_error = 0.0\nsamples = 1\nvalue = 1.29", fillcolor="#eeac7c"] ;
465 -> 466 ;
467 [label="squared_error = 0.0\nsamples = 1\nvalue = 1.7", fillcolor="#eca26c"] ;
465 -> 467 ;
468 [label="pH <= -0.62\nsquared_error = 0.0\nsamples = 4\nvalue = 1.29", fillcolor="#eeac7c"] ;
464 -> 468 ;
469 [label="squared_error = 0.0\nsamples = 1\nvalue = 1.37", fillcolor="#edaa79"] ;
468 -> 469 ;
470 [label="pH <= 0.28\nsquared_error = 0.0\nsamples = 3\nvalue = 1.26", fillcolor="#eeac7d"] ;
468 -> 470 ;
471 [label="squared_error = 0.0\nsamples = 2\nvalue = 1.29", fillcolor="#eeac7c"] ;
470 -> 471 ;
472 [label="squared_error = -0.0\nsamples = 1\nvalue = 1.21", fillcolor="#eeae7f"] ;
470 -> 472 ;
473 [label="chlorides <= -0.79\nsquared_error = 0.06\nsamples = 5\nvalue = 1.55", fillcolor="#eca572"] ;
455 -> 473 ;
474 [label="pH <= -1.21\nsquared_error = 0.01\nsamples = 3\nvalue = 1.37", fillcolor="#edaa79"] ;
473 -> 474 ;
475 [label="squared_error = -0.0\nsamples = 2\nvalue = 1.29", fillcolor="#eeac7c"] ;
474 -> 475 ;
476 [label="squared_error = -0.0\nsamples = 1\nvalue = 1.53", fillcolor="#eda672"] ;
474 -> 476 ;
477 [label="free sulfur dioxide <= -0.22\nsquared_error = 0.0\nsamples = 2\nvalue = 1.82", fillcolor="#eb9e67"] ;
473 -> 477 ;
478 [label="squared_error = 0.0\nsamples = 1\nvalue = 1.86", fillcolor="#eb9d66"] ;
477 -> 478 ;
479 [label="squared_error = 0.0\nsamples = 1\nvalue = 1.78", fillcolor="#eb9f69"] ;
477 -> 479 ;
480 [label="sulphates <= -1.09\nsquared_error = 0.01\nsamples = 9\nvalue = 1.59", fillcolor="#eca470"] ;
454 -> 480 ;
481 [label="squared_error = 0.0\nsamples = 1\nvalue = 1.37", fillcolor="#edaa79"] ;
480 -> 481 ;
482 [label="sulphates <= -0.39\nsquared_error = 0.0\nsamples = 8\nvalue = 1.61", fillcolor="#eca46f"] ;
480 -> 482 ;
483 [label="sulphates <= -0.74\nsquared_error = 0.0\nsamples = 6\nvalue = 1.59", fillcolor="#eca470"] ;
482 -> 483 ;
484 [label="citric acid <= -0.08\nsquared_error = 0.0\nsamples = 3\nvalue = 1.64", fillcolor="#eca36e"] ;
483 -> 484 ;
485 [label="squared_error = 0.0\nsamples = 2\nvalue = 1.61", fillcolor="#eca46f"] ;
484 -> 485 ;
486 [label="squared_error = -0.0\nsamples = 1\nvalue = 1.7", fillcolor="#eca26c"] ;
484 -> 486 ;
487 [label="squared_error = -0.0\nsamples = 3\nvalue = 1.53", fillcolor="#eda672"] ;
483 -> 487 ;
488 [label="chlorides <= -0.54\nsquared_error = 0.0\nsamples = 2\nvalue = 1.7", fillcolor="#eca26c"] ;
482 -> 488 ;
489 [label="squared_error = 0.0\nsamples = 1\nvalue = 1.7", fillcolor="#eca26c"] ;
488 -> 489 ;
490 [label="squared_error = 0.0\nsamples = 1\nvalue = 1.7", fillcolor="#eca26c"] ;
488 -> 490 ;
491 [label="density <= -1.32\nsquared_error = 0.01\nsamples = 13\nvalue = 1.14", fillcolor="#efaf82"] ;
453 -> 491 ;
492 [label="chlorides <= -0.63\nsquared_error = 0.0\nsamples = 7\nvalue = 1.22", fillcolor="#eead7f"] ;
491 -> 492 ;
493 [label="squared_error = 0.0\nsamples = 1\nvalue = 1.29", fillcolor="#eeac7c"] ;
492 -> 493 ;
494 [label="pH <= -0.62\nsquared_error = 0.0\nsamples = 6\nvalue = 1.21", fillcolor="#eeae7f"] ;
492 -> 494 ;
495 [label="squared_error = 0.0\nsamples = 1\nvalue = 1.21", fillcolor="#eeae7f"] ;
494 -> 495 ;
496 [label="squared_error = -0.0\nsamples = 5\nvalue = 1.21", fillcolor="#eeae7f"] ;
494 -> 496 ;
497 [label="density <= -1.27\nsquared_error = 0.01\nsamples = 6\nvalue = 1.06", fillcolor="#efb185"] ;
491 -> 497 ;
498 [label="pH <= -0.39\nsquared_error = 0.0\nsamples = 3\nvalue = 0.96", fillcolor="#f0b489"] ;
497 -> 498 ;
499 [label="squared_error = 0.0\nsamples = 2\nvalue = 1.0", fillcolor="#efb388"] ;
498 -> 499 ;
500 [label="squared_error = -0.0\nsamples = 1\nvalue = 0.88", fillcolor="#f0b68c"] ;
498 -> 500 ;
501 [label="citric acid <= -0.37\nsquared_error = 0.0\nsamples = 3\nvalue = 1.15", fillcolor="#efaf81"] ;
497 -> 501 ;
502 [label="squared_error = 0.0\nsamples = 2\nvalue = 1.13", fillcolor="#efb082"] ;
501 -> 502 ;
503 [label="squared_error = 0.0\nsamples = 1\nvalue = 1.21", fillcolor="#eeae7f"] ;
501 -> 503 ;
504 [label="volatile acidity <= 0.76\nsquared_error = 0.18\nsamples = 136\nvalue = 1.63", fillcolor="#eca36f"] ;
354 -> 504 ;
505 [label="residual sugar <= -0.39\nsquared_error = 0.15\nsamples = 94\nvalue = 1.5", fillcolor="#eda674"] ;
504 -> 505 ;
506 [label="fixed acidity <= -0.6\nsquared_error = 0.13\nsamples = 84\nvalue = 1.44", fillcolor="#eda876"] ;
505 -> 506 ;
507 [label="pH <= -0.29\nsquared_error = 0.13\nsamples = 34\nvalue = 1.24", fillcolor="#eead7e"] ;
506 -> 507 ;
508 [label="residual sugar <= -0.54\nsquared_error = 0.05\nsamples = 9\nvalue = 0.87", fillcolor="#f0b68d"] ;
507 -> 508 ;
509 [label="density <= -1.31\nsquared_error = 0.01\nsamples = 7\nvalue = 0.77", fillcolor="#f1b991"] ;
508 -> 509 ;
510 [label="chlorides <= 0.49\nsquared_error = 0.0\nsamples = 4\nvalue = 0.86", fillcolor="#f0b68d"] ;
509 -> 510 ;
511 [label="squared_error = 0.0\nsamples = 3\nvalue = 0.88", fillcolor="#f0b68c"] ;
510 -> 511 ;
512 [label="squared_error = -0.0\nsamples = 1\nvalue = 0.8", fillcolor="#f0b88f"] ;
510 -> 512 ;
513 [label="total sulfur dioxide <= -1.49\nsquared_error = 0.0\nsamples = 3\nvalue = 0.64", fillcolor="#f1bc96"] ;
509 -> 513 ;
514 [label="squared_error = 0.0\nsamples = 1\nvalue = 0.56", fillcolor="#f2be99"] ;
513 -> 514 ;
515 [label="citric acid <= -0.37\nsquared_error = 0.0\nsamples = 2\nvalue = 0.68", fillcolor="#f1bb94"] ;
513 -> 515 ;
516 [label="squared_error = 0.0\nsamples = 1\nvalue = 0.72", fillcolor="#f1ba92"] ;
515 -> 516 ;
517 [label="squared_error = 0.0\nsamples = 1\nvalue = 0.64", fillcolor="#f1bc96"] ;
515 -> 517 ;
518 [label="volatile acidity <= 0.66\nsquared_error = 0.0\nsamples = 2\nvalue = 1.23", fillcolor="#eead7e"] ;
508 -> 518 ;
519 [label="squared_error = 0.0\nsamples = 1\nvalue = 1.21", fillcolor="#eeae7f"] ;
518 -> 519 ;
520 [label="squared_error = 0.0\nsamples = 1\nvalue = 1.26", fillcolor="#eeac7d"] ;
518 -> 520 ;
521 [label="density <= -1.35\nsquared_error = 0.1\nsamples = 25\nvalue = 1.38", fillcolor="#eda979"] ;
507 -> 521 ;
522 [label="quality <= 1.83\nsquared_error = 0.04\nsamples = 13\nvalue = 1.59", fillcolor="#eca470"] ;
521 -> 522 ;
523 [label="density <= -1.44\nsquared_error = 0.03\nsamples = 11\nvalue = 1.54", fillcolor="#eda572"] ;
522 -> 523 ;
524 [label="free sulfur dioxide <= -1.31\nsquared_error = 0.0\nsamples = 2\nvalue = 1.31", fillcolor="#eeab7b"] ;
523 -> 524 ;
525 [label="squared_error = 0.0\nsamples = 1\nvalue = 1.37", fillcolor="#edaa79"] ;
524 -> 525 ;
526 [label="squared_error = -0.0\nsamples = 1\nvalue = 1.25", fillcolor="#eead7e"] ;
524 -> 526 ;
527 [label="residual sugar <= -0.76\nsquared_error = 0.02\nsamples = 9\nvalue = 1.59", fillcolor="#eca470"] ;
523 -> 527 ;
528 [label="fixed acidity <= -1.25\nsquared_error = 0.01\nsamples = 5\nvalue = 1.7", fillcolor="#eca26c"] ;
527 -> 528 ;
529 [label="squared_error = 0.0\nsamples = 2\nvalue = 1.61", fillcolor="#eca46f"] ;
528 -> 529 ;
530 [label="pH <= 1.1\nsquared_error = 0.0\nsamples = 3\nvalue = 1.75", fillcolor="#eba06a"] ;
528 -> 530 ;
531 [label="density <= -1.39\nsquared_error = 0.0\nsamples = 2\nvalue = 1.78", fillcolor="#eb9f69"] ;
530 -> 531 ;
532 [label="squared_error = 0.0\nsamples = 1\nvalue = 1.78", fillcolor="#eb9f69"] ;
531 -> 532 ;
533 [label="squared_error = 0.0\nsamples = 1\nvalue = 1.78", fillcolor="#eb9f69"] ;
531 -> 533 ;
534 [label="squared_error = -0.0\nsamples = 1\nvalue = 1.7", fillcolor="#eca26c"] ;
530 -> 534 ;
535 [label="volatile acidity <= -0.18\nsquared_error = 0.01\nsamples = 4\nvalue = 1.45", fillcolor="#eda876"] ;
527 -> 535 ;
536 [label="squared_error = 0.0\nsamples = 1\nvalue = 1.29", fillcolor="#eeac7c"] ;
535 -> 536 ;
537 [label="residual sugar <= -0.55\nsquared_error = 0.0\nsamples = 3\nvalue = 1.51", fillcolor="#eda674"] ;
535 -> 537 ;
538 [label="squared_error = -0.0\nsamples = 2\nvalue = 1.53", fillcolor="#eda672"] ;
537 -> 538 ;
539 [label="squared_error = 0.0\nsamples = 1\nvalue = 1.45", fillcolor="#eda876"] ;
537 -> 539 ;
540 [label="chlorides <= -0.65\nsquared_error = 0.0\nsamples = 2\nvalue = 1.9", fillcolor="#eb9c64"] ;
522 -> 540 ;
541 [label="squared_error = 0.0\nsamples = 1\nvalue = 1.94", fillcolor="#ea9b63"] ;
540 -> 541 ;
542 [label="squared_error = 0.0\nsamples = 1\nvalue = 1.86", fillcolor="#eb9d66"] ;
540 -> 542 ;
543 [label="volatile acidity <= 0.14\nsquared_error = 0.05\nsamples = 12\nvalue = 1.15", fillcolor="#efaf82"] ;
521 -> 543 ;
544 [label="citric acid <= -0.41\nsquared_error = 0.05\nsamples = 10\nvalue = 1.09", fillcolor="#efb184"] ;
543 -> 544 ;
545 [label="squared_error = 0.0\nsamples = 1\nvalue = 0.64", fillcolor="#f1bc96"] ;
544 -> 545 ;
546 [label="quality <= -1.56\nsquared_error = 0.02\nsamples = 9\nvalue = 1.14", fillcolor="#efaf82"] ;
544 -> 546 ;
547 [label="squared_error = 0.0\nsamples = 1\nvalue = 0.8", fillcolor="#f0b88f"] ;
546 -> 547 ;
548 [label="sulphates <= 3.55\nsquared_error = 0.01\nsamples = 8\nvalue = 1.19", fillcolor="#eeae80"] ;
546 -> 548 ;
549 [label="chlorides <= -0.58\nsquared_error = 0.0\nsamples = 5\nvalue = 1.26", fillcolor="#eeac7d"] ;
548 -> 549 ;
550 [label="quality <= 0.7\nsquared_error = 0.0\nsamples = 3\nvalue = 1.21", fillcolor="#eeae7f"] ;
549 -> 550 ;
551 [label="squared_error = 0.0\nsamples = 2\nvalue = 1.21", fillcolor="#eeae7f"] ;
550 -> 551 ;
552 [label="squared_error = -0.0\nsamples = 1\nvalue = 1.21", fillcolor="#eeae7f"] ;
550 -> 552 ;
553 [label="volatile acidity <= -0.5\nsquared_error = 0.0\nsamples = 2\nvalue = 1.33", fillcolor="#eeab7a"] ;
549 -> 553 ;
554 [label="squared_error = 0.0\nsamples = 1\nvalue = 1.29", fillcolor="#eeac7c"] ;
553 -> 554 ;
555 [label="squared_error = 0.0\nsamples = 1\nvalue = 1.37", fillcolor="#edaa79"] ;
553 -> 555 ;
556 [label="quality <= 1.83\nsquared_error = 0.0\nsamples = 3\nvalue = 1.07", fillcolor="#efb185"] ;
548 -> 556 ;
557 [label="squared_error = 0.0\nsamples = 1\nvalue = 1.13", fillcolor="#efb082"] ;
556 -> 557 ;
558 [label="squared_error = -0.0\nsamples = 2\nvalue = 1.04", fillcolor="#efb286"] ;
556 -> 558 ;
559 [label="residual sugar <= -0.69\nsquared_error = 0.0\nsamples = 2\nvalue = 1.42", fillcolor="#eda877"] ;
543 -> 559 ;
560 [label="squared_error = 0.0\nsamples = 1\nvalue = 1.48", fillcolor="#eda775"] ;
559 -> 560 ;
561 [label="squared_error = 0.0\nsamples = 1\nvalue = 1.37", fillcolor="#edaa79"] ;
559 -> 561 ;
562 [label="pH <= -0.68\nsquared_error = 0.08\nsamples = 50\nvalue = 1.58", fillcolor="#eca471"] ;
506 -> 562 ;
563 [label="citric acid <= -0.03\nsquared_error = 0.01\nsamples = 5\nvalue = 1.19", fillcolor="#eeae80"] ;
562 -> 563 ;
564 [label="quality <= 0.7\nsquared_error = 0.0\nsamples = 3\nvalue = 1.1", fillcolor="#efb084"] ;
563 -> 564 ;
565 [label="squared_error = 0.0\nsamples = 1\nvalue = 1.04", fillcolor="#efb286"] ;
564 -> 565 ;
566 [label="squared_error = -0.0\nsamples = 2\nvalue = 1.13", fillcolor="#efb082"] ;
564 -> 566 ;
567 [label="pH <= -1.11\nsquared_error = 0.0\nsamples = 2\nvalue = 1.33", fillcolor="#eeab7a"] ;
563 -> 567 ;
568 [label="squared_error = 0.0\nsamples = 1\nvalue = 1.29", fillcolor="#eeac7c"] ;
567 -> 568 ;
569 [label="squared_error = 0.0\nsamples = 1\nvalue = 1.37", fillcolor="#edaa79"] ;
567 -> 569 ;
570 [label="total sulfur dioxide <= -0.75\nsquared_error = 0.06\nsamples = 45\nvalue = 1.62", fillcolor="#eca36f"] ;
562 -> 570 ;
571 [label="volatile acidity <= -0.43\nsquared_error = 0.06\nsamples = 27\nvalue = 1.52", fillcolor="#eda673"] ;
570 -> 571 ;
572 [label="density <= -1.3\nsquared_error = 0.06\nsamples = 5\nvalue = 1.13", fillcolor="#efb082"] ;
571 -> 572 ;
573 [label="citric acid <= -0.61\nsquared_error = 0.02\nsamples = 4\nvalue = 1.23", fillcolor="#eead7e"] ;
572 -> 573 ;
574 [label="squared_error = 0.0\nsamples = 1\nvalue = 1.45", fillcolor="#eda876"] ;
573 -> 574 ;
575 [label="density <= -1.35\nsquared_error = 0.0\nsamples = 3\nvalue = 1.15", fillcolor="#efaf81"] ;
573 -> 575 ;
576 [label="squared_error = 0.0\nsamples = 1\nvalue = 1.21", fillcolor="#eeae7f"] ;
575 -> 576 ;
577 [label="squared_error = 0.0\nsamples = 2\nvalue = 1.13", fillcolor="#efb082"] ;
575 -> 577 ;
578 [label="squared_error = -0.0\nsamples = 1\nvalue = 0.72", fillcolor="#f1ba92"] ;
572 -> 578 ;
579 [label="sulphates <= -0.26\nsquared_error = 0.02\nsamples = 22\nvalue = 1.61", fillcolor="#eca46f"] ;
571 -> 579 ;
580 [label="density <= -1.31\nsquared_error = 0.01\nsamples = 7\nvalue = 1.45", fillcolor="#eda876"] ;
579 -> 580 ;
581 [label="squared_error = 0.0\nsamples = 1\nvalue = 1.61", fillcolor="#eca46f"] ;
580 -> 581 ;
582 [label="quality <= 0.7\nsquared_error = 0.0\nsamples = 6\nvalue = 1.42", fillcolor="#eda877"] ;
580 -> 582 ;
583 [label="residual sugar <= -0.75\nsquared_error = 0.0\nsamples = 3\nvalue = 1.4", fillcolor="#eda978"] ;
582 -> 583 ;
584 [label="squared_error = 0.0\nsamples = 1\nvalue = 1.45", fillcolor="#eda876"] ;
583 -> 584 ;
585 [label="squared_error = -0.0\nsamples = 2\nvalue = 1.37", fillcolor="#edaa79"] ;
583 -> 585 ;
586 [label="citric acid <= 0.25\nsquared_error = 0.0\nsamples = 3\nvalue = 1.45", fillcolor="#eda876"] ;
582 -> 586 ;
587 [label="squared_error = -0.0\nsamples = 2\nvalue = 1.45", fillcolor="#eda876"] ;
586 -> 587 ;
588 [label="squared_error = -0.0\nsamples = 1\nvalue = 1.45", fillcolor="#eda876"] ;
586 -> 588 ;
589 [label="fixed acidity <= -0.18\nsquared_error = 0.01\nsamples = 15\nvalue = 1.68", fillcolor="#eca26d"] ;
579 -> 589 ;
590 [label="residual sugar <= -0.62\nsquared_error = 0.0\nsamples = 11\nvalue = 1.64", fillcolor="#eca36e"] ;
589 -> 590 ;
591 [label="sulphates <= 1.23\nsquared_error = 0.0\nsamples = 3\nvalue = 1.56", fillcolor="#eca571"] ;
590 -> 591 ;
592 [label="squared_error = 0.0\nsamples = 2\nvalue = 1.53", fillcolor="#eda672"] ;
591 -> 592 ;
593 [label="squared_error = -0.0\nsamples = 1\nvalue = 1.61", fillcolor="#eca46f"] ;
591 -> 593 ;
594 [label="quality <= 1.83\nsquared_error = 0.0\nsamples = 8\nvalue = 1.66", fillcolor="#eca26d"] ;
590 -> 594 ;
595 [label="chlorides <= -0.36\nsquared_error = 0.0\nsamples = 4\nvalue = 1.63", fillcolor="#eca36e"] ;
594 -> 595 ;
596 [label="squared_error = 0.0\nsamples = 3\nvalue = 1.61", fillcolor="#eca46f"] ;
595 -> 596 ;
597 [label="squared_error = -0.0\nsamples = 1\nvalue = 1.7", fillcolor="#eca26c"] ;
595 -> 597 ;
598 [label="citric acid <= -0.37\nsquared_error = 0.0\nsamples = 4\nvalue = 1.7", fillcolor="#eca26c"] ;
594 -> 598 ;
599 [label="squared_error = 0.0\nsamples = 2\nvalue = 1.7", fillcolor="#eca26c"] ;
598 -> 599 ;
600 [label="squared_error = 0.0\nsamples = 2\nvalue = 1.7", fillcolor="#eca26c"] ;
598 -> 600 ;
601 [label="chlorides <= -0.49\nsquared_error = 0.0\nsamples = 4\nvalue = 1.82", fillcolor="#eb9e67"] ;
589 -> 601 ;
602 [label="squared_error = 0.0\nsamples = 2\nvalue = 1.78", fillcolor="#eb9f69"] ;
601 -> 602 ;
603 [label="quality <= 1.27\nsquared_error = 0.0\nsamples = 2\nvalue = 1.86", fillcolor="#eb9d66"] ;
601 -> 603 ;
604 [label="squared_error = 0.0\nsamples = 1\nvalue = 1.86", fillcolor="#eb9d66"] ;
603 -> 604 ;
605 [label="squared_error = 0.0\nsamples = 1\nvalue = 1.86", fillcolor="#eb9d66"] ;
603 -> 605 ;
606 [label="pH <= -0.09\nsquared_error = 0.03\nsamples = 18\nvalue = 1.77", fillcolor="#eba069"] ;
570 -> 606 ;
607 [label="total sulfur dioxide <= -0.22\nsquared_error = 0.01\nsamples = 8\nvalue = 1.65", fillcolor="#eca36e"] ;
606 -> 607 ;
608 [label="total sulfur dioxide <= -0.49\nsquared_error = 0.0\nsamples = 4\nvalue = 1.55", fillcolor="#eca572"] ;
607 -> 608 ;
609 [label="squared_error = 0.0\nsamples = 2\nvalue = 1.61", fillcolor="#eca46f"] ;
608 -> 609 ;
610 [label="chlorides <= -0.56\nsquared_error = 0.0\nsamples = 2\nvalue = 1.49", fillcolor="#eda774"] ;
608 -> 610 ;
611 [label="squared_error = 0.0\nsamples = 1\nvalue = 1.53", fillcolor="#eda672"] ;
610 -> 611 ;
612 [label="squared_error = 0.0\nsamples = 1\nvalue = 1.45", fillcolor="#eda876"] ;
610 -> 612 ;
613 [label="residual sugar <= -0.79\nsquared_error = 0.0\nsamples = 4\nvalue = 1.76", fillcolor="#eba06a"] ;
607 -> 613 ;
614 [label="squared_error = 0.0\nsamples = 1\nvalue = 1.7", fillcolor="#eca26c"] ;
613 -> 614 ;
615 [label="free sulfur dioxide <= 0.78\nsquared_error = 0.0\nsamples = 3\nvalue = 1.78", fillcolor="#eb9f69"] ;
613 -> 615 ;
616 [label="citric acid <= -0.12\nsquared_error = 0.0\nsamples = 2\nvalue = 1.78", fillcolor="#eb9f69"] ;
615 -> 616 ;
617 [label="squared_error = 0.0\nsamples = 1\nvalue = 1.78", fillcolor="#eb9f69"] ;
616 -> 617 ;
618 [label="squared_error = 0.0\nsamples = 1\nvalue = 1.78", fillcolor="#eb9f69"] ;
616 -> 618 ;
619 [label="squared_error = -0.0\nsamples = 1\nvalue = 1.78", fillcolor="#eb9f69"] ;
615 -> 619 ;
620 [label="sulphates <= -1.05\nsquared_error = 0.02\nsamples = 10\nvalue = 1.87", fillcolor="#eb9d65"] ;
606 -> 620 ;
621 [label="squared_error = 0.0\nsamples = 1\nvalue = 1.61", fillcolor="#eca46f"] ;
620 -> 621 ;
622 [label="volatile acidity <= 0.27\nsquared_error = 0.01\nsamples = 9\nvalue = 1.89", fillcolor="#eb9d64"] ;
620 -> 622 ;
623 [label="sulphates <= -0.66\nsquared_error = 0.01\nsamples = 8\nvalue = 1.87", fillcolor="#eb9d65"] ;
622 -> 623 ;
624 [label="fixed acidity <= -0.12\nsquared_error = 0.01\nsamples = 3\nvalue = 1.75", fillcolor="#eba06a"] ;
623 -> 624 ;
625 [label="squared_error = 0.0\nsamples = 1\nvalue = 1.86", fillcolor="#eb9d66"] ;
624 -> 625 ;
626 [label="sulphates <= -0.83\nsquared_error = 0.0\nsamples = 2\nvalue = 1.7", fillcolor="#eca26c"] ;
624 -> 626 ;
627 [label="squared_error = 0.0\nsamples = 1\nvalue = 1.7", fillcolor="#eca26c"] ;
626 -> 627 ;
628 [label="squared_error = 0.0\nsamples = 1\nvalue = 1.7", fillcolor="#eca26c"] ;
626 -> 628 ;
629 [label="total sulfur dioxide <= -0.68\nsquared_error = 0.0\nsamples = 5\nvalue = 1.94", fillcolor="#ea9b63"] ;
623 -> 629 ;
630 [label="squared_error = 0.0\nsamples = 1\nvalue = 1.94", fillcolor="#ea9b63"] ;
629 -> 630 ;
631 [label="squared_error = 0.0\nsamples = 4\nvalue = 1.94", fillcolor="#ea9b63"] ;
629 -> 631 ;
632 [label="squared_error = 0.0\nsamples = 1\nvalue = 2.1", fillcolor="#ea975c"] ;
622 -> 632 ;
633 [label="volatile acidity <= -0.43\nsquared_error = 0.11\nsamples = 10\nvalue = 1.96", fillcolor="#ea9b62"] ;
505 -> 633 ;
634 [label="squared_error = 0.0\nsamples = 2\nvalue = 2.43", fillcolor="#e88f4f"] ;
633 -> 634 ;
635 [label="volatile acidity <= 0.51\nsquared_error = 0.07\nsamples = 8\nvalue = 1.85", fillcolor="#eb9e66"] ;
633 -> 635 ;
636 [label="volatile acidity <= 0.22\nsquared_error = 0.04\nsamples = 7\nvalue = 1.78", fillcolor="#eb9f69"] ;
635 -> 636 ;
637 [label="density <= -1.28\nsquared_error = 0.02\nsamples = 5\nvalue = 1.87", fillcolor="#eb9d65"] ;
636 -> 637 ;
638 [label="volatile acidity <= -0.08\nsquared_error = 0.01\nsamples = 2\nvalue = 2.02", fillcolor="#ea995f"] ;
637 -> 638 ;
639 [label="squared_error = 0.0\nsamples = 1\nvalue = 2.1", fillcolor="#ea975c"] ;
638 -> 639 ;
640 [label="squared_error = -0.0\nsamples = 1\nvalue = 1.94", fillcolor="#ea9b63"] ;
638 -> 640 ;
641 [label="sulphates <= 0.31\nsquared_error = 0.0\nsamples = 3\nvalue = 1.78", fillcolor="#eb9f69"] ;
637 -> 641 ;
642 [label="squared_error = 0.0\nsamples = 1\nvalue = 1.7", fillcolor="#eca26c"] ;
641 -> 642 ;
643 [label="pH <= -0.15\nsquared_error = 0.0\nsamples = 2\nvalue = 1.82", fillcolor="#eb9e67"] ;
641 -> 643 ;
644 [label="squared_error = 0.0\nsamples = 1\nvalue = 1.86", fillcolor="#eb9d66"] ;
643 -> 644 ;
645 [label="squared_error = 0.0\nsamples = 1\nvalue = 1.78", fillcolor="#eb9f69"] ;
643 -> 645 ;
646 [label="squared_error = -0.0\nsamples = 2\nvalue = 1.53", fillcolor="#eda672"] ;
636 -> 646 ;
647 [label="squared_error = -0.0\nsamples = 1\nvalue = 2.35", fillcolor="#e89153"] ;
635 -> 647 ;
648 [label="total sulfur dioxide <= 0.06\nsquared_error = 0.12\nsamples = 42\nvalue = 1.92", fillcolor="#eb9c63"] ;
504 -> 648 ;
649 [label="chlorides <= -0.68\nsquared_error = 0.1\nsamples = 39\nvalue = 1.97", fillcolor="#ea9b61"] ;
648 -> 649 ;
650 [label="free sulfur dioxide <= -0.93\nsquared_error = 0.03\nsamples = 14\nvalue = 1.73", fillcolor="#eca16b"] ;
649 -> 650 ;
651 [label="squared_error = 0.0\nsamples = 1\nvalue = 1.29", fillcolor="#eeac7c"] ;
650 -> 651 ;
652 [label="pH <= -0.32\nsquared_error = 0.02\nsamples = 13\nvalue = 1.76", fillcolor="#eba069"] ;
650 -> 652 ;
653 [label="residual sugar <= -0.3\nsquared_error = 0.01\nsamples = 4\nvalue = 1.9", fillcolor="#eb9c64"] ;
652 -> 653 ;
654 [label="squared_error = 0.0\nsamples = 2\nvalue = 1.78", fillcolor="#eb9f69"] ;
653 -> 654 ;
655 [label="squared_error = 0.0\nsamples = 2\nvalue = 2.02", fillcolor="#ea995f"] ;
653 -> 655 ;
656 [label="pH <= 0.44\nsquared_error = 0.01\nsamples = 9\nvalue = 1.7", fillcolor="#eca16c"] ;
652 -> 656 ;
657 [label="squared_error = 0.0\nsamples = 2\nvalue = 1.53", fillcolor="#eda672"] ;
656 -> 657 ;
658 [label="chlorides <= -0.81\nsquared_error = 0.01\nsamples = 7\nvalue = 1.75", fillcolor="#eba06a"] ;
656 -> 658 ;
659 [label="free sulfur dioxide <= 0.54\nsquared_error = 0.0\nsamples = 4\nvalue = 1.8", fillcolor="#eb9f68"] ;
658 -> 659 ;
660 [label="squared_error = 0.0\nsamples = 2\nvalue = 1.86", fillcolor="#eb9d66"] ;
659 -> 660 ;
661 [label="volatile acidity <= 0.86\nsquared_error = 0.0\nsamples = 2\nvalue = 1.74", fillcolor="#eca06a"] ;
659 -> 661 ;
662 [label="squared_error = 0.0\nsamples = 1\nvalue = 1.78", fillcolor="#eb9f69"] ;
661 -> 662 ;
663 [label="squared_error = -0.0\nsamples = 1\nvalue = 1.7", fillcolor="#eca26c"] ;
661 -> 663 ;
664 [label="total sulfur dioxide <= -1.01\nsquared_error = 0.0\nsamples = 3\nvalue = 1.7", fillcolor="#eca26c"] ;
658 -> 664 ;
665 [label="squared_error = 0.0\nsamples = 2\nvalue = 1.7", fillcolor="#eca26c"] ;
664 -> 665 ;
666 [label="squared_error = 0.0\nsamples = 1\nvalue = 1.7", fillcolor="#eca26c"] ;
664 -> 666 ;
667 [label="total sulfur dioxide <= -0.16\nsquared_error = 0.09\nsamples = 25\nvalue = 2.1", fillcolor="#ea975c"] ;
649 -> 667 ;
668 [label="free sulfur dioxide <= -0.99\nsquared_error = 0.07\nsamples = 21\nvalue = 2.02", fillcolor="#ea995f"] ;
667 -> 668 ;
669 [label="residual sugar <= -0.48\nsquared_error = 0.04\nsamples = 8\nvalue = 2.22", fillcolor="#e99457"] ;
668 -> 669 ;
670 [label="pH <= 0.18\nsquared_error = 0.01\nsamples = 4\nvalue = 2.41", fillcolor="#e89050"] ;
669 -> 670 ;
671 [label="squared_error = 0.0\nsamples = 1\nvalue = 2.59", fillcolor="#e78b49"] ;
670 -> 671 ;
672 [label="squared_error = 0.0\nsamples = 3\nvalue = 2.35", fillcolor="#e89153"] ;
670 -> 672 ;
673 [label="density <= -1.34\nsquared_error = 0.0\nsamples = 4\nvalue = 2.04", fillcolor="#ea995f"] ;
669 -> 673 ;
674 [label="squared_error = 0.0\nsamples = 1\nvalue = 2.1", fillcolor="#ea975c"] ;
673 -> 674 ;
675 [label="squared_error = -0.0\nsamples = 3\nvalue = 2.02", fillcolor="#ea995f"] ;
673 -> 675 ;
676 [label="citric acid <= -1.48\nsquared_error = 0.04\nsamples = 13\nvalue = 1.89", fillcolor="#eb9d64"] ;
668 -> 676 ;
677 [label="squared_error = 0.0\nsamples = 1\nvalue = 1.37", fillcolor="#edaa79"] ;
676 -> 677 ;
678 [label="sulphates <= 0.48\nsquared_error = 0.02\nsamples = 12\nvalue = 1.94", fillcolor="#ea9b63"] ;
676 -> 678 ;
679 [label="chlorides <= -0.01\nsquared_error = 0.01\nsamples = 7\nvalue = 1.87", fillcolor="#eb9d65"] ;
678 -> 679 ;
680 [label="residual sugar <= -0.23\nsquared_error = 0.0\nsamples = 5\nvalue = 1.92", fillcolor="#eb9c63"] ;
679 -> 680 ;
681 [label="squared_error = 0.0\nsamples = 2\nvalue = 1.86", fillcolor="#eb9d66"] ;
680 -> 681 ;
682 [label="free sulfur dioxide <= -0.31\nsquared_error = 0.0\nsamples = 3\nvalue = 1.96", fillcolor="#ea9b62"] ;
680 -> 682 ;
683 [label="squared_error = 0.0\nsamples = 1\nvalue = 2.02", fillcolor="#ea995f"] ;
682 -> 683 ;
684 [label="squared_error = -0.0\nsamples = 2\nvalue = 1.93", fillcolor="#ea9c63"] ;
682 -> 684 ;
685 [label="total sulfur dioxide <= -0.81\nsquared_error = 0.0\nsamples = 2\nvalue = 1.74", fillcolor="#eca06a"] ;
679 -> 685 ;
686 [label="squared_error = 0.0\nsamples = 1\nvalue = 1.7", fillcolor="#eca26c"] ;
685 -> 686 ;
687 [label="squared_error = -0.0\nsamples = 1\nvalue = 1.78", fillcolor="#eb9f69"] ;
685 -> 687 ;
688 [label="pH <= -0.15\nsquared_error = 0.02\nsamples = 5\nvalue = 2.04", fillcolor="#ea995f"] ;
678 -> 688 ;
689 [label="squared_error = -0.0\nsamples = 3\nvalue = 1.94", fillcolor="#ea9b63"] ;
688 -> 689 ;
690 [label="citric acid <= -0.65\nsquared_error = 0.03\nsamples = 2\nvalue = 2.18", fillcolor="#e99559"] ;
688 -> 690 ;
691 [label="squared_error = 0.0\nsamples = 1\nvalue = 2.02", fillcolor="#ea995f"] ;
690 -> 691 ;
692 [label="squared_error = 0.0\nsamples = 1\nvalue = 2.35", fillcolor="#e89153"] ;
690 -> 692 ;
693 [label="fixed acidity <= -1.13\nsquared_error = 0.01\nsamples = 4\nvalue = 2.51", fillcolor="#e88d4c"] ;
667 -> 693 ;
694 [label="squared_error = 0.0\nsamples = 1\nvalue = 2.67", fillcolor="#e78946"] ;
693 -> 694 ;
695 [label="free sulfur dioxide <= 0.63\nsquared_error = 0.01\nsamples = 3\nvalue = 2.45", fillcolor="#e88f4e"] ;
693 -> 695 ;
696 [label="squared_error = 0.0\nsamples = 1\nvalue = 2.35", fillcolor="#e89153"] ;
695 -> 696 ;
697 [label="squared_error = 0.0\nsamples = 2\nvalue = 2.51", fillcolor="#e88d4c"] ;
695 -> 697 ;
698 [label="density <= -1.26\nsquared_error = 0.02\nsamples = 3\nvalue = 1.32", fillcolor="#eeab7b"] ;
648 -> 698 ;
699 [label="squared_error = 0.0\nsamples = 2\nvalue = 1.21", fillcolor="#eeae7f"] ;
698 -> 699 ;
700 [label="squared_error = 0.0\nsamples = 1\nvalue = 1.53", fillcolor="#eda672"] ;
698 -> 700 ;
701 [label="residual sugar <= -0.46\nsquared_error = 0.44\nsamples = 1278\nvalue = 0.69", fillcolor="#f1bb94"] ;
1 -> 701 ;
702 [label="density <= -0.71\nsquared_error = 0.34\nsamples = 954\nvalue = 0.49", fillcolor="#f2c09b"] ;
701 -> 702 ;
703 [label="density <= -0.91\nsquared_error = 0.24\nsamples = 637\nvalue = 0.73", fillcolor="#f1ba92"] ;
702 -> 703 ;
704 [label="residual sugar <= -0.95\nsquared_error = 0.21\nsamples = 385\nvalue = 0.88", fillcolor="#f0b68c"] ;
703 -> 704 ;
705 [label="fixed acidity <= 0.23\nsquared_error = 0.15\nsamples = 178\nvalue = 0.65", fillcolor="#f1bc95"] ;
704 -> 705 ;
706 [label="pH <= 1.04\nsquared_error = 0.12\nsamples = 132\nvalue = 0.56", fillcolor="#f2be99"] ;
705 -> 706 ;
707 [label="citric acid <= 1.62\nsquared_error = 0.09\nsamples = 98\nvalue = 0.51", fillcolor="#f2bf9b"] ;
706 -> 707 ;
708 [label="residual sugar <= -1.09\nsquared_error = 0.08\nsamples = 97\nvalue = 0.52", fillcolor="#f2bf9a"] ;
707 -> 708 ;
709 [label="squared_error = 0.0\nsamples = 1\nvalue = -0.5", fillcolor="#f7d8c2"] ;
708 -> 709 ;
710 [label="density <= -1.18\nsquared_error = 0.07\nsamples = 96\nvalue = 0.53", fillcolor="#f2bf9a"] ;
708 -> 710 ;
711 [label="residual sugar <= -1.01\nsquared_error = 0.1\nsamples = 15\nvalue = 0.76", fillcolor="#f1b991"] ;
710 -> 711 ;
712 [label="pH <= -1.25\nsquared_error = 0.04\nsamples = 12\nvalue = 0.63", fillcolor="#f1bc96"] ;
711 -> 712 ;
713 [label="squared_error = 0.0\nsamples = 2\nvalue = 0.23", fillcolor="#f3c6a6"] ;
712 -> 713 ;
714 [label="citric acid <= -0.16\nsquared_error = 0.01\nsamples = 10\nvalue = 0.71", fillcolor="#f1ba93"] ;
712 -> 714 ;
715 [label="citric acid <= -0.41\nsquared_error = 0.0\nsamples = 3\nvalue = 0.61", fillcolor="#f1bd97"] ;
714 -> 715 ;
716 [label="squared_error = 0.0\nsamples = 1\nvalue = 0.56", fillcolor="#f2be99"] ;
715 -> 716 ;
717 [label="squared_error = 0.0\nsamples = 2\nvalue = 0.64", fillcolor="#f1bc96"] ;
715 -> 717 ;
718 [label="residual sugar <= -1.03\nsquared_error = 0.01\nsamples = 7\nvalue = 0.75", fillcolor="#f1b991"] ;
714 -> 718 ;
719 [label="squared_error = 0.0\nsamples = 6\nvalue = 0.72", fillcolor="#f1ba92"] ;
718 -> 719 ;
720 [label="squared_error = -0.0\nsamples = 1\nvalue = 0.96", fillcolor="#efb489"] ;
718 -> 720 ;
721 [label="fixed acidity <= -0.36\nsquared_error = 0.04\nsamples = 3\nvalue = 1.25", fillcolor="#eead7e"] ;
711 -> 721 ;
722 [label="squared_error = 0.0\nsamples = 1\nvalue = 0.96", fillcolor="#efb489"] ;
721 -> 722 ;
723 [label="density <= -1.2\nsquared_error = 0.0\nsamples = 2\nvalue = 1.39", fillcolor="#eda978"] ;
721 -> 723 ;
724 [label="squared_error = 0.0\nsamples = 1\nvalue = 1.41", fillcolor="#eda977"] ;
723 -> 724 ;
725 [label="squared_error = 0.0\nsamples = 1\nvalue = 1.37", fillcolor="#edaa79"] ;
723 -> 725 ;
726 [label="sulphates <= 0.88\nsquared_error = 0.05\nsamples = 81\nvalue = 0.49", fillcolor="#f2c09c"] ;
710 -> 726 ;
727 [label="citric acid <= -1.36\nsquared_error = 0.05\nsamples = 59\nvalue = 0.43", fillcolor="#f2c19e"] ;
726 -> 727 ;
728 [label="pH <= -1.28\nsquared_error = 0.01\nsamples = 4\nvalue = 0.13", fillcolor="#f4c9aa"] ;
727 -> 728 ;
729 [label="squared_error = 0.0\nsamples = 2\nvalue = 0.23", fillcolor="#f3c6a6"] ;
728 -> 729 ;
730 [label="residual sugar <= -1.03\nsquared_error = 0.0\nsamples = 2\nvalue = 0.03", fillcolor="#f4cbae"] ;
728 -> 730 ;
731 [label="squared_error = 0.0\nsamples = 1\nvalue = -0.01", fillcolor="#f5ccaf"] ;
730 -> 731 ;
732 [label="squared_error = 0.0\nsamples = 1\nvalue = 0.07", fillcolor="#f4caac"] ;
730 -> 732 ;
733 [label="citric acid <= 1.12\nsquared_error = 0.04\nsamples = 55\nvalue = 0.45", fillcolor="#f2c19d"] ;
727 -> 733 ;
734 [label="density <= -1.04\nsquared_error = 0.04\nsamples = 53\nvalue = 0.44", fillcolor="#f2c19d"] ;
733 -> 734 ;
735 [label="pH <= 0.51\nsquared_error = 0.03\nsamples = 29\nvalue = 0.51", fillcolor="#f2bf9b"] ;
734 -> 735 ;
736 [label="pH <= 0.31\nsquared_error = 0.02\nsamples = 18\nvalue = 0.44", fillcolor="#f2c19d"] ;
735 -> 736 ;
737 [label="sulphates <= 0.53\nsquared_error = 0.01\nsamples = 15\nvalue = 0.48", fillcolor="#f2c09c"] ;
736 -> 737 ;
738 [label="free sulfur dioxide <= 0.13\nsquared_error = 0.01\nsamples = 12\nvalue = 0.44", fillcolor="#f2c19d"] ;
737 -> 738 ;
739 [label="free sulfur dioxide <= 0.07\nsquared_error = 0.0\nsamples = 9\nvalue = 0.4", fillcolor="#f2c29f"] ;
738 -> 739 ;
740 [label="quality <= 0.7\nsquared_error = 0.0\nsamples = 8\nvalue = 0.42", fillcolor="#f2c29e"] ;
739 -> 740 ;
741 [label="squared_error = -0.0\nsamples = 5\nvalue = 0.39", fillcolor="#f2c29f"] ;
740 -> 741 ;
742 [label="residual sugar <= -1.01\nsquared_error = 0.0\nsamples = 3\nvalue = 0.45", fillcolor="#f2c19d"] ;
740 -> 742 ;
743 [label="squared_error = 0.0\nsamples = 1\nvalue = 0.39", fillcolor="#f2c29f"] ;
742 -> 743 ;
744 [label="squared_error = -0.0\nsamples = 2\nvalue = 0.48", fillcolor="#f2c09c"] ;
742 -> 744 ;
745 [label="squared_error = 0.0\nsamples = 1\nvalue = 0.31", fillcolor="#f3c4a2"] ;
739 -> 745 ;
746 [label="residual sugar <= -0.99\nsquared_error = 0.0\nsamples = 3\nvalue = 0.56", fillcolor="#f2be99"] ;
738 -> 746 ;
747 [label="volatile acidity <= 0.12\nsquared_error = 0.0\nsamples = 2\nvalue = 0.52", fillcolor="#f2bf9a"] ;
746 -> 747 ;
748 [label="squared_error = 0.0\nsamples = 1\nvalue = 0.48", fillcolor="#f2c09c"] ;
747 -> 748 ;
749 [label="squared_error = 0.0\nsamples = 1\nvalue = 0.56", fillcolor="#f2be99"] ;
747 -> 749 ;
750 [label="squared_error = -0.0\nsamples = 1\nvalue = 0.64", fillcolor="#f1bc96"] ;
746 -> 750 ;
751 [label="squared_error = 0.0\nsamples = 3\nvalue = 0.64", fillcolor="#f1bc96"] ;
737 -> 751 ;
752 [label="chlorides <= -0.52\nsquared_error = 0.01\nsamples = 3\nvalue = 0.23", fillcolor="#f3c6a6"] ;
736 -> 752 ;
753 [label="squared_error = 0.0\nsamples = 2\nvalue = 0.31", fillcolor="#f3c4a2"] ;
752 -> 753 ;
754 [label="squared_error = -0.0\nsamples = 1\nvalue = 0.07", fillcolor="#f4caac"] ;
752 -> 754 ;
755 [label="residual sugar <= -0.99\nsquared_error = 0.03\nsamples = 11\nvalue = 0.63", fillcolor="#f1bc96"] ;
735 -> 755 ;
756 [label="sulphates <= -0.74\nsquared_error = 0.0\nsamples = 5\nvalue = 0.79", fillcolor="#f0b890"] ;
755 -> 756 ;
757 [label="squared_error = 0.0\nsamples = 2\nvalue = 0.72", fillcolor="#f1ba92"] ;
756 -> 757 ;
758 [label="free sulfur dioxide <= -0.31\nsquared_error = 0.0\nsamples = 3\nvalue = 0.84", fillcolor="#f0b78e"] ;
756 -> 758 ;
759 [label="squared_error = 0.0\nsamples = 1\nvalue = 0.8", fillcolor="#f0b88f"] ;
758 -> 759 ;
760 [label="free sulfur dioxide <= 0.48\nsquared_error = 0.0\nsamples = 2\nvalue = 0.86", fillcolor="#f0b68d"] ;
758 -> 760 ;
761 [label="squared_error = 0.0\nsamples = 1\nvalue = 0.84", fillcolor="#f0b78e"] ;
760 -> 761 ;
762 [label="squared_error = -0.0\nsamples = 1\nvalue = 0.88", fillcolor="#f0b68c"] ;
760 -> 762 ;
763 [label="volatile acidity <= -1.42\nsquared_error = 0.01\nsamples = 6\nvalue = 0.49", fillcolor="#f2c09b"] ;
755 -> 763 ;
764 [label="squared_error = 0.0\nsamples = 1\nvalue = 0.31", fillcolor="#f3c4a2"] ;
763 -> 764 ;
765 [label="free sulfur dioxide <= -0.08\nsquared_error = 0.0\nsamples = 5\nvalue = 0.52", fillcolor="#f2bf9a"] ;
763 -> 765 ;
766 [label="squared_error = -0.0\nsamples = 3\nvalue = 0.48", fillcolor="#f2c09c"] ;
765 -> 766 ;
767 [label="pH <= 0.64\nsquared_error = 0.0\nsamples = 2\nvalue = 0.6", fillcolor="#f1bd97"] ;
765 -> 767 ;
768 [label="squared_error = 0.0\nsamples = 1\nvalue = 0.56", fillcolor="#f2be99"] ;
767 -> 768 ;
769 [label="squared_error = 0.0\nsamples = 1\nvalue = 0.64", fillcolor="#f1bc96"] ;
767 -> 769 ;
770 [label="sulphates <= -0.31\nsquared_error = 0.03\nsamples = 24\nvalue = 0.35", fillcolor="#f3c3a1"] ;
734 -> 770 ;
771 [label="residual sugar <= -1.03\nsquared_error = 0.01\nsamples = 10\nvalue = 0.47", fillcolor="#f2c09c"] ;
770 -> 771 ;
772 [label="fixed acidity <= -0.66\nsquared_error = 0.0\nsamples = 3\nvalue = 0.37", fillcolor="#f3c3a0"] ;
771 -> 772 ;
773 [label="squared_error = 0.0\nsamples = 2\nvalue = 0.39", fillcolor="#f2c29f"] ;
772 -> 773 ;
774 [label="squared_error = 0.0\nsamples = 1\nvalue = 0.31", fillcolor="#f3c4a2"] ;
772 -> 774 ;
775 [label="chlorides <= -0.58\nsquared_error = 0.0\nsamples = 7\nvalue = 0.51", fillcolor="#f2bf9b"] ;
771 -> 775 ;
776 [label="pH <= 0.11\nsquared_error = 0.0\nsamples = 3\nvalue = 0.45", fillcolor="#f2c19d"] ;
775 -> 776 ;
777 [label="squared_error = 0.0\nsamples = 1\nvalue = 0.39", fillcolor="#f2c29f"] ;
776 -> 777 ;
778 [label="squared_error = -0.0\nsamples = 2\nvalue = 0.48", fillcolor="#f2c09c"] ;
776 -> 778 ;
779 [label="squared_error = 0.0\nsamples = 4\nvalue = 0.56", fillcolor="#f2be99"] ;
775 -> 779 ;
780 [label="pH <= -0.39\nsquared_error = 0.03\nsamples = 14\nvalue = 0.27", fillcolor="#f3c5a4"] ;
770 -> 780 ;
781 [label="residual sugar <= -0.99\nsquared_error = 0.0\nsamples = 3\nvalue = 0.02", fillcolor="#f4ccae"] ;
780 -> 781 ;
782 [label="squared_error = 0.0\nsamples = 1\nvalue = 0.07", fillcolor="#f4caac"] ;
781 -> 782 ;
783 [label="squared_error = -0.0\nsamples = 2\nvalue = -0.01", fillcolor="#f5ccaf"] ;
781 -> 783 ;
784 [label="quality <= 0.7\nsquared_error = 0.02\nsamples = 11\nvalue = 0.34", fillcolor="#f3c3a1"] ;
780 -> 784 ;
785 [label="citric acid <= -0.37\nsquared_error = 0.0\nsamples = 5\nvalue = 0.44", fillcolor="#f2c19d"] ;
784 -> 785 ;
786 [label="squared_error = 0.0\nsamples = 1\nvalue = 0.56", fillcolor="#f2be99"] ;
785 -> 786 ;
787 [label="chlorides <= -1.0\nsquared_error = 0.0\nsamples = 4\nvalue = 0.42", fillcolor="#f2c29e"] ;
785 -> 787 ;
788 [label="squared_error = 0.0\nsamples = 1\nvalue = 0.48", fillcolor="#f2c09c"] ;
787 -> 788 ;
789 [label="squared_error = 0.0\nsamples = 3\nvalue = 0.39", fillcolor="#f2c29f"] ;
787 -> 789 ;
790 [label="chlorides <= -0.17\nsquared_error = 0.01\nsamples = 6\nvalue = 0.25", fillcolor="#f3c6a5"] ;
784 -> 790 ;
791 [label="fixed acidity <= -1.01\nsquared_error = 0.0\nsamples = 4\nvalue = 0.2", fillcolor="#f3c7a7"] ;
790 -> 791 ;
792 [label="squared_error = 0.0\nsamples = 1\nvalue = 0.11", fillcolor="#f4c9aa"] ;
791 -> 792 ;
793 [label="squared_error = 0.0\nsamples = 3\nvalue = 0.23", fillcolor="#f3c6a6"] ;
791 -> 793 ;
794 [label="chlorides <= 0.29\nsquared_error = 0.0\nsamples = 2\nvalue = 0.35", fillcolor="#f3c3a1"] ;
790 -> 794 ;
795 [label="squared_error = 0.0\nsamples = 1\nvalue = 0.39", fillcolor="#f2c29f"] ;
794 -> 795 ;
796 [label="squared_error = 0.0\nsamples = 1\nvalue = 0.31", fillcolor="#f3c4a2"] ;
794 -> 796 ;
797 [label="sulphates <= -0.66\nsquared_error = 0.01\nsamples = 2\nvalue = 0.84", fillcolor="#f0b78e"] ;
733 -> 797 ;
798 [label="squared_error = 0.0\nsamples = 1\nvalue = 0.72", fillcolor="#f1ba92"] ;
797 -> 798 ;
799 [label="squared_error = 0.0\nsamples = 1\nvalue = 0.96", fillcolor="#efb489"] ;
797 -> 799 ;
800 [label="volatile acidity <= -0.03\nsquared_error = 0.04\nsamples = 22\nvalue = 0.63", fillcolor="#f1bc96"] ;
726 -> 800 ;
801 [label="density <= -0.98\nsquared_error = 0.02\nsamples = 20\nvalue = 0.59", fillcolor="#f1bd98"] ;
800 -> 801 ;
802 [label="sulphates <= 1.84\nsquared_error = 0.01\nsamples = 14\nvalue = 0.65", fillcolor="#f1bc95"] ;
801 -> 802 ;
803 [label="quality <= 0.7\nsquared_error = 0.0\nsamples = 4\nvalue = 0.76", fillcolor="#f1b991"] ;
802 -> 803 ;
804 [label="squared_error = 0.0\nsamples = 2\nvalue = 0.72", fillcolor="#f1ba92"] ;
803 -> 804 ;
805 [label="citric acid <= 0.3\nsquared_error = 0.0\nsamples = 2\nvalue = 0.8", fillcolor="#f0b88f"] ;
803 -> 805 ;
806 [label="squared_error = 0.0\nsamples = 1\nvalue = 0.8", fillcolor="#f0b88f"] ;
805 -> 806 ;
807 [label="squared_error = 0.0\nsamples = 1\nvalue = 0.8", fillcolor="#f0b88f"] ;
805 -> 807 ;
808 [label="total sulfur dioxide <= 0.02\nsquared_error = 0.0\nsamples = 10\nvalue = 0.61", fillcolor="#f1bd97"] ;
802 -> 808 ;
809 [label="quality <= 0.7\nsquared_error = 0.0\nsamples = 5\nvalue = 0.65", fillcolor="#f1bc95"] ;
808 -> 809 ;
810 [label="squared_error = 0.0\nsamples = 1\nvalue = 0.72", fillcolor="#f1ba92"] ;
809 -> 810 ;
811 [label="squared_error = -0.0\nsamples = 4\nvalue = 0.64", fillcolor="#f1bc96"] ;
809 -> 811 ;
812 [label="pH <= -0.35\nsquared_error = 0.0\nsamples = 5\nvalue = 0.56", fillcolor="#f2be99"] ;
808 -> 812 ;
813 [label="squared_error = 0.0\nsamples = 3\nvalue = 0.56", fillcolor="#f2be99"] ;
812 -> 813 ;
814 [label="squared_error = 0.0\nsamples = 2\nvalue = 0.56", fillcolor="#f2be99"] ;
812 -> 814 ;
815 [label="volatile acidity <= -0.88\nsquared_error = 0.01\nsamples = 6\nvalue = 0.45", fillcolor="#f2c19d"] ;
801 -> 815 ;
816 [label="free sulfur dioxide <= -0.34\nsquared_error = 0.01\nsamples = 5\nvalue = 0.49", fillcolor="#f2c09b"] ;
815 -> 816 ;
817 [label="squared_error = 0.0\nsamples = 1\nvalue = 0.64", fillcolor="#f1bc96"] ;
816 -> 817 ;
818 [label="sulphates <= 1.71\nsquared_error = 0.0\nsamples = 4\nvalue = 0.46", fillcolor="#f2c19d"] ;
816 -> 818 ;
819 [label="squared_error = 0.0\nsamples = 1\nvalue = 0.39", fillcolor="#f2c29f"] ;
818 -> 819 ;
820 [label="squared_error = -0.0\nsamples = 3\nvalue = 0.48", fillcolor="#f2c09c"] ;
818 -> 820 ;
821 [label="squared_error = -0.0\nsamples = 1\nvalue = 0.23", fillcolor="#f3c6a6"] ;
815 -> 821 ;
822 [label="total sulfur dioxide <= -1.16\nsquared_error = 0.03\nsamples = 2\nvalue = 1.04", fillcolor="#efb286"] ;
800 -> 822 ;
823 [label="squared_error = 0.0\nsamples = 1\nvalue = 1.21", fillcolor="#eeae7f"] ;
822 -> 823 ;
824 [label="squared_error = -0.0\nsamples = 1\nvalue = 0.88", fillcolor="#f0b68c"] ;
822 -> 824 ;
825 [label="squared_error = 0.0\nsamples = 1\nvalue = -0.66", fillcolor="#f8dcc9"] ;
707 -> 825 ;
826 [label="fixed acidity <= -0.78\nsquared_error = 0.15\nsamples = 34\nvalue = 0.73", fillcolor="#f1ba92"] ;
706 -> 826 ;
827 [label="density <= -1.2\nsquared_error = 0.11\nsamples = 23\nvalue = 0.59", fillcolor="#f1bd97"] ;
826 -> 827 ;
828 [label="squared_error = 0.0\nsamples = 1\nvalue = 1.45", fillcolor="#eda876"] ;
827 -> 828 ;
829 [label="citric acid <= 0.59\nsquared_error = 0.08\nsamples = 22\nvalue = 0.55", fillcolor="#f2be99"] ;
827 -> 829 ;
830 [label="residual sugar <= -0.98\nsquared_error = 0.06\nsamples = 20\nvalue = 0.6", fillcolor="#f1bd97"] ;
829 -> 830 ;
831 [label="residual sugar <= -1.05\nsquared_error = 0.02\nsamples = 16\nvalue = 0.52", fillcolor="#f2bf9a"] ;
830 -> 831 ;
832 [label="pH <= 2.73\nsquared_error = 0.0\nsamples = 3\nvalue = 0.71", fillcolor="#f1ba93"] ;
831 -> 832 ;
833 [label="chlorides <= -0.31\nsquared_error = 0.0\nsamples = 2\nvalue = 0.74", fillcolor="#f1b992"] ;
832 -> 833 ;
834 [label="squared_error = 0.0\nsamples = 1\nvalue = 0.76", fillcolor="#f1b991"] ;
833 -> 834 ;
835 [label="squared_error = 0.0\nsamples = 1\nvalue = 0.72", fillcolor="#f1ba92"] ;
833 -> 835 ;
836 [label="squared_error = -0.0\nsamples = 1\nvalue = 0.64", fillcolor="#f1bc96"] ;
832 -> 836 ;
837 [label="sulphates <= 1.32\nsquared_error = 0.01\nsamples = 13\nvalue = 0.48", fillcolor="#f2c09c"] ;
831 -> 837 ;
838 [label="volatile acidity <= 0.56\nsquared_error = 0.01\nsamples = 11\nvalue = 0.45", fillcolor="#f2c19d"] ;
837 -> 838 ;
839 [label="total sulfur dioxide <= -0.29\nsquared_error = 0.0\nsamples = 8\nvalue = 0.42", fillcolor="#f2c29e"] ;
838 -> 839 ;
840 [label="density <= -1.0\nsquared_error = 0.0\nsamples = 5\nvalue = 0.38", fillcolor="#f3c2a0"] ;
839 -> 840 ;
841 [label="squared_error = 0.0\nsamples = 4\nvalue = 0.39", fillcolor="#f2c29f"] ;
840 -> 841 ;
842 [label="squared_error = -0.0\nsamples = 1\nvalue = 0.31", fillcolor="#f3c4a2"] ;
840 -> 842 ;
843 [label="squared_error = 0.0\nsamples = 3\nvalue = 0.48", fillcolor="#f2c09c"] ;
839 -> 843 ;
844 [label="squared_error = 0.0\nsamples = 3\nvalue = 0.56", fillcolor="#f2be99"] ;
838 -> 844 ;
845 [label="squared_error = -0.0\nsamples = 2\nvalue = 0.64", fillcolor="#f1bc96"] ;
837 -> 845 ;
846 [label="chlorides <= -0.65\nsquared_error = 0.1\nsamples = 4\nvalue = 0.9", fillcolor="#f0b58b"] ;
830 -> 846 ;
847 [label="squared_error = 0.0\nsamples = 1\nvalue = 0.39", fillcolor="#f2c29f"] ;
846 -> 847 ;
848 [label="density <= -1.01\nsquared_error = 0.02\nsamples = 3\nvalue = 1.07", fillcolor="#efb185"] ;
846 -> 848 ;
849 [label="citric acid <= -0.45\nsquared_error = 0.0\nsamples = 2\nvalue = 1.17", fillcolor="#eeaf81"] ;
848 -> 849 ;
850 [label="squared_error = 0.0\nsamples = 1\nvalue = 1.21", fillcolor="#eeae7f"] ;
849 -> 850 ;
851 [label="squared_error = -0.0\nsamples = 1\nvalue = 1.13", fillcolor="#efb082"] ;
849 -> 851 ;
852 [label="squared_error = -0.0\nsamples = 1\nvalue = 0.88", fillcolor="#f0b68c"] ;
848 -> 852 ;
853 [label="pH <= 1.53\nsquared_error = 0.03\nsamples = 2\nvalue = 0.07", fillcolor="#f4caac"] ;
829 -> 853 ;
854 [label="squared_error = 0.0\nsamples = 1\nvalue = -0.09", fillcolor="#f5ceb2"] ;
853 -> 854 ;
855 [label="squared_error = -0.0\nsamples = 1\nvalue = 0.23", fillcolor="#f3c6a6"] ;
853 -> 855 ;
856 [label="citric acid <= 0.5\nsquared_error = 0.11\nsamples = 11\nvalue = 1.02", fillcolor="#efb287"] ;
826 -> 856 ;
857 [label="sulphates <= 1.14\nsquared_error = 0.06\nsamples = 8\nvalue = 0.87", fillcolor="#f0b68c"] ;
856 -> 857 ;
858 [label="total sulfur dioxide <= -0.74\nsquared_error = 0.0\nsamples = 7\nvalue = 0.78", fillcolor="#f0b890"] ;
857 -> 858 ;
859 [label="squared_error = 0.0\nsamples = 2\nvalue = 0.72", fillcolor="#f1ba92"] ;
858 -> 859 ;
860 [label="squared_error = 0.0\nsamples = 5\nvalue = 0.8", fillcolor="#f0b88f"] ;
858 -> 860 ;
861 [label="squared_error = -0.0\nsamples = 1\nvalue = 1.53", fillcolor="#eda672"] ;
857 -> 861 ;
862 [label="volatile acidity <= -0.63\nsquared_error = 0.01\nsamples = 3\nvalue = 1.42", fillcolor="#eda877"] ;
856 -> 862 ;
863 [label="squared_error = 0.0\nsamples = 1\nvalue = 1.53", fillcolor="#eda672"] ;
862 -> 863 ;
864 [label="squared_error = 0.0\nsamples = 2\nvalue = 1.37", fillcolor="#edaa79"] ;
862 -> 864 ;
865 [label="total sulfur dioxide <= -1.03\nsquared_error = 0.16\nsamples = 46\nvalue = 0.91", fillcolor="#f0b58b"] ;
705 -> 865 ;
866 [label="citric acid <= 0.13\nsquared_error = 0.05\nsamples = 22\nvalue = 0.71", fillcolor="#f1ba93"] ;
865 -> 866 ;
867 [label="chlorides <= -0.47\nsquared_error = 0.03\nsamples = 12\nvalue = 0.6", fillcolor="#f1bd97"] ;
866 -> 867 ;
868 [label="volatile acidity <= -0.33\nsquared_error = 0.01\nsamples = 9\nvalue = 0.52", fillcolor="#f2bf9a"] ;
867 -> 868 ;
869 [label="volatile acidity <= -1.12\nsquared_error = 0.01\nsamples = 8\nvalue = 0.5", fillcolor="#f2bf9b"] ;
868 -> 869 ;
870 [label="density <= -1.03\nsquared_error = 0.0\nsamples = 3\nvalue = 0.58", fillcolor="#f1bd98"] ;
869 -> 870 ;
871 [label="squared_error = 0.0\nsamples = 2\nvalue = 0.56", fillcolor="#f2be99"] ;
870 -> 871 ;
872 [label="squared_error = -0.0\nsamples = 1\nvalue = 0.64", fillcolor="#f1bc96"] ;
870 -> 872 ;
873 [label="total sulfur dioxide <= -1.67\nsquared_error = 0.0\nsamples = 5\nvalue = 0.44", fillcolor="#f2c19d"] ;
869 -> 873 ;
874 [label="squared_error = 0.0\nsamples = 2\nvalue = 0.39", fillcolor="#f2c29f"] ;
873 -> 874 ;
875 [label="squared_error = 0.0\nsamples = 3\nvalue = 0.48", fillcolor="#f2c09c"] ;
873 -> 875 ;
876 [label="squared_error = 0.0\nsamples = 1\nvalue = 0.72", fillcolor="#f1ba92"] ;
868 -> 876 ;
877 [label="residual sugar <= -1.01\nsquared_error = 0.01\nsamples = 3\nvalue = 0.83", fillcolor="#f0b78e"] ;
867 -> 877 ;
878 [label="pH <= 0.14\nsquared_error = 0.0\nsamples = 2\nvalue = 0.76", fillcolor="#f1b991"] ;
877 -> 878 ;
879 [label="squared_error = 0.0\nsamples = 1\nvalue = 0.8", fillcolor="#f0b88f"] ;
878 -> 879 ;
880 [label="squared_error = 0.0\nsamples = 1\nvalue = 0.72", fillcolor="#f1ba92"] ;
878 -> 880 ;
881 [label="squared_error = 0.0\nsamples = 1\nvalue = 0.96", fillcolor="#efb489"] ;
877 -> 881 ;
882 [label="sulphates <= 0.48\nsquared_error = 0.04\nsamples = 10\nvalue = 0.85", fillcolor="#f0b78d"] ;
866 -> 882 ;
883 [label="volatile acidity <= 0.51\nsquared_error = 0.01\nsamples = 8\nvalue = 0.76", fillcolor="#f1b991"] ;
882 -> 883 ;
884 [label="sulphates <= -0.92\nsquared_error = 0.0\nsamples = 6\nvalue = 0.69", fillcolor="#f1bb93"] ;
883 -> 884 ;
885 [label="squared_error = 0.0\nsamples = 4\nvalue = 0.72", fillcolor="#f1ba92"] ;
884 -> 885 ;
886 [label="squared_error = 0.0\nsamples = 2\nvalue = 0.64", fillcolor="#f1bc96"] ;
884 -> 886 ;
887 [label="squared_error = 0.0\nsamples = 2\nvalue = 0.96", fillcolor="#efb489"] ;
883 -> 887 ;
888 [label="density <= -1.11\nsquared_error = 0.0\nsamples = 2\nvalue = 1.21", fillcolor="#eeae7f"] ;
882 -> 888 ;
889 [label="squared_error = 0.0\nsamples = 1\nvalue = 1.21", fillcolor="#eeae7f"] ;
888 -> 889 ;
890 [label="squared_error = 0.0\nsamples = 1\nvalue = 1.21", fillcolor="#eeae7f"] ;
888 -> 890 ;
891 [label="free sulfur dioxide <= -0.22\nsquared_error = 0.18\nsamples = 24\nvalue = 1.09", fillcolor="#efb184"] ;
865 -> 891 ;
892 [label="citric acid <= -0.12\nsquared_error = 0.07\nsamples = 10\nvalue = 1.4", fillcolor="#eda978"] ;
891 -> 892 ;
893 [label="squared_error = 0.0\nsamples = 1\nvalue = 0.72", fillcolor="#f1ba92"] ;
892 -> 893 ;
894 [label="free sulfur dioxide <= -1.11\nsquared_error = 0.02\nsamples = 9\nvalue = 1.48", fillcolor="#eda775"] ;
892 -> 894 ;
895 [label="squared_error = 0.0\nsamples = 3\nvalue = 1.29", fillcolor="#eeac7c"] ;
894 -> 895 ;
896 [label="chlorides <= 0.45\nsquared_error = 0.01\nsamples = 6\nvalue = 1.57", fillcolor="#eca571"] ;
894 -> 896 ;
897 [label="residual sugar <= -0.98\nsquared_error = 0.0\nsamples = 5\nvalue = 1.53", fillcolor="#eda672"] ;
896 -> 897 ;
898 [label="fixed acidity <= 1.36\nsquared_error = 0.0\nsamples = 4\nvalue = 1.51", fillcolor="#eda673"] ;
897 -> 898 ;
899 [label="squared_error = 0.0\nsamples = 1\nvalue = 1.45", fillcolor="#eda876"] ;
898 -> 899 ;
900 [label="squared_error = -0.0\nsamples = 3\nvalue = 1.53", fillcolor="#eda672"] ;
898 -> 900 ;
901 [label="squared_error = -0.0\nsamples = 1\nvalue = 1.61", fillcolor="#eca46f"] ;
897 -> 901 ;
902 [label="squared_error = 0.0\nsamples = 1\nvalue = 1.78", fillcolor="#eb9f69"] ;
896 -> 902 ;
903 [label="pH <= 0.97\nsquared_error = 0.14\nsamples = 14\nvalue = 0.86", fillcolor="#f0b68d"] ;
891 -> 903 ;
904 [label="density <= -0.93\nsquared_error = 0.08\nsamples = 13\nvalue = 0.79", fillcolor="#f0b88f"] ;
903 -> 904 ;
905 [label="volatile acidity <= -0.93\nsquared_error = 0.04\nsamples = 11\nvalue = 0.88", fillcolor="#f0b68c"] ;
904 -> 905 ;
906 [label="total sulfur dioxide <= -0.06\nsquared_error = 0.01\nsamples = 4\nvalue = 1.09", fillcolor="#efb184"] ;
905 -> 906 ;
907 [label="sulphates <= 0.48\nsquared_error = 0.0\nsamples = 2\nvalue = 1.0", fillcolor="#efb387"] ;
906 -> 907 ;
908 [label="squared_error = 0.0\nsamples = 1\nvalue = 1.04", fillcolor="#efb286"] ;
907 -> 908 ;
909 [label="squared_error = -0.0\nsamples = 1\nvalue = 0.96", fillcolor="#efb489"] ;
907 -> 909 ;
910 [label="pH <= -0.35\nsquared_error = 0.0\nsamples = 2\nvalue = 1.17", fillcolor="#eeaf81"] ;
906 -> 910 ;
911 [label="squared_error = 0.0\nsamples = 1\nvalue = 1.13", fillcolor="#efb082"] ;
910 -> 911 ;
912 [label="squared_error = -0.0\nsamples = 1\nvalue = 1.21", fillcolor="#eeae7f"] ;
910 -> 912 ;
913 [label="total sulfur dioxide <= 0.3\nsquared_error = 0.03\nsamples = 7\nvalue = 0.77", fillcolor="#f1b991"] ;
905 -> 913 ;
914 [label="total sulfur dioxide <= -0.31\nsquared_error = 0.01\nsamples = 6\nvalue = 0.71", fillcolor="#f1ba93"] ;
913 -> 914 ;
915 [label="chlorides <= -0.15\nsquared_error = 0.0\nsamples = 2\nvalue = 0.6", fillcolor="#f1bd97"] ;
914 -> 915 ;
916 [label="squared_error = 0.0\nsamples = 1\nvalue = 0.56", fillcolor="#f2be99"] ;
915 -> 916 ;
917 [label="squared_error = 0.0\nsamples = 1\nvalue = 0.64", fillcolor="#f1bc96"] ;
915 -> 917 ;
918 [label="citric acid <= 0.21\nsquared_error = 0.0\nsamples = 4\nvalue = 0.76", fillcolor="#f1b991"] ;
914 -> 918 ;
919 [label="squared_error = 0.0\nsamples = 2\nvalue = 0.8", fillcolor="#f0b88f"] ;
918 -> 919 ;
920 [label="squared_error = 0.0\nsamples = 2\nvalue = 0.72", fillcolor="#f1ba92"] ;
918 -> 920 ;
921 [label="squared_error = 0.0\nsamples = 1\nvalue = 1.13", fillcolor="#efb082"] ;
913 -> 921 ;
922 [label="total sulfur dioxide <= -0.22\nsquared_error = 0.03\nsamples = 2\nvalue = 0.31", fillcolor="#f3c4a2"] ;
904 -> 922 ;
