digraph Tree {
node [shape=box, style="filled, rounded", color="black", fontname="helvetica"] ;
edge [fontname="helvetica"] ;
0 [label="density <= -0.51\nsquared_error = 0.98\nsamples = 2462\nvalue = -0.0", fillcolor="#f4caac"] ;
1 [label="density <= -0.98\nsquared_error = 0.51\nsamples = 869\nvalue = 0.95", fillcolor="#efb285"] ;
0 -> 1 [labeldistance=2.5, labelangle=45, headlabel="True"] ;
2 [label="density <= -1.24\nsquared_error = 0.28\nsamples = 420\nvalue = 1.38", fillcolor="#eda774"] ;
1 -> 2 ;
3 [label="residual sugar <= -0.88\nsquared_error = 0.18\nsamples = 231\nvalue = 1.61", fillcolor="#eca16b"] ;
2 -> 3 ;
4 [label="density <= -1.57\nsquared_error = 0.16\nsamples = 123\nvalue = 1.44", fillcolor="#eca572"] ;
3 -> 4 ;
5 [label="density <= -1.72\nsquared_error = 0.08\nsamples = 44\nvalue = 1.8", fillcolor="#eb9c63"] ;
4 -> 5 ;
6 [label="density <= -1.85\nsquared_error = 0.05\nsamples = 17\nvalue = 2.06", fillcolor="#e99558"] ;
5 -> 6 ;
7 [label="volatile acidity <= 0.07\nsquared_error = 0.03\nsamples = 9\nvalue = 2.19", fillcolor="#e89253"] ;
6 -> 7 ;
8 [label="pH <= -0.42\nsquared_error = 0.0\nsamples = 4\nvalue = 2.07", fillcolor="#e99558"] ;
7 -> 8 ;
9 [label="squared_error = 0.0\nsamples = 1\nvalue = 1.94", fillcolor="#ea985d"] ;
8 -> 9 ;
10 [label="sulphates <= -0.83\nsquared_error = 0.0\nsamples = 3\nvalue = 2.09", fillcolor="#e99457"] ;
8 -> 10 ;
11 [label="squared_error = 0.0\nsamples = 2\nvalue = 2.1", fillcolor="#e99457"] ;
10 -> 11 ;
12 [label="squared_error = 0.0\nsamples = 1\nvalue = 2.06", fillcolor="#e99558"] ;
10 -> 12 ;
13 [label="total sulfur dioxide <= -0.82\nsquared_error = 0.02\nsamples = 5\nvalue = 2.33", fillcolor="#e88e4d"] ;
7 -> 13 ;
14 [label="citric acid <= -0.53\nsquared_error = 0.0\nsamples = 3\nvalue = 2.45", fillcolor="#e78b48"] ;
13 -> 14 ;
15 [label="squared_error = 0.0\nsamples = 2\nvalue = 2.43", fillcolor="#e78c49"] ;
14 -> 15 ;
16 [label="squared_error = -0.0\nsamples = 1\nvalue = 2.51", fillcolor="#e78946"] ;
14 -> 16 ;
17 [label="volatile acidity <= 0.36\nsquared_error = 0.0\nsamples = 2\nvalue = 2.21", fillcolor="#e89152"] ;
13 -> 17 ;
18 [label="squared_error = 0.0\nsamples = 1\nvalue = 2.18", fillcolor="#e89253"] ;
17 -> 18 ;
19 [label="squared_error = -0.0\nsamples = 1\nvalue = 2.26", fillcolor="#e89050"] ;
17 -> 19 ;
20 [label="residual sugar <= -0.97\nsquared_error = 0.03\nsamples = 8\nvalue = 1.91", fillcolor="#ea995e"] ;
6 -> 20 ;
21 [label="quality <= 1.83\nsquared_error = 0.01\nsamples = 7\nvalue = 1.96", fillcolor="#ea985d"] ;
20 -> 21 ;
22 [label="volatile acidity <= -0.58\nsquared_error = 0.01\nsamples = 6\nvalue = 1.89", fillcolor="#ea995f"] ;
21 -> 22 ;
23 [label="squared_error = 0.0\nsamples = 2\nvalue = 1.78", fillcolor="#eb9c64"] ;
22 -> 23 ;
24 [label="free sulfur dioxide <= -1.81\nsquared_error = 0.0\nsamples = 4\nvalue = 1.94", fillcolor="#ea985d"] ;
22 -> 24 ;
25 [label="squared_error = 0.0\nsamples = 1\nvalue = 2.02", fillcolor="#e9965a"] ;
24 -> 25 ;
26 [label="fixed acidity <= -1.37\nsquared_error = 0.0\nsamples = 3\nvalue = 1.92", fillcolor="#ea995e"] ;
24 -> 26 ;
27 [label="squared_error = 0.0\nsamples = 1\nvalue = 1.86", fillcolor="#ea9a61"] ;
26 -> 27 ;
28 [label="volatile acidity <= 0.12\nsquared_error = 0.0\nsamples = 2\nvalue = 1.94", fillcolor="#ea985d"] ;
26 -> 28 ;
29 [label="squared_error = 0.0\nsamples = 1\nvalue = 1.94", fillcolor="#ea985d"] ;
28 -> 29 ;
30 [label="squared_error = 0.0\nsamples = 1\nvalue = 1.94", fillcolor="#ea985d"] ;
28 -> 30 ;
31 [label="squared_error = -0.0\nsamples = 1\nvalue = 2.1", fillcolor="#e99457"] ;
21 -> 31 ;
32 [label="squared_error = -0.0\nsamples = 1\nvalue = 1.45", fillcolor="#eca571"] ;
20 -> 32 ;
33 [label="citric acid <= 0.42\nsquared_error = 0.04\nsamples = 27\nvalue = 1.66", fillcolor="#eb9f69"] ;
5 -> 33 ;
34 [label="quality <= 0.7\nsquared_error = 0.03\nsamples = 22\nvalue = 1.59", fillcolor="#eca16b"] ;
33 -> 34 ;
35 [label="residual sugar <= -0.94\nsquared_error = 0.02\nsamples = 13\nvalue = 1.49", fillcolor="#eca470"] ;
34 -> 35 ;
36 [label="free sulfur dioxide <= -1.02\nsquared_error = 0.01\nsamples = 10\nvalue = 1.44", fillcolor="#eca572"] ;
35 -> 36 ;
37 [label="squared_error = 0.0\nsamples = 2\nvalue = 1.61", fillcolor="#eca06a"] ;
36 -> 37 ;
38 [label="pH <= 0.21\nsquared_error = 0.0\nsamples = 8\nvalue = 1.41", fillcolor="#eda673"] ;
36 -> 38 ;
39 [label="free sulfur dioxide <= -0.49\nsquared_error = 0.0\nsamples = 4\nvalue = 1.36", fillcolor="#eda775"] ;
38 -> 39 ;
40 [label="squared_error = 0.0\nsamples = 1\nvalue = 1.29", fillcolor="#eda978"] ;
39 -> 40 ;
41 [label="squared_error = -0.0\nsamples = 3\nvalue = 1.37", fillcolor="#eda774"] ;
39 -> 41 ;
42 [label="density <= -1.61\nsquared_error = 0.0\nsamples = 4\nvalue = 1.46", fillcolor="#eca471"] ;
38 -> 42 ;
43 [label="squared_error = 0.0\nsamples = 1\nvalue = 1.53", fillcolor="#eca36e"] ;
42 -> 43 ;
44 [label="squared_error = -0.0\nsamples = 3\nvalue = 1.45", fillcolor="#eca571"] ;
42 -> 44 ;
45 [label="total sulfur dioxide <= -0.89\nsquared_error = 0.02\nsamples = 3\nvalue = 1.7", fillcolor="#eb9e67"] ;
35 -> 45 ;
46 [label="squared_error = 0.0\nsamples = 2\nvalue = 1.61", fillcolor="#eca06a"] ;
45 -> 46 ;
47 [label="squared_error = -0.0\nsamples = 1\nvalue = 1.94", fillcolor="#ea985d"] ;
45 -> 47 ;
48 [label="total sulfur dioxide <= -0.77\nsquared_error = 0.01\nsamples = 9\nvalue = 1.7", fillcolor="#eb9e67"] ;
34 -> 48 ;
49 [label="residual sugar <= -0.93\nsquared_error = 0.0\nsamples = 5\nvalue = 1.63", fillcolor="#eba06a"] ;
48 -> 49 ;
50 [label="sulphates <= -0.92\nsquared_error = 0.0\nsamples = 3\nvalue = 1.59", fillcolor="#eca16b"] ;
49 -> 50 ;
51 [label="squared_error = 0.0\nsamples = 2\nvalue = 1.61", fillcolor="#eca06a"] ;
50 -> 51 ;
52 [label="squared_error = -0.0\nsamples = 1\nvalue = 1.53", fillcolor="#eca36e"] ;
50 -> 52 ;
53 [label="total sulfur dioxide <= -1.14\nsquared_error = 0.0\nsamples = 2\nvalue = 1.7", fillcolor="#eb9e67"] ;
49 -> 53 ;
54 [label="squared_error = 0.0\nsamples = 1\nvalue = 1.7", fillcolor="#eb9e67"] ;
53 -> 54 ;
55 [label="squared_error = -0.0\nsamples = 1\nvalue = 1.7", fillcolor="#eb9e67"] ;
53 -> 55 ;
56 [label="density <= -1.68\nsquared_error = 0.01\nsamples = 4\nvalue = 1.84", fillcolor="#ea9b61"] ;
48 -> 56 ;
57 [label="squared_error = 0.0\nsamples = 2\nvalue = 1.78", fillcolor="#eb9c64"] ;
56 -> 57 ;
58 [label="total sulfur dioxide <= -0.34\nsquared_error = 0.0\nsamples = 2\nvalue = 1.91", fillcolor="#ea995e"] ;
56 -> 58 ;
59 [label="squared_error = 0.0\nsamples = 1\nvalue = 1.94", fillcolor="#ea985d"] ;
58 -> 59 ;
60 [label="squared_error = 0.0\nsamples = 1\nvalue = 1.86", fillcolor="#ea9a61"] ;
58 -> 60 ;
61 [label="pH <= 0.87\nsquared_error = 0.01\nsamples = 5\nvalue = 1.95", fillcolor="#ea985d"] ;
33 -> 61 ;
62 [label="squared_error = 0.0\nsamples = 3\nvalue = 2.02", fillcolor="#e9965a"] ;
61 -> 62 ;
63 [label="squared_error = 0.0\nsamples = 2\nvalue = 1.86", fillcolor="#ea9a61"] ;
61 -> 63 ;
64 [label="residual sugar <= -0.99\nsquared_error = 0.1\nsamples = 79\nvalue = 1.23", fillcolor="#eeaa7a"] ;
4 -> 64 ;
65 [label="citric acid <= -0.49\nsquared_error = 0.07\nsamples = 33\nvalue = 1.07", fillcolor="#eeae80"] ;
64 -> 65 ;
66 [label="free sulfur dioxide <= -0.49\nsquared_error = 0.01\nsamples = 6\nvalue = 0.67", fillcolor="#f1b991"] ;
65 -> 66 ;
67 [label="chlorides <= 0.03\nsquared_error = 0.0\nsamples = 4\nvalue = 0.72", fillcolor="#f0b88f"] ;
66 -> 67 ;
68 [label="chlorides <= -0.38\nsquared_error = 0.0\nsamples = 3\nvalue = 0.7", fillcolor="#f0b890"] ;
67 -> 68 ;
69 [label="squared_error = 0.0\nsamples = 2\nvalue = 0.72", fillcolor="#f0b88f"] ;
68 -> 69 ;
70 [label="squared_error = -0.0\nsamples = 1\nvalue = 0.64", fillcolor="#f1ba92"] ;
68 -> 70 ;
71 [label="squared_error = 0.0\nsamples = 1\nvalue = 0.8", fillcolor="#f0b68c"] ;
67 -> 71 ;
72 [label="squared_error = 0.0\nsamples = 2\nvalue = 0.56", fillcolor="#f1bc95"] ;
66 -> 72 ;
73 [label="fixed acidity <= 1.0\nsquared_error = 0.05\nsamples = 27\nvalue = 1.13", fillcolor="#eead7e"] ;
65 -> 73 ;
74 [label="density <= -1.53\nsquared_error = 0.04\nsamples = 23\nvalue = 1.08", fillcolor="#eeae80"] ;
73 -> 74 ;
75 [label="sulphates <= 0.35\nsquared_error = 0.03\nsamples = 5\nvalue = 1.29", fillcolor="#eda978"] ;
74 -> 75 ;
76 [label="total sulfur dioxide <= -0.97\nsquared_error = 0.01\nsamples = 4\nvalue = 1.19", fillcolor="#eeab7c"] ;
75 -> 76 ;
77 [label="residual sugar <= -1.06\nsquared_error = 0.0\nsamples = 2\nvalue = 1.26", fillcolor="#edaa79"] ;
76 -> 77 ;
78 [label="squared_error = 0.0\nsamples = 1\nvalue = 1.29", fillcolor="#eda978"] ;
77 -> 78 ;
79 [label="squared_error = -0.0\nsamples = 1\nvalue = 1.21", fillcolor="#eeab7b"] ;
77 -> 79 ;
80 [label="quality <= 0.7\nsquared_error = 0.0\nsamples = 2\nvalue = 1.09", fillcolor="#eeae80"] ;
76 -> 80 ;
81 [label="squared_error = 0.0\nsamples = 1\nvalue = 1.04", fillcolor="#efaf82"] ;
80 -> 81 ;
82 [label="squared_error = 0.0\nsamples = 1\nvalue = 1.13", fillcolor="#eead7e"] ;
80 -> 82 ;
83 [label="squared_error = -0.0\nsamples = 1\nvalue = 1.53", fillcolor="#eca36e"] ;
75 -> 83 ;
84 [label="sulphates <= -1.62\nsquared_error = 0.03\nsamples = 18\nvalue = 1.03", fillcolor="#efb082"] ;
74 -> 84 ;
85 [label="squared_error = 0.0\nsamples = 1\nvalue = 0.72", fillcolor="#f0b88f"] ;
84 -> 85 ;
86 [label="free sulfur dioxide <= 0.36\nsquared_error = 0.02\nsamples = 17\nvalue = 1.05", fillcolor="#eeaf81"] ;
84 -> 86 ;
87 [label="total sulfur dioxide <= -0.87\nsquared_error = 0.02\nsamples = 13\nvalue = 1.09", fillcolor="#eeae80"] ;
86 -> 87 ;
88 [label="citric acid <= 0.01\nsquared_error = 0.02\nsamples = 8\nvalue = 1.02", fillcolor="#efb083"] ;
87 -> 88 ;
89 [label="citric acid <= -0.16\nsquared_error = 0.01\nsamples = 6\nvalue = 1.06", fillcolor="#eeaf81"] ;
88 -> 89 ;
90 [label="chlorides <= -0.68\nsquared_error = 0.0\nsamples = 2\nvalue = 0.94", fillcolor="#efb286"] ;
89 -> 90 ;
91 [label="squared_error = 0.0\nsamples = 1\nvalue = 0.92", fillcolor="#efb287"] ;
90 -> 91 ;
92 [label="squared_error = -0.0\nsamples = 1\nvalue = 0.96", fillcolor="#efb185"] ;
90 -> 92 ;
93 [label="total sulfur dioxide <= -1.59\nsquared_error = 0.01\nsamples = 4\nvalue = 1.13", fillcolor="#eead7e"] ;
89 -> 93 ;
94 [label="squared_error = 0.0\nsamples = 2\nvalue = 1.04", fillcolor="#efaf82"] ;
93 -> 94 ;
95 [label="free sulfur dioxide <= -0.55\nsquared_error = 0.0\nsamples = 2\nvalue = 1.23", fillcolor="#eeaa7a"] ;
93 -> 95 ;
96 [label="squared_error = 0.0\nsamples = 1\nvalue = 1.21", fillcolor="#eeab7b"] ;
95 -> 96 ;
97 [label="squared_error = 0.0\nsamples = 1\nvalue = 1.29", fillcolor="#eda978"] ;
95 -> 97 ;
98 [label="density <= -1.4\nsquared_error = 0.01\nsamples = 2\nvalue = 0.8", fillcolor="#f0b68c"] ;
88 -> 98 ;
99 [label="squared_error = 0.0\nsamples = 1\nvalue = 0.88", fillcolor="#efb388"] ;
98 -> 99 ;
100 [label="squared_error = 0.0\nsamples = 1\nvalue = 0.72", fillcolor="#f0b88f"] ;
98 -> 100 ;
101 [label="chlorides <= -0.72\nsquared_error = 0.0\nsamples = 5\nvalue = 1.19", fillcolor="#eeab7c"] ;
87 -> 101 ;
102 [label="squared_error = 0.0\nsamples = 1\nvalue = 1.13", fillcolor="#eead7e"] ;
101 -> 102 ;
103 [label="sulphates <= 0.44\nsquared_error = 0.0\nsamples = 4\nvalue = 1.23", fillcolor="#eeaa7a"] ;
101 -> 103 ;
104 [label="squared_error = 0.0\nsamples = 2\nvalue = 1.29", fillcolor="#eda978"] ;
103 -> 104 ;
105 [label="squared_error = 0.0\nsamples = 2\nvalue = 1.21", fillcolor="#eeab7b"] ;
103 -> 105 ;
106 [label="chlorides <= -0.31\nsquared_error = 0.0\nsamples = 4\nvalue = 0.91", fillcolor="#efb387"] ;
86 -> 106 ;
107 [label="sulphates <= 0.7\nsquared_error = 0.0\nsamples = 2\nvalue = 0.98", fillcolor="#efb184"] ;
106 -> 107 ;
108 [label="squared_error = 0.0\nsamples = 1\nvalue = 0.96", fillcolor="#efb185"] ;
107 -> 108 ;
109 [label="squared_error = 0.0\nsamples = 1\nvalue = 0.99", fillcolor="#efb184"] ;
107 -> 109 ;
110 [label="pH <= 0.04\nsquared_error = 0.0\nsamples = 2\nvalue = 0.86", fillcolor="#f0b489"] ;
106 -> 110 ;
111 [label="squared_error = 0.0\nsamples = 1\nvalue = 0.8", fillcolor="#f0b68c"] ;
110 -> 111 ;
112 [label="squared_error = 0.0\nsamples = 1\nvalue = 0.88", fillcolor="#efb388"] ;
110 -> 112 ;
113 [label="citric acid <= 0.17\nsquared_error = 0.02\nsamples = 4\nvalue = 1.4", fillcolor="#eda673"] ;
73 -> 113 ;
114 [label="squared_error = 0.0\nsamples = 2\nvalue = 1.53", fillcolor="#eca36e"] ;
113 -> 114 ;
115 [label="total sulfur dioxide <= -1.08\nsquared_error = 0.0\nsamples = 2\nvalue = 1.27", fillcolor="#eda979"] ;
113 -> 115 ;
116 [label="squared_error = 0.0\nsamples = 1\nvalue = 1.21", fillcolor="#eeab7b"] ;
115 -> 116 ;
117 [label="squared_error = -0.0\nsamples = 1\nvalue = 1.29", fillcolor="#eda978"] ;
115 -> 117 ;
118 [label="fixed acidity <= -0.24\nsquared_error = 0.08\nsamples = 46\nvalue = 1.35", fillcolor="#eda775"] ;
64 -> 118 ;
119 [label="pH <= 1.3\nsquared_error = 0.06\nsamples = 30\nvalue = 1.24", fillcolor="#edaa79"] ;
118 -> 119 ;
120 [label="total sulfur dioxide <= 0.16\nsquared_error = 0.05\nsamples = 25\nvalue = 1.2", fillcolor="#eeab7b"] ;
119 -> 120 ;
121 [label="total sulfur dioxide <= -0.01\nsquared_error = 0.04\nsamples = 24\nvalue = 1.22", fillcolor="#eeab7a"] ;
120 -> 121 ;
122 [label="volatile acidity <= 0.39\nsquared_error = 0.03\nsamples = 23\nvalue = 1.21", fillcolor="#eeab7b"] ;
121 -> 122 ;
123 [label="residual sugar <= -0.97\nsquared_error = 0.03\nsamples = 17\nvalue = 1.16", fillcolor="#eeac7d"] ;
122 -> 123 ;
124 [label="volatile acidity <= -0.43\nsquared_error = 0.01\nsamples = 3\nvalue = 0.86", fillcolor="#f0b489"] ;
123 -> 124 ;
125 [label="squared_error = 0.0\nsamples = 1\nvalue = 0.96", fillcolor="#efb185"] ;
124 -> 125 ;
126 [label="density <= -1.36\nsquared_error = 0.0\nsamples = 2\nvalue = 0.76", fillcolor="#f0b78d"] ;
124 -> 126 ;
127 [label="squared_error = 0.0\nsamples = 1\nvalue = 0.8", fillcolor="#f0b68c"] ;
126 -> 127 ;
128 [label="squared_error = 0.0\nsamples = 1\nvalue = 0.72", fillcolor="#f0b88f"] ;
126 -> 128 ;
129 [label="density <= -1.44\nsquared_error = 0.01\nsamples = 14\nvalue = 1.21", fillcolor="#eeab7b"] ;
123 -> 129 ;
130 [label="sulphates <= 1.01\nsquared_error = 0.02\nsamples = 4\nvalue = 1.36", fillcolor="#eda775"] ;
129 -> 130 ;
131 [label="pH <= -0.22\nsquared_error = 0.01\nsamples = 3\nvalue = 1.31", fillcolor="#eda877"] ;
130 -> 131 ;
132 [label="squared_error = -0.0\nsamples = 1\nvalue = 1.37", fillcolor="#eda774"] ;
131 -> 132 ;
133 [label="citric acid <= 0.46\nsquared_error = 0.0\nsamples = 2\nvalue = 1.23", fillcolor="#eeaa7a"] ;
131 -> 133 ;
134 [label="squared_error = 0.0\nsamples = 1\nvalue = 1.21", fillcolor="#eeab7b"] ;
133 -> 134 ;
135 [label="squared_error = -0.0\nsamples = 1\nvalue = 1.25", fillcolor="#edaa79"] ;
133 -> 135 ;
136 [label="squared_error = -0.0\nsamples = 1\nvalue = 1.61", fillcolor="#eca06a"] ;
130 -> 136 ;
137 [label="residual sugar <= -0.96\nsquared_error = 0.0\nsamples = 10\nvalue = 1.16", fillcolor="#eeac7d"] ;
129 -> 137 ;
138 [label="fixed acidity <= -1.43\nsquared_error = 0.0\nsamples = 5\nvalue = 1.22", fillcolor="#eeab7b"] ;
137 -> 138 ;
139 [label="squared_error = 0.0\nsamples = 1\nvalue = 1.29", fillcolor="#eda978"] ;
138 -> 139 ;
140 [label="squared_error = 0.0\nsamples = 4\nvalue = 1.21", fillcolor="#eeab7b"] ;
138 -> 140 ;
141 [label="squared_error = -0.0\nsamples = 5\nvalue = 1.13", fillcolor="#eead7e"] ;
137 -> 141 ;
142 [label="pH <= -0.09\nsquared_error = 0.02\nsamples = 6\nvalue = 1.37", fillcolor="#eda774"] ;
122 -> 142 ;
143 [label="squared_error = 0.0\nsamples = 1\nvalue = 1.04", fillcolor="#efaf82"] ;
142 -> 143 ;
144 [label="volatile acidity <= 1.08\nsquared_error = 0.01\nsamples = 5\nvalue = 1.42", fillcolor="#eda673"] ;
142 -> 144 ;
145 [label="volatile acidity <= 0.46\nsquared_error = 0.0\nsamples = 3\nvalue = 1.47", fillcolor="#eca470"] ;
144 -> 145 ;
146 [label="squared_error = 0.0\nsamples = 1\nvalue = 1.53", fillcolor="#eca36e"] ;
145 -> 146 ;
147 [label="squared_error = 0.0\nsamples = 2\nvalue = 1.45", fillcolor="#eca571"] ;
145 -> 147 ;
148 [label="squared_error = 0.0\nsamples = 2\nvalue = 1.29", fillcolor="#eda978"] ;
144 -> 148 ;
149 [label="squared_error = 0.0\nsamples = 1\nvalue = 1.78", fillcolor="#eb9c64"] ;
121 -> 149 ;
150 [label="squared_error = -0.0\nsamples = 1\nvalue = 0.8", fillcolor="#f0b68c"] ;
120 -> 150 ;
151 [label="volatile acidity <= -0.31\nsquared_error = 0.01\nsamples = 5\nvalue = 1.52", fillcolor="#eca36e"] ;
119 -> 151 ;
152 [label="squared_error = 0.0\nsamples = 2\nvalue = 1.37", fillcolor="#eda774"] ;
151 -> 152 ;
153 [label="chlorides <= -0.88\nsquared_error = 0.0\nsamples = 3\nvalue = 1.59", fillcolor="#eca16b"] ;
151 -> 153 ;
154 [label="squared_error = 0.0\nsamples = 1\nvalue = 1.53", fillcolor="#eca36e"] ;
153 -> 154 ;
155 [label="squared_error = 0.0\nsamples = 2\nvalue = 1.61", fillcolor="#eca06a"] ;
153 -> 155 ;
156 [label="quality <= -0.43\nsquared_error = 0.08\nsamples = 16\nvalue = 1.55", fillcolor="#eca26d"] ;
118 -> 156 ;
157 [label="sulphates <= 0.57\nsquared_error = 0.06\nsamples = 2\nvalue = 0.96", fillcolor="#efb185"] ;
156 -> 157 ;
158 [label="squared_error = 0.0\nsamples = 1\nvalue = 0.72", fillcolor="#f0b88f"] ;
157 -> 158 ;
159 [label="squared_error = 0.0\nsamples = 1\nvalue = 1.21", fillcolor="#eeab7b"] ;
157 -> 159 ;
160 [label="pH <= 0.21\nsquared_error = 0.05\nsamples = 14\nvalue = 1.59", fillcolor="#eca16b"] ;
156 -> 160 ;
161 [label="quality <= 1.83\nsquared_error = 0.05\nsamples = 9\nvalue = 1.49", fillcolor="#eca470"] ;
160 -> 161 ;
162 [label="volatile acidity <= 0.36\nsquared_error = 0.03\nsamples = 8\nvalue = 1.42", fillcolor="#eda572"] ;
161 -> 162 ;
163 [label="quality <= 0.7\nsquared_error = 0.01\nsamples = 6\nvalue = 1.36", fillcolor="#eda775"] ;
162 -> 163 ;
164 [label="squared_error = 0.0\nsamples = 3\nvalue = 1.21", fillcolor="#eeab7b"] ;
163 -> 164 ;
165 [label="total sulfur dioxide <= -0.6\nsquared_error = 0.0\nsamples = 3\nvalue = 1.43", fillcolor="#eca572"] ;
163 -> 165 ;
166 [label="squared_error = 0.0\nsamples = 2\nvalue = 1.45", fillcolor="#eca571"] ;
165 -> 166 ;
167 [label="squared_error = -0.0\nsamples = 1\nvalue = 1.37", fillcolor="#eda774"] ;
165 -> 167 ;
168 [label="fixed acidity <= 0.11\nsquared_error = 0.01\nsamples = 2\nvalue = 1.74", fillcolor="#eb9d66"] ;
162 -> 168 ;
169 [label="squared_error = 0.0\nsamples = 1\nvalue = 1.61", fillcolor="#eca06a"] ;
168 -> 169 ;
170 [label="squared_error = 0.0\nsamples = 1\nvalue = 1.86", fillcolor="#ea9a61"] ;
168 -> 170 ;
171 [label="squared_error = 0.0\nsamples = 1\nvalue = 1.86", fillcolor="#ea9a61"] ;
161 -> 171 ;
172 [label="free sulfur dioxide <= 0.07\nsquared_error = 0.0\nsamples = 5\nvalue = 1.74", fillcolor="#eb9d65"] ;
160 -> 172 ;
173 [label="sulphates <= -0.09\nsquared_error = 0.0\nsamples = 2\nvalue = 1.79", fillcolor="#eb9c63"] ;
172 -> 173 ;
174 [label="squared_error = 0.0\nsamples = 1\nvalue = 1.78", fillcolor="#eb9c64"] ;
173 -> 174 ;
175 [label="squared_error = -0.0\nsamples = 1\nvalue = 1.86", fillcolor="#ea9a61"] ;
173 -> 175 ;
176 [label="density <= -1.36\nsquared_error = 0.0\nsamples = 3\nvalue = 1.7", fillcolor="#eb9e67"] ;
172 -> 176 ;
177 [label="squared_error = 0.0\nsamples = 2\nvalue = 1.7", fillcolor="#eb9e67"] ;
176 -> 177 ;
178 [label="squared_error = 0.0\nsamples = 1\nvalue = 1.7", fillcolor="#eb9e67"] ;
176 -> 178 ;
179 [label="density <= -1.42\nsquared_error = 0.13\nsamples = 108\nvalue = 1.8", fillcolor="#ea9c63"] ;
3 -> 179 ;
180 [label="volatile acidity <= 0.56\nsquared_error = 0.1\nsamples = 58\nvalue = 1.93", fillcolor="#ea985e"] ;
179 -> 180 ;
181 [label="residual sugar <= -0.8\nsquared_error = 0.05\nsamples = 34\nvalue = 1.81", fillcolor="#ea9b62"] ;
180 -> 181 ;
182 [label="quality <= 0.7\nsquared_error = 0.03\nsamples = 12\nvalue = 1.67", fillcolor="#eb9f68"] ;
181 -> 182 ;
183 [label="total sulfur dioxide <= -0.39\nsquared_error = 0.03\nsamples = 6\nvalue = 1.53", fillcolor="#eca36e"] ;
182 -> 183 ;
184 [label="chlorides <= -0.56\nsquared_error = 0.01\nsamples = 5\nvalue = 1.47", fillcolor="#eca470"] ;
183 -> 184 ;
185 [label="residual sugar <= -0.82\nsquared_error = 0.0\nsamples = 2\nvalue = 1.55", fillcolor="#eca26d"] ;
184 -> 185 ;
186 [label="squared_error = 0.0\nsamples = 1\nvalue = 1.61", fillcolor="#eca06a"] ;
185 -> 186 ;
187 [label="squared_error = -0.0\nsamples = 1\nvalue = 1.53", fillcolor="#eca36e"] ;
185 -> 187 ;
188 [label="citric acid <= -0.37\nsquared_error = 0.0\nsamples = 3\nvalue = 1.41", fillcolor="#eda673"] ;
184 -> 188 ;
189 [label="squared_error = 0.0\nsamples = 1\nvalue = 1.33", fillcolor="#eda876"] ;
188 -> 189 ;
190 [label="total sulfur dioxide <= -0.79\nsquared_error = 0.0\nsamples = 2\nvalue = 1.45", fillcolor="#eca571"] ;
188 -> 190 ;
191 [label="squared_error = 0.0\nsamples = 1\nvalue = 1.45", fillcolor="#eca571"] ;
190 -> 191 ;
192 [label="squared_error = 0.0\nsamples = 1\nvalue = 1.45", fillcolor="#eca571"] ;
190 -> 192 ;
193 [label="squared_error = 0.0\nsamples = 1\nvalue = 1.86", fillcolor="#ea9a61"] ;
183 -> 193 ;
194 [label="total sulfur dioxide <= -0.75\nsquared_error = 0.0\nsamples = 6\nvalue = 1.8", fillcolor="#eb9c63"] ;
182 -> 194 ;
195 [label="squared_error = -0.0\nsamples = 1\nvalue = 1.86", fillcolor="#ea9a61"] ;
194 -> 195 ;
196 [label="squared_error = -0.0\nsamples = 5\nvalue = 1.78", fillcolor="#eb9c64"] ;
194 -> 196 ;
197 [label="pH <= 0.24\nsquared_error = 0.04\nsamples = 22\nvalue = 1.92", fillcolor="#ea995e"] ;
181 -> 197 ;
198 [label="pH <= -1.18\nsquared_error = 0.03\nsamples = 11\nvalue = 1.82", fillcolor="#ea9b62"] ;
197 -> 198 ;
199 [label="squared_error = 0.0\nsamples = 1\nvalue = 2.02", fillcolor="#e9965a"] ;
198 -> 199 ;
200 [label="chlorides <= -0.45\nsquared_error = 0.02\nsamples = 10\nvalue = 1.76", fillcolor="#eb9d65"] ;
198 -> 200 ;
201 [label="citric acid <= 0.01\nsquared_error = 0.0\nsamples = 3\nvalue = 1.56", fillcolor="#eca26d"] ;
200 -> 201 ;
202 [label="squared_error = 0.0\nsamples = 2\nvalue = 1.53", fillcolor="#eca36e"] ;
201 -> 202 ;
203 [label="squared_error = -0.0\nsamples = 1\nvalue = 1.61", fillcolor="#eca06a"] ;
201 -> 203 ;
204 [label="sulphates <= -0.7\nsquared_error = 0.01\nsamples = 7\nvalue = 1.82", fillcolor="#ea9b62"] ;
200 -> 204 ;
205 [label="sulphates <= -1.31\nsquared_error = 0.0\nsamples = 5\nvalue = 1.87", fillcolor="#ea9a60"] ;
204 -> 205 ;
206 [label="squared_error = 0.0\nsamples = 1\nvalue = 1.94", fillcolor="#ea985d"] ;
205 -> 206 ;
207 [label="squared_error = 0.0\nsamples = 4\nvalue = 1.86", fillcolor="#ea9a61"] ;
205 -> 207 ;
208 [label="density <= -1.61\nsquared_error = 0.0\nsamples = 2\nvalue = 1.72", fillcolor="#eb9e66"] ;
204 -> 208 ;
209 [label="squared_error = 0.0\nsamples = 1\nvalue = 1.7", fillcolor="#eb9e67"] ;
208 -> 209 ;
210 [label="squared_error = 0.0\nsamples = 1\nvalue = 1.78", fillcolor="#eb9c64"] ;
208 -> 210 ;
211 [label="sulphates <= -1.27\nsquared_error = 0.04\nsamples = 11\nvalue = 2.01", fillcolor="#e9965a"] ;
197 -> 211 ;
212 [label="squared_error = 0.0\nsamples = 1\nvalue = 2.59", fillcolor="#e68743"] ;
211 -> 212 ;
213 [label="free sulfur dioxide <= -0.43\nsquared_error = 0.02\nsamples = 10\nvalue = 1.98", fillcolor="#ea975c"] ;
211 -> 213 ;
214 [label="volatile acidity <= 0.27\nsquared_error = 0.0\nsamples = 4\nvalue = 2.08", fillcolor="#e99458"] ;
213 -> 214 ;
215 [label="chlorides <= -0.58\nsquared_error = 0.0\nsamples = 3\nvalue = 2.12", fillcolor="#e99356"] ;
214 -> 215 ;
216 [label="squared_error = 0.0\nsamples = 1\nvalue = 2.18", fillcolor="#e89253"] ;
215 -> 216 ;
217 [label="squared_error = 0.0\nsamples = 2\nvalue = 2.1", fillcolor="#e99457"] ;
215 -> 217 ;
218 [label="squared_error = -0.0\nsamples = 1\nvalue = 2.02", fillcolor="#e9965a"] ;
214 -> 218 ;
219 [label="pH <= 0.41\nsquared_error = 0.01\nsamples = 6\nvalue = 1.9", fillcolor="#ea995f"] ;
213 -> 219 ;
220 [label="squared_error = 0.0\nsamples = 1\nvalue = 2.1", fillcolor="#e99457"] ;
219 -> 220 ;
221 [label="sulphates <= -0.04\nsquared_error = 0.0\nsamples = 5\nvalue = 1.84", fillcolor="#ea9b61"] ;
219 -> 221 ;
222 [label="total sulfur dioxide <= -0.7\nsquared_error = 0.0\nsamples = 3\nvalue = 1.86", fillcolor="#ea9a61"] ;
221 -> 222 ;
223 [label="squared_error = 0.0\nsamples = 1\nvalue = 1.86", fillcolor="#ea9a61"] ;
222 -> 223 ;
224 [label="squared_error = -0.0\nsamples = 2\nvalue = 1.86", fillcolor="#ea9a61"] ;
222 -> 224 ;
225 [label="squared_error = 0.0\nsamples = 2\nvalue = 1.82", fillcolor="#ea9b62"] ;
221 -> 225 ;
226 [label="free sulfur dioxide <= -1.14\nsquared_error = 0.12\nsamples = 24\nvalue = 2.1", fillcolor="#e99457"] ;
180 -> 226 ;
227 [label="pH <= -0.78\nsquared_error = 0.01\nsamples = 4\nvalue = 1.68", fillcolor="#eb9f68"] ;
226 -> 227 ;
228 [label="chlorides <= -0.56\nsquared_error = 0.0\nsamples = 3\nvalue = 1.63", fillcolor="#eba06a"] ;
227 -> 228 ;
229 [label="squared_error = 0.0\nsamples = 1\nvalue = 1.7", fillcolor="#eb9e67"] ;
228 -> 229 ;
230 [label="squared_error = -0.0\nsamples = 2\nvalue = 1.61", fillcolor="#eca06a"] ;
228 -> 230 ;
231 [label="squared_error = -0.0\nsamples = 1\nvalue = 1.86", fillcolor="#ea9a61"] ;
227 -> 231 ;
232 [label="citric acid <= 0.34\nsquared_error = 0.09\nsamples = 20\nvalue = 2.22", fillcolor="#e89152"] ;
226 -> 232 ;
233 [label="citric acid <= -0.24\nsquared_error = 0.05\nsamples = 19\nvalue = 2.26", fillcolor="#e89050"] ;
232 -> 233 ;
234 [label="total sulfur dioxide <= -0.09\nsquared_error = 0.04\nsamples = 15\nvalue = 2.32", fillcolor="#e88e4e"] ;
233 -> 234 ;
235 [label="volatile acidity <= 0.76\nsquared_error = 0.02\nsamples = 14\nvalue = 2.29", fillcolor="#e88f4f"] ;
234 -> 235 ;
236 [label="density <= -1.55\nsquared_error = 0.0\nsamples = 3\nvalue = 2.09", fillcolor="#e99457"] ;
235 -> 236 ;
237 [label="squared_error = 0.0\nsamples = 1\nvalue = 2.02", fillcolor="#e9965a"] ;
236 -> 237 ;
238 [label="chlorides <= -0.68\nsquared_error = 0.0\nsamples = 2\nvalue = 2.13", fillcolor="#e99356"] ;
236 -> 238 ;
239 [label="squared_error = 0.0\nsamples = 1\nvalue = 2.18", fillcolor="#e89253"] ;
238 -> 239 ;
240 [label="squared_error = 0.0\nsamples = 1\nvalue = 2.1", fillcolor="#e99457"] ;
238 -> 240 ;
241 [label="chlorides <= -0.95\nsquared_error = 0.01\nsamples = 11\nvalue = 2.35", fillcolor="#e88e4d"] ;
235 -> 241 ;
242 [label="total sulfur dioxide <= -0.89\nsquared_error = 0.0\nsamples = 2\nvalue = 2.14", fillcolor="#e99355"] ;
241 -> 242 ;
243 [label="squared_error = 0.0\nsamples = 1\nvalue = 2.18", fillcolor="#e89253"] ;
242 -> 243 ;
244 [label="squared_error = 0.0\nsamples = 1\nvalue = 2.1", fillcolor="#e99457"] ;
242 -> 244 ;
245 [label="chlorides <= -0.29\nsquared_error = 0.0\nsamples = 9\nvalue = 2.37", fillcolor="#e78d4c"] ;
241 -> 245 ;
246 [label="citric acid <= -0.65\nsquared_error = 0.0\nsamples = 8\nvalue = 2.39", fillcolor="#e78d4b"] ;
245 -> 246 ;
247 [label="squared_error = 0.0\nsamples = 4\nvalue = 2.35", fillcolor="#e88e4d"] ;
246 -> 247 ;
248 [label="residual sugar <= -0.68\nsquared_error = 0.0\nsamples = 4\nvalue = 2.44", fillcolor="#e78b49"] ;
246 -> 248 ;
249 [label="squared_error = 0.0\nsamples = 3\nvalue = 2.43", fillcolor="#e78c49"] ;
248 -> 249 ;
250 [label="squared_error = 0.0\nsamples = 1\nvalue = 2.51", fillcolor="#e78946"] ;
248 -> 250 ;
251 [label="squared_error = -0.0\nsamples = 1\nvalue = 2.18", fillcolor="#e89253"] ;
245 -> 251 ;
252 [label="squared_error = 0.0\nsamples = 1\nvalue = 2.75", fillcolor="#e5833c"] ;
234 -> 252 ;
253 [label="density <= -1.52\nsquared_error = 0.04\nsamples = 4\nvalue = 1.99", fillcolor="#e9975b"] ;
233 -> 253 ;
254 [label="total sulfur dioxide <= -0.44\nsquared_error = 0.0\nsamples = 3\nvalue = 1.91", fillcolor="#ea995f"] ;
253 -> 254 ;
255 [label="squared_error = -0.0\nsamples = 2\nvalue = 1.86", fillcolor="#ea9a61"] ;
254 -> 255 ;
256 [label="squared_error = 0.0\nsamples = 1\nvalue = 1.94", fillcolor="#ea985d"] ;
254 -> 256 ;
257 [label="squared_error = 0.0\nsamples = 1\nvalue = 2.43", fillcolor="#e78c49"] ;
253 -> 257 ;
258 [label="squared_error = 0.0\nsamples = 1\nvalue = 1.21", fillcolor="#eeab7b"] ;
232 -> 258 ;
259 [label="residual sugar <= -0.45\nsquared_error = 0.12\nsamples = 50\nvalue = 1.65", fillcolor="#eba069"] ;
179 -> 259 ;
260 [label="pH <= -0.35\nsquared_error = 0.08\nsamples = 38\nvalue = 1.54", fillcolor="#eca26e"] ;
259 -> 260 ;
261 [label="total sulfur dioxide <= -1.15\nsquared_error = 0.08\nsamples = 10\nvalue = 1.28", fillcolor="#eda978"] ;
260 -> 261 ;
262 [label="volatile acidity <= -0.97\nsquared_error = 0.03\nsamples = 4\nvalue = 0.86", fillcolor="#f0b489"] ;
261 -> 262 ;
263 [label="squared_error = 0.0\nsamples = 1\nvalue = 1.13", fillcolor="#eead7e"] ;
262 -> 263 ;
264 [label="chlorides <= -0.56\nsquared_error = 0.01\nsamples = 3\nvalue = 0.77", fillcolor="#f0b68d"] ;
262 -> 264 ;
265 [label="squared_error = 0.0\nsamples = 1\nvalue = 0.64", fillcolor="#f1ba92"] ;
264 -> 265 ;
266 [label="sulphates <= -0.66\nsquared_error = 0.0\nsamples = 2\nvalue = 0.84", fillcolor="#f0b48a"] ;
264 -> 266 ;
267 [label="squared_error = 0.0\nsamples = 1\nvalue = 0.8", fillcolor="#f0b68c"] ;
266 -> 267 ;
268 [label="squared_error = 0.0\nsamples = 1\nvalue = 0.88", fillcolor="#efb388"] ;
266 -> 268 ;
269 [label="density <= -1.27\nsquared_error = 0.01\nsamples = 6\nvalue = 1.42", fillcolor="#eda672"] ;
261 -> 269 ;
270 [label="residual sugar <= -0.6\nsquared_error = 0.0\nsamples = 2\nvalue = 1.23", fillcolor="#eeaa7a"] ;
269 -> 270 ;
271 [label="squared_error = 0.0\nsamples = 1\nvalue = 1.29", fillcolor="#eda978"] ;
270 -> 271 ;
272 [label="squared_error = 0.0\nsamples = 1\nvalue = 1.21", fillcolor="#eeab7b"] ;
270 -> 272 ;
273 [label="pH <= -0.92\nsquared_error = 0.0\nsamples = 4\nvalue = 1.48", fillcolor="#eca470"] ;
269 -> 273 ;
274 [label="squared_error = -0.0\nsamples = 1\nvalue = 1.53", fillcolor="#eca36e"] ;
273 -> 274 ;
275 [label="squared_error = -0.0\nsamples = 3\nvalue = 1.45", fillcolor="#eca571"] ;
273 -> 275 ;
276 [label="sulphates <= -1.09\nsquared_error = 0.05\nsamples = 28\nvalue = 1.63", fillcolor="#eba06a"] ;
260 -> 276 ;
277 [label="volatile acidity <= -0.43\nsquared_error = 0.0\nsamples = 3\nvalue = 1.22", fillcolor="#eeab7a"] ;
276 -> 277 ;
278 [label="squared_error = 0.0\nsamples = 1\nvalue = 1.29", fillcolor="#eda978"] ;
277 -> 278 ;
279 [label="squared_error = 0.0\nsamples = 2\nvalue = 1.21", fillcolor="#eeab7b"] ;
277 -> 279 ;
280 [label="pH <= 0.44\nsquared_error = 0.03\nsamples = 25\nvalue = 1.68", fillcolor="#eb9f68"] ;
276 -> 280 ;
281 [label="residual sugar <= -0.58\nsquared_error = 0.02\nsamples = 21\nvalue = 1.65", fillcolor="#eba069"] ;
280 -> 281 ;
282 [label="pH <= 0.28\nsquared_error = 0.01\nsamples = 11\nvalue = 1.72", fillcolor="#eb9e66"] ;
281 -> 282 ;
283 [label="density <= -1.36\nsquared_error = 0.0\nsamples = 8\nvalue = 1.75", fillcolor="#eb9d65"] ;
282 -> 283 ;
284 [label="squared_error = -0.0\nsamples = 4\nvalue = 1.78", fillcolor="#eb9c64"] ;
283 -> 284 ;
285 [label="sulphates <= -0.92\nsquared_error = 0.01\nsamples = 4\nvalue = 1.7", fillcolor="#eb9e67"] ;
283 -> 285 ;
286 [label="chlorides <= -0.58\nsquared_error = 0.01\nsamples = 2\nvalue = 1.64", fillcolor="#eba069"] ;
285 -> 286 ;
287 [label="squared_error = 0.0\nsamples = 1\nvalue = 1.53", fillcolor="#eca36e"] ;
286 -> 287 ;
288 [label="squared_error = 0.0\nsamples = 1\nvalue = 1.7", fillcolor="#eb9e67"] ;
286 -> 288 ;
289 [label="squared_error = 0.0\nsamples = 2\nvalue = 1.78", fillcolor="#eb9c64"] ;
285 -> 289 ;
290 [label="residual sugar <= -0.74\nsquared_error = 0.0\nsamples = 3\nvalue = 1.57", fillcolor="#eca26c"] ;
282 -> 290 ;
291 [label="pH <= 0.38\nsquared_error = 0.0\nsamples = 2\nvalue = 1.61", fillcolor="#eca06a"] ;
290 -> 291 ;
292 [label="squared_error = 0.0\nsamples = 1\nvalue = 1.61", fillcolor="#eca06a"] ;
291 -> 292 ;
293 [label="squared_error = 0.0\nsamples = 1\nvalue = 1.61", fillcolor="#eca06a"] ;
291 -> 293 ;
294 [label="squared_error = -0.0\nsamples = 1\nvalue = 1.53", fillcolor="#eca36e"] ;
290 -> 294 ;
295 [label="sulphates <= 0.35\nsquared_error = 0.01\nsamples = 10\nvalue = 1.55", fillcolor="#eca26d"] ;
281 -> 295 ;
296 [label="volatile acidity <= 0.07\nsquared_error = 0.01\nsamples = 5\nvalue = 1.46", fillcolor="#eca471"] ;
295 -> 296 ;
297 [label="quality <= 0.7\nsquared_error = 0.0\nsamples = 2\nvalue = 1.33", fillcolor="#eda876"] ;
296 -> 297 ;
298 [label="squared_error = 0.0\nsamples = 1\nvalue = 1.37", fillcolor="#eda774"] ;
297 -> 298 ;
299 [label="squared_error = 0.0\nsamples = 1\nvalue = 1.29", fillcolor="#eda978"] ;
297 -> 299 ;
300 [label="pH <= 0.34\nsquared_error = 0.0\nsamples = 3\nvalue = 1.51", fillcolor="#eca36f"] ;
296 -> 300 ;
301 [label="squared_error = -0.0\nsamples = 2\nvalue = 1.53", fillcolor="#eca36e"] ;
300 -> 301 ;
302 [label="squared_error = 0.0\nsamples = 1\nvalue = 1.45", fillcolor="#eca571"] ;
300 -> 302 ;
303 [label="pH <= 0.31\nsquared_error = 0.0\nsamples = 5\nvalue = 1.66", fillcolor="#eb9f69"] ;
295 -> 303 ;
304 [label="squared_error = 0.0\nsamples = 2\nvalue = 1.7", fillcolor="#eb9e67"] ;
303 -> 304 ;
305 [label="squared_error = 0.0\nsamples = 3\nvalue = 1.61", fillcolor="#eca06a"] ;
303 -> 305 ;
306 [label="density <= -1.32\nsquared_error = 0.05\nsamples = 4\nvalue = 2.0", fillcolor="#e9975b"] ;
280 -> 306 ;
307 [label="squared_error = 0.0\nsamples = 1\nvalue = 2.35", fillcolor="#e88e4d"] ;
306 -> 307 ;
308 [label="total sulfur dioxide <= -1.27\nsquared_error = 0.02\nsamples = 3\nvalue = 1.88", fillcolor="#ea9a60"] ;
306 -> 308 ;
309 [label="squared_error = 0.0\nsamples = 1\nvalue = 1.7", fillcolor="#eb9e67"] ;
308 -> 309 ;
310 [label="pH <= 0.84\nsquared_error = 0.0\nsamples = 2\nvalue = 1.98", fillcolor="#ea975c"] ;
308 -> 310 ;
311 [label="squared_error = 0.0\nsamples = 1\nvalue = 2.02", fillcolor="#e9965a"] ;
310 -> 311 ;
312 [label="squared_error = -0.0\nsamples = 1\nvalue = 1.94", fillcolor="#ea985d"] ;
310 -> 312 ;
313 [label="citric acid <= -0.32\nsquared_error = 0.09\nsamples = 12\nvalue = 2.01", fillcolor="#e9965a"] ;
259 -> 313 ;
314 [label="pH <= 0.97\nsquared_error = 0.04\nsamples = 8\nvalue = 1.84", fillcolor="#ea9b61"] ;
313 -> 314 ;
315 [label="chlorides <= -0.31\nsquared_error = 0.02\nsamples = 7\nvalue = 1.89", fillcolor="#ea995f"] ;
314 -> 315 ;
316 [label="sulphates <= 0.31\nsquared_error = 0.01\nsamples = 5\nvalue = 1.97", fillcolor="#ea975c"] ;
315 -> 316 ;
317 [label="density <= -1.37\nsquared_error = 0.0\nsamples = 4\nvalue = 2.04", fillcolor="#e99659"] ;
316 -> 317 ;
318 [label="squared_error = 0.0\nsamples = 1\nvalue = 2.1", fillcolor="#e99457"] ;
317 -> 318 ;
319 [label="squared_error = -0.0\nsamples = 3\nvalue = 2.02", fillcolor="#e9965a"] ;
317 -> 319 ;
320 [label="squared_error = 0.0\nsamples = 1\nvalue = 1.86", fillcolor="#ea9a61"] ;
316 -> 320 ;
321 [label="chlorides <= -0.2\nsquared_error = 0.0\nsamples = 2\nvalue = 1.67", fillcolor="#eb9f68"] ;
315 -> 321 ;
322 [label="squared_error = 0.0\nsamples = 1\nvalue = 1.7", fillcolor="#eb9e67"] ;
321 -> 322 ;
323 [label="squared_error = 0.0\nsamples = 1\nvalue = 1.61", fillcolor="#eca06a"] ;
321 -> 323 ;
324 [label="squared_error = 0.0\nsamples = 1\nvalue = 1.37", fillcolor="#eda774"] ;
314 -> 324 ;
325 [label="sulphates <= -0.61\nsquared_error = 0.03\nsamples = 4\nvalue = 2.35", fillcolor="#e88e4d"] ;
313 -> 325 ;
326 [label="fixed acidity <= -0.24\nsquared_error = 0.0\nsamples = 3\nvalue = 2.47", fillcolor="#e78a48"] ;
325 -> 326 ;
327 [label="squared_error = 0.0\nsamples = 1\nvalue = 2.43", fillcolor="#e78c49"] ;
326 -> 327 ;
328 [label="squared_error = 0.0\nsamples = 2\nvalue = 2.51", fillcolor="#e78946"] ;
326 -> 328 ;
329 [label="squared_error = -0.0\nsamples = 1\nvalue = 2.1", fillcolor="#e99457"] ;
325 -> 329 ;
330 [label="residual sugar <= -0.93\nsquared_error = 0.26\nsamples = 189\nvalue = 1.09", fillcolor="#eeae80"] ;
2 -> 330 ;
331 [label="fixed acidity <= 0.94\nsquared_error = 0.13\nsamples = 73\nvalue = 0.73", fillcolor="#f0b78e"] ;
330 -> 331 ;
332 [label="chlorides <= 0.65\nsquared_error = 0.1\nsamples = 59\nvalue = 0.65", fillcolor="#f1b991"] ;
331 -> 332 ;
333 [label="fixed acidity <= -0.36\nsquared_error = 0.08\nsamples = 57\nvalue = 0.62", fillcolor="#f1ba93"] ;
332 -> 333 ;
334 [label="pH <= -0.68\nsquared_error = 0.06\nsamples = 35\nvalue = 0.53", fillcolor="#f1bc96"] ;
333 -> 334 ;
335 [label="squared_error = 0.0\nsamples = 1\nvalue = -0.01", fillcolor="#f4caac"] ;
334 -> 335 ;
336 [label="residual sugar <= -1.07\nsquared_error = 0.05\nsamples = 34\nvalue = 0.56", fillcolor="#f1bc95"] ;
334 -> 336 ;
337 [label="squared_error = 0.0\nsamples = 1\nvalue = 0.07", fillcolor="#f4c8a9"] ;
336 -> 337 ;
338 [label="sulphates <= 2.37\nsquared_error = 0.04\nsamples = 33\nvalue = 0.58", fillcolor="#f1bb94"] ;
336 -> 338 ;
339 [label="chlorides <= -0.38\nsquared_error = 0.03\nsamples = 32\nvalue = 0.57", fillcolor="#f1bb95"] ;
338 -> 339 ;
340 [label="citric acid <= -0.08\nsquared_error = 0.02\nsamples = 16\nvalue = 0.48", fillcolor="#f2be99"] ;
339 -> 340 ;
341 [label="total sulfur dioxide <= -1.51\nsquared_error = 0.01\nsamples = 13\nvalue = 0.44", fillcolor="#f2bf9a"] ;
340 -> 341 ;
342 [label="residual sugar <= -1.05\nsquared_error = 0.0\nsamples = 3\nvalue = 0.6", fillcolor="#f1bb94"] ;
341 -> 342 ;
343 [label="squared_error = 0.0\nsamples = 1\nvalue = 0.64", fillcolor="#f1ba92"] ;
342 -> 343 ;
344 [label="squared_error = 0.0\nsamples = 2\nvalue = 0.56", fillcolor="#f1bc95"] ;
342 -> 344 ;
345 [label="residual sugar <= -1.05\nsquared_error = 0.01\nsamples = 10\nvalue = 0.41", fillcolor="#f2c09c"] ;
341 -> 345 ;
346 [label="squared_error = 0.0\nsamples = 1\nvalue = 0.11", fillcolor="#f4c7a8"] ;
345 -> 346 ;
347 [label="chlorides <= -0.42\nsquared_error = 0.01\nsamples = 9\nvalue = 0.42", fillcolor="#f2bf9b"] ;
345 -> 347 ;
348 [label="sulphates <= -0.57\nsquared_error = 0.0\nsamples = 8\nvalue = 0.41", fillcolor="#f2c09b"] ;
347 -> 348 ;
349 [label="residual sugar <= -1.0\nsquared_error = 0.0\nsamples = 5\nvalue = 0.38", fillcolor="#f2c09d"] ;
348 -> 349 ;
350 [label="squared_error = 0.0\nsamples = 3\nvalue = 0.39", fillcolor="#f2c09c"] ;
349 -> 350 ;
351 [label="squared_error = -0.0\nsamples = 2\nvalue = 0.31", fillcolor="#f2c29f"] ;
349 -> 351 ;
352 [label="squared_error = -0.0\nsamples = 3\nvalue = 0.48", fillcolor="#f2be99"] ;
348 -> 352 ;
353 [label="squared_error = 0.0\nsamples = 1\nvalue = 0.64", fillcolor="#f1ba92"] ;
347 -> 353 ;
354 [label="quality <= 1.83\nsquared_error = 0.0\nsamples = 3\nvalue = 0.76", fillcolor="#f0b78d"] ;
340 -> 354 ;
355 [label="density <= -1.05\nsquared_error = 0.0\nsamples = 2\nvalue = 0.74", fillcolor="#f0b78e"] ;
354 -> 355 ;
356 [label="squared_error = 0.0\nsamples = 1\nvalue = 0.72", fillcolor="#f0b88f"] ;
355 -> 356 ;
357 [label="squared_error = 0.0\nsamples = 1\nvalue = 0.76", fillcolor="#f0b78d"] ;
355 -> 357 ;
358 [label="squared_error = 0.0\nsamples = 1\nvalue = 0.8", fillcolor="#f0b68c"] ;
354 -> 358 ;
359 [label="chlorides <= -0.29\nsquared_error = 0.02\nsamples = 16\nvalue = 0.67", fillcolor="#f1b991"] ;
339 -> 359 ;
360 [label="pH <= 0.77\nsquared_error = 0.0\nsamples = 2\nvalue = 0.86", fillcolor="#f0b489"] ;
359 -> 360 ;
361 [label="squared_error = 0.0\nsamples = 1\nvalue = 0.8", fillcolor="#f0b68c"] ;
360 -> 361 ;
362 [label="squared_error = 0.0\nsamples = 1\nvalue = 0.88", fillcolor="#efb388"] ;
360 -> 362 ;
363 [label="citric acid <= -0.16\nsquared_error = 0.02\nsamples = 14\nvalue = 0.63", fillcolor="#f1ba92"] ;
359 -> 363 ;
364 [label="free sulfur dioxide <= -0.69\nsquared_error = 0.01\nsamples = 8\nvalue = 0.7", fillcolor="#f0b890"] ;
363 -> 364 ;
365 [label="squared_error = 0.0\nsamples = 1\nvalue = 0.96", fillcolor="#efb185"] ;
364 -> 365 ;
366 [label="sulphates <= 0.31\nsquared_error = 0.0\nsamples = 7\nvalue = 0.68", fillcolor="#f1b991"] ;
364 -> 366 ;
367 [label="squared_error = 0.0\nsamples = 4\nvalue = 0.72", fillcolor="#f0b88f"] ;
366 -> 367 ;
368 [label="residual sugar <= -1.03\nsquared_error = 0.0\nsamples = 3\nvalue = 0.6", fillcolor="#f1bb94"] ;
366 -> 368 ;
369 [label="squared_error = 0.0\nsamples = 1\nvalue = 0.56", fillcolor="#f1bc95"] ;
368 -> 369 ;
370 [label="squared_error = -0.0\nsamples = 2\nvalue = 0.64", fillcolor="#f1ba92"] ;
368 -> 370 ;
371 [label="density <= -1.06\nsquared_error = 0.01\nsamples = 6\nvalue = 0.54", fillcolor="#f1bc96"] ;
363 -> 371 ;
372 [label="total sulfur dioxide <= -0.23\nsquared_error = 0.0\nsamples = 5\nvalue = 0.57", fillcolor="#f1bc95"] ;
371 -> 372 ;
373 [label="squared_error = 0.0\nsamples = 2\nvalue = 0.64", fillcolor="#f1ba92"] ;
372 -> 373 ;
374 [label="density <= -1.14\nsquared_error = 0.0\nsamples = 3\nvalue = 0.54", fillcolor="#f1bc96"] ;
372 -> 374 ;
375 [label="squared_error = 0.0\nsamples = 1\nvalue = 0.48", fillcolor="#f2be99"] ;
374 -> 375 ;
376 [label="squared_error = 0.0\nsamples = 2\nvalue = 0.56", fillcolor="#f1bc95"] ;
374 -> 376 ;
377 [label="squared_error = 0.0\nsamples = 1\nvalue = 0.31", fillcolor="#f2c29f"] ;
371 -> 377 ;
378 [label="squared_error = 0.0\nsamples = 1\nvalue = 1.21", fillcolor="#eeab7b"] ;
338 -> 378 ;
379 [label="pH <= 0.44\nsquared_error = 0.08\nsamples = 22\nvalue = 0.79", fillcolor="#f0b68c"] ;
333 -> 379 ;
380 [label="chlorides <= -0.13\nsquared_error = 0.05\nsamples = 19\nvalue = 0.74", fillcolor="#f0b78e"] ;
379 -> 380 ;
381 [label="density <= -1.21\nsquared_error = 0.01\nsamples = 15\nvalue = 0.67", fillcolor="#f1b991"] ;
380 -> 381 ;
382 [label="squared_error = 0.0\nsamples = 1\nvalue = 0.96", fillcolor="#efb185"] ;
381 -> 382 ;
383 [label="total sulfur dioxide <= 0.67\nsquared_error = 0.01\nsamples = 14\nvalue = 0.65", fillcolor="#f1b992"] ;
381 -> 383 ;
384 [label="citric acid <= 0.83\nsquared_error = 0.01\nsamples = 13\nvalue = 0.66", fillcolor="#f1b991"] ;
383 -> 384 ;
385 [label="free sulfur dioxide <= -1.14\nsquared_error = 0.0\nsamples = 11\nvalue = 0.69", fillcolor="#f0b890"] ;
384 -> 385 ;
386 [label="squared_error = 0.0\nsamples = 1\nvalue = 0.8", fillcolor="#f0b68c"] ;
385 -> 386 ;
387 [label="total sulfur dioxide <= -0.76\nsquared_error = 0.0\nsamples = 10\nvalue = 0.68", fillcolor="#f0b890"] ;
385 -> 387 ;
388 [label="residual sugar <= -1.03\nsquared_error = 0.0\nsamples = 4\nvalue = 0.65", fillcolor="#f1b992"] ;
387 -> 388 ;
389 [label="squared_error = 0.0\nsamples = 1\nvalue = 0.72", fillcolor="#f0b88f"] ;
388 -> 389 ;
390 [label="squared_error = 0.0\nsamples = 3\nvalue = 0.64", fillcolor="#f1ba92"] ;
388 -> 390 ;
391 [label="sulphates <= 1.71\nsquared_error = 0.0\nsamples = 6\nvalue = 0.71", fillcolor="#f0b88f"] ;
387 -> 391 ;
392 [label="squared_error = 0.0\nsamples = 5\nvalue = 0.72", fillcolor="#f0b88f"] ;
391 -> 392 ;
393 [label="squared_error = -0.0\nsamples = 1\nvalue = 0.64", fillcolor="#f1ba92"] ;
391 -> 393 ;
394 [label="residual sugar <= -0.99\nsquared_error = 0.01\nsamples = 2\nvalue = 0.56", fillcolor="#f1bc95"] ;
384 -> 394 ;
395 [label="squared_error = 0.0\nsamples = 1\nvalue = 0.64", fillcolor="#f1ba92"] ;
394 -> 395 ;
396 [label="squared_error = -0.0\nsamples = 1\nvalue = 0.48", fillcolor="#f2be99"] ;
394 -> 396 ;
397 [label="squared_error = -0.0\nsamples = 1\nvalue = 0.39", fillcolor="#f2c09c"] ;
383 -> 397 ;
398 [label="free sulfur dioxide <= -0.78\nsquared_error = 0.1\nsamples = 4\nvalue = 1.0", fillcolor="#efb083"] ;
380 -> 398 ;
399 [label="squared_error = 0.0\nsamples = 1\nvalue = 1.41", fillcolor="#eda673"] ;
398 -> 399 ;
400 [label="quality <= -0.43\nsquared_error = 0.03\nsamples = 3\nvalue = 0.8", fillcolor="#f0b68c"] ;
398 -> 400 ;
401 [label="squared_error = 0.0\nsamples = 1\nvalue = 0.96", fillcolor="#efb185"] ;
400 -> 401 ;
402 [label="sulphates <= 0.26\nsquared_error = 0.01\nsamples = 2\nvalue = 0.64", fillcolor="#f1ba92"] ;
400 -> 402 ;
403 [label="squared_error = 0.0\nsamples = 1\nvalue = 0.72", fillcolor="#f0b88f"] ;
402 -> 403 ;
404 [label="squared_error = -0.0\nsamples = 1\nvalue = 0.56", fillcolor="#f1bc95"] ;
402 -> 404 ;
405 [label="sulphates <= -0.48\nsquared_error = 0.13\nsamples = 3\nvalue = 1.23", fillcolor="#eeaa7a"] ;
379 -> 405 ;
406 [label="squared_error = 0.0\nsamples = 1\nvalue = 0.72", fillcolor="#f0b88f"] ;
405 -> 406 ;
407 [label="fixed acidity <= -0.06\nsquared_error = 0.0\nsamples = 2\nvalue = 1.49", fillcolor="#eca46f"] ;
405 -> 407 ;
408 [label="squared_error = 0.0\nsamples = 1\nvalue = 1.53", fillcolor="#eca36e"] ;
407 -> 408 ;
409 [label="squared_error = 0.0\nsamples = 1\nvalue = 1.45", fillcolor="#eca571"] ;
407 -> 409 ;
410 [label="squared_error = 0.0\nsamples = 2\nvalue = 1.37", fillcolor="#eda774"] ;
332 -> 410 ;
411 [label="residual sugar <= -1.04\nsquared_error = 0.1\nsamples = 14\nvalue = 1.12", fillcolor="#eead7e"] ;
331 -> 411 ;
412 [label="citric acid <= 0.13\nsquared_error = 0.05\nsamples = 6\nvalue = 0.86", fillcolor="#f0b489"] ;
411 -> 412 ;
413 [label="citric acid <= -0.32\nsquared_error = 0.02\nsamples = 3\nvalue = 0.64", fillcolor="#f1ba92"] ;
412 -> 413 ;
414 [label="squared_error = 0.0\nsamples = 1\nvalue = 0.48", fillcolor="#f2be99"] ;
413 -> 414 ;
415 [label="free sulfur dioxide <= 0.36\nsquared_error = 0.01\nsamples = 2\nvalue = 0.72", fillcolor="#f0b88f"] ;
413 -> 415 ;
416 [label="squared_error = 0.0\nsamples = 1\nvalue = 0.64", fillcolor="#f1ba92"] ;
415 -> 416 ;
417 [label="squared_error = 0.0\nsamples = 1\nvalue = 0.8", fillcolor="#f0b68c"] ;
415 -> 417 ;
418 [label="pH <= -1.51\nsquared_error = 0.01\nsamples = 3\nvalue = 1.02", fillcolor="#efb082"] ;
412 -> 418 ;
419 [label="squared_error = 0.0\nsamples = 1\nvalue = 1.21", fillcolor="#eeab7b"] ;
418 -> 419 ;
420 [label="squared_error = 0.0\nsamples = 2\nvalue = 0.96", fillcolor="#efb185"] ;
418 -> 420 ;
421 [label="volatile acidity <= -0.63\nsquared_error = 0.05\nsamples = 8\nvalue = 1.3", fillcolor="#eda877"] ;
411 -> 421 ;
422 [label="density <= -1.07\nsquared_error = 0.01\nsamples = 2\nvalue = 1.02", fillcolor="#efb083"] ;
421 -> 422 ;
423 [label="squared_error = 0.0\nsamples = 1\nvalue = 1.13", fillcolor="#eead7e"] ;
422 -> 423 ;
424 [label="squared_error = 0.0\nsamples = 1\nvalue = 0.96", fillcolor="#efb185"] ;
422 -> 424 ;
425 [label="free sulfur dioxide <= -1.22\nsquared_error = 0.02\nsamples = 6\nvalue = 1.43", fillcolor="#eca572"] ;
421 -> 425 ;
426 [label="free sulfur dioxide <= -1.64\nsquared_error = 0.0\nsamples = 3\nvalue = 1.26", fillcolor="#edaa79"] ;
425 -> 426 ;
427 [label="squared_error = 0.0\nsamples = 2\nvalue = 1.29", fillcolor="#eda978"] ;
426 -> 427 ;
428 [label="squared_error = -0.0\nsamples = 1\nvalue = 1.21", fillcolor="#eeab7b"] ;
426 -> 428 ;
429 [label="sulphates <= -0.31\nsquared_error = 0.0\nsamples = 3\nvalue = 1.55", fillcolor="#eca26d"] ;
425 -> 429 ;
430 [label="sulphates <= -0.96\nsquared_error = 0.0\nsamples = 2\nvalue = 1.53", fillcolor="#eca36e"] ;
429 -> 430 ;
431 [label="squared_error = 0.0\nsamples = 1\nvalue = 1.53", fillcolor="#eca36e"] ;
430 -> 431 ;
432 [label="squared_error = -0.0\nsamples = 1\nvalue = 1.53", fillcolor="#eca36e"] ;
430 -> 432 ;
433 [label="squared_error = -0.0\nsamples = 1\nvalue = 1.61", fillcolor="#eca06a"] ;
429 -> 433 ;
434 [label="residual sugar <= -0.41\nsquared_error = 0.21\nsamples = 116\nvalue = 1.3", fillcolor="#eda977"] ;
330 -> 434 ;
435 [label="citric acid <= 0.01\nsquared_error = 0.15\nsamples = 86\nvalue = 1.16", fillcolor="#eeac7d"] ;
434 -> 435 ;
436 [label="quality <= 0.7\nsquared_error = 0.12\nsamples = 51\nvalue = 1.01", fillcolor="#efb083"] ;
435 -> 436 ;
437 [label="residual sugar <= -0.59\nsquared_error = 0.09\nsamples = 32\nvalue = 0.89", fillcolor="#efb388"] ;
436 -> 437 ;
438 [label="fixed acidity <= 0.41\nsquared_error = 0.05\nsamples = 25\nvalue = 0.82", fillcolor="#f0b58b"] ;
437 -> 438 ;
439 [label="fixed acidity <= -0.12\nsquared_error = 0.04\nsamples = 21\nvalue = 0.77", fillcolor="#f0b68d"] ;
438 -> 439 ;
440 [label="total sulfur dioxide <= -0.82\nsquared_error = 0.03\nsamples = 15\nvalue = 0.85", fillcolor="#f0b489"] ;
439 -> 440 ;
441 [label="chlorides <= -0.84\nsquared_error = 0.03\nsamples = 10\nvalue = 0.93", fillcolor="#efb286"] ;
440 -> 441 ;
442 [label="residual sugar <= -0.7\nsquared_error = 0.03\nsamples = 4\nvalue = 0.8", fillcolor="#f0b68c"] ;
441 -> 442 ;
443 [label="fixed acidity <= -0.24\nsquared_error = 0.01\nsamples = 2\nvalue = 0.9", fillcolor="#efb388"] ;
442 -> 443 ;
444 [label="squared_error = 0.0\nsamples = 1\nvalue = 1.04", fillcolor="#efaf82"] ;
443 -> 444 ;
445 [label="squared_error = -0.0\nsamples = 1\nvalue = 0.8", fillcolor="#f0b68c"] ;
443 -> 445 ;
446 [label="volatile acidity <= -0.08\nsquared_error = 0.0\nsamples = 2\nvalue = 0.56", fillcolor="#f1bc95"] ;
442 -> 446 ;
447 [label="squared_error = 0.0\nsamples = 1\nvalue = 0.56", fillcolor="#f1bc95"] ;
446 -> 447 ;
448 [label="squared_error = 0.0\nsamples = 1\nvalue = 0.56", fillcolor="#f1bc95"] ;
446 -> 448 ;
449 [label="free sulfur dioxide <= -0.05\nsquared_error = 0.01\nsamples = 6\nvalue = 1.02", fillcolor="#efb083"] ;
441 -> 449 ;
450 [label="citric acid <= -0.45\nsquared_error = 0.0\nsamples = 5\nvalue = 1.0", fillcolor="#efb084"] ;
449 -> 450 ;
451 [label="squared_error = 0.0\nsamples = 3\nvalue = 0.96", fillcolor="#efb185"] ;
450 -> 451 ;
452 [label="squared_error = 0.0\nsamples = 2\nvalue = 1.04", fillcolor="#efaf82"] ;
450 -> 452 ;
453 [label="squared_error = 0.0\nsamples = 1\nvalue = 1.21", fillcolor="#eeab7b"] ;
449 -> 453 ;
454 [label="fixed acidity <= -1.19\nsquared_error = 0.0\nsamples = 5\nvalue = 0.72", fillcolor="#f0b88f"] ;
440 -> 454 ;
455 [label="squared_error = 0.0\nsamples = 2\nvalue = 0.64", fillcolor="#f1ba92"] ;
454 -> 455 ;
456 [label="sulphates <= 0.13\nsquared_error = 0.0\nsamples = 3\nvalue = 0.75", fillcolor="#f0b78e"] ;
454 -> 456 ;
457 [label="squared_error = -0.0\nsamples = 1\nvalue = 0.8", fillcolor="#f0b68c"] ;
456 -> 457 ;
458 [label="squared_error = 0.0\nsamples = 2\nvalue = 0.72", fillcolor="#f0b88f"] ;
456 -> 458 ;
459 [label="density <= -1.01\nsquared_error = 0.0\nsamples = 6\nvalue = 0.53", fillcolor="#f1bc96"] ;
439 -> 459 ;
460 [label="squared_error = -0.0\nsamples = 4\nvalue = 0.56", fillcolor="#f1bc95"] ;
459 -> 460 ;
461 [label="squared_error = 0.0\nsamples = 2\nvalue = 0.48", fillcolor="#f2be99"] ;
459 -> 461 ;
462 [label="total sulfur dioxide <= -0.14\nsquared_error = 0.0\nsamples = 4\nvalue = 1.15", fillcolor="#eeac7d"] ;
438 -> 462 ;
463 [label="squared_error = 0.0\nsamples = 3\nvalue = 1.13", fillcolor="#eead7e"] ;
462 -> 463 ;
464 [label="squared_error = -0.0\nsamples = 1\nvalue = 1.21", fillcolor="#eeab7b"] ;
462 -> 464 ;
465 [label="density <= -1.13\nsquared_error = 0.13\nsamples = 7\nvalue = 1.18", fillcolor="#eeac7c"] ;
437 -> 465 ;
466 [label="residual sugar <= -0.49\nsquared_error = 0.0\nsamples = 2\nvalue = 1.7", fillcolor="#eb9e67"] ;
465 -> 466 ;
467 [label="squared_error = 0.0\nsamples = 1\nvalue = 1.7", fillcolor="#eb9e67"] ;
466 -> 467 ;
468 [label="squared_error = 0.0\nsamples = 1\nvalue = 1.7", fillcolor="#eb9e67"] ;
466 -> 468 ;
469 [label="residual sugar <= -0.5\nsquared_error = 0.04\nsamples = 5\nvalue = 0.98", fillcolor="#efb184"] ;
465 -> 469 ;
470 [label="free sulfur dioxide <= -0.31\nsquared_error = 0.0\nsamples = 2\nvalue = 1.17", fillcolor="#eeac7d"] ;
469 -> 470 ;
471 [label="squared_error = 0.0\nsamples = 1\nvalue = 1.04", fillcolor="#efaf82"] ;
470 -> 471 ;
472 [label="squared_error = -0.0\nsamples = 1\nvalue = 1.21", fillcolor="#eeab7b"] ;
470 -> 472 ;
473 [label="squared_error = 0.0\nsamples = 3\nvalue = 0.8", fillcolor="#f0b68c"] ;
469 -> 473 ;
474 [label="density <= -1.11\nsquared_error = 0.11\nsamples = 19\nvalue = 1.24", fillcolor="#edaa7a"] ;
436 -> 474 ;
475 [label="fixed acidity <= -0.72\nsquared_error = 0.05\nsamples = 7\nvalue = 1.49", fillcolor="#eca46f"] ;
474 -> 475 ;
476 [label="citric acid <= -0.65\nsquared_error = 0.01\nsamples = 4\nvalue = 1.24", fillcolor="#edaa7a"] ;
475 -> 476 ;
477 [label="chlorides <= -0.65\nsquared_error = 0.01\nsamples = 2\nvalue = 1.15", fillcolor="#eeac7d"] ;
476 -> 477 ;
478 [label="squared_error = 0.0\nsamples = 1\nvalue = 1.04", fillcolor="#efaf82"] ;
477 -> 478 ;
479 [label="squared_error = -0.0\nsamples = 1\nvalue = 1.21", fillcolor="#eeab7b"] ;
477 -> 479 ;
480 [label="squared_error = -0.0\nsamples = 2\nvalue = 1.37", fillcolor="#eda774"] ;
476 -> 480 ;
481 [label="residual sugar <= -0.66\nsquared_error = 0.01\nsamples = 3\nvalue = 1.65", fillcolor="#eb9f69"] ;
475 -> 481 ;
482 [label="squared_error = -0.0\nsamples = 1\nvalue = 1.53", fillcolor="#eca36e"] ;
481 -> 482 ;
483 [label="total sulfur dioxide <= -0.86\nsquared_error = 0.0\nsamples = 2\nvalue = 1.73", fillcolor="#eb9e66"] ;
481 -> 483 ;
484 [label="squared_error = 0.0\nsamples = 1\nvalue = 1.7", fillcolor="#eb9e67"] ;
483 -> 484 ;
485 [label="squared_error = 0.0\nsamples = 1\nvalue = 1.78", fillcolor="#eb9c64"] ;
483 -> 485 ;
486 [label="density <= -0.98\nsquared_error = 0.05\nsamples = 12\nvalue = 1.01", fillcolor="#efb083"] ;
474 -> 486 ;
487 [label="residual sugar <= -0.46\nsquared_error = 0.02\nsamples = 10\nvalue = 1.08", fillcolor="#eeae80"] ;
486 -> 487 ;
488 [label="total sulfur dioxide <= -0.17\nsquared_error = 0.01\nsamples = 9\nvalue = 1.12", fillcolor="#eead7f"] ;
487 -> 488 ;
489 [label="chlorides <= -0.74\nsquared_error = 0.0\nsamples = 7\nvalue = 1.09", fillcolor="#eeae80"] ;
488 -> 489 ;
490 [label="total sulfur dioxide <= -1.08\nsquared_error = 0.0\nsamples = 3\nvalue = 1.15", fillcolor="#eead7d"] ;
489 -> 490 ;
491 [label="squared_error = -0.0\nsamples = 2\nvalue = 1.13", fillcolor="#eead7e"] ;
490 -> 491 ;
492 [label="squared_error = 0.0\nsamples = 1\nvalue = 1.21", fillcolor="#eeab7b"] ;
490 -> 492 ;
493 [label="chlorides <= -0.63\nsquared_error = 0.0\nsamples = 4\nvalue = 1.04", fillcolor="#efaf82"] ;
489 -> 493 ;
494 [label="squared_error = 0.0\nsamples = 1\nvalue = 1.0", fillcolor="#efb083"] ;
493 -> 494 ;
495 [label="squared_error = 0.0\nsamples = 3\nvalue = 1.04", fillcolor="#efaf82"] ;
493 -> 495 ;
496 [label="fixed acidity <= 0.29\nsquared_error = 0.0\nsamples = 2\nvalue = 1.25", fillcolor="#edaa79"] ;
488 -> 496 ;
497 [label="squared_error = 0.0\nsamples = 1\nvalue = 1.21", fillcolor="#eeab7b"] ;
496 -> 497 ;
498 [label="squared_error = 0.0\nsamples = 1\nvalue = 1.29", fillcolor="#eda978"] ;
496 -> 498 ;
499 [label="squared_error = 0.0\nsamples = 1\nvalue = 0.64", fillcolor="#f1ba92"] ;
487 -> 499 ;
500 [label="volatile acidity <= -0.08\nsquared_error = 0.0\nsamples = 2\nvalue = 0.6", fillcolor="#f1bb94"] ;
486 -> 500 ;
501 [label="squared_error = 0.0\nsamples = 1\nvalue = 0.64", fillcolor="#f1ba92"] ;
500 -> 501 ;
502 [label="squared_error = 0.0\nsamples = 1\nvalue = 0.56", fillcolor="#f1bc95"] ;
500 -> 502 ;
503 [label="volatile acidity <= -0.03\nsquared_error = 0.1\nsamples = 35\nvalue = 1.4", fillcolor="#eda673"] ;
435 -> 503 ;
504 [label="sulphates <= 0.4\nsquared_error = 0.06\nsamples = 23\nvalue = 1.25", fillcolor="#edaa79"] ;
503 -> 504 ;
505 [label="sulphates <= 0.09\nsquared_error = 0.05\nsamples = 16\nvalue = 1.12", fillcolor="#eead7e"] ;
504 -> 505 ;
506 [label="residual sugar <= -0.57\nsquared_error = 0.01\nsamples = 12\nvalue = 1.21", fillcolor="#eeab7b"] ;
505 -> 506 ;
507 [label="residual sugar <= -0.88\nsquared_error = 0.01\nsamples = 11\nvalue = 1.23", fillcolor="#eeaa7a"] ;
506 -> 507 ;
508 [label="citric acid <= 0.34\nsquared_error = 0.0\nsamples = 2\nvalue = 1.33", fillcolor="#eda876"] ;
507 -> 508 ;
509 [label="squared_error = 0.0\nsamples = 1\nvalue = 1.29", fillcolor="#eda978"] ;
508 -> 509 ;
510 [label="squared_error = 0.0\nsamples = 1\nvalue = 1.37", fillcolor="#eda774"] ;
508 -> 510 ;
511 [label="pH <= 0.51\nsquared_error = 0.0\nsamples = 9\nvalue = 1.19", fillcolor="#eeab7c"] ;
507 -> 511 ;
512 [label="pH <= -0.92\nsquared_error = 0.0\nsamples = 6\nvalue = 1.16", fillcolor="#eeac7d"] ;
511 -> 512 ;
513 [label="squared_error = 0.0\nsamples = 2\nvalue = 1.21", fillcolor="#eeab7b"] ;
512 -> 513 ;
514 [label="density <= -1.1\nsquared_error = 0.0\nsamples = 4\nvalue = 1.13", fillcolor="#eead7e"] ;
512 -> 514 ;
515 [label="squared_error = 0.0\nsamples = 2\nvalue = 1.13", fillcolor="#eead7e"] ;
514 -> 515 ;
516 [label="squared_error = 0.0\nsamples = 2\nvalue = 1.13", fillcolor="#eead7e"] ;
514 -> 516 ;
517 [label="chlorides <= -0.79\nsquared_error = 0.0\nsamples = 3\nvalue = 1.25", fillcolor="#edaa79"] ;
511 -> 517 ;
518 [label="squared_error = 0.0\nsamples = 2\nvalue = 1.21", fillcolor="#eeab7b"] ;
517 -> 518 ;
519 [label="squared_error = -0.0\nsamples = 1\nvalue = 1.37", fillcolor="#eda774"] ;
517 -> 519 ;
520 [label="squared_error = -0.0\nsamples = 1\nvalue = 0.88", fillcolor="#efb388"] ;
506 -> 520 ;
521 [label="citric acid <= 0.25\nsquared_error = 0.02\nsamples = 4\nvalue = 0.78", fillcolor="#f0b68c"] ;
505 -> 521 ;
522 [label="squared_error = 0.0\nsamples = 1\nvalue = 1.04", fillcolor="#efaf82"] ;
521 -> 522 ;
523 [label="pH <= -0.88\nsquared_error = 0.0\nsamples = 3\nvalue = 0.69", fillcolor="#f0b890"] ;
521 -> 523 ;
524 [label="squared_error = 0.0\nsamples = 1\nvalue = 0.64", fillcolor="#f1ba92"] ;
523 -> 524 ;
525 [label="squared_error = 0.0\nsamples = 2\nvalue = 0.72", fillcolor="#f0b88f"] ;
523 -> 525 ;
526 [label="sulphates <= 2.89\nsquared_error = 0.03\nsamples = 7\nvalue = 1.43", fillcolor="#eca572"] ;
504 -> 526 ;
527 [label="sulphates <= 0.83\nsquared_error = 0.01\nsamples = 6\nvalue = 1.56", fillcolor="#eca26d"] ;
526 -> 527 ;
528 [label="squared_error = -0.0\nsamples = 2\nvalue = 1.45", fillcolor="#eca571"] ;
527 -> 528 ;
529 [label="sulphates <= 1.62\nsquared_error = 0.0\nsamples = 4\nvalue = 1.61", fillcolor="#eca06a"] ;
527 -> 529 ;
530 [label="squared_error = 0.0\nsamples = 1\nvalue = 1.61", fillcolor="#eca06a"] ;
529 -> 530 ;
531 [label="squared_error = 0.0\nsamples = 3\nvalue = 1.61", fillcolor="#eca06a"] ;
529 -> 531 ;
532 [label="squared_error = -0.0\nsamples = 1\nvalue = 1.21", fillcolor="#eeab7b"] ;
526 -> 532 ;
533 [label="residual sugar <= -0.47\nsquared_error = 0.04\nsamples = 12\nvalue = 1.68", fillcolor="#eb9f68"] ;
503 -> 533 ;
534 [label="sulphates <= 0.97\nsquared_error = 0.02\nsamples = 10\nvalue = 1.75", fillcolor="#eb9d65"] ;
533 -> 534 ;
535 [label="volatile acidity <= 1.11\nsquared_error = 0.0\nsamples = 8\nvalue = 1.81", fillcolor="#ea9b63"] ;
534 -> 535 ;
536 [label="pH <= -0.02\nsquared_error = 0.0\nsamples = 6\nvalue = 1.86", fillcolor="#ea9a61"] ;
535 -> 536 ;
537 [label="squared_error = 0.0\nsamples = 1\nvalue = 1.94", fillcolor="#ea985d"] ;
536 -> 537 ;
538 [label="volatile acidity <= 0.36\nsquared_error = 0.0\nsamples = 5\nvalue = 1.84", fillcolor="#ea9b61"] ;
536 -> 538 ;
539 [label="squared_error = 0.0\nsamples = 4\nvalue = 1.86", fillcolor="#ea9a61"] ;
538 -> 539 ;
540 [label="squared_error = 0.0\nsamples = 1\nvalue = 1.78", fillcolor="#eb9c64"] ;
538 -> 540 ;
541 [label="pH <= 0.51\nsquared_error = 0.0\nsamples = 2\nvalue = 1.74", fillcolor="#eb9d65"] ;
535 -> 541 ;
542 [label="squared_error = 0.0\nsamples = 1\nvalue = 1.78", fillcolor="#eb9c64"] ;
541 -> 542 ;
543 [label="squared_error = -0.0\nsamples = 1\nvalue = 1.7", fillcolor="#eb9e67"] ;
541 -> 543 ;
544 [label="chlorides <= -0.72\nsquared_error = 0.0\nsamples = 2\nvalue = 1.51", fillcolor="#eca36f"] ;
534 -> 544 ;
545 [label="squared_error = 0.0\nsamples = 1\nvalue = 1.53", fillcolor="#eca36e"] ;
544 -> 545 ;
546 [label="squared_error = -0.0\nsamples = 1\nvalue = 1.45", fillcolor="#eca571"] ;
544 -> 546 ;
547 [label="citric acid <= 0.46\nsquared_error = 0.02\nsamples = 2\nvalue = 1.34", fillcolor="#eda875"] ;
533 -> 547 ;
548 [label="squared_error = 0.0\nsamples = 1\nvalue = 1.13", fillcolor="#eead7e"] ;
547 -> 548 ;
549 [label="squared_error = 0.0\nsamples = 1\nvalue = 1.45", fillcolor="#eca571"] ;
547 -> 549 ;
550 [label="residual sugar <= 0.09\nsquared_error = 0.16\nsamples = 30\nvalue = 1.7", fillcolor="#eb9e67"] ;
434 -> 550 ;
551 [label="volatile acidity <= 1.85\nsquared_error = 0.08\nsamples = 27\nvalue = 1.61", fillcolor="#eca16b"] ;
550 -> 551 ;
552 [label="pH <= 1.14\nsquared_error = 0.05\nsamples = 22\nvalue = 1.52", fillcolor="#eca36e"] ;
551 -> 552 ;
553 [label="density <= -1.16\nsquared_error = 0.02\nsamples = 20\nvalue = 1.59", fillcolor="#eca16c"] ;
552 -> 553 ;
554 [label="fixed acidity <= -0.78\nsquared_error = 0.01\nsamples = 7\nvalue = 1.7", fillcolor="#eb9e67"] ;
553 -> 554 ;
555 [label="total sulfur dioxide <= -0.28\nsquared_error = 0.0\nsamples = 3\nvalue = 1.59", fillcolor="#eca16b"] ;
554 -> 555 ;
556 [label="squared_error = 0.0\nsamples = 1\nvalue = 1.53", fillcolor="#eca36e"] ;
555 -> 556 ;
557 [label="squared_error = -0.0\nsamples = 2\nvalue = 1.61", fillcolor="#eca06a"] ;
555 -> 557 ;
558 [label="sulphates <= -1.44\nsquared_error = 0.0\nsamples = 4\nvalue = 1.78", fillcolor="#eb9c64"] ;
554 -> 558 ;
559 [label="squared_error = 0.0\nsamples = 1\nvalue = 1.86", fillcolor="#ea9a61"] ;
558 -> 559 ;
560 [label="sulphates <= -0.48\nsquared_error = 0.0\nsamples = 3\nvalue = 1.76", fillcolor="#eb9d65"] ;
558 -> 560 ;
561 [label="squared_error = 0.0\nsamples = 1\nvalue = 1.7", fillcolor="#eb9e67"] ;
560 -> 561 ;
562 [label="sulphates <= 0.31\nsquared_error = 0.0\nsamples = 2\nvalue = 1.78", fillcolor="#eb9c64"] ;
560 -> 562 ;
563 [label="squared_error = 0.0\nsamples = 1\nvalue = 1.78", fillcolor="#eb9c64"] ;
562 -> 563 ;
564 [label="squared_error = 0.0\nsamples = 1\nvalue = 1.78", fillcolor="#eb9c64"] ;
562 -> 564 ;
565 [label="free sulfur dioxide <= -1.16\nsquared_error = 0.02\nsamples = 13\nvalue = 1.54", fillcolor="#eca26e"] ;
553 -> 565 ;
566 [label="squared_error = 0.0\nsamples = 1\nvalue = 1.04", fillcolor="#efaf82"] ;
565 -> 566 ;
567 [label="sulphates <= -0.35\nsquared_error = 0.01\nsamples = 12\nvalue = 1.56", fillcolor="#eca26d"] ;
565 -> 567 ;
568 [label="total sulfur dioxide <= -0.75\nsquared_error = 0.01\nsamples = 9\nvalue = 1.6", fillcolor="#eca16b"] ;
567 -> 568 ;
569 [label="residual sugar <= -0.32\nsquared_error = 0.0\nsamples = 4\nvalue = 1.68", fillcolor="#eb9f68"] ;
568 -> 569 ;
570 [label="squared_error = 0.0\nsamples = 1\nvalue = 1.61", fillcolor="#eca06a"] ;
569 -> 570 ;
571 [label="squared_error = 0.0\nsamples = 3\nvalue = 1.7", fillcolor="#eb9e67"] ;
569 -> 571 ;
572 [label="pH <= 0.21\nsquared_error = 0.0\nsamples = 5\nvalue = 1.56", fillcolor="#eca26d"] ;
568 -> 572 ;
573 [label="free sulfur dioxide <= -0.52\nsquared_error = 0.0\nsamples = 3\nvalue = 1.52", fillcolor="#eca36e"] ;
572 -> 573 ;
574 [label="squared_error = 0.0\nsamples = 1\nvalue = 1.45", fillcolor="#eca571"] ;
573 -> 574 ;
575 [label="squared_error = 0.0\nsamples = 2\nvalue = 1.53", fillcolor="#eca36e"] ;
573 -> 575 ;
576 [label="squared_error = 0.0\nsamples = 2\nvalue = 1.61", fillcolor="#eca06a"] ;
572 -> 576 ;
577 [label="squared_error = -0.0\nsamples = 3\nvalue = 1.45", fillcolor="#eca571"] ;
567 -> 577 ;
578 [label="fixed acidity <= -1.31\nsquared_error = 0.0\nsamples = 2\nvalue = 1.04", fillcolor="#efaf82"] ;
552 -> 578 ;
579 [label="squared_error = 0.0\nsamples = 1\nvalue = 1.04", fillcolor="#efaf82"] ;
578 -> 579 ;
580 [label="squared_error = 0.0\nsamples = 1\nvalue = 1.04", fillcolor="#efaf82"] ;
578 -> 580 ;
581 [label="free sulfur dioxide <= -1.49\nsquared_error = 0.07\nsamples = 5\nvalue = 1.93", fillcolor="#ea985e"] ;
551 -> 581 ;
582 [label="squared_error = 0.0\nsamples = 1\nvalue = 1.53", fillcolor="#eca36e"] ;
581 -> 582 ;
583 [label="residual sugar <= -0.3\nsquared_error = 0.03\nsamples = 4\nvalue = 2.04", fillcolor="#e99559"] ;
581 -> 583 ;
584 [label="citric acid <= -0.41\nsquared_error = 0.0\nsamples = 3\nvalue = 1.98", fillcolor="#ea975c"] ;
583 -> 584 ;
585 [label="squared_error = 0.0\nsamples = 2\nvalue = 1.94", fillcolor="#ea985d"] ;
584 -> 585 ;
586 [label="squared_error = -0.0\nsamples = 1\nvalue = 2.02", fillcolor="#e9965a"] ;
584 -> 586 ;
587 [label="squared_error = -0.0\nsamples = 1\nvalue = 2.43", fillcolor="#e78c49"] ;
583 -> 587 ;
588 [label="quality <= 0.7\nsquared_error = 0.23\nsamples = 3\nvalue = 2.36", fillcolor="#e88d4c"] ;
550 -> 588 ;
589 [label="squared_error = -0.0\nsamples = 1\nvalue = 2.83", fillcolor="#e58139"] ;
588 -> 589 ;
590 [label="volatile acidity <= -0.13\nsquared_error = 0.01\nsamples = 2\nvalue = 1.88", fillcolor="#ea9a60"] ;
588 -> 590 ;
591 [label="squared_error = 0.0\nsamples = 1\nvalue = 1.94", fillcolor="#ea985d"] ;
590 -> 591 ;
592 [label="squared_error = 0.0\nsamples = 1\nvalue = 1.78", fillcolor="#eb9c64"] ;
590 -> 592 ;
593 [label="residual sugar <= -0.62\nsquared_error = 0.4\nsamples = 449\nvalue = 0.56", fillcolor="#f1bc95"] ;
1 -> 593 ;
594 [label="density <= -0.73\nsquared_error = 0.27\nsamples = 302\nvalue = 0.3", fillcolor="#f3c2a0"] ;
593 -> 594 ;
595 [label="fixed acidity <= -1.43\nsquared_error = 0.2\nsamples = 160\nvalue = 0.53", fillcolor="#f1bc96"] ;
594 -> 595 ;
596 [label="pH <= 1.27\nsquared_error = 0.12\nsamples = 15\nvalue = -0.24", fillcolor="#f5d1b6"] ;
595 -> 596 ;
597 [label="residual sugar <= -1.05\nsquared_error = 0.03\nsamples = 9\nvalue = -0.47", fillcolor="#f7d6bf"] ;
596 -> 597 ;
598 [label="fixed acidity <= -1.9\nsquared_error = 0.01\nsamples = 6\nvalue = -0.54", fillcolor="#f7d8c2"] ;
597 -> 598 ;
599 [label="squared_error = 0.0\nsamples = 2\nvalue = -0.34", fillcolor="#f6d3ba"] ;
598 -> 599 ;
600 [label="citric acid <= 0.92\nsquared_error = 0.0\nsamples = 4\nvalue = -0.59", fillcolor="#f7d9c4"] ;
598 -> 600 ;
601 [label="sulphates <= -0.22\nsquared_error = 0.0\nsamples = 3\nvalue = -0.55", fillcolor="#f7d8c2"] ;
600 -> 601 ;
602 [label="squared_error = 0.0\nsamples = 2\nvalue = -0.58", fillcolor="#f7d9c4"] ;
601 -> 602 ;
603 [label="squared_error = -0.0\nsamples = 1\nvalue = -0.5", fillcolor="#f7d7c0"] ;
601 -> 603 ;
604 [label="squared_error = -0.0\nsamples = 1\nvalue = -0.66", fillcolor="#f8dbc7"] ;
600 -> 604 ;
605 [label="citric acid <= 0.05\nsquared_error = 0.01\nsamples = 3\nvalue = -0.26", fillcolor="#f5d1b6"] ;
597 -> 605 ;
606 [label="squared_error = 0.0\nsamples = 2\nvalue = -0.34", fillcolor="#f6d3ba"] ;
605 -> 606 ;
607 [label="squared_error = -0.0\nsamples = 1\nvalue = -0.17", fillcolor="#f5cfb3"] ;
605 -> 607 ;
608 [label="density <= -0.75\nsquared_error = 0.03\nsamples = 6\nvalue = 0.17", fillcolor="#f3c6a5"] ;
596 -> 608 ;
609 [label="fixed acidity <= -1.78\nsquared_error = 0.01\nsamples = 5\nvalue = 0.22", fillcolor="#f3c5a3"] ;
608 -> 609 ;
610 [label="density <= -0.8\nsquared_error = 0.0\nsamples = 3\nvalue = 0.13", fillcolor="#f3c7a7"] ;
609 -> 610 ;
611 [label="squared_error = 0.0\nsamples = 1\nvalue = 0.07", fillcolor="#f4c8a9"] ;
610 -> 611 ;
612 [label="squared_error = 0.0\nsamples = 2\nvalue = 0.15", fillcolor="#f3c6a6"] ;
610 -> 612 ;
613 [label="volatile acidity <= -0.03\nsquared_error = 0.0\nsamples = 2\nvalue = 0.34", fillcolor="#f2c19e"] ;
609 -> 613 ;
614 [label="squared_error = 0.0\nsamples = 1\nvalue = 0.39", fillcolor="#f2c09c"] ;
613 -> 614 ;
615 [label="squared_error = -0.0\nsamples = 1\nvalue = 0.31", fillcolor="#f2c29f"] ;
613 -> 615 ;
616 [label="squared_error = 0.0\nsamples = 1\nvalue = -0.17", fillcolor="#f5cfb3"] ;
608 -> 616 ;
617 [label="density <= -0.9\nsquared_error = 0.14\nsamples = 145\nvalue = 0.61", fillcolor="#f1bb93"] ;
595 -> 617 ;
618 [label="free sulfur dioxide <= 0.57\nsquared_error = 0.18\nsamples = 44\nvalue = 0.81", fillcolor="#f0b58b"] ;
617 -> 618 ;
619 [label="fixed acidity <= 0.47\nsquared_error = 0.14\nsamples = 38\nvalue = 0.9", fillcolor="#efb387"] ;
618 -> 619 ;
620 [label="total sulfur dioxide <= 0.51\nsquared_error = 0.12\nsamples = 25\nvalue = 0.76", fillcolor="#f0b68d"] ;
619 -> 620 ;
621 [label="volatile acidity <= 0.36\nsquared_error = 0.07\nsamples = 22\nvalue = 0.68", fillcolor="#f0b991"] ;
620 -> 621 ;
622 [label="pH <= 0.18\nsquared_error = 0.04\nsamples = 18\nvalue = 0.61", fillcolor="#f1bb93"] ;
621 -> 622 ;
623 [label="residual sugar <= -0.72\nsquared_error = 0.01\nsamples = 7\nvalue = 0.48", fillcolor="#f2be99"] ;
622 -> 623 ;
624 [label="chlorides <= 0.01\nsquared_error = 0.0\nsamples = 5\nvalue = 0.51", fillcolor="#f1bd97"] ;
623 -> 624 ;
625 [label="squared_error = 0.0\nsamples = 3\nvalue = 0.56", fillcolor="#f1bc95"] ;
624 -> 625 ;
626 [label="squared_error = 0.0\nsamples = 2\nvalue = 0.48", fillcolor="#f2be99"] ;
624 -> 626 ;
627 [label="free sulfur dioxide <= -0.34\nsquared_error = 0.0\nsamples = 2\nvalue = 0.37", fillcolor="#f2c19d"] ;
623 -> 627 ;
628 [label="squared_error = 0.0\nsamples = 1\nvalue = 0.39", fillcolor="#f2c09c"] ;
627 -> 628 ;
629 [label="squared_error = 0.0\nsamples = 1\nvalue = 0.31", fillcolor="#f2c29f"] ;
627 -> 629 ;
630 [label="fixed acidity <= -0.66\nsquared_error = 0.04\nsamples = 11\nvalue = 0.71", fillcolor="#f0b88f"] ;
622 -> 630 ;
631 [label="citric acid <= -0.32\nsquared_error = 0.01\nsamples = 3\nvalue = 0.46", fillcolor="#f2be99"] ;
630 -> 631 ;
632 [label="pH <= 1.17\nsquared_error = 0.0\nsamples = 2\nvalue = 0.53", fillcolor="#f1bc96"] ;
631 -> 632 ;
633 [label="squared_error = 0.0\nsamples = 1\nvalue = 0.56", fillcolor="#f1bc95"] ;
632 -> 633 ;
634 [label="squared_error = -0.0\nsamples = 1\nvalue = 0.48", fillcolor="#f2be99"] ;
632 -> 634 ;
635 [label="squared_error = 0.0\nsamples = 1\nvalue = 0.39", fillcolor="#f2c09c"] ;
631 -> 635 ;
636 [label="fixed acidity <= -0.48\nsquared_error = 0.01\nsamples = 8\nvalue = 0.84", fillcolor="#f0b58a"] ;
630 -> 636 ;
637 [label="squared_error = 0.0\nsamples = 1\nvalue = 1.04", fillcolor="#efaf82"] ;
636 -> 637 ;
638 [label="volatile acidity <= -0.18\nsquared_error = 0.0\nsamples = 7\nvalue = 0.82", fillcolor="#f0b58b"] ;
636 -> 638 ;
639 [label="fixed acidity <= -0.01\nsquared_error = 0.0\nsamples = 4\nvalue = 0.79", fillcolor="#f0b68c"] ;
638 -> 639 ;
640 [label="squared_error = -0.0\nsamples = 3\nvalue = 0.8", fillcolor="#f0b68c"] ;
639 -> 640 ;
641 [label="squared_error = 0.0\nsamples = 1\nvalue = 0.72", fillcolor="#f0b88f"] ;
639 -> 641 ;
642 [label="pH <= 0.74\nsquared_error = 0.0\nsamples = 3\nvalue = 0.88", fillcolor="#efb388"] ;
638 -> 642 ;
643 [label="squared_error = 0.0\nsamples = 1\nvalue = 0.88", fillcolor="#efb388"] ;
642 -> 643 ;
644 [label="squared_error = 0.0\nsamples = 2\nvalue = 0.88", fillcolor="#efb388"] ;
642 -> 644 ;
645 [label="sulphates <= 1.1\nsquared_error = 0.04\nsamples = 4\nvalue = 1.1", fillcolor="#eeae7f"] ;
621 -> 645 ;
646 [label="fixed acidity <= -1.13\nsquared_error = 0.0\nsamples = 2\nvalue = 0.86", fillcolor="#f0b489"] ;
645 -> 646 ;
647 [label="squared_error = 0.0\nsamples = 1\nvalue = 0.91", fillcolor="#efb387"] ;
646 -> 647 ;
648 [label="squared_error = 0.0\nsamples = 1\nvalue = 0.8", fillcolor="#f0b68c"] ;
646 -> 648 ;
649 [label="free sulfur dioxide <= -0.46\nsquared_error = 0.01\nsamples = 2\nvalue = 1.26", fillcolor="#edaa79"] ;
645 -> 649 ;
650 [label="squared_error = 0.0\nsamples = 1\nvalue = 1.21", fillcolor="#eeab7b"] ;
649 -> 650 ;
651 [label="squared_error = -0.0\nsamples = 1\nvalue = 1.37", fillcolor="#eda774"] ;
649 -> 651 ;
652 [label="sulphates <= 0.48\nsquared_error = 0.04\nsamples = 3\nvalue = 1.37", fillcolor="#eda774"] ;
620 -> 652 ;
653 [label="squared_error = 0.0\nsamples = 2\nvalue = 1.21", fillcolor="#eeab7b"] ;
652 -> 653 ;
654 [label="squared_error = 0.0\nsamples = 1\nvalue = 1.61", fillcolor="#eca06a"] ;
652 -> 654 ;
655 [label="pH <= -1.15\nsquared_error = 0.09\nsamples = 13\nvalue = 1.16", fillcolor="#eeac7d"] ;
619 -> 655 ;
656 [label="squared_error = 0.0\nsamples = 1\nvalue = 1.86", fillcolor="#ea9a61"] ;
655 -> 656 ;
657 [label="pH <= 0.74\nsquared_error = 0.04\nsamples = 12\nvalue = 1.09", fillcolor="#eeae80"] ;
655 -> 657 ;
658 [label="chlorides <= -0.2\nsquared_error = 0.02\nsamples = 11\nvalue = 1.06", fillcolor="#eeaf81"] ;
657 -> 658 ;
659 [label="free sulfur dioxide <= -1.11\nsquared_error = 0.01\nsamples = 9\nvalue = 1.1", fillcolor="#eeae7f"] ;
658 -> 659 ;
660 [label="squared_error = -0.0\nsamples = 1\nvalue = 1.29", fillcolor="#eda978"] ;
659 -> 660 ;
661 [label="sulphates <= -0.66\nsquared_error = 0.0\nsamples = 8\nvalue = 1.06", fillcolor="#eeaf81"] ;
659 -> 661 ;
662 [label="squared_error = 0.0\nsamples = 1\nvalue = 1.21", fillcolor="#eeab7b"] ;
661 -> 662 ;
663 [label="sulphates <= 1.23\nsquared_error = 0.0\nsamples = 7\nvalue = 1.04", fillcolor="#efaf82"] ;
661 -> 663 ;
664 [label="citric acid <= 0.42\nsquared_error = 0.0\nsamples = 6\nvalue = 1.05", fillcolor="#eeaf81"] ;
663 -> 664 ;
665 [label="squared_error = -0.0\nsamples = 5\nvalue = 1.04", fillcolor="#efaf82"] ;
664 -> 665 ;
666 [label="squared_error = -0.0\nsamples = 1\nvalue = 1.13", fillcolor="#eead7e"] ;
664 -> 666 ;
667 [label="squared_error = 0.0\nsamples = 1\nvalue = 0.96", fillcolor="#efb185"] ;
663 -> 667 ;
668 [label="squared_error = -0.0\nsamples = 2\nvalue = 0.72", fillcolor="#f0b88f"] ;
658 -> 668 ;
669 [label="squared_error = -0.0\nsamples = 1\nvalue = 1.7", fillcolor="#eb9e67"] ;
657 -> 669 ;
670 [label="residual sugar <= -1.01\nsquared_error = 0.03\nsamples = 6\nvalue = 0.26", fillcolor="#f3c3a1"] ;
618 -> 670 ;
671 [label="total sulfur dioxide <= 0.5\nsquared_error = 0.0\nsamples = 3\nvalue = 0.14", fillcolor="#f3c7a6"] ;
670 -> 671 ;
672 [label="chlorides <= -0.29\nsquared_error = 0.0\nsamples = 2\nvalue = 0.17", fillcolor="#f3c6a5"] ;
671 -> 672 ;
673 [label="squared_error = -0.0\nsamples = 1\nvalue = 0.15", fillcolor="#f3c6a6"] ;
672 -> 673 ;
674 [label="squared_error = -0.0\nsamples = 1\nvalue = 0.23", fillcolor="#f3c4a3"] ;
672 -> 674 ;
675 [label="squared_error = -0.0\nsamples = 1\nvalue = 0.07", fillcolor="#f4c8a9"] ;
671 -> 675 ;
676 [label="total sulfur dioxide <= 0.17\nsquared_error = 0.0\nsamples = 3\nvalue = 0.46", fillcolor="#f2be9a"] ;
670 -> 676 ;
677 [label="squared_error = 0.0\nsamples = 2\nvalue = 0.48", fillcolor="#f2be99"] ;
676 -> 677 ;
678 [label="squared_error = 0.0\nsamples = 1\nvalue = 0.39", fillcolor="#f2c09c"] ;
676 -> 678 ;
679 [label="volatile acidity <= 1.26\nsquared_error = 0.1\nsamples = 101\nvalue = 0.52", fillcolor="#f1bd97"] ;
617 -> 679 ;
680 [label="total sulfur dioxide <= -1.64\nsquared_error = 0.1\nsamples = 98\nvalue = 0.54", fillcolor="#f1bc96"] ;
679 -> 680 ;
681 [label="density <= -0.75\nsquared_error = 0.04\nsamples = 5\nvalue = 0.19", fillcolor="#f3c5a4"] ;
680 -> 681 ;
682 [label="density <= -0.88\nsquared_error = 0.01\nsamples = 3\nvalue = 0.31", fillcolor="#f2c29f"] ;
681 -> 682 ;
683 [label="squared_error = 0.0\nsamples = 1\nvalue = 0.56", fillcolor="#f1bc95"] ;
682 -> 683 ;
684 [label="free sulfur dioxide <= -1.46\nsquared_error = 0.0\nsamples = 2\nvalue = 0.26", fillcolor="#f3c3a1"] ;
682 -> 684 ;
685 [label="squared_error = 0.0\nsamples = 1\nvalue = 0.31", fillcolor="#f2c29f"] ;
684 -> 685 ;
686 [label="squared_error = -0.0\nsamples = 1\nvalue = 0.23", fillcolor="#f3c4a3"] ;
684 -> 686 ;
687 [label="volatile acidity <= -0.13\nsquared_error = 0.0\nsamples = 2\nvalue = -0.07", fillcolor="#f4ccaf"] ;
681 -> 687 ;
688 [label="squared_error = 0.0\nsamples = 1\nvalue = -0.01", fillcolor="#f4caac"] ;
687 -> 688 ;
689 [label="squared_error = 0.0\nsamples = 1\nvalue = -0.09", fillcolor="#f5cdb0"] ;
687 -> 689 ;
690 [label="free sulfur dioxide <= -1.58\nsquared_error = 0.09\nsamples = 93\nvalue = 0.56", fillcolor="#f1bc95"] ;
680 -> 690 ;
691 [label="squared_error = 0.0\nsamples = 1\nvalue = 1.86", fillcolor="#ea9a61"] ;
690 -> 691 ;
692 [label="pH <= 2.06\nsquared_error = 0.08\nsamples = 92\nvalue = 0.55", fillcolor="#f1bc96"] ;
690 -> 692 ;
693 [label="fixed acidity <= -0.72\nsquared_error = 0.08\nsamples = 91\nvalue = 0.55", fillcolor="#f1bc96"] ;
692 -> 693 ;
694 [label="chlorides <= -0.24\nsquared_error = 0.05\nsamples = 12\nvalue = 0.31", fillcolor="#f2c29f"] ;
693 -> 694 ;
695 [label="density <= -0.85\nsquared_error = 0.01\nsamples = 4\nvalue = -0.07", fillcolor="#f4ccaf"] ;
694 -> 695 ;
696 [label="squared_error = 0.0\nsamples = 1\nvalue = -0.26", fillcolor="#f5d1b6"] ;
695 -> 696 ;
697 [label="squared_error = -0.0\nsamples = 3\nvalue = -0.01", fillcolor="#f4caac"] ;
695 -> 697 ;
698 [label="total sulfur dioxide <= -0.62\nsquared_error = 0.01\nsamples = 8\nvalue = 0.42", fillcolor="#f2bf9b"] ;
694 -> 698 ;
699 [label="volatile acidity <= -0.68\nsquared_error = 0.0\nsamples = 5\nvalue = 0.34", fillcolor="#f2c19e"] ;
698 -> 699 ;
700 [label="pH <= 0.77\nsquared_error = 0.0\nsamples = 2\nvalue = 0.26", fillcolor="#f3c4a2"] ;
699 -> 700 ;
701 [label="squared_error = 0.0\nsamples = 1\nvalue = 0.31", fillcolor="#f2c29f"] ;
700 -> 701 ;
702 [label="squared_error = -0.0\nsamples = 1\nvalue = 0.23", fillcolor="#f3c4a3"] ;
700 -> 702 ;
703 [label="squared_error = -0.0\nsamples = 3\nvalue = 0.39", fillcolor="#f2c09c"] ;
699 -> 703 ;
704 [label="volatile acidity <= -0.18\nsquared_error = 0.01\nsamples = 3\nvalue = 0.52", fillcolor="#f1bd97"] ;
698 -> 704 ;
705 [label="squared_error = 0.0\nsamples = 1\nvalue = 0.72", fillcolor="#f0b88f"] ;
704 -> 705 ;
706 [label="squared_error = 0.0\nsamples = 2\nvalue = 0.48", fillcolor="#f2be99"] ;
704 -> 706 ;
707 [label="pH <= -0.02\nsquared_error = 0.07\nsamples = 79\nvalue = 0.58", fillcolor="#f1bb95"] ;
693 -> 707 ;
708 [label="fixed acidity <= 1.48\nsquared_error = 0.08\nsamples = 41\nvalue = 0.51", fillcolor="#f1bd97"] ;
707 -> 708 ;
709 [label="total sulfur dioxide <= 0.59\nsquared_error = 0.05\nsamples = 30\nvalue = 0.44", fillcolor="#f2bf9a"] ;
708 -> 709 ;
710 [label="free sulfur dioxide <= -0.34\nsquared_error = 0.04\nsamples = 25\nvalue = 0.38", fillcolor="#f2c09d"] ;
709 -> 710 ;
711 [label="density <= -0.87\nsquared_error = 0.01\nsamples = 13\nvalue = 0.47", fillcolor="#f2be99"] ;
710 -> 711 ;
712 [label="pH <= -0.92\nsquared_error = 0.0\nsamples = 3\nvalue = 0.64", fillcolor="#f1ba92"] ;
711 -> 712 ;
713 [label="squared_error = 0.0\nsamples = 1\nvalue = 0.56", fillcolor="#f1bc95"] ;
712 -> 713 ;
714 [label="quality <= 0.7\nsquared_error = 0.0\nsamples = 2\nvalue = 0.66", fillcolor="#f1b991"] ;
712 -> 714 ;
715 [label="squared_error = 0.0\nsamples = 1\nvalue = 0.72", fillcolor="#f0b88f"] ;
714 -> 715 ;
716 [label="squared_error = 0.0\nsamples = 1\nvalue = 0.64", fillcolor="#f1ba92"] ;
714 -> 716 ;
717 [label="pH <= -0.65\nsquared_error = 0.01\nsamples = 10\nvalue = 0.43", fillcolor="#f2bf9b"] ;
711 -> 717 ;
718 [label="sulphates <= -0.26\nsquared_error = 0.0\nsamples = 4\nvalue = 0.31", fillcolor="#f2c29f"] ;
717 -> 718 ;
719 [label="squared_error = 0.0\nsamples = 1\nvalue = 0.23", fillcolor="#f3c4a3"] ;
718 -> 719 ;
720 [label="volatile acidity <= -0.88\nsquared_error = 0.0\nsamples = 3\nvalue = 0.33", fillcolor="#f2c29e"] ;
718 -> 720 ;
721 [label="squared_error = 0.0\nsamples = 1\nvalue = 0.39", fillcolor="#f2c09c"] ;
720 -> 721 ;
722 [label="squared_error = -0.0\nsamples = 2\nvalue = 0.31", fillcolor="#f2c29f"] ;
720 -> 722 ;
723 [label="volatile acidity <= -0.78\nsquared_error = 0.0\nsamples = 6\nvalue = 0.47", fillcolor="#f2be99"] ;
717 -> 723 ;
724 [label="squared_error = 0.0\nsamples = 1\nvalue = 0.39", fillcolor="#f2c09c"] ;
723 -> 724 ;
725 [label="squared_error = 0.0\nsamples = 5\nvalue = 0.48", fillcolor="#f2be99"] ;
723 -> 725 ;
726 [label="density <= -0.85\nsquared_error = 0.05\nsamples = 12\nvalue = 0.24", fillcolor="#f3c4a2"] ;
710 -> 726 ;
727 [label="quality <= 0.7\nsquared_error = 0.03\nsamples = 5\nvalue = 0.41", fillcolor="#f2c09c"] ;
726 -> 727 ;
728 [label="fixed acidity <= 0.11\nsquared_error = 0.01\nsamples = 3\nvalue = 0.49", fillcolor="#f1bd98"] ;
727 -> 728 ;
729 [label="squared_error = 0.0\nsamples = 1\nvalue = 0.72", fillcolor="#f0b88f"] ;
728 -> 729 ;
730 [label="volatile acidity <= -0.28\nsquared_error = 0.0\nsamples = 2\nvalue = 0.44", fillcolor="#f2bf9a"] ;
728 -> 730 ;
731 [label="squared_error = 0.0\nsamples = 1\nvalue = 0.39", fillcolor="#f2c09c"] ;
730 -> 731 ;
732 [label="squared_error = 0.0\nsamples = 1\nvalue = 0.48", fillcolor="#f2be99"] ;
730 -> 732 ;
733 [label="free sulfur dioxide <= 0.1\nsquared_error = 0.0\nsamples = 2\nvalue = 0.19", fillcolor="#f3c5a4"] ;
727 -> 733 ;
734 [label="squared_error = 0.0\nsamples = 1\nvalue = 0.23", fillcolor="#f3c4a3"] ;
733 -> 734 ;
735 [label="squared_error = -0.0\nsamples = 1\nvalue = 0.15", fillcolor="#f3c6a6"] ;
733 -> 735 ;
736 [label="sulphates <= 0.22\nsquared_error = 0.03\nsamples = 7\nvalue = 0.11", fillcolor="#f4c7a8"] ;
726 -> 736 ;
737 [label="fixed acidity <= 0.47\nsquared_error = 0.01\nsamples = 6\nvalue = 0.06", fillcolor="#f4c9aa"] ;
736 -> 737 ;
738 [label="chlorides <= -0.49\nsquared_error = 0.0\nsamples = 4\nvalue = -0.03", fillcolor="#f4cbad"] ;
737 -> 738 ;
739 [label="squared_error = 0.0\nsamples = 1\nvalue = -0.09", fillcolor="#f5cdb0"] ;
738 -> 739 ;
740 [label="squared_error = -0.0\nsamples = 3\nvalue = -0.01", fillcolor="#f4caac"] ;
738 -> 740 ;
741 [label="squared_error = -0.0\nsamples = 2\nvalue = 0.15", fillcolor="#f3c6a6"] ;
737 -> 741 ;
742 [label="squared_error = 0.0\nsamples = 1\nvalue = 0.48", fillcolor="#f2be99"] ;
736 -> 742 ;
743 [label="chlorides <= -0.31\nsquared_error = 0.0\nsamples = 5\nvalue = 0.68", fillcolor="#f0b990"] ;
709 -> 743 ;
744 [label="squared_error = 0.0\nsamples = 2\nvalue = 0.64", fillcolor="#f1ba92"] ;
743 -> 744 ;
745 [label="pH <= -0.78\nsquared_error = 0.0\nsamples = 3\nvalue = 0.73", fillcolor="#f0b78e"] ;
743 -> 745 ;
746 [label="squared_error = -0.0\nsamples = 2\nvalue = 0.72", fillcolor="#f0b88f"] ;
745 -> 746 ;
747 [label="squared_error = 0.0\nsamples = 1\nvalue = 0.75", fillcolor="#f0b78e"] ;
745 -> 747 ;
748 [label="density <= -0.77\nsquared_error = 0.11\nsamples = 11\nvalue = 0.71", fillcolor="#f0b88f"] ;
708 -> 748 ;
749 [label="chlorides <= -0.52\nsquared_error = 0.08\nsamples = 7\nvalue = 0.87", fillcolor="#efb489"] ;
748 -> 749 ;
750 [label="chlorides <= -0.61\nsquared_error = 0.01\nsamples = 5\nvalue = 0.74", fillcolor="#f0b78e"] ;
749 -> 750 ;
751 [label="free sulfur dioxide <= -0.28\nsquared_error = 0.0\nsamples = 4\nvalue = 0.7", fillcolor="#f0b890"] ;
750 -> 751 ;
752 [label="squared_error = -0.0\nsamples = 2\nvalue = 0.72", fillcolor="#f0b88f"] ;
751 -> 752 ;
753 [label="squared_error = 0.0\nsamples = 2\nvalue = 0.64", fillcolor="#f1ba92"] ;
751 -> 753 ;
754 [label="squared_error = -0.0\nsamples = 1\nvalue = 0.88", fillcolor="#efb388"] ;
750 -> 754 ;
755 [label="squared_error = 0.0\nsamples = 2\nvalue = 1.45", fillcolor="#eca571"] ;
749 -> 755 ;
756 [label="citric acid <= -0.2\nsquared_error = 0.0\nsamples = 4\nvalue = 0.36", fillcolor="#f2c19d"] ;
748 -> 756 ;
757 [label="squared_error = 0.0\nsamples = 1\nvalue = 0.23", fillcolor="#f3c4a3"] ;
756 -> 757 ;
758 [label="squared_error = 0.0\nsamples = 3\nvalue = 0.39", fillcolor="#f2c09c"] ;
756 -> 758 ;
759 [label="volatile acidity <= 0.29\nsquared_error = 0.05\nsamples = 38\nvalue = 0.65", fillcolor="#f1b991"] ;
707 -> 759 ;
760 [label="chlorides <= -1.02\nsquared_error = 0.04\nsamples = 36\nvalue = 0.63", fillcolor="#f1ba92"] ;
759 -> 760 ;
761 [label="squared_error = 0.0\nsamples = 1\nvalue = 1.37", fillcolor="#eda774"] ;
760 -> 761 ;
762 [label="chlorides <= 2.09\nsquared_error = 0.04\nsamples = 35\nvalue = 0.62", fillcolor="#f1ba93"] ;
760 -> 762 ;
763 [label="total sulfur dioxide <= 0.54\nsquared_error = 0.03\nsamples = 34\nvalue = 0.61", fillcolor="#f1bb93"] ;
762 -> 763 ;
764 [label="residual sugar <= -1.09\nsquared_error = 0.02\nsamples = 29\nvalue = 0.57", fillcolor="#f1bc95"] ;
763 -> 764 ;
765 [label="squared_error = 0.0\nsamples = 1\nvalue = -0.01", fillcolor="#f4caac"] ;
764 -> 765 ;
766 [label="chlorides <= -0.58\nsquared_error = 0.02\nsamples = 28\nvalue = 0.58", fillcolor="#f1bb95"] ;
764 -> 766 ;
767 [label="chlorides <= -0.86\nsquared_error = 0.01\nsamples = 9\nvalue = 0.67", fillcolor="#f1b991"] ;
766 -> 767 ;
768 [label="quality <= 1.83\nsquared_error = 0.0\nsamples = 3\nvalue = 0.56", fillcolor="#f1bc95"] ;
767 -> 768 ;
769 [label="quality <= 0.7\nsquared_error = 0.0\nsamples = 2\nvalue = 0.58", fillcolor="#f1bb95"] ;
768 -> 769 ;
770 [label="squared_error = 0.0\nsamples = 1\nvalue = 0.56", fillcolor="#f1bc95"] ;
769 -> 770 ;
771 [label="squared_error = -0.0\nsamples = 1\nvalue = 0.64", fillcolor="#f1ba92"] ;
769 -> 771 ;
772 [label="squared_error = 0.0\nsamples = 1\nvalue = 0.48", fillcolor="#f2be99"] ;
768 -> 772 ;
773 [label="fixed acidity <= -0.42\nsquared_error = 0.0\nsamples = 6\nvalue = 0.72", fillcolor="#f0b88f"] ;
767 -> 773 ;
774 [label="squared_error = 0.0\nsamples = 1\nvalue = 0.8", fillcolor="#f0b68c"] ;
773 -> 774 ;
775 [label="total sulfur dioxide <= -1.02\nsquared_error = 0.0\nsamples = 5\nvalue = 0.7", fillcolor="#f0b890"] ;
773 -> 775 ;
776 [label="squared_error = 0.0\nsamples = 1\nvalue = 0.64", fillcolor="#f1ba92"] ;
775 -> 776 ;
777 [label="squared_error = 0.0\nsamples = 4\nvalue = 0.72", fillcolor="#f0b88f"] ;
775 -> 777 ;
778 [label="volatile acidity <= -0.73\nsquared_error = 0.01\nsamples = 19\nvalue = 0.54", fillcolor="#f1bc96"] ;
766 -> 778 ;
779 [label="sulphates <= 0.48\nsquared_error = 0.01\nsamples = 12\nvalue = 0.58", fillcolor="#f1bb95"] ;
778 -> 779 ;
780 [label="density <= -0.8\nsquared_error = 0.01\nsamples = 9\nvalue = 0.54", fillcolor="#f1bc96"] ;
779 -> 780 ;
781 [label="density <= -0.85\nsquared_error = 0.0\nsamples = 3\nvalue = 0.46", fillcolor="#f2be99"] ;
780 -> 781 ;
782 [label="squared_error = 0.0\nsamples = 2\nvalue = 0.48", fillcolor="#f2be99"] ;
781 -> 782 ;
783 [label="squared_error = 0.0\nsamples = 1\nvalue = 0.39", fillcolor="#f2c09c"] ;
781 -> 783 ;
784 [label="volatile acidity <= -1.07\nsquared_error = 0.0\nsamples = 6\nvalue = 0.59", fillcolor="#f1bb94"] ;
780 -> 784 ;
785 [label="squared_error = 0.0\nsamples = 4\nvalue = 0.56", fillcolor="#f1bc95"] ;
784 -> 785 ;
786 [label="density <= -0.76\nsquared_error = 0.0\nsamples = 2\nvalue = 0.67", fillcolor="#f1b991"] ;
784 -> 786 ;
787 [label="squared_error = 0.0\nsamples = 1\nvalue = 0.72", fillcolor="#f0b88f"] ;
786 -> 787 ;
788 [label="squared_error = -0.0\nsamples = 1\nvalue = 0.64", fillcolor="#f1ba92"] ;
786 -> 788 ;
789 [label="residual sugar <= -0.8\nsquared_error = 0.0\nsamples = 3\nvalue = 0.7", fillcolor="#f0b890"] ;
779 -> 789 ;
790 [label="squared_error = 0.0\nsamples = 2\nvalue = 0.72", fillcolor="#f0b88f"] ;
789 -> 790 ;
791 [label="squared_error = 0.0\nsamples = 1\nvalue = 0.67", fillcolor="#f1b991"] ;
789 -> 791 ;
792 [label="volatile acidity <= 0.14\nsquared_error = 0.01\nsamples = 7\nvalue = 0.44", fillcolor="#f2bf9a"] ;
778 -> 792 ;
793 [label="pH <= 1.04\nsquared_error = 0.0\nsamples = 6\nvalue = 0.4", fillcolor="#f2c09c"] ;
792 -> 793 ;
794 [label="squared_error = 0.0\nsamples = 5\nvalue = 0.39", fillcolor="#f2c09c"] ;
793 -> 794 ;
795 [label="squared_error = 0.0\nsamples = 1\nvalue = 0.48", fillcolor="#f2be99"] ;
793 -> 795 ;
796 [label="squared_error = 0.0\nsamples = 1\nvalue = 0.8", fillcolor="#f0b68c"] ;
792 -> 796 ;
797 [label="free sulfur dioxide <= 0.1\nsquared_error = 0.01\nsamples = 5\nvalue = 0.78", fillcolor="#f0b68c"] ;
763 -> 797 ;
798 [label="pH <= 1.17\nsquared_error = 0.0\nsamples = 2\nvalue = 0.92", fillcolor="#efb287"] ;
797 -> 798 ;
799 [label="squared_error = 0.0\nsamples = 1\nvalue = 0.96", fillcolor="#efb185"] ;
798 -> 799 ;
800 [label="squared_error = -0.0\nsamples = 1\nvalue = 0.88", fillcolor="#efb388"] ;
798 -> 800 ;
801 [label="volatile acidity <= -0.13\nsquared_error = 0.0\nsamples = 3\nvalue = 0.7", fillcolor="#f0b890"] ;
797 -> 801 ;
802 [label="squared_error = 0.0\nsamples = 2\nvalue = 0.72", fillcolor="#f0b88f"] ;
801 -> 802 ;
803 [label="squared_error = -0.0\nsamples = 1\nvalue = 0.64", fillcolor="#f1ba92"] ;
801 -> 803 ;
804 [label="squared_error = 0.0\nsamples = 1\nvalue = 1.29", fillcolor="#eda978"] ;
762 -> 804 ;
805 [label="quality <= -0.43\nsquared_error = 0.01\nsamples = 2\nvalue = 1.13", fillcolor="#eead7e"] ;
759 -> 805 ;
806 [label="squared_error = 0.0\nsamples = 1\nvalue = 1.21", fillcolor="#eeab7b"] ;
805 -> 806 ;
807 [label="squared_error = 0.0\nsamples = 1\nvalue = 0.96", fillcolor="#efb185"] ;
805 -> 807 ;
808 [label="squared_error = -0.0\nsamples = 1\nvalue = 1.53", fillcolor="#eca36e"] ;
692 -> 808 ;
809 [label="density <= -0.87\nsquared_error = 0.01\nsamples = 3\nvalue = 0.05", fillcolor="#f4c9aa"] ;
679 -> 809 ;
810 [label="squared_error = 0.0\nsamples = 1\nvalue = 0.23", fillcolor="#f3c4a3"] ;
809 -> 810 ;
811 [label="total sulfur dioxide <= -0.09\nsquared_error = 0.0\nsamples = 2\nvalue = 0.02", fillcolor="#f4caab"] ;
809 -> 811 ;
812 [label="squared_error = 0.0\nsamples = 1\nvalue = -0.01", fillcolor="#f4caac"] ;
811 -> 812 ;
813 [label="squared_error = 0.0\nsamples = 1\nvalue = 0.07", fillcolor="#f4c8a9"] ;
811 -> 813 ;
814 [label="residual sugar <= -1.05\nsquared_error = 0.22\nsamples = 142\nvalue = 0.04", fillcolor="#f4c9ab"] ;
594 -> 814 ;
815 [label="fixed acidity <= -0.18\nsquared_error = 0.13\nsamples = 15\nvalue = -0.54", fillcolor="#f7d8c2"] ;
814 -> 815 ;
816 [label="sulphates <= -0.48\nsquared_error = 0.06\nsamples = 11\nvalue = -0.77", fillcolor="#f8decb"] ;
815 -> 816 ;
817 [label="total sulfur dioxide <= -0.8\nsquared_error = 0.01\nsamples = 5\nvalue = -0.94", fillcolor="#f9e2d2"] ;
816 -> 817 ;
818 [label="volatile acidity <= -0.63\nsquared_error = 0.0\nsamples = 3\nvalue = -1.07", fillcolor="#fae6d7"] ;
817 -> 818 ;
819 [label="squared_error = 0.0\nsamples = 1\nvalue = -1.07", fillcolor="#fae6d7"] ;
818 -> 819 ;
820 [label="squared_error = 0.0\nsamples = 2\nvalue = -1.07", fillcolor="#fae6d7"] ;
818 -> 820 ;
821 [label="squared_error = -0.0\nsamples = 2\nvalue = -0.82", fillcolor="#f8e0ce"] ;
817 -> 821 ;
822 [label="pH <= 0.11\nsquared_error = 0.02\nsamples = 6\nvalue = -0.52", fillcolor="#f7d8c1"] ;
816 -> 822 ;
823 [label="volatile acidity <= 1.41\nsquared_error = 0.0\nsamples = 3\nvalue = -0.64", fillcolor="#f8dbc6"] ;
822 -> 823 ;
824 [label="squared_error = 0.0\nsamples = 2\nvalue = -0.66", fillcolor="#f8dbc7"] ;
823 -> 824 ;
825 [label="squared_error = -0.0\nsamples = 1\nvalue = -0.58", fillcolor="#f7d9c4"] ;
823 -> 825 ;
826 [label="quality <= -0.43\nsquared_error = 0.0\nsamples = 3\nvalue = -0.35", fillcolor="#f6d3ba"] ;
822 -> 826 ;
827 [label="squared_error = 0.0\nsamples = 1\nvalue = -0.42", fillcolor="#f6d5bd"] ;
826 -> 827 ;
828 [label="pH <= 2.36\nsquared_error = 0.0\nsamples = 2\nvalue = -0.32", fillcolor="#f6d2b9"] ;
826 -> 828 ;
829 [label="squared_error = 0.0\nsamples = 1\nvalue = -0.34", fillcolor="#f6d3ba"] ;
828 -> 829 ;
830 [label="squared_error = 0.0\nsamples = 1\nvalue = -0.3", fillcolor="#f6d2b8"] ;
828 -> 830 ;
831 [label="quality <= -0.43\nsquared_error = 0.02\nsamples = 4\nvalue = -0.15", fillcolor="#f5ceb2"] ;
815 -> 831 ;
832 [label="fixed acidity <= 0.11\nsquared_error = 0.0\nsamples = 2\nvalue = -0.29", fillcolor="#f6d2b8"] ;
831 -> 832 ;
833 [label="squared_error = 0.0\nsamples = 1\nvalue = -0.26", fillcolor="#f5d1b6"] ;
832 -> 833 ;
834 [label="squared_error = 0.0\nsamples = 1\nvalue = -0.34", fillcolor="#f6d3ba"] ;
832 -> 834 ;
835 [label="sulphates <= -1.36\nsquared_error = 0.0\nsamples = 2\nvalue = -0.04", fillcolor="#f4cbae"] ;
831 -> 835 ;
836 [label="squared_error = 0.0\nsamples = 1\nvalue = -0.01", fillcolor="#f4caac"] ;
835 -> 836 ;
837 [label="squared_error = 0.0\nsamples = 1\nvalue = -0.09", fillcolor="#f5cdb0"] ;
835 -> 837 ;
838 [label="free sulfur dioxide <= -1.81\nsquared_error = 0.18\nsamples = 127\nvalue = 0.12", fillcolor="#f3c7a7"] ;
814 -> 838 ;
839 [label="squared_error = 0.0\nsamples = 1\nvalue = 2.43", fillcolor="#e78c49"] ;
838 -> 839 ;
840 [label="fixed acidity <= 0.11\nsquared_error = 0.15\nsamples = 126\nvalue = 0.11", fillcolor="#f4c7a8"] ;
838 -> 840 ;
841 [label="pH <= 0.44\nsquared_error = 0.13\nsamples = 72\nvalue = -0.02", fillcolor="#f4cbad"] ;
840 -> 841 ;
842 [label="volatile acidity <= -0.33\nsquared_error = 0.06\nsamples = 38\nvalue = -0.26", fillcolor="#f5d1b6"] ;
841 -> 842 ;
843 [label="fixed acidity <= -0.12\nsquared_error = 0.04\nsamples = 12\nvalue = -0.09", fillcolor="#f5cdb0"] ;
842 -> 843 ;
844 [label="citric acid <= -1.07\nsquared_error = 0.01\nsamples = 9\nvalue = -0.22", fillcolor="#f5d0b5"] ;
843 -> 844 ;
845 [label="pH <= 0.28\nsquared_error = 0.0\nsamples = 3\nvalue = -0.13", fillcolor="#f5cdb1"] ;
844 -> 845 ;
846 [label="chlorides <= -0.04\nsquared_error = 0.0\nsamples = 2\nvalue = -0.05", fillcolor="#f4ccae"] ;
845 -> 846 ;
847 [label="squared_error = 0.0\nsamples = 1\nvalue = -0.09", fillcolor="#f5cdb0"] ;
846 -> 847 ;
848 [label="squared_error = -0.0\nsamples = 1\nvalue = -0.01", fillcolor="#f4caac"] ;
846 -> 848 ;
849 [label="squared_error = 0.0\nsamples = 1\nvalue = -0.17", fillcolor="#f5cfb3"] ;
845 -> 849 ;
850 [label="volatile acidity <= -0.88\nsquared_error = 0.01\nsamples = 6\nvalue = -0.29", fillcolor="#f6d2b8"] ;
844 -> 850 ;
851 [label="free sulfur dioxide <= -0.02\nsquared_error = 0.0\nsamples = 4\nvalue = -0.26", fillcolor="#f5d1b6"] ;
850 -> 851 ;
852 [label="squared_error = 0.0\nsamples = 1\nvalue = -0.17", fillcolor="#f5cfb3"] ;
851 -> 852 ;
853 [label="residual sugar <= -0.89\nsquared_error = 0.0\nsamples = 3\nvalue = -0.28", fillcolor="#f6d1b7"] ;
851 -> 853 ;
854 [label="squared_error = 0.0\nsamples = 2\nvalue = -0.26", fillcolor="#f5d1b6"] ;
853 -> 854 ;
855 [label="squared_error = -0.0\nsamples = 1\nvalue = -0.34", fillcolor="#f6d3ba"] ;
853 -> 855 ;
856 [label="citric acid <= -0.16\nsquared_error = 0.0\nsamples = 2\nvalue = -0.38", fillcolor="#f6d4bb"] ;
850 -> 856 ;
857 [label="squared_error = 0.0\nsamples = 1\nvalue = -0.34", fillcolor="#f6d3ba"] ;
856 -> 857 ;
858 [label="squared_error = 0.0\nsamples = 1\nvalue = -0.42", fillcolor="#f6d5bd"] ;
856 -> 858 ;
859 [label="volatile acidity <= -0.43\nsquared_error = 0.03\nsamples = 3\nvalue = 0.06", fillcolor="#f4c9aa"] ;
843 -> 859 ;
860 [label="density <= -0.61\nsquared_error = 0.01\nsamples = 2\nvalue = 0.22", fillcolor="#f3c5a3"] ;
859 -> 860 ;
861 [label="squared_error = -0.0\nsamples = 1\nvalue = 0.15", fillcolor="#f3c6a6"] ;
860 -> 861 ;
862 [label="squared_error = 0.0\nsamples = 1\nvalue = 0.31", fillcolor="#f2c29f"] ;
860 -> 862 ;
863 [label="squared_error = -0.0\nsamples = 1\nvalue = -0.09", fillcolor="#f5cdb0"] ;
859 -> 863 ;
864 [label="pH <= 0.08\nsquared_error = 0.05\nsamples = 26\nvalue = -0.36", fillcolor="#f6d3bb"] ;
842 -> 864 ;
865 [label="density <= -0.69\nsquared_error = 0.02\nsamples = 19\nvalue = -0.43", fillcolor="#f6d5be"] ;
864 -> 865 ;
866 [label="volatile acidity <= 0.61\nsquared_error = 0.01\nsamples = 2\nvalue = -0.09", fillcolor="#f5cdb0"] ;
865 -> 866 ;
867 [label="squared_error = 0.0\nsamples = 1\nvalue = -0.17", fillcolor="#f5cfb3"] ;
866 -> 867 ;
868 [label="squared_error = -0.0\nsamples = 1\nvalue = -0.01", fillcolor="#f4caac"] ;
866 -> 868 ;
869 [label="quality <= -0.43\nsquared_error = 0.02\nsamples = 17\nvalue = -0.46", fillcolor="#f7d6bf"] ;
865 -> 869 ;
870 [label="total sulfur dioxide <= 0.1\nsquared_error = 0.01\nsamples = 12\nvalue = -0.4", fillcolor="#f6d5bc"] ;
869 -> 870 ;
871 [label="volatile acidity <= 0.71\nsquared_error = 0.0\nsamples = 3\nvalue = -0.32", fillcolor="#f6d3b9"] ;
870 -> 871 ;
872 [label="squared_error = 0.0\nsamples = 2\nvalue = -0.34", fillcolor="#f6d3ba"] ;
871 -> 872 ;
873 [label="squared_error = 0.0\nsamples = 1\nvalue = -0.26", fillcolor="#f5d1b6"] ;
871 -> 873 ;
874 [label="pH <= -0.29\nsquared_error = 0.0\nsamples = 9\nvalue = -0.45", fillcolor="#f6d6be"] ;
870 -> 874 ;
875 [label="squared_error = 0.0\nsamples = 2\nvalue = -0.58", fillcolor="#f7d9c4"] ;
874 -> 875 ;
876 [label="squared_error = -0.0\nsamples = 7\nvalue = -0.42", fillcolor="#f6d5bd"] ;
874 -> 876 ;
877 [label="fixed acidity <= -1.13\nsquared_error = 0.01\nsamples = 5\nvalue = -0.62", fillcolor="#f7dac5"] ;
869 -> 877 ;
878 [label="squared_error = 0.0\nsamples = 1\nvalue = -0.74", fillcolor="#f8ddca"] ;
877 -> 878 ;
879 [label="pH <= -0.75\nsquared_error = 0.0\nsamples = 4\nvalue = -0.56", fillcolor="#f7d9c3"] ;
877 -> 879 ;
880 [label="squared_error = 0.0\nsamples = 3\nvalue = -0.58", fillcolor="#f7d9c4"] ;
879 -> 880 ;
881 [label="squared_error = -0.0\nsamples = 1\nvalue = -0.5", fillcolor="#f7d7c0"] ;
879 -> 881 ;
882 [label="residual sugar <= -0.96\nsquared_error = 0.05\nsamples = 7\nvalue = -0.15", fillcolor="#f5ceb2"] ;
864 -> 882 ;
883 [label="chlorides <= 2.18\nsquared_error = 0.0\nsamples = 3\nvalue = -0.42", fillcolor="#f6d5bd"] ;
882 -> 883 ;
884 [label="citric acid <= -2.1\nsquared_error = 0.0\nsamples = 2\nvalue = -0.46", fillcolor="#f7d6bf"] ;
883 -> 884 ;
885 [label="squared_error = 0.0\nsamples = 1\nvalue = -0.5", fillcolor="#f7d7c0"] ;
884 -> 885 ;
886 [label="squared_error = 0.0\nsamples = 1\nvalue = -0.42", fillcolor="#f6d5bd"] ;
884 -> 886 ;
887 [label="squared_error = 0.0\nsamples = 1\nvalue = -0.34", fillcolor="#f6d3ba"] ;
883 -> 887 ;
888 [label="pH <= 0.31\nsquared_error = 0.02\nsamples = 4\nvalue = -0.01", fillcolor="#f4caac"] ;
882 -> 888 ;
889 [label="fixed acidity <= -0.84\nsquared_error = 0.01\nsamples = 2\nvalue = 0.15", fillcolor="#f3c6a6"] ;
888 -> 889 ;
890 [label="squared_error = 0.0\nsamples = 1\nvalue = 0.23", fillcolor="#f3c4a3"] ;
889 -> 890 ;
891 [label="squared_error = 0.0\nsamples = 1\nvalue = 0.07", fillcolor="#f4c8a9"] ;
889 -> 891 ;
892 [label="squared_error = 0.0\nsamples = 2\nvalue = -0.09", fillcolor="#f5cdb0"] ;
888 -> 892 ;
893 [label="fixed acidity <= -1.43\nsquared_error = 0.07\nsamples = 34\nvalue = 0.24", fillcolor="#f3c4a2"] ;
841 -> 893 ;
894 [label="sulphates <= -0.22\nsquared_error = 0.05\nsamples = 6\nvalue = -0.17", fillcolor="#f5cfb3"] ;
893 -> 894 ;
895 [label="fixed acidity <= -2.08\nsquared_error = 0.0\nsamples = 2\nvalue = 0.03", fillcolor="#f4c9ab"] ;
894 -> 895 ;
896 [label="squared_error = 0.0\nsamples = 1\nvalue = -0.01", fillcolor="#f4caac"] ;
895 -> 896 ;
897 [label="squared_error = 0.0\nsamples = 1\nvalue = 0.15", fillcolor="#f3c6a6"] ;
895 -> 897 ;
898 [label="total sulfur dioxide <= 0.17\nsquared_error = 0.0\nsamples = 4\nvalue = -0.38", fillcolor="#f6d4bb"] ;
894 -> 898 ;
899 [label="squared_error = 0.0\nsamples = 3\nvalue = -0.34", fillcolor="#f6d3ba"] ;
898 -> 899 ;
900 [label="squared_error = -0.0\nsamples = 1\nvalue = -0.5", fillcolor="#f7d7c0"] ;
898 -> 900 ;
901 [label="volatile acidity <= -0.43\nsquared_error = 0.04\nsamples = 28\nvalue = 0.32", fillcolor="#f2c29f"] ;
893 -> 901 ;
902 [label="total sulfur dioxide <= 2.24\nsquared_error = 0.02\nsamples = 14\nvalue = 0.42", fillcolor="#f2bf9b"] ;
901 -> 902 ;
903 [label="residual sugar <= -0.82\nsquared_error = 0.01\nsamples = 13\nvalue = 0.39", fillcolor="#f2c09c"] ;
902 -> 903 ;
904 [label="residual sugar <= -0.97\nsquared_error = 0.01\nsamples = 12\nvalue = 0.37", fillcolor="#f2c19d"] ;
903 -> 904 ;
905 [label="free sulfur dioxide <= -0.86\nsquared_error = 0.0\nsamples = 5\nvalue = 0.44", fillcolor="#f2bf9a"] ;
904 -> 905 ;
906 [label="citric acid <= 0.09\nsquared_error = 0.0\nsamples = 2\nvalue = 0.37", fillcolor="#f2c19d"] ;
905 -> 906 ;
907 [label="squared_error = 0.0\nsamples = 1\nvalue = 0.39", fillcolor="#f2c09c"] ;
906 -> 907 ;
908 [label="squared_error = -0.0\nsamples = 1\nvalue = 0.31", fillcolor="#f2c29f"] ;
906 -> 908 ;
909 [label="volatile acidity <= -1.17\nsquared_error = 0.0\nsamples = 3\nvalue = 0.49", fillcolor="#f1bd98"] ;
905 -> 909 ;
910 [label="squared_error = 0.0\nsamples = 1\nvalue = 0.56", fillcolor="#f1bc95"] ;
909 -> 910 ;
911 [label="squared_error = 0.0\nsamples = 2\nvalue = 0.48", fillcolor="#f2be99"] ;
909 -> 911 ;
912 [label="total sulfur dioxide <= 0.26\nsquared_error = 0.01\nsamples = 7\nvalue = 0.31", fillcolor="#f2c29f"] ;
904 -> 912 ;
913 [label="squared_error = 0.0\nsamples = 5\nvalue = 0.23", fillcolor="#f3c4a3"] ;
912 -> 913 ;
914 [label="squared_error = 0.0\nsamples = 2\nvalue = 0.39", fillcolor="#f2c09c"] ;
912 -> 914 ;
915 [label="squared_error = 0.0\nsamples = 1\nvalue = 0.72", fillcolor="#f0b88f"] ;
903 -> 915 ;
916 [label="squared_error = -0.0\nsamples = 1\nvalue = 0.64", fillcolor="#f1ba92"] ;
902 -> 916 ;
917 [label="free sulfur dioxide <= -0.72\nsquared_error = 0.03\nsamples = 14\nvalue = 0.19", fillcolor="#f3c5a4"] ;
901 -> 917 ;
918 [label="fixed acidity <= -1.01\nsquared_error = 0.0\nsamples = 3\nvalue = -0.07", fillcolor="#f4ccaf"] ;
917 -> 918 ;
919 [label="squared_error = 0.0\nsamples = 1\nvalue = -0.01", fillcolor="#f4caac"] ;
918 -> 919 ;
920 [label="squared_error = 0.0\nsamples = 2\nvalue = -0.09", fillcolor="#f5cdb0"] ;
918 -> 920 ;
