digraph Tree {
node [shape=box, style="filled, rounded", color="black", fontname="helvetica"] ;
edge [fontname="helvetica"] ;
0 [label="alcohol <= 10.85\ngini = 0.67\nsamples = 3918\nvalue = [12, 130, 1186, 1758, 692, 138, 2]\nclass = l", fillcolor="#d6faf9"] ;
1 [label="volatile acidity <= 0.24\ngini = 0.62\nsamples = 2471\nvalue = [9, 101, 1041, 1078, 210, 32, 0]\nclass = l", fillcolor="#fafefe"] ;
0 -> 1 [labeldistance=2.5, labelangle=45, headlabel="True"] ;
2 [label="alcohol <= 8.85\ngini = 0.61\nsamples = 1031\nvalue = [2, 16, 265, 565, 157, 26, 0]\nclass = l", fillcolor="#b1f5f4"] ;
1 -> 2 ;
3 [label="pH <= 2.92\ngini = 0.7\nsamples = 85\nvalue = [0, 0, 36, 22, 17, 10, 0]\nclass = a", fillcolor="#d3f9d7"] ;
2 -> 3 ;
4 [label="chlorides <= 0.07\ngini = 0.15\nsamples = 12\nvalue = [0, 0, 0, 1, 11, 0, 0]\nclass = i", fillcolor="#4b65e7"] ;
3 -> 4 ;
5 [label="gini = 0.0\nsamples = 11\nvalue = [0, 0, 0, 0, 11, 0, 0]\nclass = i", fillcolor="#3956e5"] ;
4 -> 5 ;
6 [label="gini = 0.0\nsamples = 1\nvalue = [0, 0, 0, 1, 0, 0, 0]\nclass = l", fillcolor="#39e5e2"] ;
4 -> 6 ;
7 [label="pH <= 2.95\ngini = 0.65\nsamples = 73\nvalue = [0, 0, 36, 21, 6, 10, 0]\nclass = a", fillcolor="#c6f8cc"] ;
3 -> 7 ;
8 [label="gini = 0.0\nsamples = 6\nvalue = [0, 0, 0, 0, 0, 6, 0]\nclass = t", fillcolor="#b139e5"] ;
7 -> 8 ;
9 [label="fixed acidity <= 7.9\ngini = 0.6\nsamples = 67\nvalue = [0, 0, 36, 21, 6, 4, 0]\nclass = a", fillcolor="#bef7c5"] ;
7 -> 9 ;
10 [label="total sulfur dioxide <= 132.0\ngini = 0.51\nsamples = 59\nvalue = [0, 0, 36, 20, 1, 2, 0]\nclass = a", fillcolor="#aef4b6"] ;
9 -> 10 ;
11 [label="free sulfur dioxide <= 29.0\ngini = 0.46\nsamples = 16\nvalue = [0, 0, 4, 11, 1, 0, 0]\nclass = l", fillcolor="#8cf0ee"] ;
10 -> 11 ;
12 [label="citric acid <= 0.3\ngini = 0.56\nsamples = 5\nvalue = [0, 0, 3, 1, 1, 0, 0]\nclass = a", fillcolor="#9cf2a6"] ;
11 -> 12 ;
13 [label="gini = 0.0\nsamples = 3\nvalue = [0, 0, 3, 0, 0, 0, 0]\nclass = a", fillcolor="#39e54d"] ;
12 -> 13 ;
14 [label="alcohol <= 8.75\ngini = 0.5\nsamples = 2\nvalue = [0, 0, 0, 1, 1, 0, 0]\nclass = l", fillcolor="#ffffff"] ;
12 -> 14 ;
15 [label="gini = 0.0\nsamples = 1\nvalue = [0, 0, 0, 0, 1, 0, 0]\nclass = i", fillcolor="#3956e5"] ;
14 -> 15 ;
16 [label="gini = 0.0\nsamples = 1\nvalue = [0, 0, 0, 1, 0, 0, 0]\nclass = l", fillcolor="#39e5e2"] ;
14 -> 16 ;
17 [label="volatile acidity <= 0.23\ngini = 0.17\nsamples = 11\nvalue = [0, 0, 1, 10, 0, 0, 0]\nclass = l", fillcolor="#4de8e5"] ;
11 -> 17 ;
18 [label="gini = 0.0\nsamples = 10\nvalue = [0, 0, 0, 10, 0, 0, 0]\nclass = l", fillcolor="#39e5e2"] ;
17 -> 18 ;
19 [label="gini = 0.0\nsamples = 1\nvalue = [0, 0, 1, 0, 0, 0, 0]\nclass = a", fillcolor="#39e54d"] ;
17 -> 19 ;
20 [label="total sulfur dioxide <= 150.5\ngini = 0.4\nsamples = 43\nvalue = [0, 0, 32, 9, 0, 2, 0]\nclass = a", fillcolor="#79ed87"] ;
10 -> 20 ;
21 [label="alcohol <= 8.55\ngini = 0.08\nsamples = 24\nvalue = [0, 0, 23, 0, 0, 1, 0]\nclass = a", fillcolor="#42e655"] ;
20 -> 21 ;
22 [label="gini = 0.0\nsamples = 1\nvalue = [0, 0, 0, 0, 0, 1, 0]\nclass = t", fillcolor="#b139e5"] ;
21 -> 22 ;
23 [label="gini = 0.0\nsamples = 23\nvalue = [0, 0, 23, 0, 0, 0, 0]\nclass = a", fillcolor="#39e54d"] ;
21 -> 23 ;
24 [label="residual sugar <= 13.9\ngini = 0.55\nsamples = 19\nvalue = [0, 0, 9, 9, 0, 1, 0]\nclass = a", fillcolor="#ffffff"] ;
20 -> 24 ;
25 [label="total sulfur dioxide <= 152.5\ngini = 0.31\nsamples = 11\nvalue = [0, 0, 9, 1, 0, 1, 0]\nclass = a", fillcolor="#61ea71"] ;
24 -> 25 ;
26 [label="gini = 0.0\nsamples = 1\nvalue = [0, 0, 0, 1, 0, 0, 0]\nclass = l", fillcolor="#39e5e2"] ;
25 -> 26 ;
27 [label="chlorides <= 0.05\ngini = 0.18\nsamples = 10\nvalue = [0, 0, 9, 0, 0, 1, 0]\nclass = a", fillcolor="#4fe861"] ;
25 -> 27 ;
28 [label="gini = 0.0\nsamples = 8\nvalue = [0, 0, 8, 0, 0, 0, 0]\nclass = a", fillcolor="#39e54d"] ;
27 -> 28 ;
29 [label="residual sugar <= 6.5\ngini = 0.5\nsamples = 2\nvalue = [0, 0, 1, 0, 0, 1, 0]\nclass = a", fillcolor="#ffffff"] ;
27 -> 29 ;
30 [label="gini = 0.0\nsamples = 1\nvalue = [0, 0, 0, 0, 0, 1, 0]\nclass = t", fillcolor="#b139e5"] ;
29 -> 30 ;
31 [label="gini = 0.0\nsamples = 1\nvalue = [0, 0, 1, 0, 0, 0, 0]\nclass = a", fillcolor="#39e54d"] ;
29 -> 31 ;
32 [label="gini = 0.0\nsamples = 8\nvalue = [0, 0, 0, 8, 0, 0, 0]\nclass = l", fillcolor="#39e5e2"] ;
24 -> 32 ;
33 [label="density <= 1.0\ngini = 0.53\nsamples = 8\nvalue = [0, 0, 0, 1, 5, 2, 0]\nclass = i", fillcolor="#9caaf2"] ;
9 -> 33 ;
34 [label="gini = 0.0\nsamples = 5\nvalue = [0, 0, 0, 0, 5, 0, 0]\nclass = i", fillcolor="#3956e5"] ;
33 -> 34 ;
35 [label="fixed acidity <= 8.45\ngini = 0.44\nsamples = 3\nvalue = [0, 0, 0, 1, 0, 2, 0]\nclass = t", fillcolor="#d89cf2"] ;
33 -> 35 ;
36 [label="gini = 0.0\nsamples = 2\nvalue = [0, 0, 0, 0, 0, 2, 0]\nclass = t", fillcolor="#b139e5"] ;
35 -> 36 ;
37 [label="gini = 0.0\nsamples = 1\nvalue = [0, 0, 0, 1, 0, 0, 0]\nclass = l", fillcolor="#39e5e2"] ;
35 -> 37 ;
38 [label="volatile acidity <= 0.21\ngini = 0.59\nsamples = 946\nvalue = [2, 16, 229, 543, 140, 16, 0]\nclass = l", fillcolor="#a8f4f2"] ;
2 -> 38 ;
39 [label="sulphates <= 0.84\ngini = 0.6\nsamples = 554\nvalue = [1, 10, 110, 316, 105, 12, 0]\nclass = l", fillcolor="#a3f3f2"] ;
38 -> 39 ;
40 [label="alcohol <= 9.05\ngini = 0.59\nsamples = 547\nvalue = [1, 10, 109, 316, 99, 12, 0]\nclass = l", fillcolor="#a1f3f1"] ;
39 -> 40 ;
41 [label="pH <= 3.01\ngini = 0.71\nsamples = 40\nvalue = [0, 2, 4, 13, 16, 5, 0]\nclass = i", fillcolor="#e9ecfc"] ;
40 -> 41 ;
42 [label="citric acid <= 0.31\ngini = 0.21\nsamples = 17\nvalue = [0, 0, 0, 2, 15, 0, 0]\nclass = i", fillcolor="#536de8"] ;
41 -> 42 ;
43 [label="gini = 0.0\nsamples = 15\nvalue = [0, 0, 0, 0, 15, 0, 0]\nclass = i", fillcolor="#3956e5"] ;
42 -> 43 ;
44 [label="gini = 0.0\nsamples = 2\nvalue = [0, 0, 0, 2, 0, 0, 0]\nclass = l", fillcolor="#39e5e2"] ;
42 -> 44 ;
45 [label="total sulfur dioxide <= 204.75\ngini = 0.68\nsamples = 23\nvalue = [0, 2, 4, 11, 1, 5, 0]\nclass = l", fillcolor="#bdf6f5"] ;
41 -> 45 ;
46 [label="chlorides <= 0.04\ngini = 0.56\nsamples = 18\nvalue = [0, 2, 4, 11, 1, 0, 0]\nclass = l", fillcolor="#9cf2f0"] ;
45 -> 46 ;
47 [label="fixed acidity <= 7.85\ngini = 0.38\nsamples = 4\nvalue = [0, 1, 3, 0, 0, 0, 0]\nclass = a", fillcolor="#7bee88"] ;
46 -> 47 ;
48 [label="gini = 0.0\nsamples = 3\nvalue = [0, 0, 3, 0, 0, 0, 0]\nclass = a", fillcolor="#39e54d"] ;
47 -> 48 ;
49 [label="gini = 0.0\nsamples = 1\nvalue = [0, 1, 0, 0, 0, 0, 0]\nclass = u", fillcolor="#b7e539"] ;
47 -> 49 ;
50 [label="chlorides <= 0.06\ngini = 0.37\nsamples = 14\nvalue = [0, 1, 1, 11, 1, 0, 0]\nclass = l", fillcolor="#67ebe9"] ;
46 -> 50 ;
51 [label="free sulfur dioxide <= 30.0\ngini = 0.15\nsamples = 12\nvalue = [0, 1, 0, 11, 0, 0, 0]\nclass = l", fillcolor="#4be7e5"] ;
50 -> 51 ;
52 [label="gini = 0.0\nsamples = 1\nvalue = [0, 1, 0, 0, 0, 0, 0]\nclass = u", fillcolor="#b7e539"] ;
51 -> 52 ;
53 [label="gini = 0.0\nsamples = 11\nvalue = [0, 0, 0, 11, 0, 0, 0]\nclass = l", fillcolor="#39e5e2"] ;
51 -> 53 ;
54 [label="sulphates <= 0.41\ngini = 0.5\nsamples = 2\nvalue = [0, 0, 1, 0, 1, 0, 0]\nclass = a", fillcolor="#ffffff"] ;
50 -> 54 ;
55 [label="gini = 0.0\nsamples = 1\nvalue = [0, 0, 0, 0, 1, 0, 0]\nclass = i", fillcolor="#3956e5"] ;
54 -> 55 ;
56 [label="gini = 0.0\nsamples = 1\nvalue = [0, 0, 1, 0, 0, 0, 0]\nclass = a", fillcolor="#39e54d"] ;
54 -> 56 ;
57 [label="gini = 0.0\nsamples = 5\nvalue = [0, 0, 0, 0, 0, 5, 0]\nclass = t", fillcolor="#b139e5"] ;
45 -> 57 ;
58 [label="chlorides <= 0.04\ngini = 0.57\nsamples = 507\nvalue = [1, 8, 105, 303, 83, 7, 0]\nclass = l", fillcolor="#9df2f1"] ;
40 -> 58 ;
59 [label="free sulfur dioxide <= 13.5\ngini = 0.67\nsamples = 150\nvalue = [0, 3, 35, 70, 37, 5, 0]\nclass = l", fillcolor="#c5f7f7"] ;
58 -> 59 ;
60 [label="residual sugar <= 2.7\ngini = 0.29\nsamples = 12\nvalue = [0, 1, 10, 1, 0, 0, 0]\nclass = a", fillcolor="#5dea6d"] ;
59 -> 60 ;
61 [label="gini = 0.0\nsamples = 10\nvalue = [0, 0, 10, 0, 0, 0, 0]\nclass = a", fillcolor="#39e54d"] ;
60 -> 61 ;
62 [label="citric acid <= 0.43\ngini = 0.5\nsamples = 2\nvalue = [0, 1, 0, 1, 0, 0, 0]\nclass = u", fillcolor="#ffffff"] ;
60 -> 62 ;
63 [label="gini = 0.0\nsamples = 1\nvalue = [0, 0, 0, 1, 0, 0, 0]\nclass = l", fillcolor="#39e5e2"] ;
62 -> 63 ;
64 [label="gini = 0.0\nsamples = 1\nvalue = [0, 1, 0, 0, 0, 0, 0]\nclass = u", fillcolor="#b7e539"] ;
62 -> 64 ;
65 [label="alcohol <= 10.12\ngini = 0.64\nsamples = 138\nvalue = [0, 2, 25, 69, 37, 5, 0]\nclass = l", fillcolor="#c0f7f6"] ;
59 -> 65 ;
66 [label="pH <= 3.01\ngini = 0.54\nsamples = 54\nvalue = [0, 1, 13, 34, 4, 2, 0]\nclass = l", fillcolor="#9af2f0"] ;
65 -> 66 ;
67 [label="pH <= 2.85\ngini = 0.38\nsamples = 4\nvalue = [0, 1, 3, 0, 0, 0, 0]\nclass = a", fillcolor="#7bee88"] ;
66 -> 67 ;
68 [label="gini = 0.0\nsamples = 1\nvalue = [0, 1, 0, 0, 0, 0, 0]\nclass = u", fillcolor="#b7e539"] ;
67 -> 68 ;
69 [label="gini = 0.0\nsamples = 3\nvalue = [0, 0, 3, 0, 0, 0, 0]\nclass = a", fillcolor="#39e54d"] ;
67 -> 69 ;
70 [label="volatile acidity <= 0.12\ngini = 0.49\nsamples = 50\nvalue = [0, 0, 10, 34, 4, 2, 0]\nclass = l", fillcolor="#88efee"] ;
66 -> 70 ;
71 [label="density <= 1.0\ngini = 0.73\nsamples = 7\nvalue = [0, 0, 2, 2, 1, 2, 0]\nclass = a", fillcolor="#ffffff"] ;
70 -> 71 ;
72 [label="sulphates <= 0.52\ngini = 0.64\nsamples = 5\nvalue = [0, 0, 2, 2, 1, 0, 0]\nclass = a", fillcolor="#ffffff"] ;
71 -> 72 ;
73 [label="gini = 0.0\nsamples = 2\nvalue = [0, 0, 2, 0, 0, 0, 0]\nclass = a", fillcolor="#39e54d"] ;
72 -> 73 ;
74 [label="alcohol <= 10.0\ngini = 0.44\nsamples = 3\nvalue = [0, 0, 0, 2, 1, 0, 0]\nclass = l", fillcolor="#9cf2f0"] ;
72 -> 74 ;
75 [label="gini = 0.0\nsamples = 2\nvalue = [0, 0, 0, 2, 0, 0, 0]\nclass = l", fillcolor="#39e5e2"] ;
74 -> 75 ;
76 [label="gini = 0.0\nsamples = 1\nvalue = [0, 0, 0, 0, 1, 0, 0]\nclass = i", fillcolor="#3956e5"] ;
74 -> 76 ;
77 [label="gini = 0.0\nsamples = 2\nvalue = [0, 0, 0, 0, 0, 2, 0]\nclass = t", fillcolor="#b139e5"] ;
71 -> 77 ;
78 [label="residual sugar <= 1.35\ngini = 0.41\nsamples = 43\nvalue = [0, 0, 8, 32, 3, 0, 0]\nclass = l", fillcolor="#77edeb"] ;
70 -> 78 ;
79 [label="residual sugar <= 1.15\ngini = 0.49\nsamples = 12\nvalue = [0, 0, 5, 7, 0, 0, 0]\nclass = l", fillcolor="#c6f8f7"] ;
78 -> 79 ;
80 [label="citric acid <= 0.3\ngini = 0.24\nsamples = 7\nvalue = [0, 0, 1, 6, 0, 0, 0]\nclass = l", fillcolor="#5ae9e7"] ;
79 -> 80 ;
81 [label="gini = 0.0\nsamples = 1\nvalue = [0, 0, 1, 0, 0, 0, 0]\nclass = a", fillcolor="#39e54d"] ;
80 -> 81 ;
82 [label="gini = 0.0\nsamples = 6\nvalue = [0, 0, 0, 6, 0, 0, 0]\nclass = l", fillcolor="#39e5e2"] ;
80 -> 82 ;
83 [label="free sulfur dioxide <= 39.0\ngini = 0.32\nsamples = 5\nvalue = [0, 0, 4, 1, 0, 0, 0]\nclass = a", fillcolor="#6aec79"] ;
79 -> 83 ;
84 [label="gini = 0.0\nsamples = 4\nvalue = [0, 0, 4, 0, 0, 0, 0]\nclass = a", fillcolor="#39e54d"] ;
83 -> 84 ;
85 [label="gini = 0.0\nsamples = 1\nvalue = [0, 0, 0, 1, 0, 0, 0]\nclass = l", fillcolor="#39e5e2"] ;
83 -> 85 ;
86 [label="pH <= 3.09\ngini = 0.33\nsamples = 31\nvalue = [0, 0, 3, 25, 3, 0, 0]\nclass = l", fillcolor="#63ebe8"] ;
78 -> 86 ;
87 [label="chlorides <= 0.04\ngini = 0.65\nsamples = 7\nvalue = [0, 0, 2, 3, 2, 0, 0]\nclass = l", fillcolor="#d7faf9"] ;
86 -> 87 ;
88 [label="gini = 0.0\nsamples = 2\nvalue = [0, 0, 0, 0, 2, 0, 0]\nclass = i", fillcolor="#3956e5"] ;
87 -> 88 ;
89 [label="chlorides <= 0.04\ngini = 0.48\nsamples = 5\nvalue = [0, 0, 2, 3, 0, 0, 0]\nclass = l", fillcolor="#bdf6f5"] ;
87 -> 89 ;
90 [label="gini = 0.0\nsamples = 3\nvalue = [0, 0, 0, 3, 0, 0, 0]\nclass = l", fillcolor="#39e5e2"] ;
89 -> 90 ;
91 [label="gini = 0.0\nsamples = 2\nvalue = [0, 0, 2, 0, 0, 0, 0]\nclass = a", fillcolor="#39e54d"] ;
89 -> 91 ;
92 [label="free sulfur dioxide <= 70.0\ngini = 0.16\nsamples = 24\nvalue = [0, 0, 1, 22, 1, 0, 0]\nclass = l", fillcolor="#4ae7e5"] ;
86 -> 92 ;
93 [label="alcohol <= 9.35\ngini = 0.08\nsamples = 23\nvalue = [0, 0, 0, 22, 1, 0, 0]\nclass = l", fillcolor="#42e6e3"] ;
92 -> 93 ;
94 [label="alcohol <= 9.25\ngini = 0.32\nsamples = 5\nvalue = [0, 0, 0, 4, 1, 0, 0]\nclass = l", fillcolor="#6aece9"] ;
93 -> 94 ;
95 [label="gini = 0.0\nsamples = 4\nvalue = [0, 0, 0, 4, 0, 0, 0]\nclass = l", fillcolor="#39e5e2"] ;
94 -> 95 ;
96 [label="gini = 0.0\nsamples = 1\nvalue = [0, 0, 0, 0, 1, 0, 0]\nclass = i", fillcolor="#3956e5"] ;
94 -> 96 ;
97 [label="gini = 0.0\nsamples = 18\nvalue = [0, 0, 0, 18, 0, 0, 0]\nclass = l", fillcolor="#39e5e2"] ;
93 -> 97 ;
98 [label="gini = 0.0\nsamples = 1\nvalue = [0, 0, 1, 0, 0, 0, 0]\nclass = a", fillcolor="#39e54d"] ;
92 -> 98 ;
99 [label="pH <= 3.49\ngini = 0.65\nsamples = 84\nvalue = [0, 1, 12, 35, 33, 3, 0]\nclass = l", fillcolor="#f7fefe"] ;
65 -> 99 ;
100 [label="fixed acidity <= 6.75\ngini = 0.66\nsamples = 73\nvalue = [0, 1, 12, 25, 32, 3, 0]\nclass = i", fillcolor="#e2e6fb"] ;
99 -> 100 ;
101 [label="sulphates <= 0.53\ngini = 0.51\nsamples = 27\nvalue = [0, 0, 4, 4, 18, 1, 0]\nclass = i", fillcolor="#8698ef"] ;
100 -> 101 ;
102 [label="alcohol <= 10.45\ngini = 0.71\nsamples = 12\nvalue = [0, 0, 4, 3, 4, 1, 0]\nclass = a", fillcolor="#ffffff"] ;
101 -> 102 ;
103 [label="citric acid <= 0.33\ngini = 0.38\nsamples = 4\nvalue = [0, 0, 1, 3, 0, 0, 0]\nclass = l", fillcolor="#7beeec"] ;
102 -> 103 ;
104 [label="gini = 0.0\nsamples = 3\nvalue = [0, 0, 0, 3, 0, 0, 0]\nclass = l", fillcolor="#39e5e2"] ;
103 -> 104 ;
105 [label="gini = 0.0\nsamples = 1\nvalue = [0, 0, 1, 0, 0, 0, 0]\nclass = a", fillcolor="#39e54d"] ;
103 -> 105 ;
106 [label="free sulfur dioxide <= 33.5\ngini = 0.59\nsamples = 8\nvalue = [0, 0, 3, 0, 4, 1, 0]\nclass = i", fillcolor="#d7ddfa"] ;
102 -> 106 ;
107 [label="gini = 0.0\nsamples = 3\nvalue = [0, 0, 0, 0, 3, 0, 0]\nclass = i", fillcolor="#3956e5"] ;
106 -> 107 ;
108 [label="fixed acidity <= 5.85\ngini = 0.56\nsamples = 5\nvalue = [0, 0, 3, 0, 1, 1, 0]\nclass = a", fillcolor="#9cf2a6"] ;
106 -> 108 ;
109 [label="gini = 0.0\nsamples = 1\nvalue = [0, 0, 0, 0, 0, 1, 0]\nclass = t", fillcolor="#b139e5"] ;
108 -> 109 ;
110 [label="pH <= 3.41\ngini = 0.38\nsamples = 4\nvalue = [0, 0, 3, 0, 1, 0, 0]\nclass = a", fillcolor="#7bee88"] ;
108 -> 110 ;
111 [label="gini = 0.0\nsamples = 3\nvalue = [0, 0, 3, 0, 0, 0, 0]\nclass = a", fillcolor="#39e54d"] ;
110 -> 111 ;
112 [label="gini = 0.0\nsamples = 1\nvalue = [0, 0, 0, 0, 1, 0, 0]\nclass = i", fillcolor="#3956e5"] ;
110 -> 112 ;
113 [label="pH <= 3.4\ngini = 0.12\nsamples = 15\nvalue = [0, 0, 0, 1, 14, 0, 0]\nclass = i", fillcolor="#4762e7"] ;
101 -> 113 ;
114 [label="gini = 0.0\nsamples = 14\nvalue = [0, 0, 0, 0, 14, 0, 0]\nclass = i", fillcolor="#3956e5"] ;
113 -> 114 ;
115 [label="gini = 0.0\nsamples = 1\nvalue = [0, 0, 0, 1, 0, 0, 0]\nclass = l", fillcolor="#39e5e2"] ;
113 -> 115 ;
116 [label="sulphates <= 0.47\ngini = 0.67\nsamples = 46\nvalue = [0, 1, 8, 21, 14, 2, 0]\nclass = l", fillcolor="#d4f9f9"] ;
100 -> 116 ;
117 [label="free sulfur dioxide <= 15.5\ngini = 0.66\nsamples = 20\nvalue = [0, 1, 2, 5, 10, 2, 0]\nclass = i", fillcolor="#bdc7f6"] ;
116 -> 117 ;
118 [label="pH <= 3.22\ngini = 0.44\nsamples = 3\nvalue = [0, 1, 0, 0, 0, 2, 0]\nclass = t", fillcolor="#d89cf2"] ;
117 -> 118 ;
119 [label="gini = 0.0\nsamples = 1\nvalue = [0, 1, 0, 0, 0, 0, 0]\nclass = u", fillcolor="#b7e539"] ;
118 -> 119 ;
120 [label="gini = 0.0\nsamples = 2\nvalue = [0, 0, 0, 0, 0, 2, 0]\nclass = t", fillcolor="#b139e5"] ;
118 -> 120 ;
121 [label="alcohol <= 10.45\ngini = 0.55\nsamples = 17\nvalue = [0, 0, 2, 5, 10, 0, 0]\nclass = i", fillcolor="#acb9f4"] ;
117 -> 121 ;
122 [label="sulphates <= 0.36\ngini = 0.56\nsamples = 5\nvalue = [0, 0, 1, 3, 1, 0, 0]\nclass = l", fillcolor="#9cf2f0"] ;
121 -> 122 ;
123 [label="free sulfur dioxide <= 19.0\ngini = 0.5\nsamples = 2\nvalue = [0, 0, 1, 0, 1, 0, 0]\nclass = a", fillcolor="#ffffff"] ;
122 -> 123 ;
124 [label="gini = 0.0\nsamples = 1\nvalue = [0, 0, 1, 0, 0, 0, 0]\nclass = a", fillcolor="#39e54d"] ;
123 -> 124 ;
125 [label="gini = 0.0\nsamples = 1\nvalue = [0, 0, 0, 0, 1, 0, 0]\nclass = i", fillcolor="#3956e5"] ;
123 -> 125 ;
126 [label="gini = 0.0\nsamples = 3\nvalue = [0, 0, 0, 3, 0, 0, 0]\nclass = l", fillcolor="#39e5e2"] ;
122 -> 126 ;
127 [label="fixed acidity <= 6.95\ngini = 0.4\nsamples = 12\nvalue = [0, 0, 1, 2, 9, 0, 0]\nclass = i", fillcolor="#7489ed"] ;
121 -> 127 ;
128 [label="residual sugar <= 4.0\ngini = 0.5\nsamples = 2\nvalue = [0, 0, 1, 1, 0, 0, 0]\nclass = a", fillcolor="#ffffff"] ;
127 -> 128 ;
129 [label="gini = 0.0\nsamples = 1\nvalue = [0, 0, 0, 1, 0, 0, 0]\nclass = l", fillcolor="#39e5e2"] ;
128 -> 129 ;
130 [label="gini = 0.0\nsamples = 1\nvalue = [0, 0, 1, 0, 0, 0, 0]\nclass = a", fillcolor="#39e54d"] ;
128 -> 130 ;
131 [label="free sulfur dioxide <= 52.5\ngini = 0.18\nsamples = 10\nvalue = [0, 0, 0, 1, 9, 0, 0]\nclass = i", fillcolor="#4f69e8"] ;
127 -> 131 ;
132 [label="gini = 0.0\nsamples = 9\nvalue = [0, 0, 0, 0, 9, 0, 0]\nclass = i", fillcolor="#3956e5"] ;
131 -> 132 ;
133 [label="gini = 0.0\nsamples = 1\nvalue = [0, 0, 0, 1, 0, 0, 0]\nclass = l", fillcolor="#39e5e2"] ;
131 -> 133 ;
134 [label="density <= 0.99\ngini = 0.54\nsamples = 26\nvalue = [0, 0, 6, 16, 4, 0, 0]\nclass = l", fillcolor="#9cf2f0"] ;
116 -> 134 ;
135 [label="chlorides <= 0.04\ngini = 0.66\nsamples = 13\nvalue = [0, 0, 5, 4, 4, 0, 0]\nclass = a", fillcolor="#e9fceb"] ;
134 -> 135 ;
136 [label="free sulfur dioxide <= 27.5\ngini = 0.64\nsamples = 10\nvalue = [0, 0, 2, 4, 4, 0, 0]\nclass = l", fillcolor="#ffffff"] ;
135 -> 136 ;
137 [label="gini = 0.0\nsamples = 3\nvalue = [0, 0, 0, 3, 0, 0, 0]\nclass = l", fillcolor="#39e5e2"] ;
136 -> 137 ;
138 [label="sulphates <= 0.52\ngini = 0.57\nsamples = 7\nvalue = [0, 0, 2, 1, 4, 0, 0]\nclass = i", fillcolor="#b0bbf5"] ;
136 -> 138 ;
139 [label="gini = 0.0\nsamples = 2\nvalue = [0, 0, 2, 0, 0, 0, 0]\nclass = a", fillcolor="#39e54d"] ;
138 -> 139 ;
140 [label="volatile acidity <= 0.16\ngini = 0.32\nsamples = 5\nvalue = [0, 0, 0, 1, 4, 0, 0]\nclass = i", fillcolor="#6a80ec"] ;
138 -> 140 ;
141 [label="gini = 0.0\nsamples = 1\nvalue = [0, 0, 0, 1, 0, 0, 0]\nclass = l", fillcolor="#39e5e2"] ;
140 -> 141 ;
142 [label="gini = 0.0\nsamples = 4\nvalue = [0, 0, 0, 0, 4, 0, 0]\nclass = i", fillcolor="#3956e5"] ;
140 -> 142 ;
143 [label="gini = 0.0\nsamples = 3\nvalue = [0, 0, 3, 0, 0, 0, 0]\nclass = a", fillcolor="#39e54d"] ;
135 -> 143 ;
144 [label="citric acid <= 0.33\ngini = 0.14\nsamples = 13\nvalue = [0, 0, 1, 12, 0, 0, 0]\nclass = l", fillcolor="#49e7e4"] ;
134 -> 144 ;
145 [label="gini = 0.0\nsamples = 1\nvalue = [0, 0, 1, 0, 0, 0, 0]\nclass = a", fillcolor="#39e54d"] ;
144 -> 145 ;
146 [label="gini = 0.0\nsamples = 12\nvalue = [0, 0, 0, 12, 0, 0, 0]\nclass = l", fillcolor="#39e5e2"] ;
144 -> 146 ;
147 [label="density <= 0.99\ngini = 0.17\nsamples = 11\nvalue = [0, 0, 0, 10, 1, 0, 0]\nclass = l", fillcolor="#4de8e5"] ;
99 -> 147 ;
148 [label="gini = 0.0\nsamples = 10\nvalue = [0, 0, 0, 10, 0, 0, 0]\nclass = l", fillcolor="#39e5e2"] ;
147 -> 148 ;
149 [label="gini = 0.0\nsamples = 1\nvalue = [0, 0, 0, 0, 1, 0, 0]\nclass = i", fillcolor="#3956e5"] ;
147 -> 149 ;
150 [label="total sulfur dioxide <= 246.5\ngini = 0.52\nsamples = 357\nvalue = [1, 5, 70, 233, 46, 2, 0]\nclass = l", fillcolor="#8ff0ef"] ;
58 -> 150 ;
151 [label="residual sugar <= 5.65\ngini = 0.51\nsamples = 354\nvalue = [1, 5, 67, 233, 46, 2, 0]\nclass = l", fillcolor="#8cf0ee"] ;
150 -> 151 ;
152 [label="sulphates <= 0.69\ngini = 0.58\nsamples = 176\nvalue = [0, 3, 43, 102, 27, 1, 0]\nclass = l", fillcolor="#a7f3f2"] ;
151 -> 152 ;
153 [label="free sulfur dioxide <= 55.5\ngini = 0.61\nsamples = 161\nvalue = [0, 3, 43, 87, 27, 1, 0]\nclass = l", fillcolor="#b5f5f4"] ;
152 -> 153 ;
154 [label="residual sugar <= 5.25\ngini = 0.59\nsamples = 154\nvalue = [0, 3, 40, 87, 23, 1, 0]\nclass = l", fillcolor="#adf4f3"] ;
153 -> 154 ;
155 [label="total sulfur dioxide <= 130.5\ngini = 0.58\nsamples = 146\nvalue = [0, 3, 34, 85, 23, 1, 0]\nclass = l", fillcolor="#a5f3f2"] ;
154 -> 155 ;
156 [label="total sulfur dioxide <= 99.5\ngini = 0.66\nsamples = 87\nvalue = [0, 3, 24, 41, 18, 1, 0]\nclass = l", fillcolor="#caf8f7"] ;
155 -> 156 ;
157 [label="density <= 0.99\ngini = 0.48\nsamples = 35\nvalue = [0, 0, 3, 24, 7, 1, 0]\nclass = l", fillcolor="#87efed"] ;
156 -> 157 ;
158 [label="density <= 0.99\ngini = 0.6\nsamples = 16\nvalue = [0, 0, 1, 8, 6, 1, 0]\nclass = l", fillcolor="#d7faf9"] ;
157 -> 158 ;
159 [label="gini = 0.0\nsamples = 6\nvalue = [0, 0, 0, 6, 0, 0, 0]\nclass = l", fillcolor="#39e5e2"] ;
158 -> 159 ;
160 [label="chlorides <= 0.05\ngini = 0.58\nsamples = 10\nvalue = [0, 0, 1, 2, 6, 1, 0]\nclass = i", fillcolor="#9caaf2"] ;
158 -> 160 ;
161 [label="density <= 0.99\ngini = 0.24\nsamples = 7\nvalue = [0, 0, 0, 0, 6, 1, 0]\nclass = i", fillcolor="#5a72e9"] ;
160 -> 161 ;
162 [label="gini = 0.0\nsamples = 6\nvalue = [0, 0, 0, 0, 6, 0, 0]\nclass = i", fillcolor="#3956e5"] ;
161 -> 162 ;
163 [label="gini = 0.0\nsamples = 1\nvalue = [0, 0, 0, 0, 0, 1, 0]\nclass = t", fillcolor="#b139e5"] ;
161 -> 163 ;
164 [label="pH <= 3.18\ngini = 0.44\nsamples = 3\nvalue = [0, 0, 1, 2, 0, 0, 0]\nclass = l", fillcolor="#9cf2f0"] ;
160 -> 164 ;
165 [label="gini = 0.0\nsamples = 2\nvalue = [0, 0, 0, 2, 0, 0, 0]\nclass = l", fillcolor="#39e5e2"] ;
164 -> 165 ;
166 [label="gini = 0.0\nsamples = 1\nvalue = [0, 0, 1, 0, 0, 0, 0]\nclass = a", fillcolor="#39e54d"] ;
164 -> 166 ;
167 [label="free sulfur dioxide <= 6.5\ngini = 0.28\nsamples = 19\nvalue = [0, 0, 2, 16, 1, 0, 0]\nclass = l", fillcolor="#5ceae7"] ;
157 -> 167 ;
168 [label="gini = 0.0\nsamples = 1\nvalue = [0, 0, 1, 0, 0, 0, 0]\nclass = a", fillcolor="#39e54d"] ;
167 -> 168 ;
169 [label="alcohol <= 10.4\ngini = 0.2\nsamples = 18\nvalue = [0, 0, 1, 16, 1, 0, 0]\nclass = l", fillcolor="#50e8e5"] ;
167 -> 169 ;
170 [label="citric acid <= 0.36\ngini = 0.12\nsamples = 16\nvalue = [0, 0, 0, 15, 1, 0, 0]\nclass = l", fillcolor="#46e7e4"] ;
169 -> 170 ;
171 [label="gini = 0.0\nsamples = 11\nvalue = [0, 0, 0, 11, 0, 0, 0]\nclass = l", fillcolor="#39e5e2"] ;
170 -> 171 ;
172 [label="citric acid <= 0.38\ngini = 0.32\nsamples = 5\nvalue = [0, 0, 0, 4, 1, 0, 0]\nclass = l", fillcolor="#6aece9"] ;
170 -> 172 ;
173 [label="gini = 0.0\nsamples = 1\nvalue = [0, 0, 0, 0, 1, 0, 0]\nclass = i", fillcolor="#3956e5"] ;
172 -> 173 ;
174 [label="gini = 0.0\nsamples = 4\nvalue = [0, 0, 0, 4, 0, 0, 0]\nclass = l", fillcolor="#39e5e2"] ;
172 -> 174 ;
175 [label="residual sugar <= 2.65\ngini = 0.5\nsamples = 2\nvalue = [0, 0, 1, 1, 0, 0, 0]\nclass = a", fillcolor="#ffffff"] ;
169 -> 175 ;
176 [label="gini = 0.0\nsamples = 1\nvalue = [0, 0, 1, 0, 0, 0, 0]\nclass = a", fillcolor="#39e54d"] ;
175 -> 176 ;
177 [label="gini = 0.0\nsamples = 1\nvalue = [0, 0, 0, 1, 0, 0, 0]\nclass = l", fillcolor="#39e5e2"] ;
175 -> 177 ;
178 [label="total sulfur dioxide <= 115.5\ngini = 0.68\nsamples = 52\nvalue = [0, 3, 21, 17, 11, 0, 0]\nclass = a", fillcolor="#e8fceb"] ;
156 -> 178 ;
179 [label="alcohol <= 10.05\ngini = 0.66\nsamples = 28\nvalue = [0, 3, 14, 4, 7, 0, 0]\nclass = a", fillcolor="#bdf6c4"] ;
178 -> 179 ;
180 [label="fixed acidity <= 8.8\ngini = 0.14\nsamples = 13\nvalue = [0, 1, 12, 0, 0, 0, 0]\nclass = a", fillcolor="#49e75c"] ;
179 -> 180 ;
181 [label="gini = 0.0\nsamples = 12\nvalue = [0, 0, 12, 0, 0, 0, 0]\nclass = a", fillcolor="#39e54d"] ;
180 -> 181 ;
182 [label="gini = 0.0\nsamples = 1\nvalue = [0, 1, 0, 0, 0, 0, 0]\nclass = u", fillcolor="#b7e539"] ;
180 -> 182 ;
183 [label="pH <= 3.23\ngini = 0.68\nsamples = 15\nvalue = [0, 2, 2, 4, 7, 0, 0]\nclass = i", fillcolor="#c9d1f8"] ;
179 -> 183 ;
184 [label="citric acid <= 0.39\ngini = 0.5\nsamples = 4\nvalue = [0, 2, 2, 0, 0, 0, 0]\nclass = u", fillcolor="#ffffff"] ;
183 -> 184 ;
185 [label="gini = 0.0\nsamples = 2\nvalue = [0, 0, 2, 0, 0, 0, 0]\nclass = a", fillcolor="#39e54d"] ;
184 -> 185 ;
186 [label="gini = 0.0\nsamples = 2\nvalue = [0, 2, 0, 0, 0, 0, 0]\nclass = u", fillcolor="#b7e539"] ;
184 -> 186 ;
187 [label="density <= 0.99\ngini = 0.46\nsamples = 11\nvalue = [0, 0, 0, 4, 7, 0, 0]\nclass = i", fillcolor="#aab7f4"] ;
183 -> 187 ;
188 [label="gini = 0.0\nsamples = 2\nvalue = [0, 0, 0, 2, 0, 0, 0]\nclass = l", fillcolor="#39e5e2"] ;
187 -> 188 ;
189 [label="residual sugar <= 1.35\ngini = 0.35\nsamples = 9\nvalue = [0, 0, 0, 2, 7, 0, 0]\nclass = i", fillcolor="#7286ec"] ;
187 -> 189 ;
190 [label="gini = 0.0\nsamples = 1\nvalue = [0, 0, 0, 1, 0, 0, 0]\nclass = l", fillcolor="#39e5e2"] ;
189 -> 190 ;
191 [label="density <= 0.99\ngini = 0.22\nsamples = 8\nvalue = [0, 0, 0, 1, 7, 0, 0]\nclass = i", fillcolor="#556ee9"] ;
189 -> 191 ;
192 [label="gini = 0.0\nsamples = 5\nvalue = [0, 0, 0, 0, 5, 0, 0]\nclass = i", fillcolor="#3956e5"] ;
191 -> 192 ;
193 [label="volatile acidity <= 0.16\ngini = 0.44\nsamples = 3\nvalue = [0, 0, 0, 1, 2, 0, 0]\nclass = i", fillcolor="#9caaf2"] ;
191 -> 193 ;
194 [label="gini = 0.0\nsamples = 2\nvalue = [0, 0, 0, 0, 2, 0, 0]\nclass = i", fillcolor="#3956e5"] ;
193 -> 194 ;
195 [label="gini = 0.0\nsamples = 1\nvalue = [0, 0, 0, 1, 0, 0, 0]\nclass = l", fillcolor="#39e5e2"] ;
193 -> 195 ;
196 [label="pH <= 3.54\ngini = 0.59\nsamples = 24\nvalue = [0, 0, 7, 13, 4, 0, 0]\nclass = l", fillcolor="#b9f6f5"] ;
178 -> 196 ;
197 [label="alcohol <= 10.75\ngini = 0.54\nsamples = 21\nvalue = [0, 0, 4, 13, 4, 0, 0]\nclass = l", fillcolor="#96f1f0"] ;
196 -> 197 ;
198 [label="free sulfur dioxide <= 38.5\ngini = 0.48\nsamples = 19\nvalue = [0, 0, 2, 13, 4, 0, 0]\nclass = l", fillcolor="#88efee"] ;
197 -> 198 ;
199 [label="pH <= 3.38\ngini = 0.32\nsamples = 16\nvalue = [0, 0, 1, 13, 2, 0, 0]\nclass = l", fillcolor="#63ebe8"] ;
198 -> 199 ;
200 [label="sulphates <= 0.61\ngini = 0.14\nsamples = 13\nvalue = [0, 0, 1, 12, 0, 0, 0]\nclass = l", fillcolor="#49e7e4"] ;
199 -> 200 ;
201 [label="gini = 0.0\nsamples = 12\nvalue = [0, 0, 0, 12, 0, 0, 0]\nclass = l", fillcolor="#39e5e2"] ;
200 -> 201 ;
202 [label="gini = 0.0\nsamples = 1\nvalue = [0, 0, 1, 0, 0, 0, 0]\nclass = a", fillcolor="#39e54d"] ;
200 -> 202 ;
203 [label="citric acid <= 0.34\ngini = 0.44\nsamples = 3\nvalue = [0, 0, 0, 1, 2, 0, 0]\nclass = i", fillcolor="#9caaf2"] ;
199 -> 203 ;
204 [label="gini = 0.0\nsamples = 2\nvalue = [0, 0, 0, 0, 2, 0, 0]\nclass = i", fillcolor="#3956e5"] ;
203 -> 204 ;
205 [label="gini = 0.0\nsamples = 1\nvalue = [0, 0, 0, 1, 0, 0, 0]\nclass = l", fillcolor="#39e5e2"] ;
203 -> 205 ;
206 [label="citric acid <= 0.27\ngini = 0.44\nsamples = 3\nvalue = [0, 0, 1, 0, 2, 0, 0]\nclass = i", fillcolor="#9caaf2"] ;
198 -> 206 ;
207 [label="gini = 0.0\nsamples = 1\nvalue = [0, 0, 1, 0, 0, 0, 0]\nclass = a", fillcolor="#39e54d"] ;
206 -> 207 ;
208 [label="gini = 0.0\nsamples = 2\nvalue = [0, 0, 0, 0, 2, 0, 0]\nclass = i", fillcolor="#3956e5"] ;
206 -> 208 ;
209 [label="gini = 0.0\nsamples = 2\nvalue = [0, 0, 2, 0, 0, 0, 0]\nclass = a", fillcolor="#39e54d"] ;
197 -> 209 ;
210 [label="gini = 0.0\nsamples = 3\nvalue = [0, 0, 3, 0, 0, 0, 0]\nclass = a", fillcolor="#39e54d"] ;
196 -> 210 ;
211 [label="fixed acidity <= 9.0\ngini = 0.41\nsamples = 59\nvalue = [0, 0, 10, 44, 5, 0, 0]\nclass = l", fillcolor="#76edeb"] ;
155 -> 211 ;
212 [label="residual sugar <= 1.25\ngini = 0.38\nsamples = 57\nvalue = [0, 0, 8, 44, 5, 0, 0]\nclass = l", fillcolor="#6eecea"] ;
211 -> 212 ;
213 [label="total sulfur dioxide <= 161.5\ngini = 0.61\nsamples = 7\nvalue = [0, 0, 3, 3, 1, 0, 0]\nclass = a", fillcolor="#ffffff"] ;
212 -> 213 ;
214 [label="alcohol <= 9.9\ngini = 0.38\nsamples = 4\nvalue = [0, 0, 0, 3, 1, 0, 0]\nclass = l", fillcolor="#7beeec"] ;
213 -> 214 ;
215 [label="gini = 0.0\nsamples = 3\nvalue = [0, 0, 0, 3, 0, 0, 0]\nclass = l", fillcolor="#39e5e2"] ;
214 -> 215 ;
216 [label="gini = 0.0\nsamples = 1\nvalue = [0, 0, 0, 0, 1, 0, 0]\nclass = i", fillcolor="#3956e5"] ;
214 -> 216 ;
217 [label="gini = 0.0\nsamples = 3\nvalue = [0, 0, 3, 0, 0, 0, 0]\nclass = a", fillcolor="#39e54d"] ;
213 -> 217 ;
218 [label="sulphates <= 0.5\ngini = 0.31\nsamples = 50\nvalue = [0, 0, 5, 41, 4, 0, 0]\nclass = l", fillcolor="#61eae8"] ;
212 -> 218 ;
219 [label="total sulfur dioxide <= 179.0\ngini = 0.41\nsamples = 31\nvalue = [0, 0, 5, 23, 3, 0, 0]\nclass = l", fillcolor="#76edeb"] ;
218 -> 219 ;
220 [label="sulphates <= 0.47\ngini = 0.38\nsamples = 30\nvalue = [0, 0, 5, 23, 2, 0, 0]\nclass = l", fillcolor="#70ecea"] ;
219 -> 220 ;
221 [label="alcohol <= 10.55\ngini = 0.19\nsamples = 19\nvalue = [0, 0, 1, 17, 1, 0, 0]\nclass = l", fillcolor="#4fe8e5"] ;
220 -> 221 ;
222 [label="alcohol <= 9.15\ngini = 0.1\nsamples = 18\nvalue = [0, 0, 1, 17, 0, 0, 0]\nclass = l", fillcolor="#45e7e4"] ;
221 -> 222 ;
223 [label="pH <= 3.18\ngini = 0.5\nsamples = 2\nvalue = [0, 0, 1, 1, 0, 0, 0]\nclass = a", fillcolor="#ffffff"] ;
222 -> 223 ;
224 [label="gini = 0.0\nsamples = 1\nvalue = [0, 0, 1, 0, 0, 0, 0]\nclass = a", fillcolor="#39e54d"] ;
223 -> 224 ;
225 [label="gini = 0.0\nsamples = 1\nvalue = [0, 0, 0, 1, 0, 0, 0]\nclass = l", fillcolor="#39e5e2"] ;
223 -> 225 ;
226 [label="gini = 0.0\nsamples = 16\nvalue = [0, 0, 0, 16, 0, 0, 0]\nclass = l", fillcolor="#39e5e2"] ;
222 -> 226 ;
227 [label="gini = 0.0\nsamples = 1\nvalue = [0, 0, 0, 0, 1, 0, 0]\nclass = i", fillcolor="#3956e5"] ;
221 -> 227 ;
228 [label="free sulfur dioxide <= 32.5\ngini = 0.56\nsamples = 11\nvalue = [0, 0, 4, 6, 1, 0, 0]\nclass = l", fillcolor="#c6f8f7"] ;
220 -> 228 ;
229 [label="gini = 0.0\nsamples = 3\nvalue = [0, 0, 3, 0, 0, 0, 0]\nclass = a", fillcolor="#39e54d"] ;
228 -> 229 ;
230 [label="citric acid <= 0.26\ngini = 0.41\nsamples = 8\nvalue = [0, 0, 1, 6, 1, 0, 0]\nclass = l", fillcolor="#72ecea"] ;
228 -> 230 ;
231 [label="gini = 0.0\nsamples = 1\nvalue = [0, 0, 1, 0, 0, 0, 0]\nclass = a", fillcolor="#39e54d"] ;
230 -> 231 ;
232 [label="total sulfur dioxide <= 135.5\ngini = 0.24\nsamples = 7\nvalue = [0, 0, 0, 6, 1, 0, 0]\nclass = l", fillcolor="#5ae9e7"] ;
230 -> 232 ;
233 [label="gini = 0.0\nsamples = 1\nvalue = [0, 0, 0, 0, 1, 0, 0]\nclass = i", fillcolor="#3956e5"] ;
232 -> 233 ;
234 [label="gini = 0.0\nsamples = 6\nvalue = [0, 0, 0, 6, 0, 0, 0]\nclass = l", fillcolor="#39e5e2"] ;
232 -> 234 ;
235 [label="gini = 0.0\nsamples = 1\nvalue = [0, 0, 0, 0, 1, 0, 0]\nclass = i", fillcolor="#3956e5"] ;
219 -> 235 ;
236 [label="total sulfur dioxide <= 137.5\ngini = 0.1\nsamples = 19\nvalue = [0, 0, 0, 18, 1, 0, 0]\nclass = l", fillcolor="#44e6e4"] ;
218 -> 236 ;
237 [label="alcohol <= 10.35\ngini = 0.44\nsamples = 3\nvalue = [0, 0, 0, 2, 1, 0, 0]\nclass = l", fillcolor="#9cf2f0"] ;
236 -> 237 ;
238 [label="gini = 0.0\nsamples = 1\nvalue = [0, 0, 0, 0, 1, 0, 0]\nclass = i", fillcolor="#3956e5"] ;
237 -> 238 ;
239 [label="gini = 0.0\nsamples = 2\nvalue = [0, 0, 0, 2, 0, 0, 0]\nclass = l", fillcolor="#39e5e2"] ;
237 -> 239 ;
240 [label="gini = 0.0\nsamples = 16\nvalue = [0, 0, 0, 16, 0, 0, 0]\nclass = l", fillcolor="#39e5e2"] ;
236 -> 240 ;
241 [label="gini = 0.0\nsamples = 2\nvalue = [0, 0, 2, 0, 0, 0, 0]\nclass = a", fillcolor="#39e54d"] ;
211 -> 241 ;
242 [label="alcohol <= 10.1\ngini = 0.38\nsamples = 8\nvalue = [0, 0, 6, 2, 0, 0, 0]\nclass = a", fillcolor="#7bee88"] ;
154 -> 242 ;
243 [label="gini = 0.0\nsamples = 5\nvalue = [0, 0, 5, 0, 0, 0, 0]\nclass = a", fillcolor="#39e54d"] ;
242 -> 243 ;
244 [label="pH <= 3.33\ngini = 0.44\nsamples = 3\nvalue = [0, 0, 1, 2, 0, 0, 0]\nclass = l", fillcolor="#9cf2f0"] ;
242 -> 244 ;
245 [label="gini = 0.0\nsamples = 2\nvalue = [0, 0, 0, 2, 0, 0, 0]\nclass = l", fillcolor="#39e5e2"] ;
244 -> 245 ;
246 [label="gini = 0.0\nsamples = 1\nvalue = [0, 0, 1, 0, 0, 0, 0]\nclass = a", fillcolor="#39e54d"] ;
244 -> 246 ;
247 [label="pH <= 3.17\ngini = 0.49\nsamples = 7\nvalue = [0, 0, 3, 0, 4, 0, 0]\nclass = i", fillcolor="#ced5f8"] ;
153 -> 247 ;
248 [label="total sulfur dioxide <= 145.0\ngini = 0.38\nsamples = 4\nvalue = [0, 0, 3, 0, 1, 0, 0]\nclass = a", fillcolor="#7bee88"] ;
247 -> 248 ;
249 [label="gini = 0.0\nsamples = 1\nvalue = [0, 0, 0, 0, 1, 0, 0]\nclass = i", fillcolor="#3956e5"] ;
248 -> 249 ;
250 [label="gini = 0.0\nsamples = 3\nvalue = [0, 0, 3, 0, 0, 0, 0]\nclass = a", fillcolor="#39e54d"] ;
248 -> 250 ;
251 [label="gini = 0.0\nsamples = 3\nvalue = [0, 0, 0, 0, 3, 0, 0]\nclass = i", fillcolor="#3956e5"] ;
247 -> 251 ;
252 [label="gini = 0.0\nsamples = 15\nvalue = [0, 0, 0, 15, 0, 0, 0]\nclass = l", fillcolor="#39e5e2"] ;
152 -> 252 ;
253 [label="alcohol <= 9.15\ngini = 0.43\nsamples = 178\nvalue = [1, 2, 24, 131, 19, 1, 0]\nclass = l", fillcolor="#75edeb"] ;
151 -> 253 ;
254 [label="citric acid <= 0.32\ngini = 0.63\nsamples = 16\nvalue = [0, 0, 3, 7, 6, 0, 0]\nclass = l", fillcolor="#ebfcfc"] ;
253 -> 254 ;
255 [label="gini = 0.0\nsamples = 5\nvalue = [0, 0, 0, 0, 5, 0, 0]\nclass = i", fillcolor="#3956e5"] ;
254 -> 255 ;
256 [label="chlorides <= 0.05\ngini = 0.51\nsamples = 11\nvalue = [0, 0, 3, 7, 1, 0, 0]\nclass = l", fillcolor="#9cf2f0"] ;
254 -> 256 ;
257 [label="gini = 0.0\nsamples = 5\nvalue = [0, 0, 0, 5, 0, 0, 0]\nclass = l", fillcolor="#39e5e2"] ;
256 -> 257 ;
258 [label="density <= 1.0\ngini = 0.61\nsamples = 6\nvalue = [0, 0, 3, 2, 1, 0, 0]\nclass = a", fillcolor="#cef8d2"] ;
256 -> 258 ;
259 [label="gini = 0.0\nsamples = 3\nvalue = [0, 0, 3, 0, 0, 0, 0]\nclass = a", fillcolor="#39e54d"] ;
258 -> 259 ;
260 [label="citric acid <= 0.43\ngini = 0.44\nsamples = 3\nvalue = [0, 0, 0, 2, 1, 0, 0]\nclass = l", fillcolor="#9cf2f0"] ;
258 -> 260 ;
261 [label="gini = 0.0\nsamples = 2\nvalue = [0, 0, 0, 2, 0, 0, 0]\nclass = l", fillcolor="#39e5e2"] ;
260 -> 261 ;
262 [label="gini = 0.0\nsamples = 1\nvalue = [0, 0, 0, 0, 1, 0, 0]\nclass = i", fillcolor="#3956e5"] ;
260 -> 262 ;
263 [label="pH <= 3.56\ngini = 0.39\nsamples = 162\nvalue = [1, 2, 21, 124, 13, 1, 0]\nclass = l", fillcolor="#6eecea"] ;
253 -> 263 ;
264 [label="free sulfur dioxide <= 64.5\ngini = 0.37\nsamples = 156\nvalue = [1, 2, 17, 122, 13, 1, 0]\nclass = l", fillcolor="#69ebe9"] ;
263 -> 264 ;
265 [label="chlorides <= 0.06\ngini = 0.34\nsamples = 145\nvalue = [1, 1, 17, 116, 9, 1, 0]\nclass = l", fillcolor="#66ebe9"] ;
264 -> 265 ;
266 [label="residual sugar <= 18.12\ngini = 0.3\nsamples = 133\nvalue = [1, 1, 13, 110, 8, 0, 0]\nclass = l", fillcolor="#5feae8"] ;
265 -> 266 ;
267 [label="free sulfur dioxide <= 54.5\ngini = 0.29\nsamples = 132\nvalue = [1, 1, 13, 110, 7, 0, 0]\nclass = l", fillcolor="#5eeae7"] ;
266 -> 267 ;
268 [label="sulphates <= 0.34\ngini = 0.26\nsamples = 117\nvalue = [1, 1, 8, 100, 7, 0, 0]\nclass = l", fillcolor="#58e9e7"] ;
267 -> 268 ;
269 [label="citric acid <= 0.3\ngini = 0.57\nsamples = 7\nvalue = [0, 1, 2, 4, 0, 0, 0]\nclass = l", fillcolor="#b0f5f3"] ;
268 -> 269 ;
270 [label="gini = 0.0\nsamples = 4\nvalue = [0, 0, 0, 4, 0, 0, 0]\nclass = l", fillcolor="#39e5e2"] ;
269 -> 270 ;
271 [label="citric acid <= 0.41\ngini = 0.44\nsamples = 3\nvalue = [0, 1, 2, 0, 0, 0, 0]\nclass = a", fillcolor="#9cf2a6"] ;
269 -> 271 ;
272 [label="gini = 0.0\nsamples = 2\nvalue = [0, 0, 2, 0, 0, 0, 0]\nclass = a", fillcolor="#39e54d"] ;
271 -> 272 ;
273 [label="gini = 0.0\nsamples = 1\nvalue = [0, 1, 0, 0, 0, 0, 0]\nclass = u", fillcolor="#b7e539"] ;
271 -> 273 ;
274 [label="total sulfur dioxide <= 222.0\ngini = 0.23\nsamples = 110\nvalue = [1, 0, 6, 96, 7, 0, 0]\nclass = l", fillcolor="#54e9e6"] ;
268 -> 274 ;
275 [label="volatile acidity <= 0.2\ngini = 0.21\nsamples = 105\nvalue = [1, 0, 4, 93, 7, 0, 0]\nclass = l", fillcolor="#51e8e6"] ;
274 -> 275 ;
276 [label="sulphates <= 0.44\ngini = 0.12\nsamples = 78\nvalue = [0, 0, 1, 73, 4, 0, 0]\nclass = l", fillcolor="#46e7e4"] ;
275 -> 276 ;
277 [label="sulphates <= 0.44\ngini = 0.23\nsamples = 38\nvalue = [0, 0, 1, 33, 4, 0, 0]\nclass = l", fillcolor="#56e9e6"] ;
276 -> 277 ;
278 [label="pH <= 3.41\ngini = 0.11\nsamples = 33\nvalue = [0, 0, 0, 31, 2, 0, 0]\nclass = l", fillcolor="#46e7e4"] ;
277 -> 278 ;
279 [label="free sulfur dioxide <= 45.5\ngini = 0.06\nsamples = 31\nvalue = [0, 0, 0, 30, 1, 0, 0]\nclass = l", fillcolor="#40e6e3"] ;
278 -> 279 ;
280 [label="gini = 0.0\nsamples = 25\nvalue = [0, 0, 0, 25, 0, 0, 0]\nclass = l", fillcolor="#39e5e2"] ;
279 -> 280 ;
281 [label="alcohol <= 9.55\ngini = 0.28\nsamples = 6\nvalue = [0, 0, 0, 5, 1, 0, 0]\nclass = l", fillcolor="#61eae8"] ;
279 -> 281 ;
282 [label="gini = 0.0\nsamples = 1\nvalue = [0, 0, 0, 0, 1, 0, 0]\nclass = i", fillcolor="#3956e5"] ;
281 -> 282 ;
283 [label="gini = 0.0\nsamples = 5\nvalue = [0, 0, 0, 5, 0, 0, 0]\nclass = l", fillcolor="#39e5e2"] ;
281 -> 283 ;
284 [label="alcohol <= 9.45\ngini = 0.5\nsamples = 2\nvalue = [0, 0, 0, 1, 1, 0, 0]\nclass = l", fillcolor="#ffffff"] ;
278 -> 284 ;
285 [label="gini = 0.0\nsamples = 1\nvalue = [0, 0, 0, 0, 1, 0, 0]\nclass = i", fillcolor="#3956e5"] ;
284 -> 285 ;
286 [label="gini = 0.0\nsamples = 1\nvalue = [0, 0, 0, 1, 0, 0, 0]\nclass = l", fillcolor="#39e5e2"] ;
284 -> 286 ;
287 [label="residual sugar <= 7.4\ngini = 0.64\nsamples = 5\nvalue = [0, 0, 1, 2, 2, 0, 0]\nclass = l", fillcolor="#ffffff"] ;
277 -> 287 ;
288 [label="residual sugar <= 6.35\ngini = 0.44\nsamples = 3\nvalue = [0, 0, 1, 2, 0, 0, 0]\nclass = l", fillcolor="#9cf2f0"] ;
287 -> 288 ;
289 [label="gini = 0.0\nsamples = 1\nvalue = [0, 0, 1, 0, 0, 0, 0]\nclass = a", fillcolor="#39e54d"] ;
288 -> 289 ;
290 [label="gini = 0.0\nsamples = 2\nvalue = [0, 0, 0, 2, 0, 0, 0]\nclass = l", fillcolor="#39e5e2"] ;
288 -> 290 ;
291 [label="gini = 0.0\nsamples = 2\nvalue = [0, 0, 0, 0, 2, 0, 0]\nclass = i", fillcolor="#3956e5"] ;
287 -> 291 ;
292 [label="gini = 0.0\nsamples = 40\nvalue = [0, 0, 0, 40, 0, 0, 0]\nclass = l", fillcolor="#39e5e2"] ;
276 -> 292 ;
293 [label="chlorides <= 0.04\ngini = 0.43\nsamples = 27\nvalue = [1, 0, 3, 20, 3, 0, 0]\nclass = l", fillcolor="#73edea"] ;
275 -> 293 ;
294 [label="residual sugar <= 10.55\ngini = 0.44\nsamples = 3\nvalue = [1, 0, 0, 0, 2, 0, 0]\nclass = i", fillcolor="#9caaf2"] ;
293 -> 294 ;
295 [label="gini = 0.0\nsamples = 1\nvalue = [1, 0, 0, 0, 0, 0, 0]\nclass = q", fillcolor="#e58139"] ;
294 -> 295 ;
296 [label="gini = 0.0\nsamples = 2\nvalue = [0, 0, 0, 0, 2, 0, 0]\nclass = i", fillcolor="#3956e5"] ;
294 -> 296 ;
297 [label="density <= 1.0\ngini = 0.29\nsamples = 24\nvalue = [0, 0, 3, 20, 1, 0, 0]\nclass = l", fillcolor="#5feae8"] ;
293 -> 297 ;
298 [label="free sulfur dioxide <= 25.5\ngini = 0.62\nsamples = 4\nvalue = [0, 0, 2, 1, 1, 0, 0]\nclass = a", fillcolor="#bdf6c4"] ;
297 -> 298 ;
299 [label="gini = 0.0\nsamples = 2\nvalue = [0, 0, 2, 0, 0, 0, 0]\nclass = a", fillcolor="#39e54d"] ;
298 -> 299 ;
300 [label="pH <= 3.08\ngini = 0.5\nsamples = 2\nvalue = [0, 0, 0, 1, 1, 0, 0]\nclass = l", fillcolor="#ffffff"] ;
298 -> 300 ;
301 [label="gini = 0.0\nsamples = 1\nvalue = [0, 0, 0, 1, 0, 0, 0]\nclass = l", fillcolor="#39e5e2"] ;
300 -> 301 ;
302 [label="gini = 0.0\nsamples = 1\nvalue = [0, 0, 0, 0, 1, 0, 0]\nclass = i", fillcolor="#3956e5"] ;
300 -> 302 ;
303 [label="fixed acidity <= 7.45\ngini = 0.09\nsamples = 20\nvalue = [0, 0, 1, 19, 0, 0, 0]\nclass = l", fillcolor="#43e6e4"] ;
297 -> 303 ;
304 [label="gini = 0.0\nsamples = 18\nvalue = [0, 0, 0, 18, 0, 0, 0]\nclass = l", fillcolor="#39e5e2"] ;
303 -> 304 ;
305 [label="free sulfur dioxide <= 47.5\ngini = 0.5\nsamples = 2\nvalue = [0, 0, 1, 1, 0, 0, 0]\nclass = a", fillcolor="#ffffff"] ;
303 -> 305 ;
306 [label="gini = 0.0\nsamples = 1\nvalue = [0, 0, 0, 1, 0, 0, 0]\nclass = l", fillcolor="#39e5e2"] ;
305 -> 306 ;
307 [label="gini = 0.0\nsamples = 1\nvalue = [0, 0, 1, 0, 0, 0, 0]\nclass = a", fillcolor="#39e54d"] ;
305 -> 307 ;
308 [label="pH <= 3.37\ngini = 0.48\nsamples = 5\nvalue = [0, 0, 2, 3, 0, 0, 0]\nclass = l", fillcolor="#bdf6f5"] ;
274 -> 308 ;
309 [label="gini = 0.0\nsamples = 3\nvalue = [0, 0, 0, 3, 0, 0, 0]\nclass = l", fillcolor="#39e5e2"] ;
308 -> 309 ;
310 [label="gini = 0.0\nsamples = 2\nvalue = [0, 0, 2, 0, 0, 0, 0]\nclass = a", fillcolor="#39e54d"] ;
308 -> 310 ;
311 [label="residual sugar <= 10.5\ngini = 0.44\nsamples = 15\nvalue = [0, 0, 5, 10, 0, 0, 0]\nclass = l", fillcolor="#9cf2f0"] ;
267 -> 311 ;
312 [label="alcohol <= 9.45\ngini = 0.18\nsamples = 10\nvalue = [0, 0, 1, 9, 0, 0, 0]\nclass = l", fillcolor="#4fe8e5"] ;
311 -> 312 ;
313 [label="gini = 0.0\nsamples = 1\nvalue = [0, 0, 1, 0, 0, 0, 0]\nclass = a", fillcolor="#39e54d"] ;
312 -> 313 ;
314 [label="gini = 0.0\nsamples = 9\nvalue = [0, 0, 0, 9, 0, 0, 0]\nclass = l", fillcolor="#39e5e2"] ;
312 -> 314 ;
315 [label="pH <= 3.25\ngini = 0.32\nsamples = 5\nvalue = [0, 0, 4, 1, 0, 0, 0]\nclass = a", fillcolor="#6aec79"] ;
311 -> 315 ;
316 [label="gini = 0.0\nsamples = 4\nvalue = [0, 0, 4, 0, 0, 0, 0]\nclass = a", fillcolor="#39e54d"] ;
315 -> 316 ;
317 [label="gini = 0.0\nsamples = 1\nvalue = [0, 0, 0, 1, 0, 0, 0]\nclass = l", fillcolor="#39e5e2"] ;
315 -> 317 ;
318 [label="gini = 0.0\nsamples = 1\nvalue = [0, 0, 0, 0, 1, 0, 0]\nclass = i", fillcolor="#3956e5"] ;
266 -> 318 ;
319 [label="total sulfur dioxide <= 140.0\ngini = 0.62\nsamples = 12\nvalue = [0, 0, 4, 6, 1, 1, 0]\nclass = l", fillcolor="#cef8f8"] ;
265 -> 319 ;
320 [label="citric acid <= 0.3\ngini = 0.5\nsamples = 6\nvalue = [0, 0, 4, 1, 1, 0, 0]\nclass = a", fillcolor="#88ef94"] ;
319 -> 320 ;
321 [label="density <= 1.0\ngini = 0.5\nsamples = 2\nvalue = [0, 0, 0, 1, 1, 0, 0]\nclass = l", fillcolor="#ffffff"] ;
320 -> 321 ;
322 [label="gini = 0.0\nsamples = 1\nvalue = [0, 0, 0, 1, 0, 0, 0]\nclass = l", fillcolor="#39e5e2"] ;
321 -> 322 ;
323 [label="gini = 0.0\nsamples = 1\nvalue = [0, 0, 0, 0, 1, 0, 0]\nclass = i", fillcolor="#3956e5"] ;
321 -> 323 ;
324 [label="gini = 0.0\nsamples = 4\nvalue = [0, 0, 4, 0, 0, 0, 0]\nclass = a", fillcolor="#39e54d"] ;
320 -> 324 ;
325 [label="alcohol <= 10.3\ngini = 0.28\nsamples = 6\nvalue = [0, 0, 0, 5, 0, 1, 0]\nclass = l", fillcolor="#61eae8"] ;
319 -> 325 ;
326 [label="gini = 0.0\nsamples = 5\nvalue = [0, 0, 0, 5, 0, 0, 0]\nclass = l", fillcolor="#39e5e2"] ;
325 -> 326 ;
327 [label="gini = 0.0\nsamples = 1\nvalue = [0, 0, 0, 0, 0, 1, 0]\nclass = t", fillcolor="#b139e5"] ;
325 -> 327 ;
328 [label="alcohol <= 10.25\ngini = 0.56\nsamples = 11\nvalue = [0, 1, 0, 6, 4, 0, 0]\nclass = l", fillcolor="#c6f8f7"] ;
264 -> 328 ;
329 [label="alcohol <= 9.65\ngini = 0.41\nsamples = 8\nvalue = [0, 1, 0, 6, 1, 0, 0]\nclass = l", fillcolor="#72ecea"] ;
328 -> 329 ;
330 [label="citric acid <= 0.55\ngini = 0.5\nsamples = 2\nvalue = [0, 1, 0, 0, 1, 0, 0]\nclass = u", fillcolor="#ffffff"] ;
329 -> 330 ;
331 [label="gini = 0.0\nsamples = 1\nvalue = [0, 1, 0, 0, 0, 0, 0]\nclass = u", fillcolor="#b7e539"] ;
330 -> 331 ;
332 [label="gini = 0.0\nsamples = 1\nvalue = [0, 0, 0, 0, 1, 0, 0]\nclass = i", fillcolor="#3956e5"] ;
330 -> 332 ;
333 [label="gini = 0.0\nsamples = 6\nvalue = [0, 0, 0, 6, 0, 0, 0]\nclass = l", fillcolor="#39e5e2"] ;
329 -> 333 ;
334 [label="gini = 0.0\nsamples = 3\nvalue = [0, 0, 0, 0, 3, 0, 0]\nclass = i", fillcolor="#3956e5"] ;
328 -> 334 ;
335 [label="citric acid <= 0.3\ngini = 0.44\nsamples = 6\nvalue = [0, 0, 4, 2, 0, 0, 0]\nclass = a", fillcolor="#9cf2a6"] ;
263 -> 335 ;
336 [label="gini = 0.0\nsamples = 2\nvalue = [0, 0, 0, 2, 0, 0, 0]\nclass = l", fillcolor="#39e5e2"] ;
335 -> 336 ;
337 [label="gini = 0.0\nsamples = 4\nvalue = [0, 0, 4, 0, 0, 0, 0]\nclass = a", fillcolor="#39e54d"] ;
335 -> 337 ;
338 [label="gini = 0.0\nsamples = 3\nvalue = [0, 0, 3, 0, 0, 0, 0]\nclass = a", fillcolor="#39e54d"] ;
150 -> 338 ;
339 [label="alcohol <= 10.45\ngini = 0.24\nsamples = 7\nvalue = [0, 0, 1, 0, 6, 0, 0]\nclass = i", fillcolor="#5a72e9"] ;
39 -> 339 ;
340 [label="gini = 0.0\nsamples = 6\nvalue = [0, 0, 0, 0, 6, 0, 0]\nclass = i", fillcolor="#3956e5"] ;
339 -> 340 ;
341 [label="gini = 0.0\nsamples = 1\nvalue = [0, 0, 1, 0, 0, 0, 0]\nclass = a", fillcolor="#39e54d"] ;
339 -> 341 ;
342 [label="pH <= 3.33\ngini = 0.56\nsamples = 392\nvalue = [1, 6, 119, 227, 35, 4, 0]\nclass = l", fillcolor="#b1f5f4"] ;
38 -> 342 ;
343 [label="citric acid <= 0.19\ngini = 0.53\nsamples = 328\nvalue = [1, 2, 107, 197, 17, 4, 0]\nclass = l", fillcolor="#aef4f3"] ;
342 -> 343 ;
344 [label="density <= 1.0\ngini = 0.24\nsamples = 7\nvalue = [0, 0, 6, 1, 0, 0, 0]\nclass = a", fillcolor="#5ae96b"] ;
343 -> 344 ;
345 [label="gini = 0.0\nsamples = 6\nvalue = [0, 0, 6, 0, 0, 0, 0]\nclass = a", fillcolor="#39e54d"] ;
344 -> 345 ;
346 [label="gini = 0.0\nsamples = 1\nvalue = [0, 0, 0, 1, 0, 0, 0]\nclass = l", fillcolor="#39e5e2"] ;
344 -> 346 ;
347 [label="citric acid <= 0.45\ngini = 0.53\nsamples = 321\nvalue = [1, 2, 101, 196, 17, 4, 0]\nclass = l", fillcolor="#aaf4f2"] ;
343 -> 347 ;
348 [label="total sulfur dioxide <= 96.5\ngini = 0.51\nsamples = 271\nvalue = [1, 2, 76, 173, 15, 4, 0]\nclass = l", fillcolor="#9df2f1"] ;
347 -> 348 ;
349 [label="pH <= 3.2\ngini = 0.6\nsamples = 28\nvalue = [0, 0, 14, 10, 0, 4, 0]\nclass = a", fillcolor="#d3f9d7"] ;
348 -> 349 ;
350 [label="total sulfur dioxide <= 83.0\ngini = 0.44\nsamples = 17\nvalue = [0, 0, 12, 4, 0, 1, 0]\nclass = a", fillcolor="#85ef91"] ;
349 -> 350 ;
351 [label="residual sugar <= 4.55\ngini = 0.49\nsamples = 7\nvalue = [0, 0, 3, 4, 0, 0, 0]\nclass = l", fillcolor="#cef8f8"] ;
350 -> 351 ;
352 [label="alcohol <= 10.7\ngini = 0.38\nsamples = 4\nvalue = [0, 0, 3, 1, 0, 0, 0]\nclass = a", fillcolor="#7bee88"] ;
351 -> 352 ;
353 [label="gini = 0.0\nsamples = 3\nvalue = [0, 0, 3, 0, 0, 0, 0]\nclass = a", fillcolor="#39e54d"] ;
352 -> 353 ;
354 [label="gini = 0.0\nsamples = 1\nvalue = [0, 0, 0, 1, 0, 0, 0]\nclass = l", fillcolor="#39e5e2"] ;
352 -> 354 ;
355 [label="gini = 0.0\nsamples = 3\nvalue = [0, 0, 0, 3, 0, 0, 0]\nclass = l", fillcolor="#39e5e2"] ;
351 -> 355 ;
356 [label="free sulfur dioxide <= 12.5\ngini = 0.18\nsamples = 10\nvalue = [0, 0, 9, 0, 0, 1, 0]\nclass = a", fillcolor="#4fe861"] ;
350 -> 356 ;
357 [label="gini = 0.0\nsamples = 1\nvalue = [0, 0, 0, 0, 0, 1, 0]\nclass = t", fillcolor="#b139e5"] ;
356 -> 357 ;
358 [label="gini = 0.0\nsamples = 9\nvalue = [0, 0, 9, 0, 0, 0, 0]\nclass = a", fillcolor="#39e54d"] ;
356 -> 358 ;
359 [label="sulphates <= 0.59\ngini = 0.6\nsamples = 11\nvalue = [0, 0, 2, 6, 0, 3, 0]\nclass = l", fillcolor="#b5f5f4"] ;
349 -> 359 ;
360 [label="density <= 0.99\ngini = 0.38\nsamples = 8\nvalue = [0, 0, 2, 6, 0, 0, 0]\nclass = l", fillcolor="#7beeec"] ;
359 -> 360 ;
361 [label="gini = 0.0\nsamples = 2\nvalue = [0, 0, 2, 0, 0, 0, 0]\nclass = a", fillcolor="#39e54d"] ;
360 -> 361 ;
362 [label="gini = 0.0\nsamples = 6\nvalue = [0, 0, 0, 6, 0, 0, 0]\nclass = l", fillcolor="#39e5e2"] ;
360 -> 362 ;
363 [label="gini = 0.0\nsamples = 3\nvalue = [0, 0, 0, 0, 0, 3, 0]\nclass = t", fillcolor="#b139e5"] ;
359 -> 363 ;
364 [label="density <= 0.99\ngini = 0.48\nsamples = 243\nvalue = [1, 2, 62, 163, 15, 0, 0]\nclass = l", fillcolor="#91f0ef"] ;
348 -> 364 ;
365 [label="sulphates <= 0.71\ngini = 0.29\nsamples = 35\nvalue = [0, 0, 1, 29, 5, 0, 0]\nclass = l", fillcolor="#61eae8"] ;
364 -> 365 ;
366 [label="alcohol <= 10.75\ngini = 0.22\nsamples = 33\nvalue = [0, 0, 1, 29, 3, 0, 0]\nclass = l", fillcolor="#53e8e6"] ;
365 -> 366 ;
367 [label="sulphates <= 0.37\ngini = 0.07\nsamples = 26\nvalue = [0, 0, 1, 25, 0, 0, 0]\nclass = l", fillcolor="#41e6e3"] ;
366 -> 367 ;
368 [label="citric acid <= 0.34\ngini = 0.44\nsamples = 3\nvalue = [0, 0, 1, 2, 0, 0, 0]\nclass = l", fillcolor="#9cf2f0"] ;
367 -> 368 ;
369 [label="gini = 0.0\nsamples = 2\nvalue = [0, 0, 0, 2, 0, 0, 0]\nclass = l", fillcolor="#39e5e2"] ;
368 -> 369 ;
370 [label="gini = 0.0\nsamples = 1\nvalue = [0, 0, 1, 0, 0, 0, 0]\nclass = a", fillcolor="#39e54d"] ;
368 -> 370 ;
371 [label="gini = 0.0\nsamples = 23\nvalue = [0, 0, 0, 23, 0, 0, 0]\nclass = l", fillcolor="#39e5e2"] ;
367 -> 371 ;
372 [label="chlorides <= 0.04\ngini = 0.49\nsamples = 7\nvalue = [0, 0, 0, 4, 3, 0, 0]\nclass = l", fillcolor="#cef8f8"] ;
366 -> 372 ;
373 [label="gini = 0.0\nsamples = 3\nvalue = [0, 0, 0, 0, 3, 0, 0]\nclass = i", fillcolor="#3956e5"] ;
372 -> 373 ;
374 [label="gini = 0.0\nsamples = 4\nvalue = [0, 0, 0, 4, 0, 0, 0]\nclass = l", fillcolor="#39e5e2"] ;
372 -> 374 ;
375 [label="gini = 0.0\nsamples = 2\nvalue = [0, 0, 0, 0, 2, 0, 0]\nclass = i", fillcolor="#3956e5"] ;
365 -> 375 ;
376 [label="alcohol <= 9.05\ngini = 0.5\nsamples = 208\nvalue = [1, 2, 61, 134, 10, 0, 0]\nclass = l", fillcolor="#9df2f1"] ;
364 -> 376 ;
377 [label="residual sugar <= 14.25\ngini = 0.29\nsamples = 36\nvalue = [0, 0, 3, 30, 3, 0, 0]\nclass = l", fillcolor="#5deae7"] ;
376 -> 377 ;
378 [label="pH <= 2.94\ngini = 0.62\nsamples = 12\nvalue = [0, 0, 3, 6, 3, 0, 0]\nclass = l", fillcolor="#bdf6f5"] ;
377 -> 378 ;
379 [label="gini = 0.0\nsamples = 6\nvalue = [0, 0, 0, 6, 0, 0, 0]\nclass = l", fillcolor="#39e5e2"] ;
378 -> 379 ;
380 [label="chlorides <= 0.06\ngini = 0.5\nsamples = 6\nvalue = [0, 0, 3, 0, 3, 0, 0]\nclass = a", fillcolor="#ffffff"] ;
378 -> 380 ;
381 [label="gini = 0.0\nsamples = 3\nvalue = [0, 0, 3, 0, 0, 0, 0]\nclass = a", fillcolor="#39e54d"] ;
380 -> 381 ;
382 [label="gini = 0.0\nsamples = 3\nvalue = [0, 0, 0, 0, 3, 0, 0]\nclass = i", fillcolor="#3956e5"] ;
380 -> 382 ;
383 [label="gini = 0.0\nsamples = 24\nvalue = [0, 0, 0, 24, 0, 0, 0]\nclass = l", fillcolor="#39e5e2"] ;
377 -> 383 ;
384 [label="fixed acidity <= 6.45\ngini = 0.52\nsamples = 172\nvalue = [1, 2, 58, 104, 7, 0, 0]\nclass = l", fillcolor="#aff5f3"] ;
376 -> 384 ;
385 [label="fixed acidity <= 6.35\ngini = 0.5\nsamples = 44\nvalue = [0, 0, 24, 20, 0, 0, 0]\nclass = a", fillcolor="#defbe1"] ;
384 -> 385 ;
386 [label="pH <= 3.18\ngini = 0.46\nsamples = 30\nvalue = [0, 0, 11, 19, 0, 0, 0]\nclass = l", fillcolor="#acf4f3"] ;
385 -> 386 ;
387 [label="gini = 0.0\nsamples = 10\nvalue = [0, 0, 0, 10, 0, 0, 0]\nclass = l", fillcolor="#39e5e2"] ;
386 -> 387 ;
388 [label="free sulfur dioxide <= 43.5\ngini = 0.5\nsamples = 20\nvalue = [0, 0, 11, 9, 0, 0, 0]\nclass = a", fillcolor="#dbfadf"] ;
386 -> 388 ;
389 [label="free sulfur dioxide <= 19.5\ngini = 0.24\nsamples = 7\nvalue = [0, 0, 1, 6, 0, 0, 0]\nclass = l", fillcolor="#5ae9e7"] ;
388 -> 389 ;
390 [label="gini = 0.0\nsamples = 1\nvalue = [0, 0, 1, 0, 0, 0, 0]\nclass = a", fillcolor="#39e54d"] ;
389 -> 390 ;
391 [label="gini = 0.0\nsamples = 6\nvalue = [0, 0, 0, 6, 0, 0, 0]\nclass = l", fillcolor="#39e5e2"] ;
389 -> 391 ;
392 [label="free sulfur dioxide <= 57.5\ngini = 0.36\nsamples = 13\nvalue = [0, 0, 10, 3, 0, 0, 0]\nclass = a", fillcolor="#74ed82"] ;
388 -> 392 ;
393 [label="sulphates <= 0.38\ngini = 0.28\nsamples = 12\nvalue = [0, 0, 10, 2, 0, 0, 0]\nclass = a", fillcolor="#61ea71"] ;
392 -> 393 ;
394 [label="gini = 0.0\nsamples = 1\nvalue = [0, 0, 0, 1, 0, 0, 0]\nclass = l", fillcolor="#39e5e2"] ;
393 -> 394 ;
395 [label="residual sugar <= 16.67\ngini = 0.17\nsamples = 11\nvalue = [0, 0, 10, 1, 0, 0, 0]\nclass = a", fillcolor="#4de85f"] ;
393 -> 395 ;
396 [label="gini = 0.0\nsamples = 10\nvalue = [0, 0, 10, 0, 0, 0, 0]\nclass = a", fillcolor="#39e54d"] ;
395 -> 396 ;
397 [label="gini = 0.0\nsamples = 1\nvalue = [0, 0, 0, 1, 0, 0, 0]\nclass = l", fillcolor="#39e5e2"] ;
395 -> 397 ;
398 [label="gini = 0.0\nsamples = 1\nvalue = [0, 0, 0, 1, 0, 0, 0]\nclass = l", fillcolor="#39e5e2"] ;
392 -> 398 ;
399 [label="free sulfur dioxide <= 58.5\ngini = 0.13\nsamples = 14\nvalue = [0, 0, 13, 1, 0, 0, 0]\nclass = a", fillcolor="#48e75b"] ;
385 -> 399 ;
400 [label="gini = 0.0\nsamples = 13\nvalue = [0, 0, 13, 0, 0, 0, 0]\nclass = a", fillcolor="#39e54d"] ;
399 -> 400 ;
401 [label="gini = 0.0\nsamples = 1\nvalue = [0, 0, 0, 1, 0, 0, 0]\nclass = l", fillcolor="#39e5e2"] ;
399 -> 401 ;
402 [label="total sulfur dioxide <= 130.0\ngini = 0.5\nsamples = 128\nvalue = [1, 2, 34, 84, 7, 0, 0]\nclass = l", fillcolor="#96f1f0"] ;
384 -> 402 ;
403 [label="residual sugar <= 9.65\ngini = 0.59\nsamples = 30\nvalue = [1, 0, 14, 13, 2, 0, 0]\nclass = a", fillcolor="#f3fdf5"] ;
402 -> 403 ;
404 [label="alcohol <= 10.45\ngini = 0.49\nsamples = 21\nvalue = [0, 0, 14, 5, 2, 0, 0]\nclass = a", fillcolor="#90f09b"] ;
403 -> 404 ;
405 [label="total sulfur dioxide <= 99.5\ngini = 0.24\nsamples = 15\nvalue = [0, 0, 13, 1, 1, 0, 0]\nclass = a", fillcolor="#55e966"] ;
404 -> 405 ;
406 [label="gini = 0.0\nsamples = 1\nvalue = [0, 0, 0, 0, 1, 0, 0]\nclass = i", fillcolor="#3956e5"] ;
405 -> 406 ;
407 [label="volatile acidity <= 0.23\ngini = 0.13\nsamples = 14\nvalue = [0, 0, 13, 1, 0, 0, 0]\nclass = a", fillcolor="#48e75b"] ;
405 -> 407 ;
408 [label="gini = 0.0\nsamples = 12\nvalue = [0, 0, 12, 0, 0, 0, 0]\nclass = a", fillcolor="#39e54d"] ;
407 -> 408 ;
409 [label="density <= 0.99\ngini = 0.5\nsamples = 2\nvalue = [0, 0, 1, 1, 0, 0, 0]\nclass = a", fillcolor="#ffffff"] ;
407 -> 409 ;
410 [label="gini = 0.0\nsamples = 1\nvalue = [0, 0, 1, 0, 0, 0, 0]\nclass = a", fillcolor="#39e54d"] ;
409 -> 410 ;
411 [label="gini = 0.0\nsamples = 1\nvalue = [0, 0, 0, 1, 0, 0, 0]\nclass = l", fillcolor="#39e5e2"] ;
409 -> 411 ;
412 [label="total sulfur dioxide <= 119.5\ngini = 0.5\nsamples = 6\nvalue = [0, 0, 1, 4, 1, 0, 0]\nclass = l", fillcolor="#88efee"] ;
404 -> 412 ;
413 [label="pH <= 3.28\ngini = 0.32\nsamples = 5\nvalue = [0, 0, 0, 4, 1, 0, 0]\nclass = l", fillcolor="#6aece9"] ;
412 -> 413 ;
414 [label="gini = 0.0\nsamples = 4\nvalue = [0, 0, 0, 4, 0, 0, 0]\nclass = l", fillcolor="#39e5e2"] ;
413 -> 414 ;
415 [label="gini = 0.0\nsamples = 1\nvalue = [0, 0, 0, 0, 1, 0, 0]\nclass = i", fillcolor="#3956e5"] ;
413 -> 415 ;
416 [label="gini = 0.0\nsamples = 1\nvalue = [0, 0, 1, 0, 0, 0, 0]\nclass = a", fillcolor="#39e54d"] ;
412 -> 416 ;
417 [label="fixed acidity <= 10.3\ngini = 0.2\nsamples = 9\nvalue = [1, 0, 0, 8, 0, 0, 0]\nclass = l", fillcolor="#52e8e6"] ;
403 -> 417 ;
418 [label="gini = 0.0\nsamples = 8\nvalue = [0, 0, 0, 8, 0, 0, 0]\nclass = l", fillcolor="#39e5e2"] ;
417 -> 418 ;
419 [label="gini = 0.0\nsamples = 1\nvalue = [1, 0, 0, 0, 0, 0, 0]\nclass = q", fillcolor="#e58139"] ;
417 -> 419 ;
420 [label="residual sugar <= 15.0\ngini = 0.43\nsamples = 98\nvalue = [0, 2, 20, 71, 5, 0, 0]\nclass = l", fillcolor="#7eeeec"] ;
402 -> 420 ;
421 [label="chlorides <= 0.05\ngini = 0.37\nsamples = 86\nvalue = [0, 1, 13, 67, 5, 0, 0]\nclass = l", fillcolor="#6decea"] ;
420 -> 421 ;
422 [label="density <= 0.99\ngini = 0.21\nsamples = 52\nvalue = [0, 0, 4, 46, 2, 0, 0]\nclass = l", fillcolor="#52e8e6"] ;
421 -> 422 ;
423 [label="gini = 0.0\nsamples = 1\nvalue = [0, 0, 0, 0, 1, 0, 0]\nclass = i", fillcolor="#3956e5"] ;
422 -> 423 ;
424 [label="fixed acidity <= 9.0\ngini = 0.18\nsamples = 51\nvalue = [0, 0, 4, 46, 1, 0, 0]\nclass = l", fillcolor="#4ee8e5"] ;
422 -> 424 ;
425 [label="sulphates <= 0.75\ngini = 0.15\nsamples = 50\nvalue = [0, 0, 3, 46, 1, 0, 0]\nclass = l", fillcolor="#4ae7e4"] ;
424 -> 425 ;
426 [label="density <= 1.0\ngini = 0.12\nsamples = 48\nvalue = [0, 0, 2, 45, 1, 0, 0]\nclass = l", fillcolor="#46e7e4"] ;
425 -> 426 ;
427 [label="fixed acidity <= 8.05\ngini = 0.08\nsamples = 45\nvalue = [0, 0, 2, 43, 0, 0, 0]\nclass = l", fillcolor="#42e6e3"] ;
426 -> 427 ;
428 [label="chlorides <= 0.03\ngini = 0.05\nsamples = 42\nvalue = [0, 0, 1, 41, 0, 0, 0]\nclass = l", fillcolor="#3ee6e3"] ;
427 -> 428 ;
429 [label="citric acid <= 0.33\ngini = 0.44\nsamples = 3\nvalue = [0, 0, 1, 2, 0, 0, 0]\nclass = l", fillcolor="#9cf2f0"] ;
428 -> 429 ;
430 [label="gini = 0.0\nsamples = 2\nvalue = [0, 0, 0, 2, 0, 0, 0]\nclass = l", fillcolor="#39e5e2"] ;
429 -> 430 ;
431 [label="gini = 0.0\nsamples = 1\nvalue = [0, 0, 1, 0, 0, 0, 0]\nclass = a", fillcolor="#39e54d"] ;
429 -> 431 ;
432 [label="gini = 0.0\nsamples = 39\nvalue = [0, 0, 0, 39, 0, 0, 0]\nclass = l", fillcolor="#39e5e2"] ;
428 -> 432 ;
433 [label="total sulfur dioxide <= 180.5\ngini = 0.44\nsamples = 3\nvalue = [0, 0, 1, 2, 0, 0, 0]\nclass = l", fillcolor="#9cf2f0"] ;
427 -> 433 ;
434 [label="gini = 0.0\nsamples = 1\nvalue = [0, 0, 1, 0, 0, 0, 0]\nclass = a", fillcolor="#39e54d"] ;
433 -> 434 ;
435 [label="gini = 0.0\nsamples = 2\nvalue = [0, 0, 0, 2, 0, 0, 0]\nclass = l", fillcolor="#39e5e2"] ;
433 -> 435 ;
436 [label="fixed acidity <= 7.6\ngini = 0.44\nsamples = 3\nvalue = [0, 0, 0, 2, 1, 0, 0]\nclass = l", fillcolor="#9cf2f0"] ;
426 -> 436 ;
437 [label="gini = 0.0\nsamples = 1\nvalue = [0, 0, 0, 0, 1, 0, 0]\nclass = i", fillcolor="#3956e5"] ;
436 -> 437 ;
438 [label="gini = 0.0\nsamples = 2\nvalue = [0, 0, 0, 2, 0, 0, 0]\nclass = l", fillcolor="#39e5e2"] ;
436 -> 438 ;
439 [label="density <= 1.0\ngini = 0.5\nsamples = 2\nvalue = [0, 0, 1, 1, 0, 0, 0]\nclass = a", fillcolor="#ffffff"] ;
425 -> 439 ;
440 [label="gini = 0.0\nsamples = 1\nvalue = [0, 0, 1, 0, 0, 0, 0]\nclass = a", fillcolor="#39e54d"] ;
439 -> 440 ;
441 [label="gini = 0.0\nsamples = 1\nvalue = [0, 0, 0, 1, 0, 0, 0]\nclass = l", fillcolor="#39e5e2"] ;
439 -> 441 ;
442 [label="gini = 0.0\nsamples = 1\nvalue = [0, 0, 1, 0, 0, 0, 0]\nclass = a", fillcolor="#39e54d"] ;
424 -> 442 ;
443 [label="chlorides <= 0.05\ngini = 0.54\nsamples = 34\nvalue = [0, 1, 9, 21, 3, 0, 0]\nclass = l", fillcolor="#a0f3f1"] ;
421 -> 443 ;
444 [label="fixed acidity <= 7.45\ngini = 0.6\nsamples = 15\nvalue = [0, 0, 7, 6, 2, 0, 0]\nclass = a", fillcolor="#e9fceb"] ;
443 -> 444 ;
445 [label="chlorides <= 0.05\ngini = 0.46\nsamples = 10\nvalue = [0, 0, 7, 1, 2, 0, 0]\nclass = a", fillcolor="#83ef90"] ;
444 -> 445 ;
446 [label="sulphates <= 0.53\ngini = 0.62\nsamples = 4\nvalue = [0, 0, 1, 1, 2, 0, 0]\nclass = i", fillcolor="#bdc7f6"] ;
445 -> 446 ;
447 [label="total sulfur dioxide <= 153.5\ngini = 0.5\nsamples = 2\nvalue = [0, 0, 1, 1, 0, 0, 0]\nclass = a", fillcolor="#ffffff"] ;
446 -> 447 ;
448 [label="gini = 0.0\nsamples = 1\nvalue = [0, 0, 1, 0, 0, 0, 0]\nclass = a", fillcolor="#39e54d"] ;
447 -> 448 ;
449 [label="gini = 0.0\nsamples = 1\nvalue = [0, 0, 0, 1, 0, 0, 0]\nclass = l", fillcolor="#39e5e2"] ;
447 -> 449 ;
450 [label="gini = 0.0\nsamples = 2\nvalue = [0, 0, 0, 0, 2, 0, 0]\nclass = i", fillcolor="#3956e5"] ;
446 -> 450 ;
451 [label="gini = 0.0\nsamples = 6\nvalue = [0, 0, 6, 0, 0, 0, 0]\nclass = a", fillcolor="#39e54d"] ;
445 -> 451 ;
452 [label="gini = 0.0\nsamples = 5\nvalue = [0, 0, 0, 5, 0, 0, 0]\nclass = l", fillcolor="#39e5e2"] ;
444 -> 452 ;
453 [label="citric acid <= 0.27\ngini = 0.36\nsamples = 19\nvalue = [0, 1, 2, 15, 1, 0, 0]\nclass = l", fillcolor="#68ebe9"] ;
443 -> 453 ;
454 [label="gini = 0.0\nsamples = 1\nvalue = [0, 0, 0, 0, 1, 0, 0]\nclass = i", fillcolor="#3956e5"] ;
453 -> 454 ;
455 [label="free sulfur dioxide <= 38.5\ngini = 0.29\nsamples = 18\nvalue = [0, 1, 2, 15, 0, 0, 0]\nclass = l", fillcolor="#5eeae7"] ;
453 -> 455 ;
456 [label="total sulfur dioxide <= 156.0\ngini = 0.57\nsamples = 7\nvalue = [0, 1, 2, 4, 0, 0, 0]\nclass = l", fillcolor="#b0f5f3"] ;
455 -> 456 ;
457 [label="gini = 0.0\nsamples = 4\nvalue = [0, 0, 0, 4, 0, 0, 0]\nclass = l", fillcolor="#39e5e2"] ;
456 -> 457 ;
458 [label="density <= 1.0\ngini = 0.44\nsamples = 3\nvalue = [0, 1, 2, 0, 0, 0, 0]\nclass = a", fillcolor="#9cf2a6"] ;
456 -> 458 ;
459 [label="gini = 0.0\nsamples = 2\nvalue = [0, 0, 2, 0, 0, 0, 0]\nclass = a", fillcolor="#39e54d"] ;
458 -> 459 ;
460 [label="gini = 0.0\nsamples = 1\nvalue = [0, 1, 0, 0, 0, 0, 0]\nclass = u", fillcolor="#b7e539"] ;
458 -> 460 ;
461 [label="gini = 0.0\nsamples = 11\nvalue = [0, 0, 0, 11, 0, 0, 0]\nclass = l", fillcolor="#39e5e2"] ;
455 -> 461 ;
462 [label="pH <= 3.19\ngini = 0.54\nsamples = 12\nvalue = [0, 1, 7, 4, 0, 0, 0]\nclass = a", fillcolor="#b5f5bc"] ;
420 -> 462 ;
463 [label="density <= 1.0\ngini = 0.5\nsamples = 6\nvalue = [0, 1, 1, 4, 0, 0, 0]\nclass = l", fillcolor="#88efee"] ;
462 -> 463 ;
464 [label="volatile acidity <= 0.23\ngini = 0.5\nsamples = 2\nvalue = [0, 1, 1, 0, 0, 0, 0]\nclass = u", fillcolor="#ffffff"] ;
463 -> 464 ;
465 [label="gini = 0.0\nsamples = 1\nvalue = [0, 0, 1, 0, 0, 0, 0]\nclass = a", fillcolor="#39e54d"] ;
464 -> 465 ;
466 [label="gini = 0.0\nsamples = 1\nvalue = [0, 1, 0, 0, 0, 0, 0]\nclass = u", fillcolor="#b7e539"] ;
464 -> 466 ;
467 [label="gini = 0.0\nsamples = 4\nvalue = [0, 0, 0, 4, 0, 0, 0]\nclass = l", fillcolor="#39e5e2"] ;
463 -> 467 ;
468 [label="gini = 0.0\nsamples = 6\nvalue = [0, 0, 6, 0, 0, 0, 0]\nclass = a", fillcolor="#39e54d"] ;
462 -> 468 ;
469 [label="alcohol <= 9.82\ngini = 0.54\nsamples = 50\nvalue = [0, 0, 25, 23, 2, 0, 0]\nclass = a", fillcolor="#f0fdf2"] ;
347 -> 469 ;
470 [label="fixed acidity <= 7.1\ngini = 0.44\nsamples = 30\nvalue = [0, 0, 21, 8, 1, 0, 0]\nclass = a", fillcolor="#8af096"] ;
469 -> 470 ;
471 [label="pH <= 2.89\ngini = 0.21\nsamples = 17\nvalue = [0, 0, 15, 1, 1, 0, 0]\nclass = a", fillcolor="#52e863"] ;
470 -> 471 ;
472 [label="gini = 0.0\nsamples = 1\nvalue = [0, 0, 0, 1, 0, 0, 0]\nclass = l", fillcolor="#39e5e2"] ;
471 -> 472 ;
473 [label="chlorides <= 0.13\ngini = 0.12\nsamples = 16\nvalue = [0, 0, 15, 0, 1, 0, 0]\nclass = a", fillcolor="#46e759"] ;
471 -> 473 ;
474 [label="gini = 0.0\nsamples = 15\nvalue = [0, 0, 15, 0, 0, 0, 0]\nclass = a", fillcolor="#39e54d"] ;
473 -> 474 ;
475 [label="gini = 0.0\nsamples = 1\nvalue = [0, 0, 0, 0, 1, 0, 0]\nclass = i", fillcolor="#3956e5"] ;
473 -> 475 ;
476 [label="total sulfur dioxide <= 222.0\ngini = 0.5\nsamples = 13\nvalue = [0, 0, 6, 7, 0, 0, 0]\nclass = l", fillcolor="#e3fbfb"] ;
470 -> 476 ;
477 [label="chlorides <= 0.04\ngini = 0.42\nsamples = 10\nvalue = [0, 0, 3, 7, 0, 0, 0]\nclass = l", fillcolor="#8ef0ee"] ;
476 -> 477 ;
478 [label="chlorides <= 0.04\ngini = 0.38\nsamples = 4\nvalue = [0, 0, 3, 1, 0, 0, 0]\nclass = a", fillcolor="#7bee88"] ;
477 -> 478 ;
479 [label="gini = 0.0\nsamples = 1\nvalue = [0, 0, 0, 1, 0, 0, 0]\nclass = l", fillcolor="#39e5e2"] ;
478 -> 479 ;
480 [label="gini = 0.0\nsamples = 3\nvalue = [0, 0, 3, 0, 0, 0, 0]\nclass = a", fillcolor="#39e54d"] ;
478 -> 480 ;
481 [label="gini = 0.0\nsamples = 6\nvalue = [0, 0, 0, 6, 0, 0, 0]\nclass = l", fillcolor="#39e5e2"] ;
477 -> 481 ;
482 [label="gini = 0.0\nsamples = 3\nvalue = [0, 0, 3, 0, 0, 0, 0]\nclass = a", fillcolor="#39e54d"] ;
476 -> 482 ;
483 [label="citric acid <= 0.48\ngini = 0.4\nsamples = 20\nvalue = [0, 0, 4, 15, 1, 0, 0]\nclass = l", fillcolor="#77edeb"] ;
469 -> 483 ;
484 [label="gini = 0.0\nsamples = 2\nvalue = [0, 0, 2, 0, 0, 0, 0]\nclass = a", fillcolor="#39e54d"] ;
483 -> 484 ;
485 [label="total sulfur dioxide <= 164.0\ngini = 0.29\nsamples = 18\nvalue = [0, 0, 2, 15, 1, 0, 0]\nclass = l", fillcolor="#5eeae7"] ;
483 -> 485 ;
486 [label="chlorides <= 0.04\ngini = 0.21\nsamples = 17\nvalue = [0, 0, 2, 15, 0, 0, 0]\nclass = l", fillcolor="#53e8e6"] ;
485 -> 486 ;
487 [label="density <= 0.99\ngini = 0.41\nsamples = 7\nvalue = [0, 0, 2, 5, 0, 0, 0]\nclass = l", fillcolor="#88efee"] ;
486 -> 487 ;
488 [label="pH <= 3.03\ngini = 0.44\nsamples = 3\nvalue = [0, 0, 2, 1, 0, 0, 0]\nclass = a", fillcolor="#9cf2a6"] ;
487 -> 488 ;
489 [label="chlorides <= 0.04\ngini = 0.5\nsamples = 2\nvalue = [0, 0, 1, 1, 0, 0, 0]\nclass = a", fillcolor="#ffffff"] ;
488 -> 489 ;
490 [label="gini = 0.0\nsamples = 1\nvalue = [0, 0, 1, 0, 0, 0, 0]\nclass = a", fillcolor="#39e54d"] ;
489 -> 490 ;
491 [label="gini = 0.0\nsamples = 1\nvalue = [0, 0, 0, 1, 0, 0, 0]\nclass = l", fillcolor="#39e5e2"] ;
489 -> 491 ;
492 [label="gini = 0.0\nsamples = 1\nvalue = [0, 0, 1, 0, 0, 0, 0]\nclass = a", fillcolor="#39e54d"] ;
488 -> 492 ;
493 [label="gini = 0.0\nsamples = 4\nvalue = [0, 0, 0, 4, 0, 0, 0]\nclass = l", fillcolor="#39e5e2"] ;
487 -> 493 ;
494 [label="gini = 0.0\nsamples = 10\nvalue = [0, 0, 0, 10, 0, 0, 0]\nclass = l", fillcolor="#39e5e2"] ;
486 -> 494 ;
495 [label="gini = 0.0\nsamples = 1\nvalue = [0, 0, 0, 0, 1, 0, 0]\nclass = i", fillcolor="#3956e5"] ;
485 -> 495 ;
496 [label="sulphates <= 0.44\ngini = 0.66\nsamples = 64\nvalue = [0, 4, 12, 30, 18, 0, 0]\nclass = l", fillcolor="#cbf8f7"] ;
342 -> 496 ;
497 [label="free sulfur dioxide <= 49.5\ngini = 0.61\nsamples = 18\nvalue = [0, 0, 9, 6, 3, 0, 0]\nclass = a", fillcolor="#cef8d2"] ;
496 -> 497 ;
498 [label="total sulfur dioxide <= 150.5\ngini = 0.64\nsamples = 13\nvalue = [0, 0, 4, 6, 3, 0, 0]\nclass = l", fillcolor="#d3f9f9"] ;
497 -> 498 ;
499 [label="volatile acidity <= 0.23\ngini = 0.59\nsamples = 8\nvalue = [0, 0, 4, 1, 3, 0, 0]\nclass = a", fillcolor="#d7fadb"] ;
498 -> 499 ;
500 [label="pH <= 3.37\ngini = 0.56\nsamples = 5\nvalue = [0, 0, 1, 1, 3, 0, 0]\nclass = i", fillcolor="#9caaf2"] ;
499 -> 500 ;
501 [label="gini = 0.0\nsamples = 3\nvalue = [0, 0, 0, 0, 3, 0, 0]\nclass = i", fillcolor="#3956e5"] ;
500 -> 501 ;
502 [label="chlorides <= 0.04\ngini = 0.5\nsamples = 2\nvalue = [0, 0, 1, 1, 0, 0, 0]\nclass = a", fillcolor="#ffffff"] ;
500 -> 502 ;
503 [label="gini = 0.0\nsamples = 1\nvalue = [0, 0, 1, 0, 0, 0, 0]\nclass = a", fillcolor="#39e54d"] ;
502 -> 503 ;
504 [label="gini = 0.0\nsamples = 1\nvalue = [0, 0, 0, 1, 0, 0, 0]\nclass = l", fillcolor="#39e5e2"] ;
502 -> 504 ;
505 [label="gini = 0.0\nsamples = 3\nvalue = [0, 0, 3, 0, 0, 0, 0]\nclass = a", fillcolor="#39e54d"] ;
499 -> 505 ;
506 [label="gini = 0.0\nsamples = 5\nvalue = [0, 0, 0, 5, 0, 0, 0]\nclass = l", fillcolor="#39e5e2"] ;
498 -> 506 ;
507 [label="gini = 0.0\nsamples = 5\nvalue = [0, 0, 5, 0, 0, 0, 0]\nclass = a", fillcolor="#39e54d"] ;
497 -> 507 ;
508 [label="free sulfur dioxide <= 39.5\ngini = 0.61\nsamples = 46\nvalue = [0, 4, 3, 24, 15, 0, 0]\nclass = l", fillcolor="#c6f7f7"] ;
496 -> 508 ;
509 [label="alcohol <= 10.55\ngini = 0.47\nsamples = 24\nvalue = [0, 3, 1, 17, 3, 0, 0]\nclass = l", fillcolor="#7beeec"] ;
508 -> 509 ;
510 [label="total sulfur dioxide <= 111.5\ngini = 0.38\nsamples = 22\nvalue = [0, 3, 1, 17, 1, 0, 0]\nclass = l", fillcolor="#6decea"] ;
509 -> 510 ;
511 [label="alcohol <= 10.25\ngini = 0.48\nsamples = 5\nvalue = [0, 3, 0, 2, 0, 0, 0]\nclass = u", fillcolor="#e7f6bd"] ;
510 -> 511 ;
512 [label="gini = 0.0\nsamples = 3\nvalue = [0, 3, 0, 0, 0, 0, 0]\nclass = u", fillcolor="#b7e539"] ;
511 -> 512 ;
513 [label="gini = 0.0\nsamples = 2\nvalue = [0, 0, 0, 2, 0, 0, 0]\nclass = l", fillcolor="#39e5e2"] ;
511 -> 513 ;
514 [label="density <= 1.0\ngini = 0.21\nsamples = 17\nvalue = [0, 0, 1, 15, 1, 0, 0]\nclass = l", fillcolor="#52e8e6"] ;
510 -> 514 ;
515 [label="chlorides <= 0.03\ngini = 0.12\nsamples = 16\nvalue = [0, 0, 0, 15, 1, 0, 0]\nclass = l", fillcolor="#46e7e4"] ;
514 -> 515 ;
516 [label="gini = 0.0\nsamples = 1\nvalue = [0, 0, 0, 0, 1, 0, 0]\nclass = i", fillcolor="#3956e5"] ;
515 -> 516 ;
517 [label="gini = 0.0\nsamples = 15\nvalue = [0, 0, 0, 15, 0, 0, 0]\nclass = l", fillcolor="#39e5e2"] ;
515 -> 517 ;
518 [label="gini = 0.0\nsamples = 1\nvalue = [0, 0, 1, 0, 0, 0, 0]\nclass = a", fillcolor="#39e54d"] ;
514 -> 518 ;
519 [label="gini = 0.0\nsamples = 2\nvalue = [0, 0, 0, 0, 2, 0, 0]\nclass = i", fillcolor="#3956e5"] ;
509 -> 519 ;
520 [label="free sulfur dioxide <= 59.5\ngini = 0.59\nsamples = 22\nvalue = [0, 1, 2, 7, 12, 0, 0]\nclass = i", fillcolor="#bdc7f6"] ;
508 -> 520 ;
521 [label="fixed acidity <= 5.95\ngini = 0.51\nsamples = 18\nvalue = [0, 1, 2, 3, 12, 0, 0]\nclass = i", fillcolor="#889aef"] ;
520 -> 521 ;
522 [label="density <= 0.99\ngini = 0.5\nsamples = 2\nvalue = [0, 1, 1, 0, 0, 0, 0]\nclass = u", fillcolor="#ffffff"] ;
521 -> 522 ;
523 [label="gini = 0.0\nsamples = 1\nvalue = [0, 0, 1, 0, 0, 0, 0]\nclass = a", fillcolor="#39e54d"] ;
522 -> 523 ;
524 [label="gini = 0.0\nsamples = 1\nvalue = [0, 1, 0, 0, 0, 0, 0]\nclass = u", fillcolor="#b7e539"] ;
522 -> 524 ;
525 [label="chlorides <= 0.06\ngini = 0.4\nsamples = 16\nvalue = [0, 0, 1, 3, 12, 0, 0]\nclass = i", fillcolor="#768aed"] ;
521 -> 525 ;
526 [label="total sulfur dioxide <= 211.0\ngini = 0.24\nsamples = 14\nvalue = [0, 0, 0, 2, 12, 0, 0]\nclass = i", fillcolor="#5a72e9"] ;
525 -> 526 ;
527 [label="fixed acidity <= 7.75\ngini = 0.14\nsamples = 13\nvalue = [0, 0, 0, 1, 12, 0, 0]\nclass = i", fillcolor="#4964e7"] ;
526 -> 527 ;
528 [label="gini = 0.0\nsamples = 12\nvalue = [0, 0, 0, 0, 12, 0, 0]\nclass = i", fillcolor="#3956e5"] ;
527 -> 528 ;
529 [label="gini = 0.0\nsamples = 1\nvalue = [0, 0, 0, 1, 0, 0, 0]\nclass = l", fillcolor="#39e5e2"] ;
527 -> 529 ;
530 [label="gini = 0.0\nsamples = 1\nvalue = [0, 0, 0, 1, 0, 0, 0]\nclass = l", fillcolor="#39e5e2"] ;
526 -> 530 ;
531 [label="residual sugar <= 7.25\ngini = 0.5\nsamples = 2\nvalue = [0, 0, 1, 1, 0, 0, 0]\nclass = a", fillcolor="#ffffff"] ;
525 -> 531 ;
532 [label="gini = 0.0\nsamples = 1\nvalue = [0, 0, 0, 1, 0, 0, 0]\nclass = l", fillcolor="#39e5e2"] ;
531 -> 532 ;
533 [label="gini = 0.0\nsamples = 1\nvalue = [0, 0, 1, 0, 0, 0, 0]\nclass = a", fillcolor="#39e54d"] ;
531 -> 533 ;
534 [label="gini = 0.0\nsamples = 4\nvalue = [0, 0, 0, 4, 0, 0, 0]\nclass = l", fillcolor="#39e5e2"] ;
520 -> 534 ;
535 [label="alcohol <= 9.52\ngini = 0.58\nsamples = 1440\nvalue = [7, 85, 776, 513, 53, 6, 0]\nclass = a", fillcolor="#c7f8cc"] ;
1 -> 535 ;
536 [label="volatile acidity <= 0.3\ngini = 0.52\nsamples = 751\nvalue = [4, 42, 474, 214, 17, 0, 0]\nclass = a", fillcolor="#9ff2a9"] ;
535 -> 536 ;
537 [label="free sulfur dioxide <= 22.5\ngini = 0.56\nsamples = 354\nvalue = [1, 15, 193, 132, 13, 0, 0]\nclass = a", fillcolor="#c9f8ce"] ;
536 -> 537 ;
538 [label="pH <= 3.23\ngini = 0.26\nsamples = 34\nvalue = [0, 4, 29, 1, 0, 0, 0]\nclass = a", fillcolor="#5ae96b"] ;
537 -> 538 ;
539 [label="pH <= 3.0\ngini = 0.13\nsamples = 29\nvalue = [0, 2, 27, 0, 0, 0, 0]\nclass = a", fillcolor="#48e75a"] ;
538 -> 539 ;
540 [label="residual sugar <= 3.1\ngini = 0.5\nsamples = 4\nvalue = [0, 2, 2, 0, 0, 0, 0]\nclass = u", fillcolor="#ffffff"] ;
539 -> 540 ;
541 [label="gini = 0.0\nsamples = 2\nvalue = [0, 0, 2, 0, 0, 0, 0]\nclass = a", fillcolor="#39e54d"] ;
540 -> 541 ;
542 [label="gini = 0.0\nsamples = 2\nvalue = [0, 2, 0, 0, 0, 0, 0]\nclass = u", fillcolor="#b7e539"] ;
540 -> 542 ;
543 [label="gini = 0.0\nsamples = 25\nvalue = [0, 0, 25, 0, 0, 0, 0]\nclass = a", fillcolor="#39e54d"] ;
539 -> 543 ;
544 [label="chlorides <= 0.04\ngini = 0.64\nsamples = 5\nvalue = [0, 2, 2, 1, 0, 0, 0]\nclass = u", fillcolor="#ffffff"] ;
538 -> 544 ;
545 [label="gini = 0.0\nsamples = 2\nvalue = [0, 0, 2, 0, 0, 0, 0]\nclass = a", fillcolor="#39e54d"] ;
544 -> 545 ;
546 [label="density <= 0.99\ngini = 0.44\nsamples = 3\nvalue = [0, 2, 0, 1, 0, 0, 0]\nclass = u", fillcolor="#dbf29c"] ;
544 -> 546 ;
547 [label="gini = 0.0\nsamples = 1\nvalue = [0, 0, 0, 1, 0, 0, 0]\nclass = l", fillcolor="#39e5e2"] ;
546 -> 547 ;
548 [label="gini = 0.0\nsamples = 2\nvalue = [0, 2, 0, 0, 0, 0, 0]\nclass = u", fillcolor="#b7e539"] ;
546 -> 548 ;
549 [label="total sulfur dioxide <= 138.0\ngini = 0.57\nsamples = 320\nvalue = [1, 11, 164, 131, 13, 0, 0]\nclass = a", fillcolor="#dcfae0"] ;
537 -> 549 ;
550 [label="residual sugar <= 3.25\ngini = 0.38\nsamples = 44\nvalue = [0, 0, 11, 33, 0, 0, 0]\nclass = l", fillcolor="#7beeec"] ;
549 -> 550 ;
551 [label="chlorides <= 0.06\ngini = 0.47\nsamples = 13\nvalue = [0, 0, 8, 5, 0, 0, 0]\nclass = a", fillcolor="#b5f5bc"] ;
550 -> 551 ;
552 [label="gini = 0.0\nsamples = 7\nvalue = [0, 0, 7, 0, 0, 0, 0]\nclass = a", fillcolor="#39e54d"] ;
551 -> 552 ;
553 [label="density <= 0.99\ngini = 0.28\nsamples = 6\nvalue = [0, 0, 1, 5, 0, 0, 0]\nclass = l", fillcolor="#61eae8"] ;
551 -> 553 ;
554 [label="gini = 0.0\nsamples = 5\nvalue = [0, 0, 0, 5, 0, 0, 0]\nclass = l", fillcolor="#39e5e2"] ;
553 -> 554 ;
555 [label="gini = 0.0\nsamples = 1\nvalue = [0, 0, 1, 0, 0, 0, 0]\nclass = a", fillcolor="#39e54d"] ;
553 -> 555 ;
556 [label="chlorides <= 0.1\ngini = 0.17\nsamples = 31\nvalue = [0, 0, 3, 28, 0, 0, 0]\nclass = l", fillcolor="#4ee8e5"] ;
550 -> 556 ;
557 [label="citric acid <= 0.5\ngini = 0.07\nsamples = 29\nvalue = [0, 0, 1, 28, 0, 0, 0]\nclass = l", fillcolor="#40e6e3"] ;
556 -> 557 ;
558 [label="gini = 0.0\nsamples = 25\nvalue = [0, 0, 0, 25, 0, 0, 0]\nclass = l", fillcolor="#39e5e2"] ;
557 -> 558 ;
559 [label="chlorides <= 0.05\ngini = 0.38\nsamples = 4\nvalue = [0, 0, 1, 3, 0, 0, 0]\nclass = l", fillcolor="#7beeec"] ;
557 -> 559 ;
560 [label="gini = 0.0\nsamples = 3\nvalue = [0, 0, 0, 3, 0, 0, 0]\nclass = l", fillcolor="#39e5e2"] ;
559 -> 560 ;
561 [label="gini = 0.0\nsamples = 1\nvalue = [0, 0, 1, 0, 0, 0, 0]\nclass = a", fillcolor="#39e54d"] ;
559 -> 561 ;
562 [label="gini = 0.0\nsamples = 2\nvalue = [0, 0, 2, 0, 0, 0, 0]\nclass = a", fillcolor="#39e54d"] ;
556 -> 562 ;
563 [label="fixed acidity <= 6.95\ngini = 0.56\nsamples = 276\nvalue = [1, 11, 153, 98, 13, 0, 0]\nclass = a", fillcolor="#c2f7c8"] ;
549 -> 563 ;
564 [label="pH <= 3.24\ngini = 0.49\nsamples = 177\nvalue = [1, 7, 114, 55, 0, 0, 0]\nclass = a", fillcolor="#9ff2a9"] ;
563 -> 564 ;
565 [label="sulphates <= 0.5\ngini = 0.43\nsamples = 138\nvalue = [0, 4, 98, 36, 0, 0, 0]\nclass = a", fillcolor="#87ef93"] ;
564 -> 565 ;
566 [label="total sulfur dioxide <= 198.5\ngini = 0.33\nsamples = 102\nvalue = [0, 0, 81, 21, 0, 0, 0]\nclass = a", fillcolor="#6cec7b"] ;
565 -> 566 ;
567 [label="free sulfur dioxide <= 75.5\ngini = 0.21\nsamples = 66\nvalue = [0, 0, 58, 8, 0, 0, 0]\nclass = a", fillcolor="#54e966"] ;
566 -> 567 ;
568 [label="total sulfur dioxide <= 140.5\ngini = 0.19\nsamples = 65\nvalue = [0, 0, 58, 7, 0, 0, 0]\nclass = a", fillcolor="#51e862"] ;
567 -> 568 ;
569 [label="pH <= 3.08\ngini = 0.5\nsamples = 4\nvalue = [0, 0, 2, 2, 0, 0, 0]\nclass = a", fillcolor="#ffffff"] ;
568 -> 569 ;
570 [label="gini = 0.0\nsamples = 2\nvalue = [0, 0, 2, 0, 0, 0, 0]\nclass = a", fillcolor="#39e54d"] ;
569 -> 570 ;
571 [label="gini = 0.0\nsamples = 2\nvalue = [0, 0, 0, 2, 0, 0, 0]\nclass = l", fillcolor="#39e5e2"] ;
569 -> 571 ;
572 [label="density <= 1.0\ngini = 0.15\nsamples = 61\nvalue = [0, 0, 56, 5, 0, 0, 0]\nclass = a", fillcolor="#4be75d"] ;
568 -> 572 ;
573 [label="fixed acidity <= 6.75\ngini = 0.04\nsamples = 45\nvalue = [0, 0, 44, 1, 0, 0, 0]\nclass = a", fillcolor="#3de651"] ;
572 -> 573 ;
574 [label="gini = 0.0\nsamples = 37\nvalue = [0, 0, 37, 0, 0, 0, 0]\nclass = a", fillcolor="#39e54d"] ;
573 -> 574 ;
575 [label="free sulfur dioxide <= 54.5\ngini = 0.22\nsamples = 8\nvalue = [0, 0, 7, 1, 0, 0, 0]\nclass = a", fillcolor="#55e966"] ;
573 -> 575 ;
576 [label="gini = 0.0\nsamples = 7\nvalue = [0, 0, 7, 0, 0, 0, 0]\nclass = a", fillcolor="#39e54d"] ;
575 -> 576 ;
577 [label="gini = 0.0\nsamples = 1\nvalue = [0, 0, 0, 1, 0, 0, 0]\nclass = l", fillcolor="#39e5e2"] ;
575 -> 577 ;
578 [label="density <= 1.0\ngini = 0.38\nsamples = 16\nvalue = [0, 0, 12, 4, 0, 0, 0]\nclass = a", fillcolor="#7bee88"] ;
572 -> 578 ;
579 [label="chlorides <= 0.04\ngini = 0.38\nsamples = 4\nvalue = [0, 0, 1, 3, 0, 0, 0]\nclass = l", fillcolor="#7beeec"] ;
578 -> 579 ;
580 [label="gini = 0.0\nsamples = 1\nvalue = [0, 0, 1, 0, 0, 0, 0]\nclass = a", fillcolor="#39e54d"] ;
579 -> 580 ;
581 [label="gini = 0.0\nsamples = 3\nvalue = [0, 0, 0, 3, 0, 0, 0]\nclass = l", fillcolor="#39e5e2"] ;
579 -> 581 ;
582 [label="pH <= 3.17\ngini = 0.15\nsamples = 12\nvalue = [0, 0, 11, 1, 0, 0, 0]\nclass = a", fillcolor="#4be75d"] ;
578 -> 582 ;
583 [label="gini = 0.0\nsamples = 11\nvalue = [0, 0, 11, 0, 0, 0, 0]\nclass = a", fillcolor="#39e54d"] ;
582 -> 583 ;
584 [label="gini = 0.0\nsamples = 1\nvalue = [0, 0, 0, 1, 0, 0, 0]\nclass = l", fillcolor="#39e5e2"] ;
582 -> 584 ;
585 [label="gini = 0.0\nsamples = 1\nvalue = [0, 0, 0, 1, 0, 0, 0]\nclass = l", fillcolor="#39e5e2"] ;
567 -> 585 ;
586 [label="free sulfur dioxide <= 52.5\ngini = 0.46\nsamples = 36\nvalue = [0, 0, 23, 13, 0, 0, 0]\nclass = a", fillcolor="#a9f4b2"] ;
566 -> 586 ;
587 [label="gini = 0.0\nsamples = 4\nvalue = [0, 0, 0, 4, 0, 0, 0]\nclass = l", fillcolor="#39e5e2"] ;
586 -> 587 ;
588 [label="alcohol <= 9.35\ngini = 0.4\nsamples = 32\nvalue = [0, 0, 23, 9, 0, 0, 0]\nclass = a", fillcolor="#86ef93"] ;
586 -> 588 ;
589 [label="free sulfur dioxide <= 53.5\ngini = 0.19\nsamples = 19\nvalue = [0, 0, 17, 2, 0, 0, 0]\nclass = a", fillcolor="#50e862"] ;
588 -> 589 ;
590 [label="gini = 0.0\nsamples = 1\nvalue = [0, 0, 0, 1, 0, 0, 0]\nclass = l", fillcolor="#39e5e2"] ;
589 -> 590 ;
591 [label="citric acid <= 0.19\ngini = 0.1\nsamples = 18\nvalue = [0, 0, 17, 1, 0, 0, 0]\nclass = a", fillcolor="#45e757"] ;
589 -> 591 ;
592 [label="gini = 0.0\nsamples = 1\nvalue = [0, 0, 0, 1, 0, 0, 0]\nclass = l", fillcolor="#39e5e2"] ;
591 -> 592 ;
593 [label="gini = 0.0\nsamples = 17\nvalue = [0, 0, 17, 0, 0, 0, 0]\nclass = a", fillcolor="#39e54d"] ;
591 -> 593 ;
594 [label="chlorides <= 0.05\ngini = 0.5\nsamples = 13\nvalue = [0, 0, 6, 7, 0, 0, 0]\nclass = l", fillcolor="#e3fbfb"] ;
588 -> 594 ;
595 [label="sulphates <= 0.45\ngini = 0.24\nsamples = 7\nvalue = [0, 0, 6, 1, 0, 0, 0]\nclass = a", fillcolor="#5ae96b"] ;
594 -> 595 ;
596 [label="total sulfur dioxide <= 220.5\ngini = 0.5\nsamples = 2\nvalue = [0, 0, 1, 1, 0, 0, 0]\nclass = a", fillcolor="#ffffff"] ;
595 -> 596 ;
597 [label="gini = 0.0\nsamples = 1\nvalue = [0, 0, 1, 0, 0, 0, 0]\nclass = a", fillcolor="#39e54d"] ;
596 -> 597 ;
598 [label="gini = 0.0\nsamples = 1\nvalue = [0, 0, 0, 1, 0, 0, 0]\nclass = l", fillcolor="#39e5e2"] ;
596 -> 598 ;
599 [label="gini = 0.0\nsamples = 5\nvalue = [0, 0, 5, 0, 0, 0, 0]\nclass = a", fillcolor="#39e54d"] ;
595 -> 599 ;
600 [label="gini = 0.0\nsamples = 6\nvalue = [0, 0, 0, 6, 0, 0, 0]\nclass = l", fillcolor="#39e5e2"] ;
594 -> 600 ;
601 [label="density <= 1.0\ngini = 0.59\nsamples = 36\nvalue = [0, 4, 17, 15, 0, 0, 0]\nclass = a", fillcolor="#ecfdee"] ;
565 -> 601 ;
602 [label="residual sugar <= 1.38\ngini = 0.55\nsamples = 20\nvalue = [0, 3, 5, 12, 0, 0, 0]\nclass = l", fillcolor="#a3f3f1"] ;
601 -> 602 ;
603 [label="gini = 0.0\nsamples = 2\nvalue = [0, 0, 2, 0, 0, 0, 0]\nclass = a", fillcolor="#39e54d"] ;
602 -> 603 ;
604 [label="fixed acidity <= 6.75\ngini = 0.5\nsamples = 18\nvalue = [0, 3, 3, 12, 0, 0, 0]\nclass = l", fillcolor="#88efee"] ;
602 -> 604 ;
605 [label="total sulfur dioxide <= 196.0\ngini = 0.36\nsamples = 13\nvalue = [0, 3, 0, 10, 0, 0, 0]\nclass = l", fillcolor="#74edeb"] ;
604 -> 605 ;
606 [label="gini = 0.0\nsamples = 7\nvalue = [0, 0, 0, 7, 0, 0, 0]\nclass = l", fillcolor="#39e5e2"] ;
605 -> 606 ;
607 [label="free sulfur dioxide <= 54.5\ngini = 0.5\nsamples = 6\nvalue = [0, 3, 0, 3, 0, 0, 0]\nclass = u", fillcolor="#ffffff"] ;
605 -> 607 ;
608 [label="gini = 0.0\nsamples = 3\nvalue = [0, 3, 0, 0, 0, 0, 0]\nclass = u", fillcolor="#b7e539"] ;
607 -> 608 ;
609 [label="gini = 0.0\nsamples = 3\nvalue = [0, 0, 0, 3, 0, 0, 0]\nclass = l", fillcolor="#39e5e2"] ;
607 -> 609 ;
610 [label="pH <= 3.17\ngini = 0.48\nsamples = 5\nvalue = [0, 0, 3, 2, 0, 0, 0]\nclass = a", fillcolor="#bdf6c4"] ;
604 -> 610 ;
611 [label="gini = 0.0\nsamples = 2\nvalue = [0, 0, 0, 2, 0, 0, 0]\nclass = l", fillcolor="#39e5e2"] ;
610 -> 611 ;
612 [label="gini = 0.0\nsamples = 3\nvalue = [0, 0, 3, 0, 0, 0, 0]\nclass = a", fillcolor="#39e54d"] ;
610 -> 612 ;
613 [label="chlorides <= 0.07\ngini = 0.4\nsamples = 16\nvalue = [0, 1, 12, 3, 0, 0, 0]\nclass = a", fillcolor="#76ed84"] ;
601 -> 613 ;
614 [label="pH <= 3.2\ngini = 0.32\nsamples = 15\nvalue = [0, 0, 12, 3, 0, 0, 0]\nclass = a", fillcolor="#6aec79"] ;
613 -> 614 ;
615 [label="citric acid <= 0.65\ngini = 0.15\nsamples = 12\nvalue = [0, 0, 11, 1, 0, 0, 0]\nclass = a", fillcolor="#4be75d"] ;
614 -> 615 ;
616 [label="gini = 0.0\nsamples = 11\nvalue = [0, 0, 11, 0, 0, 0, 0]\nclass = a", fillcolor="#39e54d"] ;
615 -> 616 ;
617 [label="gini = 0.0\nsamples = 1\nvalue = [0, 0, 0, 1, 0, 0, 0]\nclass = l", fillcolor="#39e5e2"] ;
615 -> 617 ;
618 [label="density <= 1.0\ngini = 0.44\nsamples = 3\nvalue = [0, 0, 1, 2, 0, 0, 0]\nclass = l", fillcolor="#9cf2f0"] ;
614 -> 618 ;
619 [label="gini = 0.0\nsamples = 1\nvalue = [0, 0, 1, 0, 0, 0, 0]\nclass = a", fillcolor="#39e54d"] ;
618 -> 619 ;
620 [label="gini = 0.0\nsamples = 2\nvalue = [0, 0, 0, 2, 0, 0, 0]\nclass = l", fillcolor="#39e5e2"] ;
618 -> 620 ;
621 [label="gini = 0.0\nsamples = 1\nvalue = [0, 1, 0, 0, 0, 0, 0]\nclass = u", fillcolor="#b7e539"] ;
613 -> 621 ;
622 [label="pH <= 3.28\ngini = 0.59\nsamples = 39\nvalue = [1, 3, 16, 19, 0, 0, 0]\nclass = l", fillcolor="#e5fcfb"] ;
564 -> 622 ;
623 [label="alcohol <= 9.1\ngini = 0.2\nsamples = 18\nvalue = [0, 1, 1, 16, 0, 0, 0]\nclass = l", fillcolor="#50e8e5"] ;
622 -> 623 ;
624 [label="density <= 1.0\ngini = 0.5\nsamples = 2\nvalue = [0, 1, 1, 0, 0, 0, 0]\nclass = u", fillcolor="#ffffff"] ;
623 -> 624 ;
625 [label="gini = 0.0\nsamples = 1\nvalue = [0, 0, 1, 0, 0, 0, 0]\nclass = a", fillcolor="#39e54d"] ;
624 -> 625 ;
626 [label="gini = 0.0\nsamples = 1\nvalue = [0, 1, 0, 0, 0, 0, 0]\nclass = u", fillcolor="#b7e539"] ;
624 -> 626 ;
627 [label="gini = 0.0\nsamples = 16\nvalue = [0, 0, 0, 16, 0, 0, 0]\nclass = l", fillcolor="#39e5e2"] ;
623 -> 627 ;
628 [label="residual sugar <= 2.8\ngini = 0.46\nsamples = 21\nvalue = [1, 2, 15, 3, 0, 0, 0]\nclass = a", fillcolor="#7bee88"] ;
622 -> 628 ;
629 [label="sulphates <= 0.59\ngini = 0.44\nsamples = 3\nvalue = [1, 2, 0, 0, 0, 0, 0]\nclass = u", fillcolor="#dbf29c"] ;
628 -> 629 ;
630 [label="gini = 0.0\nsamples = 2\nvalue = [0, 2, 0, 0, 0, 0, 0]\nclass = u", fillcolor="#b7e539"] ;
629 -> 630 ;
631 [label="gini = 0.0\nsamples = 1\nvalue = [1, 0, 0, 0, 0, 0, 0]\nclass = q", fillcolor="#e58139"] ;
629 -> 631 ;
632 [label="pH <= 3.36\ngini = 0.28\nsamples = 18\nvalue = [0, 0, 15, 3, 0, 0, 0]\nclass = a", fillcolor="#61ea71"] ;
628 -> 632 ;
633 [label="gini = 0.0\nsamples = 13\nvalue = [0, 0, 13, 0, 0, 0, 0]\nclass = a", fillcolor="#39e54d"] ;
632 -> 633 ;
634 [label="free sulfur dioxide <= 44.5\ngini = 0.48\nsamples = 5\nvalue = [0, 0, 2, 3, 0, 0, 0]\nclass = l", fillcolor="#bdf6f5"] ;
632 -> 634 ;
635 [label="gini = 0.0\nsamples = 3\nvalue = [0, 0, 0, 3, 0, 0, 0]\nclass = l", fillcolor="#39e5e2"] ;
634 -> 635 ;
636 [label="gini = 0.0\nsamples = 2\nvalue = [0, 0, 2, 0, 0, 0, 0]\nclass = a", fillcolor="#39e54d"] ;
634 -> 636 ;
637 [label="residual sugar <= 13.35\ngini = 0.64\nsamples = 99\nvalue = [0, 4, 39, 43, 13, 0, 0]\nclass = l", fillcolor="#f2fdfd"] ;
563 -> 637 ;
638 [label="citric acid <= 0.21\ngini = 0.53\nsamples = 55\nvalue = [0, 2, 18, 33, 2, 0, 0]\nclass = l", fillcolor="#aff4f3"] ;
637 -> 638 ;
639 [label="gini = 0.0\nsamples = 5\nvalue = [0, 0, 5, 0, 0, 0, 0]\nclass = a", fillcolor="#39e54d"] ;
638 -> 639 ;
640 [label="sulphates <= 0.39\ngini = 0.49\nsamples = 50\nvalue = [0, 2, 13, 33, 2, 0, 0]\nclass = l", fillcolor="#94f1ef"] ;
638 -> 640 ;
641 [label="gini = 0.0\nsamples = 4\nvalue = [0, 0, 4, 0, 0, 0, 0]\nclass = a", fillcolor="#39e54d"] ;
640 -> 641 ;
642 [label="density <= 1.0\ngini = 0.44\nsamples = 46\nvalue = [0, 2, 9, 33, 2, 0, 0]\nclass = l", fillcolor="#7feeec"] ;
640 -> 642 ;
643 [label="total sulfur dioxide <= 148.5\ngini = 0.18\nsamples = 30\nvalue = [0, 0, 3, 27, 0, 0, 0]\nclass = l", fillcolor="#4fe8e5"] ;
642 -> 643 ;
644 [label="gini = 0.0\nsamples = 2\nvalue = [0, 0, 2, 0, 0, 0, 0]\nclass = a", fillcolor="#39e54d"] ;
643 -> 644 ;
645 [label="total sulfur dioxide <= 225.0\ngini = 0.07\nsamples = 28\nvalue = [0, 0, 1, 27, 0, 0, 0]\nclass = l", fillcolor="#40e6e3"] ;
643 -> 645 ;
646 [label="gini = 0.0\nsamples = 25\nvalue = [0, 0, 0, 25, 0, 0, 0]\nclass = l", fillcolor="#39e5e2"] ;
645 -> 646 ;
647 [label="volatile acidity <= 0.27\ngini = 0.44\nsamples = 3\nvalue = [0, 0, 1, 2, 0, 0, 0]\nclass = l", fillcolor="#9cf2f0"] ;
645 -> 647 ;
648 [label="gini = 0.0\nsamples = 2\nvalue = [0, 0, 0, 2, 0, 0, 0]\nclass = l", fillcolor="#39e5e2"] ;
647 -> 648 ;
649 [label="gini = 0.0\nsamples = 1\nvalue = [0, 0, 1, 0, 0, 0, 0]\nclass = a", fillcolor="#39e54d"] ;
647 -> 649 ;
650 [label="citric acid <= 0.56\ngini = 0.69\nsamples = 16\nvalue = [0, 2, 6, 6, 2, 0, 0]\nclass = a", fillcolor="#ffffff"] ;
642 -> 650 ;
651 [label="chlorides <= 0.05\ngini = 0.49\nsamples = 9\nvalue = [0, 0, 1, 6, 2, 0, 0]\nclass = l", fillcolor="#8ef0ee"] ;
650 -> 651 ;
652 [label="fixed acidity <= 8.35\ngini = 0.24\nsamples = 7\nvalue = [0, 0, 1, 6, 0, 0, 0]\nclass = l", fillcolor="#5ae9e7"] ;
651 -> 652 ;
653 [label="gini = 0.0\nsamples = 6\nvalue = [0, 0, 0, 6, 0, 0, 0]\nclass = l", fillcolor="#39e5e2"] ;
652 -> 653 ;
654 [label="gini = 0.0\nsamples = 1\nvalue = [0, 0, 1, 0, 0, 0, 0]\nclass = a", fillcolor="#39e54d"] ;
652 -> 654 ;
655 [label="gini = 0.0\nsamples = 2\nvalue = [0, 0, 0, 0, 2, 0, 0]\nclass = i", fillcolor="#3956e5"] ;
651 -> 655 ;
656 [label="residual sugar <= 11.88\ngini = 0.41\nsamples = 7\nvalue = [0, 2, 5, 0, 0, 0, 0]\nclass = a", fillcolor="#88ef94"] ;
650 -> 656 ;
657 [label="gini = 0.0\nsamples = 2\nvalue = [0, 2, 0, 0, 0, 0, 0]\nclass = u", fillcolor="#b7e539"] ;
656 -> 657 ;
658 [label="gini = 0.0\nsamples = 5\nvalue = [0, 0, 5, 0, 0, 0, 0]\nclass = a", fillcolor="#39e54d"] ;
656 -> 658 ;
659 [label="residual sugar <= 14.35\ngini = 0.66\nsamples = 44\nvalue = [0, 2, 21, 10, 11, 0, 0]\nclass = a", fillcolor="#c3f7c9"] ;
637 -> 659 ;
660 [label="gini = 0.0\nsamples = 11\nvalue = [0, 0, 11, 0, 0, 0, 0]\nclass = a", fillcolor="#39e54d"] ;
659 -> 660 ;
661 [label="residual sugar <= 14.5\ngini = 0.7\nsamples = 33\nvalue = [0, 2, 10, 10, 11, 0, 0]\nclass = i", fillcolor="#f6f8fe"] ;
659 -> 661 ;
662 [label="gini = 0.0\nsamples = 8\nvalue = [0, 0, 0, 0, 8, 0, 0]\nclass = i", fillcolor="#3956e5"] ;
661 -> 662 ;
663 [label="chlorides <= 0.05\ngini = 0.66\nsamples = 25\nvalue = [0, 2, 10, 10, 3, 0, 0]\nclass = a", fillcolor="#ffffff"] ;
661 -> 663 ;
664 [label="free sulfur dioxide <= 41.75\ngini = 0.54\nsamples = 16\nvalue = [0, 0, 3, 10, 3, 0, 0]\nclass = l", fillcolor="#94f1ef"] ;
663 -> 664 ;
665 [label="pH <= 3.02\ngini = 0.5\nsamples = 4\nvalue = [0, 0, 2, 0, 2, 0, 0]\nclass = a", fillcolor="#ffffff"] ;
664 -> 665 ;
666 [label="gini = 0.0\nsamples = 2\nvalue = [0, 0, 2, 0, 0, 0, 0]\nclass = a", fillcolor="#39e54d"] ;
665 -> 666 ;
667 [label="gini = 0.0\nsamples = 2\nvalue = [0, 0, 0, 0, 2, 0, 0]\nclass = i", fillcolor="#3956e5"] ;
665 -> 667 ;
668 [label="chlorides <= 0.04\ngini = 0.29\nsamples = 12\nvalue = [0, 0, 1, 10, 1, 0, 0]\nclass = l", fillcolor="#5deae7"] ;
664 -> 668 ;
669 [label="residual sugar <= 15.45\ngini = 0.5\nsamples = 2\nvalue = [0, 0, 1, 0, 1, 0, 0]\nclass = a", fillcolor="#ffffff"] ;
668 -> 669 ;
670 [label="gini = 0.0\nsamples = 1\nvalue = [0, 0, 0, 0, 1, 0, 0]\nclass = i", fillcolor="#3956e5"] ;
669 -> 670 ;
671 [label="gini = 0.0\nsamples = 1\nvalue = [0, 0, 1, 0, 0, 0, 0]\nclass = a", fillcolor="#39e54d"] ;
669 -> 671 ;
672 [label="gini = 0.0\nsamples = 10\nvalue = [0, 0, 0, 10, 0, 0, 0]\nclass = l", fillcolor="#39e5e2"] ;
668 -> 672 ;
673 [label="sulphates <= 0.47\ngini = 0.35\nsamples = 9\nvalue = [0, 2, 7, 0, 0, 0, 0]\nclass = a", fillcolor="#72ec80"] ;
663 -> 673 ;
674 [label="gini = 0.0\nsamples = 6\nvalue = [0, 0, 6, 0, 0, 0, 0]\nclass = a", fillcolor="#39e54d"] ;
673 -> 674 ;
675 [label="volatile acidity <= 0.28\ngini = 0.44\nsamples = 3\nvalue = [0, 2, 1, 0, 0, 0, 0]\nclass = u", fillcolor="#dbf29c"] ;
673 -> 675 ;
676 [label="gini = 0.0\nsamples = 1\nvalue = [0, 0, 1, 0, 0, 0, 0]\nclass = a", fillcolor="#39e54d"] ;
675 -> 676 ;
677 [label="gini = 0.0\nsamples = 2\nvalue = [0, 2, 0, 0, 0, 0, 0]\nclass = u", fillcolor="#b7e539"] ;
675 -> 677 ;
678 [label="pH <= 3.06\ngini = 0.45\nsamples = 397\nvalue = [3, 27, 281, 82, 4, 0, 0]\nclass = a", fillcolor="#82ef8f"] ;
536 -> 678 ;
679 [label="alcohol <= 8.5\ngini = 0.21\nsamples = 94\nvalue = [1, 2, 83, 8, 0, 0, 0]\nclass = a", fillcolor="#52e864"] ;
678 -> 679 ;
680 [label="gini = 0.0\nsamples = 1\nvalue = [0, 1, 0, 0, 0, 0, 0]\nclass = u", fillcolor="#b7e539"] ;
679 -> 680 ;
681 [label="pH <= 2.81\ngini = 0.2\nsamples = 93\nvalue = [1, 1, 83, 8, 0, 0, 0]\nclass = a", fillcolor="#50e862"] ;
679 -> 681 ;
682 [label="gini = 0.0\nsamples = 1\nvalue = [0, 0, 0, 1, 0, 0, 0]\nclass = l", fillcolor="#39e5e2"] ;
681 -> 682 ;
683 [label="volatile acidity <= 0.68\ngini = 0.18\nsamples = 92\nvalue = [1, 1, 83, 7, 0, 0, 0]\nclass = a", fillcolor="#4ee860"] ;
681 -> 683 ;
684 [label="density <= 1.0\ngini = 0.16\nsamples = 91\nvalue = [1, 1, 83, 6, 0, 0, 0]\nclass = a", fillcolor="#4ce75e"] ;
683 -> 684 ;
685 [label="sulphates <= 0.57\ngini = 0.15\nsamples = 90\nvalue = [1, 1, 83, 5, 0, 0, 0]\nclass = a", fillcolor="#49e75c"] ;
684 -> 685 ;
686 [label="alcohol <= 8.65\ngini = 0.06\nsamples = 65\nvalue = [0, 1, 63, 1, 0, 0, 0]\nclass = a", fillcolor="#3fe653"] ;
685 -> 686 ;
687 [label="chlorides <= 0.05\ngini = 0.32\nsamples = 5\nvalue = [0, 1, 4, 0, 0, 0, 0]\nclass = a", fillcolor="#6aec79"] ;
686 -> 687 ;
688 [label="gini = 0.0\nsamples = 4\nvalue = [0, 0, 4, 0, 0, 0, 0]\nclass = a", fillcolor="#39e54d"] ;
687 -> 688 ;
689 [label="gini = 0.0\nsamples = 1\nvalue = [0, 1, 0, 0, 0, 0, 0]\nclass = u", fillcolor="#b7e539"] ;
687 -> 689 ;
690 [label="citric acid <= 0.2\ngini = 0.03\nsamples = 60\nvalue = [0, 0, 59, 1, 0, 0, 0]\nclass = a", fillcolor="#3ce550"] ;
686 -> 690 ;
691 [label="citric acid <= 0.19\ngini = 0.28\nsamples = 6\nvalue = [0, 0, 5, 1, 0, 0, 0]\nclass = a", fillcolor="#61ea71"] ;
690 -> 691 ;
692 [label="gini = 0.0\nsamples = 5\nvalue = [0, 0, 5, 0, 0, 0, 0]\nclass = a", fillcolor="#39e54d"] ;
691 -> 692 ;
693 [label="gini = 0.0\nsamples = 1\nvalue = [0, 0, 0, 1, 0, 0, 0]\nclass = l", fillcolor="#39e5e2"] ;
691 -> 693 ;
694 [label="gini = 0.0\nsamples = 54\nvalue = [0, 0, 54, 0, 0, 0, 0]\nclass = a", fillcolor="#39e54d"] ;
690 -> 694 ;
695 [label="fixed acidity <= 7.15\ngini = 0.33\nsamples = 25\nvalue = [1, 0, 20, 4, 0, 0, 0]\nclass = a", fillcolor="#68eb77"] ;
685 -> 695 ;
696 [label="fixed acidity <= 6.85\ngini = 0.38\nsamples = 4\nvalue = [0, 0, 1, 3, 0, 0, 0]\nclass = l", fillcolor="#7beeec"] ;
695 -> 696 ;
697 [label="gini = 0.0\nsamples = 1\nvalue = [0, 0, 1, 0, 0, 0, 0]\nclass = a", fillcolor="#39e54d"] ;
696 -> 697 ;
698 [label="gini = 0.0\nsamples = 3\nvalue = [0, 0, 0, 3, 0, 0, 0]\nclass = l", fillcolor="#39e5e2"] ;
696 -> 698 ;
699 [label="chlorides <= 0.21\ngini = 0.18\nsamples = 21\nvalue = [1, 0, 19, 1, 0, 0, 0]\nclass = a", fillcolor="#4de85f"] ;
695 -> 699 ;
700 [label="density <= 1.0\ngini = 0.09\nsamples = 20\nvalue = [0, 0, 19, 1, 0, 0, 0]\nclass = a", fillcolor="#43e656"] ;
699 -> 700 ;
701 [label="gini = 0.0\nsamples = 1\nvalue = [0, 0, 0, 1, 0, 0, 0]\nclass = l", fillcolor="#39e5e2"] ;
700 -> 701 ;
702 [label="gini = 0.0\nsamples = 19\nvalue = [0, 0, 19, 0, 0, 0, 0]\nclass = a", fillcolor="#39e54d"] ;
700 -> 702 ;
703 [label="gini = 0.0\nsamples = 1\nvalue = [1, 0, 0, 0, 0, 0, 0]\nclass = q", fillcolor="#e58139"] ;
699 -> 703 ;
704 [label="gini = 0.0\nsamples = 1\nvalue = [0, 0, 0, 1, 0, 0, 0]\nclass = l", fillcolor="#39e5e2"] ;
684 -> 704 ;
705 [label="gini = 0.0\nsamples = 1\nvalue = [0, 0, 0, 1, 0, 0, 0]\nclass = l", fillcolor="#39e5e2"] ;
683 -> 705 ;
706 [label="density <= 1.0\ngini = 0.51\nsamples = 303\nvalue = [2, 25, 198, 74, 4, 0, 0]\nclass = a", fillcolor="#94f19f"] ;
678 -> 706 ;
707 [label="volatile acidity <= 0.5\ngini = 0.46\nsamples = 222\nvalue = [2, 20, 156, 42, 2, 0, 0]\nclass = a", fillcolor="#82ef8e"] ;
706 -> 707 ;
708 [label="density <= 0.99\ngini = 0.42\nsamples = 186\nvalue = [1, 10, 137, 36, 2, 0, 0]\nclass = a", fillcolor="#7aed87"] ;
707 -> 708 ;
709 [label="free sulfur dioxide <= 17.5\ngini = 0.57\nsamples = 7\nvalue = [0, 1, 2, 4, 0, 0, 0]\nclass = l", fillcolor="#b0f5f3"] ;
708 -> 709 ;
710 [label="alcohol <= 9.45\ngini = 0.5\nsamples = 2\nvalue = [0, 1, 1, 0, 0, 0, 0]\nclass = u", fillcolor="#ffffff"] ;
709 -> 710 ;
711 [label="gini = 0.0\nsamples = 1\nvalue = [0, 0, 1, 0, 0, 0, 0]\nclass = a", fillcolor="#39e54d"] ;
710 -> 711 ;
712 [label="gini = 0.0\nsamples = 1\nvalue = [0, 1, 0, 0, 0, 0, 0]\nclass = u", fillcolor="#b7e539"] ;
710 -> 712 ;
713 [label="sulphates <= 0.43\ngini = 0.32\nsamples = 5\nvalue = [0, 0, 1, 4, 0, 0, 0]\nclass = l", fillcolor="#6aece9"] ;
709 -> 713 ;
714 [label="gini = 0.0\nsamples = 1\nvalue = [0, 0, 1, 0, 0, 0, 0]\nclass = a", fillcolor="#39e54d"] ;
713 -> 714 ;
715 [label="gini = 0.0\nsamples = 4\nvalue = [0, 0, 0, 4, 0, 0, 0]\nclass = l", fillcolor="#39e5e2"] ;
713 -> 715 ;
716 [label="chlorides <= 0.1\ngini = 0.4\nsamples = 179\nvalue = [1, 9, 135, 32, 2, 0, 0]\nclass = a", fillcolor="#74ed82"] ;
708 -> 716 ;
717 [label="total sulfur dioxide <= 96.5\ngini = 0.37\nsamples = 164\nvalue = [1, 9, 127, 25, 2, 0, 0]\nclass = a", fillcolor="#6eec7c"] ;
716 -> 717 ;
718 [label="citric acid <= 0.15\ngini = 0.67\nsamples = 6\nvalue = [0, 2, 2, 2, 0, 0, 0]\nclass = u", fillcolor="#ffffff"] ;
717 -> 718 ;
719 [label="gini = 0.0\nsamples = 2\nvalue = [0, 0, 2, 0, 0, 0, 0]\nclass = a", fillcolor="#39e54d"] ;
718 -> 719 ;
720 [label="alcohol <= 9.45\ngini = 0.5\nsamples = 4\nvalue = [0, 2, 0, 2, 0, 0, 0]\nclass = u", fillcolor="#ffffff"] ;
718 -> 720 ;
721 [label="gini = 0.0\nsamples = 2\nvalue = [0, 0, 0, 2, 0, 0, 0]\nclass = l", fillcolor="#39e5e2"] ;
720 -> 721 ;
722 [label="gini = 0.0\nsamples = 2\nvalue = [0, 2, 0, 0, 0, 0, 0]\nclass = u", fillcolor="#b7e539"] ;
720 -> 722 ;
723 [label="citric acid <= 0.23\ngini = 0.35\nsamples = 158\nvalue = [1, 7, 125, 23, 2, 0, 0]\nclass = a", fillcolor="#69eb79"] ;
717 -> 723 ;
724 [label="pH <= 3.07\ngini = 0.19\nsamples = 49\nvalue = [0, 3, 44, 2, 0, 0, 0]\nclass = a", fillcolor="#4fe860"] ;
723 -> 724 ;
725 [label="gini = 0.0\nsamples = 2\nvalue = [0, 2, 0, 0, 0, 0, 0]\nclass = u", fillcolor="#b7e539"] ;
724 -> 725 ;
726 [label="density <= 1.0\ngini = 0.12\nsamples = 47\nvalue = [0, 1, 44, 2, 0, 0, 0]\nclass = a", fillcolor="#46e759"] ;
724 -> 726 ;
727 [label="free sulfur dioxide <= 54.0\ngini = 0.08\nsamples = 46\nvalue = [0, 0, 44, 2, 0, 0, 0]\nclass = a", fillcolor="#42e655"] ;
726 -> 727 ;
728 [label="gini = 0.0\nsamples = 37\nvalue = [0, 0, 37, 0, 0, 0, 0]\nclass = a", fillcolor="#39e54d"] ;
727 -> 728 ;
729 [label="fixed acidity <= 6.75\ngini = 0.35\nsamples = 9\nvalue = [0, 0, 7, 2, 0, 0, 0]\nclass = a", fillcolor="#72ec80"] ;
727 -> 729 ;
730 [label="gini = 0.0\nsamples = 2\nvalue = [0, 0, 0, 2, 0, 0, 0]\nclass = l", fillcolor="#39e5e2"] ;
729 -> 730 ;
731 [label="gini = 0.0\nsamples = 7\nvalue = [0, 0, 7, 0, 0, 0, 0]\nclass = a", fillcolor="#39e54d"] ;
729 -> 731 ;
732 [label="gini = 0.0\nsamples = 1\nvalue = [0, 1, 0, 0, 0, 0, 0]\nclass = u", fillcolor="#b7e539"] ;
726 -> 732 ;
733 [label="sulphates <= 0.44\ngini = 0.41\nsamples = 109\nvalue = [1, 4, 81, 21, 2, 0, 0]\nclass = a", fillcolor="#78ed86"] ;
723 -> 733 ;
734 [label="alcohol <= 9.05\ngini = 0.13\nsamples = 29\nvalue = [0, 1, 27, 1, 0, 0, 0]\nclass = a", fillcolor="#47e75a"] ;
733 -> 734 ;
735 [label="residual sugar <= 7.45\ngini = 0.5\nsamples = 6\nvalue = [0, 1, 4, 1, 0, 0, 0]\nclass = a", fillcolor="#88ef94"] ;
734 -> 735 ;
736 [label="volatile acidity <= 0.33\ngini = 0.5\nsamples = 2\nvalue = [0, 1, 0, 1, 0, 0, 0]\nclass = u", fillcolor="#ffffff"] ;
735 -> 736 ;
737 [label="gini = 0.0\nsamples = 1\nvalue = [0, 1, 0, 0, 0, 0, 0]\nclass = u", fillcolor="#b7e539"] ;
736 -> 737 ;
738 [label="gini = 0.0\nsamples = 1\nvalue = [0, 0, 0, 1, 0, 0, 0]\nclass = l", fillcolor="#39e5e2"] ;
736 -> 738 ;
739 [label="gini = 0.0\nsamples = 4\nvalue = [0, 0, 4, 0, 0, 0, 0]\nclass = a", fillcolor="#39e54d"] ;
735 -> 739 ;
740 [label="gini = 0.0\nsamples = 23\nvalue = [0, 0, 23, 0, 0, 0, 0]\nclass = a", fillcolor="#39e54d"] ;
734 -> 740 ;
741 [label="free sulfur dioxide <= 35.5\ngini = 0.48\nsamples = 80\nvalue = [1, 3, 54, 20, 2, 0, 0]\nclass = a", fillcolor="#8ff09a"] ;
733 -> 741 ;
742 [label="chlorides <= 0.05\ngini = 0.61\nsamples = 37\nvalue = [1, 2, 19, 13, 2, 0, 0]\nclass = a", fillcolor="#cef8d3"] ;
741 -> 742 ;
743 [label="total sulfur dioxide <= 128.5\ngini = 0.28\nsamples = 12\nvalue = [0, 2, 10, 0, 0, 0, 0]\nclass = a", fillcolor="#61ea71"] ;
742 -> 743 ;
744 [label="residual sugar <= 8.85\ngini = 0.44\nsamples = 3\nvalue = [0, 2, 1, 0, 0, 0, 0]\nclass = u", fillcolor="#dbf29c"] ;
743 -> 744 ;
745 [label="gini = 0.0\nsamples = 2\nvalue = [0, 2, 0, 0, 0, 0, 0]\nclass = u", fillcolor="#b7e539"] ;
744 -> 745 ;
746 [label="gini = 0.0\nsamples = 1\nvalue = [0, 0, 1, 0, 0, 0, 0]\nclass = a", fillcolor="#39e54d"] ;
744 -> 746 ;
747 [label="gini = 0.0\nsamples = 9\nvalue = [0, 0, 9, 0, 0, 0, 0]\nclass = a", fillcolor="#39e54d"] ;
743 -> 747 ;
748 [label="density <= 1.0\ngini = 0.59\nsamples = 25\nvalue = [1, 0, 9, 13, 2, 0, 0]\nclass = l", fillcolor="#cef8f8"] ;
742 -> 748 ;
749 [label="alcohol <= 9.2\ngini = 0.52\nsamples = 14\nvalue = [0, 0, 9, 3, 2, 0, 0]\nclass = a", fillcolor="#93f19e"] ;
748 -> 749 ;
750 [label="chlorides <= 0.05\ngini = 0.67\nsamples = 6\nvalue = [0, 0, 2, 2, 2, 0, 0]\nclass = a", fillcolor="#ffffff"] ;
749 -> 750 ;
751 [label="gini = 0.0\nsamples = 2\nvalue = [0, 0, 2, 0, 0, 0, 0]\nclass = a", fillcolor="#39e54d"] ;
750 -> 751 ;
752 [label="citric acid <= 0.29\ngini = 0.5\nsamples = 4\nvalue = [0, 0, 0, 2, 2, 0, 0]\nclass = l", fillcolor="#ffffff"] ;
750 -> 752 ;
753 [label="gini = 0.0\nsamples = 2\nvalue = [0, 0, 0, 0, 2, 0, 0]\nclass = i", fillcolor="#3956e5"] ;
752 -> 753 ;
754 [label="gini = 0.0\nsamples = 2\nvalue = [0, 0, 0, 2, 0, 0, 0]\nclass = l", fillcolor="#39e5e2"] ;
752 -> 754 ;
755 [label="pH <= 3.11\ngini = 0.22\nsamples = 8\nvalue = [0, 0, 7, 1, 0, 0, 0]\nclass = a", fillcolor="#55e966"] ;
749 -> 755 ;
756 [label="gini = 0.0\nsamples = 1\nvalue = [0, 0, 0, 1, 0, 0, 0]\nclass = l", fillcolor="#39e5e2"] ;
755 -> 756 ;
757 [label="gini = 0.0\nsamples = 7\nvalue = [0, 0, 7, 0, 0, 0, 0]\nclass = a", fillcolor="#39e54d"] ;
755 -> 757 ;
758 [label="residual sugar <= 5.4\ngini = 0.17\nsamples = 11\nvalue = [1, 0, 0, 10, 0, 0, 0]\nclass = l", fillcolor="#4de8e5"] ;
748 -> 758 ;
759 [label="gini = 0.0\nsamples = 1\nvalue = [1, 0, 0, 0, 0, 0, 0]\nclass = q", fillcolor="#e58139"] ;
758 -> 759 ;
760 [label="gini = 0.0\nsamples = 10\nvalue = [0, 0, 0, 10, 0, 0, 0]\nclass = l", fillcolor="#39e5e2"] ;
758 -> 760 ;
761 [label="chlorides <= 0.04\ngini = 0.31\nsamples = 43\nvalue = [0, 1, 35, 7, 0, 0, 0]\nclass = a", fillcolor="#65eb75"] ;
741 -> 761 ;
762 [label="fixed acidity <= 7.0\ngini = 0.57\nsamples = 13\nvalue = [0, 1, 6, 6, 0, 0, 0]\nclass = a", fillcolor="#ffffff"] ;
761 -> 762 ;
763 [label="residual sugar <= 7.2\ngini = 0.24\nsamples = 7\nvalue = [0, 0, 6, 1, 0, 0, 0]\nclass = a", fillcolor="#5ae96b"] ;
762 -> 763 ;
764 [label="gini = 0.0\nsamples = 1\nvalue = [0, 0, 0, 1, 0, 0, 0]\nclass = l", fillcolor="#39e5e2"] ;
763 -> 764 ;
765 [label="gini = 0.0\nsamples = 6\nvalue = [0, 0, 6, 0, 0, 0, 0]\nclass = a", fillcolor="#39e54d"] ;
763 -> 765 ;
766 [label="pH <= 3.08\ngini = 0.28\nsamples = 6\nvalue = [0, 1, 0, 5, 0, 0, 0]\nclass = l", fillcolor="#61eae8"] ;
762 -> 766 ;
767 [label="gini = 0.0\nsamples = 1\nvalue = [0, 1, 0, 0, 0, 0, 0]\nclass = u", fillcolor="#b7e539"] ;
766 -> 767 ;
768 [label="gini = 0.0\nsamples = 5\nvalue = [0, 0, 0, 5, 0, 0, 0]\nclass = l", fillcolor="#39e5e2"] ;
766 -> 768 ;
769 [label="density <= 1.0\ngini = 0.06\nsamples = 30\nvalue = [0, 0, 29, 1, 0, 0, 0]\nclass = a", fillcolor="#40e653"] ;
761 -> 769 ;
770 [label="gini = 0.0\nsamples = 1\nvalue = [0, 0, 0, 1, 0, 0, 0]\nclass = l", fillcolor="#39e5e2"] ;
769 -> 770 ;
771 [label="gini = 0.0\nsamples = 29\nvalue = [0, 0, 29, 0, 0, 0, 0]\nclass = a", fillcolor="#39e54d"] ;
769 -> 771 ;
772 [label="residual sugar <= 7.05\ngini = 0.5\nsamples = 15\nvalue = [0, 0, 8, 7, 0, 0, 0]\nclass = a", fillcolor="#e6fce9"] ;
716 -> 772 ;
773 [label="fixed acidity <= 7.15\ngini = 0.44\nsamples = 12\nvalue = [0, 0, 8, 4, 0, 0, 0]\nclass = a", fillcolor="#9cf2a6"] ;
772 -> 773 ;
774 [label="total sulfur dioxide <= 167.0\ngini = 0.32\nsamples = 10\nvalue = [0, 0, 8, 2, 0, 0, 0]\nclass = a", fillcolor="#6aec79"] ;
773 -> 774 ;
775 [label="gini = 0.0\nsamples = 7\nvalue = [0, 0, 7, 0, 0, 0, 0]\nclass = a", fillcolor="#39e54d"] ;
774 -> 775 ;
776 [label="total sulfur dioxide <= 182.0\ngini = 0.44\nsamples = 3\nvalue = [0, 0, 1, 2, 0, 0, 0]\nclass = l", fillcolor="#9cf2f0"] ;
774 -> 776 ;
777 [label="gini = 0.0\nsamples = 2\nvalue = [0, 0, 0, 2, 0, 0, 0]\nclass = l", fillcolor="#39e5e2"] ;
776 -> 777 ;
778 [label="gini = 0.0\nsamples = 1\nvalue = [0, 0, 1, 0, 0, 0, 0]\nclass = a", fillcolor="#39e54d"] ;
776 -> 778 ;
779 [label="gini = 0.0\nsamples = 2\nvalue = [0, 0, 0, 2, 0, 0, 0]\nclass = l", fillcolor="#39e5e2"] ;
773 -> 779 ;
780 [label="gini = 0.0\nsamples = 3\nvalue = [0, 0, 0, 3, 0, 0, 0]\nclass = l", fillcolor="#39e5e2"] ;
772 -> 780 ;
781 [label="volatile acidity <= 0.52\ngini = 0.62\nsamples = 36\nvalue = [1, 10, 19, 6, 0, 0, 0]\nclass = a", fillcolor="#baf6c1"] ;
707 -> 781 ;
